2708 128
0 -0.34937555 0.13328852 0.038733944 0.7781124 -0.17282526 -0.41700384 -1.2375634 0.16725834 -0.359128 0.4550366 0.46614718 -0.32602328 0.19547766 0.05939455 0.62265277 0.29317573 0.61428136 1.0104998 -0.26439247 -0.06979375 -0.1952334 -0.4060965 0.12075598 0.1630451 0.47423166 -0.5002089 0.064180195 -0.07761325 0.50072944 -0.7710765 -0.12214269 0.34601966 0.09838268 -0.6086309 0.009051256 -0.53204745 -0.30948424 0.45426613 0.43339005 -0.015948148 -0.30359694 -0.123618685 0.417126 -0.07191928 -0.005952622 -0.56964284 -0.28970522 0.0075829844 -0.07767836 -0.09449674 0.04980664 0.53406644 -0.20237033 -0.3943063 -0.24784493 0.26168403 -0.23269638 0.1707069 -0.86058146 -0.32977754 0.16730234 0.2216769 0.7552044 -0.1724491 0.52979994 -0.2332109 -0.26206228 -0.2545738 0.58038557 -0.0073501193 0.400047 -0.27743262 0.2778422 -0.13927135 -0.13123102 0.040919714 -0.631693 -0.13741474 -0.4044077 -0.15984802 -0.21736209 -0.5467388 -0.22877851 0.16828343 0.27156255 0.18103765 0.17255771 0.24971253 0.23706171 0.005020726 -0.8839413 -0.6649675 0.30087113 0.2902406 0.12305967 0.64660794 0.2521848 0.079236865 -0.18720655 -0.1629489 0.1991163 0.4868916 0.24878548 0.94956386 -0.15766354 -0.119100034 -0.46137917 0.35818812 -0.01520418 -0.14806393 -0.5369945 0.113515146 0.31107762 -0.025749419 -0.15532157 -0.47998425 0.114515185 0.22052942 -0.09706059 0.14361103 0.21599938 0.041348554 0.51568705 0.24299937 0.14964257 -0.18905255 0.6469507 -0.461777
633 -0.08731542 -0.011775436 -0.1675183 0.6178913 -0.30386648 -0.29603612 -1.1003795 0.2323117 -0.3559297 0.3245765 0.23770086 -0.35428575 -0.050000418 -0.17399292 0.4048223 0.4573134 0.48469383 0.9575784 -0.2210976 -0.25053233 -0.18293498 -0.3008667 0.051939324 0.18242215 0.32915232 -0.3409904 -0.17601302 -0.16540396 0.3842576 -0.503586 -0.058472537 0.21831697 -0.006531864 -0.48927718 -0.0045392015 -0.35210127 -0.39014 0.3414315 0.3637347 0.18847266 -0.37901706 -0.17804278 0.4678695 -0.08180433 -0.15921518 -0.41583386 -0.30682793 -0.042816244 0.2376415 -0.12821479 -0.17117627 0.42884052 -0.04034397 -0.22733119 -0.2354351 0.25463235 -0.068287715 0.14972131 -0.78027064 -0.09340737 0.090011746 0.30269113 0.49520522 -0.06100914 0.5776455 -0.1011996 -0.26124135 -0.21766405 0.48744267 -0.10022113 0.18127702 -0.22419597 0.058172647 -0.15499823 -0.27952492 0.03539978 -0.49581772 -0.32384175 -0.299839 -0.072533354 -0.10255303 -0.4530584 -0.26701736 -0.09458767 0.362952 0.23385756 0.121336184 0.1552566 0.08975187 0.0049414206 -0.5043289 -0.6565429 0.18910718 0.066429175 0.36763516 0.4978208 0.2951657 0.12869813 -0.08721243 -0.029290695 -0.1286887 0.3117913 0.11543717 0.49737006 0.03923618 -0.05846467 -0.33637023 0.26119187 -0.17126468 -0.017755019 -0.47437093 0.20737919 0.19195136 0.019220462 0.023116041 -0.3732894 0.101717494 0.23878646 -0.24888454 0.019651331 0.3242437 0.037626773 0.3907951 0.3702795 0.23020397 -0.26418632 0.43456417 -0.40895537
1862 -0.24195826 0.18301313 0.062464174 0.6993892 -0.21224228 -0.45391712 -1.1630441 0.14328608 -0.33374095 0.4612666 0.3928202 -0.3909268 0.122688666 0.21128292 0.5743132 0.29401502 0.5187251 0.8300659 -0.1585275 -0.14892587 -0.13993953 -0.37912664 0.20763336 0.21534999 0.50182915 -0.43600228 -0.0016737499 -0.023793893 0.41314992 -0.80089587 -0.116789855 0.37124944 -0.053445328 -0.55901414 0.08222675 -0.53697956 -0.25459504 0.45623037 0.34311733 -0.11284247 -0.2930131 -0.07757849 0.37252071 -0.021910066 -0.030392053 -0.4192715 -0.25145173 0.16957407 0.07590481 -0.26664537 -0.046490215 0.44427943 -0.20884967 -0.3027027 -0.06280488 0.3918075 -0.27994698 0.13783255 -0.7886304 -0.26372913 0.27850592 0.3163172 0.58697975 -0.20927006 0.49200734 -0.35106146 -0.13170494 -0.32304758 0.5217709 0.09307681 0.3733196 -0.37517646 0.1728499 -0.04548017 -0.17506094 0.060378857 -0.552406 -0.14944164 -0.39794886 -0.13021053 -0.260385 -0.33356982 -0.27924675 0.19900194 0.2378613 0.053725995 0.1453969 0.24388854 0.29612464 0.0015203044 -0.73147494 -0.5873989 0.17939019 0.34199202 0.031391606 0.65425617 0.18639635 0.13256991 -0.33183822 0.01330421 0.3060048 0.39465085 0.27577013 0.7988935 0.07779155 -0.027826589 -0.35774076 0.3713481 -0.0950226 -0.0663365 -0.566548 0.09467012 0.27893004 -0.043030612 -0.29259634 -0.4516841 0.2417608 0.11550549 -0.1736714 0.101605 0.3427508 0.19481643 0.5304584 0.13002615 0.09597043 -0.10816391 0.717592 -0.5294707
2582 -0.29187325 0.17562628 0.029808734 0.76021326 -0.15824726 -0.3626463 -1.1082965 0.2249338 -0.3710027 0.50069684 0.57051563 -0.3992042 0.26312596 0.26764107 0.41203713 0.09780578 0.59556633 0.76580316 -0.2958416 0.14582968 -0.15392973 -0.36708048 0.19876629 0.1000054 0.51242983 -0.3118865 0.118864216 0.028762145 0.55508465 -0.8368359 -0.17219184 0.4709529 -0.09502766 -0.7653806 -0.075549245 -0.6150904 -0.3145756 0.47188738 0.33370516 -0.08032944 -0.4942527 0.08634992 0.28375557 0.051851172 0.07399383 -0.5275512 -0.3220585 0.053529628 -0.106884964 -0.1676344 0.121390596 0.48534855 -0.17972256 -0.5092002 -0.19751257 0.39041844 -0.15867482 0.23075958 -0.8338414 -0.07911766 0.27472743 0.18996826 0.7478665 -0.053132508 0.38569725 -0.16499537 -0.26965478 -0.28673694 0.54626375 0.005174123 0.42762426 -0.20747522 0.42850164 0.02930167 -0.15949938 0.103742704 -0.6665783 0.13493894 -0.40743563 -0.052357696 -0.18062809 -0.48552617 -0.28146398 0.34173977 0.17267425 0.12509906 0.17158052 0.23486216 0.3865235 0.0066392287 -1.0311805 -0.5317687 0.35769343 0.23923083 0.13234761 0.70991236 0.2337824 0.23138359 -0.28212863 -0.053464532 0.22955272 0.5445102 0.23493235 0.8665907 -0.07002701 -0.13706684 -0.3423155 0.30901095 0.044671 -0.17055461 -0.5338797 -0.08450975 0.13445649 -0.1185238 -0.26063892 -0.404278 0.21178943 0.11390138 -0.114946194 0.031042242 0.22575815 0.19817711 0.5234043 0.2987558 0.0360046 -0.09562112 0.7199424 -0.33533314
1 -0.2590114 0.04218522 0.7410731 0.2533235 0.9198704 -0.24547017 -0.043332595 -0.93250966 -1.0456831 0.33184695 0.7166025 0.29652575 0.31168187 0.15624861 -0.64497423 0.3109193 0.52429914 0.015531743 -0.08234011 -0.5850636 0.26097414 -0.39925686 0.25187382 -0.1808484 -0.4192751 -0.08905216 -0.07483094 0.6441225 0.73397416 -0.068862185 0.04106131 0.24052133 -0.06866198 -0.082678765 -0.20306934 -0.22528802 -0.022882517 0.09700293 -0.9734555 0.23758256 -0.1790335 -0.20198703 0.89062774 -0.50799894 0.38265747 0.102053165 -0.40064102 0.40507406 -0.58133996 -0.3617351 0.68508667 -0.12049347 0.07454355 -0.32615116 -0.048115592 0.6542113 0.21058547 -0.33653393 0.14953598 0.004379519 0.4124986 0.48063803 -0.39006704 -0.03556314 0.31989238 0.48683077 -1.0623568 -0.40301353 -0.032186136 1.118748 -0.6921861 -0.38658738 0.07289914 -0.37250984 0.6439777 1.2644689 -0.0008368126 0.021643592 -0.7498892 0.028736927 -0.25136128 -0.41088995 0.48332682 1.1244729 0.57438517 0.20195837 -0.3909871 -0.007223751 0.42660305 0.6493404 0.041693877 -0.08766644 0.48894334 -0.9634345 0.51624596 0.39351684 -0.13897711 -0.11621646 0.044009276 0.5866243 -0.33243376 -0.27405733 0.34086293 0.516907 0.0058524357 0.1914474 -0.4497417 0.7411546 0.11473202 -0.37716946 -0.119932085 -0.5460969 -0.20947562 -0.5473281 0.08851844 -0.10813718 -0.96537715 -1.087364 0.07938199 -0.7627908 -0.2946396 0.23462987 -0.12375608 0.7511747 -0.27576318 0.2870034 0.03908293 0.18540335
2 0.114042155 0.06002327 0.50255126 0.36579663 0.50531 -0.14964592 -0.14786904 -0.37122807 -0.6466986 -0.0050828517 0.606137 0.41197988 0.46163568 0.15339564 -0.51575196 0.279889 0.5205744 0.09793175 -0.052525766 -0.19540699 0.31610817 -0.45359048 0.45694092 -0.19043137 -0.25547677 0.06873915 -0.019722564 0.44458467 0.30152047 -0.1668509 0.11846359 0.26982647 0.13347957 -0.10805995 -0.04055723 -0.054099694 0.476584 0.13836914 -0.6791764 -0.060376436 -0.18879175 -0.08412277 0.874063 -0.3207021 0.5658178 -0.029977208 -0.26398757 0.42485598 -0.4901777 -0.62121445 0.5582346 -0.071709 0.040233176 -0.27444956 0.038283736 0.53752005 -0.05609101 -0.24174726 -0.09428914 0.2751983 0.19817494 0.16044672 -0.4107386 0.2175236 0.19530159 0.25158668 -0.50792617 -0.40979525 -0.04672686 1.0049349 -0.21409552 -0.32310963 0.4170455 -0.11664297 0.2745035 0.87092566 -0.1535061 0.07740498 -0.517764 0.0019958934 -0.12842289 -0.31377748 0.18425801 0.83819336 0.045499347 0.13602664 -0.3988364 0.24263297 0.09819474 0.2452606 -0.12618801 -0.026391545 0.4280635 -0.44867823 0.18193631 0.4163 -0.13847764 0.1484973 -0.13687983 0.14625968 -0.14564624 0.07770335 0.057708047 0.6135232 -0.061329246 0.23762652 -0.3675866 0.47504538 0.07034546 -0.08019044 -0.27107954 -0.12125702 -0.40320703 -0.4984039 -0.0035721732 -0.22764705 -0.684099 -0.7525287 -0.090726525 -0.30359787 -0.3207294 0.21281886 -0.5181264 0.35117087 -0.18873583 0.29703352 -0.25129133 -0.058792386
652 -0.51117545 0.025284268 0.32227606 0.28837994 0.8984449 -0.23579675 0.31130522 -0.8018823 -1.0633341 0.46308336 0.8655084 0.2769387 0.0074003967 0.04905517 -0.5088136 0.33314285 0.4898055 0.17373228 -0.019367512 -0.60845584 0.038698852 -0.33874196 0.21389225 -0.296941 -0.20498374 -0.111996755 -0.1657973 0.7926764 0.66785353 0.107019715 0.217951 0.14511731 -0.13440147 -0.10799702 -0.2790315 -0.23049371 -0.28532833 0.045449745 -0.9053683 0.37231523 -0.025053658 -0.36377984 0.4283073 -0.3823629 0.07677966 0.34418985 -0.3915351 0.3498567 -0.34561518 -0.065072216 0.6047562 -0.123833634 0.3783408 -0.31059694 -0.25268304 0.80006325 0.48249075 -0.26958674 0.20520891 -0.039773304 0.46607646 0.44872004 -0.3985761 -0.31917584 0.47306448 0.44941568 -1.0679638 -0.5586866 -0.0877484 1.0004178 -0.6432352 -0.038580116 -0.38970268 -0.30289465 0.5614967 1.1516122 0.08545759 -0.1779728 -0.4915575 0.12852947 -0.2734372 -0.31842157 0.3976435 0.94063514 0.6319992 0.23919135 -0.21080968 -0.11906378 0.29484093 0.29457057 0.27940038 -0.20672992 0.30304742 -0.9822467 0.6207625 0.25092232 -0.15571426 -0.28735614 0.11691045 0.7001519 -0.22182177 -0.36932388 0.55251634 0.29863894 -0.096187904 0.112627625 -0.3461547 0.6067805 0.2894275 -0.39414492 -0.045123816 -0.49425817 0.097163394 -0.3181257 -0.10542856 0.27794036 -0.8966081 -1.0384332 0.075411856 -0.9835039 -0.24099228 0.17938383 -0.08209241 0.7636134 -0.356446 0.14712913 0.46373296 0.15170857
654 -0.21024396 0.08044636 0.9035448 0.22239436 0.97988254 -0.11875539 0.064362764 -1.1811546 -1.142277 0.18639453 0.7897232 0.24652568 0.37325287 0.17440425 -0.65266955 0.26730096 0.5761407 0.14499062 -0.12106099 -0.61417294 0.3262605 -0.40808615 0.34618777 0.009107786 -0.59547204 -0.15858543 -0.29225174 0.72769725 0.87700194 0.31415877 -0.064806364 0.07709214 0.016330639 -0.089934975 -0.40096486 -0.18080008 -0.05374839 0.09389414 -0.8945385 0.23277187 -0.08108684 -0.09086158 0.8258399 -0.38457933 0.44564036 0.06545435 -0.24973918 0.54313254 -0.75622964 -0.53764343 0.6425265 -0.25772682 0.22846074 -0.2832021 0.03778441 0.66675204 0.3076458 -0.3191034 0.29321915 -0.028314112 0.59324366 0.49781343 -0.3645404 0.09092458 0.24644342 0.5954769 -1.3506007 -0.658657 0.0044860356 1.1280735 -0.7979741 -0.31744105 0.048379812 -0.5171172 0.78065836 1.4725379 -0.07862249 -0.057735845 -0.72654355 0.030979259 -0.16953911 -0.42214057 0.6518586 1.0272874 0.60609543 0.2716859 -0.30724773 0.080044664 0.4348077 0.53209484 -0.10337698 -0.051857144 0.4879224 -0.981431 0.55768394 0.24724156 -0.1760088 -0.0033914654 0.11460546 0.5775951 -0.3676622 -0.27431622 0.39832637 0.35739428 0.076806806 0.2906873 -0.541272 0.9390549 0.008731561 -0.5259665 0.010662208 -0.45616516 -0.081873365 -0.7312352 -0.037445948 0.0971009 -1.1384319 -0.97203577 0.09559996 -0.9935011 -0.2258544 0.35576984 -0.17190973 0.76877767 -0.4914733 0.32273263 0.045006756 0.12509839
1986 -0.13426775 -0.17898495 -0.08536134 0.25994828 0.19937894 -0.24332905 -0.19574204 0.025978459 -0.34112605 0.25534585 0.29203722 0.021400906 0.08271469 -0.17051671 -0.19767697 0.064068265 0.08366358 0.017225217 0.11683626 0.22273445 0.16606542 -0.28519413 0.33095658 -0.068387054 0.09377667 -0.04774193 0.099394254 -0.15090896 0.13037574 -0.26463926 -0.18604028 0.2584891 -0.20268258 -0.20980252 0.17934714 0.06209366 -0.10379487 0.23837483 -0.28405443 -0.025187425 -0.42133546 0.25221345 0.4103078 0.16399394 0.12497572 -0.30949268 0.10722883 -0.17910196 -0.28087974 -0.12170202 -0.010173693 0.21351728 0.20828708 -0.1671833 -0.31880143 0.29178092 0.19320543 -0.15829399 -0.52254987 0.27974874 0.023513628 -0.022385443 0.1651453 0.2538238 0.012846993 0.015611706 -0.26898816 0.23463276 -0.058034685 0.21626419 0.3427671 -0.07973248 0.42951882 0.13056305 0.056536928 0.45106423 -0.23106255 0.11081629 -0.29179007 -0.097002044 -0.15930927 0.04221135 -0.031367175 0.073854394 -0.20209193 0.20625743 -0.024399603 -0.030077452 -0.020444049 -0.018947609 -0.2933209 -0.3300641 0.2863149 0.10404978 0.20260067 0.13200074 0.03477994 -0.04318896 -0.10563541 -0.049972232 -0.30941123 0.25438443 0.07097727 0.10951939 0.16032712 -0.12518074 -0.09121031 0.13550192 0.28805646 0.13164616 -0.37425894 -0.04417712 -0.15312482 -0.08214321 0.12700069 -0.20400101 0.030871585 -0.031811323 -0.1861412 -0.06555417 -0.07110559 -0.07612008 -0.13244902 -0.080936134 -0.061102603 0.26354572 0.042939004 -0.16540256
332 -0.19447508 -0.20787212 0.15923789 0.852006 0.42286322 -0.6710154 -0.09958792 -0.64021105 -0.3053042 -0.23695536 0.41615066 0.7415485 0.41468838 0.26873153 -0.3695258 0.23453315 0.87242156 0.0027288883 -0.16078247 -0.1651892 0.08057545 -0.12616344 0.130062 0.10326197 -0.08463878 0.07152871 0.050954416 0.48480526 0.017081449 -0.22809565 0.14638998 0.47737467 0.6560196 0.08350021 0.12868598 0.5825705 0.528481 0.017855827 -0.5825476 0.005905876 -0.2780764 -0.119502895 0.8907238 -0.087340504 0.37159604 -0.12268864 -0.18381335 0.37909374 -0.10963464 -0.8243301 0.47769088 -0.006642832 0.3904379 -0.0023955926 -0.014660584 0.5505165 -0.10980291 -0.39704636 -0.33194175 0.4278557 -0.11208822 0.048457008 -0.62625694 0.03068472 0.29950082 -0.07090636 -0.36088896 -0.56086797 0.21940266 0.74507034 -0.0995086 -0.20973715 0.4330164 -0.030999728 0.04228236 0.8064074 0.19046594 0.10351567 -0.7619333 -0.17241752 0.11357474 -0.22668505 0.16152072 0.18508033 0.04635944 0.10528653 -0.5299711 0.41286346 -0.004416315 -0.5616786 -0.033434883 -0.3445358 0.2741768 -0.31874853 0.12477243 0.1065961 -0.012132703 0.17382781 0.012963962 -0.26708513 -0.38749716 -0.070199825 0.05463895 0.46542305 -0.02277119 0.25085425 0.004406741 0.13932528 -0.15999584 0.015283372 -0.2425478 -0.07006805 -0.31994072 -0.023739077 -0.05082217 -0.19896147 -0.6010585 -0.16474123 0.12613864 -0.05487869 -0.46059135 0.22783785 -0.74270034 0.2994393 -0.08350459 0.14928181 -0.41979957 -0.39873347
1666 0.018601822 0.19532391 0.8292838 -0.01737021 0.35085744 -0.055698525 -0.1571623 0.28818694 -0.22684595 -0.19908063 0.28209606 0.27224168 0.6471254 0.07796235 -0.3043505 0.30004105 0.3338312 -0.23534793 -0.30459422 0.2597643 0.24555744 -0.48204115 0.5168401 -0.26073474 -0.18030179 -0.045632567 -0.21956983 0.527035 0.23612474 -0.58854175 -0.04396419 0.17310755 0.03204473 0.4123012 -0.1995324 -0.044969056 0.2365742 0.07150965 -0.35888195 -0.23718525 -0.2483522 -0.08514824 0.98310435 -0.75350434 0.62262636 -0.07697038 -0.28226689 0.23863792 -0.6733943 -0.7316874 0.15608722 -0.24435037 0.07194358 0.069210425 0.14908789 0.22384441 -0.035954155 -0.3797985 -0.18451555 0.32165983 0.12574574 0.19366995 -0.23093013 0.09026307 -0.25084242 0.099777974 -0.35663506 -0.7038322 0.2445272 0.8533873 -0.0073030726 -0.761356 -0.12862359 -0.46882436 -0.071157895 0.49188462 0.032380685 -0.28942195 -0.15885876 0.22623515 -0.22425255 -0.14756618 -0.15713976 0.18726374 -0.12815902 -0.12643442 -0.4749231 0.32903808 -0.03241453 0.5620706 -0.10575015 -0.18068443 0.49944618 -0.43271914 0.048420202 0.2876024 -0.22174063 0.20059724 -0.27794856 0.3642672 0.51319206 0.028092805 0.1399079 0.374434 0.21480075 -0.016271455 -0.25441673 0.104029775 -0.07619211 0.29836476 -0.58127093 -0.24273285 -0.38504258 -0.4434988 -0.26262003 0.1649165 -0.64138657 -0.7815333 -0.54287314 -0.00033096896 0.13321903 0.03576254 -0.2126055 0.19748157 0.17648745 0.0070903627 -0.5559832 -0.27874637
1454 0.05225001 0.041095797 0.7065043 0.3816501 0.6195079 -0.12335858 -0.20652555 -0.38681078 -0.64593726 -0.16191615 0.6007946 0.56140584 0.4487165 0.1422279 -0.57778406 0.5301268 0.55635893 0.11636148 -0.10077902 -0.07112394 0.3736133 -0.58013403 0.64529425 -0.17289416 -0.27051738 0.14304496 0.053341947 0.4342597 0.5165914 -0.16073513 -0.07318606 0.44714388 0.13004631 0.11441895 0.05151596 -0.033894457 0.6020594 0.24708082 -0.7701653 -0.14351583 -0.39169648 -0.07196114 0.8306948 -0.5407405 0.7927983 -0.088482246 -0.18391833 0.54913586 -0.49910486 -0.7381515 0.67047286 -0.002730017 0.21799363 -0.24876872 0.060032144 0.5222148 -0.0914103 -0.46595415 -0.27085245 0.36365095 0.2530071 0.030439522 -0.3644664 0.17429315 0.24252269 0.113274895 -0.6199102 -0.56308603 -0.26154694 0.9963541 -0.29639587 -0.4179091 0.37600645 -0.1795616 0.41823518 1.0012503 0.072620355 0.03637255 -0.6834175 0.03564021 -0.19649397 -0.5108292 0.32761368 0.6808669 0.16771208 0.205792 -0.55650765 0.1537664 -0.19901873 0.29869273 0.15405466 0.048650328 0.4721182 -0.52019477 0.14089409 0.6339663 -0.19839327 0.2433837 -0.16012454 0.11655364 -0.23565757 -0.08900704 0.12273189 0.7497408 -0.012430441 0.46317244 -0.5933422 0.6613097 0.13064782 -0.124677576 -0.24256589 -0.072492 -0.44453657 -0.640612 0.17038998 -0.27205804 -0.7075509 -0.8310464 -0.18912914 -0.4577228 -0.3626789 0.153245 -0.66517025 0.45026663 0.037250727 0.39357844 -0.32005885 -0.09086558
3 -0.98816323 0.24278668 -0.72099626 0.048866972 1.8690417 0.78172994 -0.99639773 -0.41412216 -0.7574049 0.066189 -0.6003379 -0.22147483 -1.246181 0.5006697 1.0188807 1.2258623 0.8226824 0.8492529 -0.0669387 0.99132353 0.11224557 -0.4246587 1.168838 1.0215082 -0.41139093 0.22496656 0.91096336 -0.013207759 -0.120403774 -1.1643214 0.6938767 0.7275126 -1.4015914 -0.009429661 1.2215757 0.6446363 -1.0085263 -0.16127762 0.7312791 0.44621858 -0.33139396 -0.7831525 0.887298 0.2907004 1.0531793 -0.68729144 -0.5082783 0.29357868 -1.3953099 -0.6297685 0.38617402 0.46405047 0.609642 -0.13001235 0.18762608 0.53579205 -0.46595013 0.19397539 -0.6106701 0.52440625 0.6302698 0.59736896 0.14639078 0.7193532 0.1464123 -0.11566287 0.231739 -0.2813743 0.18022364 1.0963702 0.06538349 -0.44805235 -0.16727477 -1.2241107 -0.61850494 0.6377318 -0.19071259 0.5181998 0.13451132 0.59436375 -0.2675767 -0.842849 0.6418574 -0.2738861 -0.11283239 0.45243993 -0.23248692 0.28633678 0.43453115 0.6251463 0.17667224 -0.44612437 1.0424106 -0.19318028 1.4638994 -0.28465214 0.9805606 -0.089652926 -0.15578598 -1.3362452 0.87983644 0.15421176 -0.1076412 0.024980962 0.52423453 0.58264995 -0.2848538 -1.3449236 -0.70148224 0.20553088 0.71506554 -1.3950632 0.39260286 -0.0012017618 -1.1877834 0.04046899 -0.11325982 -0.8158051 0.14907336 0.08893179 -0.03216279 -0.20925625 -0.25504065 -0.50588703 0.16680893 -0.068266995 0.6891148 -0.25463408
2544 -0.997376 0.27231658 -0.74924254 0.038717538 1.845016 0.80563027 -0.99513507 -0.43295962 -0.76563376 0.05330158 -0.5872317 -0.23103723 -1.2577869 0.49992633 1.0163764 1.2227304 0.86449 0.8749213 -0.06724204 1.0141127 0.086413644 -0.39597014 1.1736755 1.0214037 -0.4100306 0.19799899 0.91577816 -0.015814744 -0.108379416 -1.1666231 0.69736254 0.7252887 -1.4043758 -0.0016318782 1.2381216 0.68964344 -0.97075677 -0.12962772 0.7320579 0.44198775 -0.31778988 -0.7741108 0.8947182 0.28667137 1.066018 -0.7053102 -0.5034956 0.2650286 -1.3797089 -0.64984906 0.40096936 0.4571652 0.6201487 -0.110917024 0.19372995 0.51189375 -0.42712057 0.1838759 -0.6147121 0.5388644 0.6603077 0.6170513 0.14765373 0.7258628 0.1329645 -0.080031715 0.20546289 -0.31982833 0.22737466 1.0992277 0.05602632 -0.4288616 -0.13654234 -1.2521496 -0.59707075 0.6398233 -0.19963816 0.49823892 0.14249334 0.60690165 -0.25944138 -0.8166088 0.65636635 -0.27148312 -0.09819357 0.44616485 -0.23280136 0.30704224 0.42193925 0.608268 0.18128122 -0.43985367 1.051101 -0.16843495 1.4489732 -0.26139346 0.9663482 -0.041884817 -0.16223267 -1.3780415 0.8997308 0.14024624 -0.12821262 0.04231908 0.47380024 0.5940465 -0.28255033 -1.3477442 -0.7056995 0.19593228 0.71127886 -1.4078147 0.38971913 0.00050012936 -1.1805981 0.027635595 -0.14246528 -0.8209319 0.14410582 0.08248242 -0.022537103 -0.20899168 -0.27804697 -0.51952755 0.18310662 -0.077002496 0.66973317 -0.27036276
4 -0.23748906 -0.64976686 0.55565965 0.08670467 0.14473175 0.43385243 -1.2864885 -0.7921745 -0.9031233 -0.2545723 0.27015755 0.6128529 -0.20563903 -0.05112225 -0.01572738 0.31981137 0.24146464 -0.09802308 -0.48826566 -0.50331914 0.17810425 -0.027424984 0.14805701 -0.17802049 0.8977506 -0.26148406 0.11078033 -0.39852732 -0.972442 0.76102084 0.48466077 0.16124359 0.08393182 0.5955903 0.014922439 -0.07364198 -0.26627654 0.34376848 0.06812674 0.70574695 -0.1310411 0.4655286 0.08961609 0.059886012 -0.45251167 0.41467106 0.5480619 0.033775102 0.12474439 0.12542626 -0.07628488 0.49999395 -0.14464481 -0.37120292 1.4149432 -0.08581327 0.41956395 -0.10929567 0.6681206 -0.0037292896 0.1225953 0.41914862 -0.04660749 0.2746131 0.7342927 -0.18633862 -1.7179192 -0.4735554 -0.4646432 -0.3537354 0.09929405 -0.6944298 0.33838543 -0.48026246 0.005050911 0.07910379 0.44651064 0.043577008 -0.45012054 0.1496069 -0.102539785 -0.009081885 -0.6667572 -0.1861065 -0.11209928 0.10473999 0.28199926 0.9242508 -0.36673564 -0.6212748 0.16537403 0.17351806 0.36524144 -0.12485991 -0.10170783 -0.7673253 0.23563194 -0.695708 -0.10232002 -0.06846289 0.111844875 -0.017438803 -0.14739598 -0.52891004 0.13938443 -0.35438865 -0.17340793 0.08637251 0.07561605 -0.52993214 -0.22905928 0.14082028 0.15499583 0.4526875 0.3119029 -0.134599 -0.010735428 0.16945043 -0.57951075 -0.3030107 -0.19006808 0.31147185 0.6437839 -0.3293082 0.5805502 0.090309896 0.108055815 -0.5141657
2176 -0.23845527 -0.7433954 0.6203753 -0.2507483 0.26387656 0.3224468 -1.2948905 -0.624615 -0.8715735 -0.6414793 0.106045075 0.39071825 -0.13537863 -0.3500465 0.04578136 0.3503506 0.18788078 -0.20424022 -0.29767272 -0.4131652 0.1803677 -0.110703036 0.0037479922 -0.18101507 0.6201181 -0.34213874 0.111626394 -0.23579514 -0.9302847 0.8319879 0.6072637 0.25357354 0.20614418 0.47051477 -0.024362624 -0.17029981 -0.47478357 0.57558966 -0.1207261 0.6007985 -0.25227168 0.6207451 0.019899707 0.13172336 -0.39713377 0.5019545 0.49870077 -0.16675259 0.42862082 0.20537825 -0.29435563 0.6276813 -0.1363691 -0.36153433 1.3316396 0.10573084 0.29745454 0.066881284 0.79919106 0.15718237 0.04570521 0.33322218 -0.253834 0.30032444 0.8169496 -0.24762024 -1.7817698 -0.38399535 -0.43439826 -0.09776536 0.14097461 -0.54517734 0.53648 -0.3357309 0.31702128 -0.14601544 0.50218105 -0.068537876 -0.5197759 0.1770378 -0.14581521 -0.14191674 -0.85606366 -0.20905553 -0.23093131 0.32933983 0.068329886 0.91863656 -0.34084046 -0.67200446 0.26317072 0.103497356 0.4751945 -0.5080475 -0.02951902 -0.514185 0.18474624 -0.15998301 -0.30837154 -0.042820163 0.118034415 -0.13554288 -0.08212694 -0.46692523 0.32047856 -0.2666644 0.001783883 0.057710677 -0.09590009 -0.6975068 -0.04958775 -0.06304391 0.27377436 0.49515936 0.38116926 0.044340443 -0.039361283 0.2515118 -0.7126724 -0.23813221 -0.342483 0.22687547 0.6527499 -0.3230481 0.60802716 -0.046393666 0.11162007 -0.6153501
1016 -0.32543617 -0.9074597 0.6493194 -0.07496847 0.2023239 0.36560056 -1.4376373 -0.8474494 -0.96011007 -0.46214718 0.50366217 0.45383674 -0.26649028 -0.15856741 0.14001727 0.45906204 0.23924944 -0.24937144 -0.36253282 -0.37468725 0.018891664 -0.011055289 0.18962815 -0.22486186 0.88507223 -0.2375351 0.1379709 -0.4100768 -1.0237529 0.94213724 0.52645653 0.22716664 0.0557386 0.74601555 0.035217043 -0.06164852 -0.2738206 0.68841976 0.10822448 0.88841295 -0.22013803 0.5838042 0.18743733 0.41637114 -0.55026895 0.46611303 0.5506051 -0.0041165366 0.5322868 0.11468219 -0.29102424 0.40624523 -0.26693287 -0.3330554 1.4786403 -0.0491825 0.21779524 -0.074706905 0.70322937 0.0044040317 -0.011162406 0.60093516 -0.20565133 0.23312038 0.69289815 -0.23476832 -1.9448158 -0.32101667 -0.673435 -0.4135955 0.30505496 -0.76738364 0.4189372 -0.6100278 0.29477397 -0.09487678 0.46483535 0.15591708 -0.5500794 0.06599295 -0.29179576 -0.08269911 -0.9572466 -0.5045762 -0.1637318 0.2879514 0.073223256 1.1739808 -0.30110022 -0.5781784 0.380244 0.33703738 0.38570607 -0.3843022 0.18512408 -0.8616062 0.31923705 -0.70764446 -0.23469593 0.1832724 -0.05031343 -0.081821226 -0.12142362 -0.787167 0.20494641 -0.3901808 -0.068040825 0.31441817 -0.01886866 -0.637182 0.063612945 0.005265729 0.2896424 0.5481931 0.45522958 -0.2141581 0.12995914 0.29859546 -0.6330259 -0.15690199 -0.17535593 0.2410214 0.6739962 -0.35391062 0.6617941 0.07616083 -0.07718682 -0.6189588
1761 -0.10016431 -0.41428202 0.38385308 0.29969722 0.07004734 0.58158886 -0.7973 -0.2665227 -0.6015462 -0.023560898 0.16208945 0.6040285 -0.060957782 0.17487836 -0.19112644 0.30813757 0.13852154 0.2547086 -0.3553178 -0.20170447 0.07116726 -0.09192743 0.0075782114 0.29743132 0.66221064 -0.124815226 0.1311499 -0.14083837 -0.6682508 0.5489043 0.51885206 0.14685585 0.07611609 0.4716152 0.17033964 -0.086565495 -0.17647919 0.24860024 0.05999067 0.50751776 -0.03986475 0.21785402 0.18878488 -0.2717656 -0.28185827 0.04458577 0.43706656 0.12991622 -0.20584431 0.019331006 0.1841932 0.31670544 -0.08694885 -0.24254715 0.931768 -0.20189795 0.26608735 -0.23447058 0.52246886 0.26555076 0.21675485 0.20785092 -0.10903038 0.14119256 0.37908795 -0.13963045 -0.9542672 -0.42160425 -0.26255906 -0.2758967 0.24633299 -0.4845169 0.18431282 -0.28844818 -0.038519368 0.20457554 0.28036258 0.15441865 -0.27755898 0.06652255 -0.011803206 -0.081392296 -0.16065615 0.22339611 -0.008680343 -0.12775415 0.32111514 0.48946494 -0.28043136 -0.45577493 0.14233567 0.18803236 0.09709981 0.18540594 -0.16898358 -0.5645473 -0.07288772 -0.68494654 0.014227001 -0.089932844 0.16050865 0.08815711 -0.2841372 -0.22673178 -0.020974927 -0.3409512 -0.26961753 0.14194371 0.38788873 -0.24871108 -0.13571353 0.13466696 -0.19783242 0.29543602 0.089419 -0.07043401 -0.09267788 0.1469869 -0.35010746 -0.11482326 -0.08658299 0.40075544 0.48927867 -0.17959335 0.36211377 0.29679385 -0.017610235 -0.32417142
1256 -0.1932027 -0.696303 0.6174123 -0.017394533 0.27616793 0.60612774 -1.3298342 -0.703974 -0.97047704 -0.44225657 0.27182403 0.66964257 -0.23774056 0.052446097 0.0012750205 0.46203676 0.22575645 0.020231327 -0.4589406 -0.438734 0.18920828 -0.0058437143 0.065135196 -0.21337175 0.86919665 -0.26614887 0.18590948 -0.36620644 -0.90637404 0.71726 0.5455148 0.20398015 -0.019413345 0.69431996 0.10386875 -0.0593192 -0.26044822 0.42088845 0.046921257 0.73261076 -0.23447378 0.56844276 0.10785292 0.043731466 -0.5363938 0.47179633 0.5564841 0.07412781 0.34209642 0.17454065 -0.18132883 0.647147 -0.3006602 -0.33413205 1.4843225 -0.06813612 0.3628788 -0.20273821 0.78245795 0.08077262 0.03634461 0.48019275 -0.26069173 0.15844545 0.8574216 -0.16717811 -1.787922 -0.4043368 -0.3847145 -0.36539358 0.25677323 -0.7419264 0.5054964 -0.45520365 0.087860174 -0.04240134 0.4978436 0.03812959 -0.48972568 0.13071474 -0.21897732 -0.07433283 -0.74427897 -0.11191229 -0.08875348 0.18303704 0.14918196 0.9733472 -0.4538465 -0.69048405 0.45800015 0.17229633 0.41650435 -0.27104858 0.011918102 -0.733651 0.25159055 -0.6541772 -0.08846651 -0.041207004 0.178146 -0.1720521 -0.17487827 -0.51446474 0.15716039 -0.28739333 -0.20846695 0.1947077 0.038909655 -0.5185124 -0.115756385 -0.020191541 0.24132803 0.5778769 0.32084313 -0.04964139 0.0100400075 0.3648443 -0.61282855 -0.22901347 -0.26134142 0.3720995 0.66393095 -0.27152696 0.5706703 0.0821853 0.032156438 -0.52906394
2175 -0.15138464 -0.5721177 0.58276397 -0.06577741 0.20441544 0.49299386 -1.2861863 -0.53971857 -0.9319924 -0.30184704 0.17927136 0.6965959 -0.15893926 -0.10939754 -0.028693508 0.36363113 0.31622997 0.0011146014 -0.5217432 -0.46560133 0.22158386 0.06455306 0.007989773 -0.019325837 0.68828815 -0.32454026 0.0974106 -0.4131031 -0.8309213 0.7895246 0.6413079 0.29764584 0.0024135548 0.6305576 0.107205614 -0.053110182 -0.31605646 0.28672302 0.087835684 0.6967183 -0.17288838 0.50577587 0.029678602 -0.07640567 -0.5706423 0.32294756 0.48653984 0.07502154 0.1345926 0.15838929 -0.023226317 0.511574 -0.26669967 -0.4367498 1.4756991 -0.08710516 0.4029302 -0.1492694 0.78288794 0.22308065 0.052243292 0.39744568 -0.13286425 0.15441574 0.8315367 -0.2671225 -1.7135841 -0.41370526 -0.38759264 -0.26148695 0.19691071 -0.6876392 0.5146343 -0.49893254 0.122208945 -0.03293115 0.46836135 0.04922946 -0.46603358 0.139102 -0.08250193 -0.05651022 -0.70229524 -0.13503021 -0.12395196 0.07954391 0.32134756 0.91345614 -0.27491105 -0.70489055 0.15096195 0.13173833 0.33487877 -0.20550863 0.020929921 -0.6424139 0.19217753 -0.7004612 -0.023361469 -0.1629195 0.18738233 -0.15249476 -0.10303959 -0.4028247 0.14358523 -0.5140596 -0.17283215 0.14357665 0.1795665 -0.60937136 -0.22563593 -0.00079091167 0.15410078 0.3823361 0.23663521 -0.044497695 -0.07754433 0.22166108 -0.52200747 -0.3960632 -0.15522048 0.37877113 0.62596804 -0.35726866 0.55036974 0.07960042 0.044745713 -0.46061194
5 -0.3846881 -0.3105834 -0.18630709 0.20896316 0.026723607 -0.20960787 -0.6302378 -0.32777995 -0.36316782 0.41137087 -0.9098103 0.51050144 -0.20375599 -0.55740815 0.13017972 0.5612367 -0.20590739 0.502522 -0.13635103 0.1241786 -0.515906 -0.72185236 0.025116576 0.38687378 0.0011635426 -0.33036682 -0.45809838 -0.19641836 -0.6612392 -0.47710112 -0.66284907 0.044791065 0.2525008 -0.3115192 0.10214157 -0.33546826 0.17135337 0.10485013 -0.15597332 0.2617002 0.3977214 0.20290679 -0.5149115 -0.024806825 0.6725777 -0.8251069 0.57502043 -0.24603613 0.17994098 -0.7912152 0.7716468 0.6938551 0.7128001 -0.74457693 0.4243292 -0.74232304 -0.21433443 -0.6469034 1.068179 0.322809 -0.14312199 0.22768466 -0.21164794 -0.69471884 -0.6224784 -1.1705686 0.17349795 -0.092467025 -0.37402418 0.62720084 0.4038657 -0.6553124 -0.34890977 0.10083758 0.3944269 0.24595608 0.71551067 0.67971665 -0.07319781 0.24686128 0.07260861 1.288319 0.61498725 0.5311508 0.00985572 0.026056705 0.8349959 -0.12469875 0.22385623 0.10889864 0.23294924 0.499533 0.9859457 -0.5879841 0.14750011 0.15817516 0.15877657 -0.2758506 -0.055625554 -0.43247706 -0.055104516 0.4839178 -1.2557545 -0.2987833 -0.32483876 0.07546044 -0.247124 0.17386985 0.33066252 0.0940517 -0.5113443 -1.418927 0.09419356 0.7959858 0.08068324 -0.23214744 0.36943358 -0.43647695 -0.4244242 0.096029416 0.47521558 0.21763836 0.46947813 0.13845564 0.30574474 -0.41302362 -0.08948504 -0.5800237
1629 -0.36634985 -0.343099 -0.022894159 0.32274336 0.036502775 0.11619758 -0.5673626 -0.11614636 -0.45013696 0.5263901 -0.94098926 0.59485483 -0.25728515 -0.35354313 0.06769298 0.7838906 0.032469936 0.47279966 0.019010317 -0.12913877 -0.5949644 -0.57095987 -0.078081265 0.32748327 -0.08735931 -0.29889643 -0.46628895 -0.0069157323 -0.6485381 -0.39857873 -0.6447256 0.1129498 0.2679904 -0.35416612 0.3127342 -0.09650096 0.071370006 0.091638334 0.19229142 0.34166792 0.30730596 0.24782401 -0.25248554 0.1260205 0.7499836 -0.69951665 0.3228387 -0.21227235 0.2102364 -0.95955604 0.49671397 0.41279912 0.682589 -0.63235027 0.12428237 -0.6830458 -0.1377215 -0.6377004 0.7266208 0.33921573 -0.24441837 0.39891422 -0.24681236 -0.64925337 -0.47117433 -0.93369025 0.1591706 -0.013839082 -0.3129485 0.5032852 0.13584508 -0.7721425 -0.31536534 0.053949654 0.6436253 0.26986104 0.68868583 0.40403867 -0.13781883 0.28296524 0.13751401 1.0307127 0.602577 0.39149174 0.038883027 -0.22420192 0.59814245 -0.13628513 -0.14751449 0.15498345 -0.124420024 0.44849533 0.7736061 -0.48842025 0.01120191 0.069033094 0.117968194 -0.4595907 0.055627234 -0.46936652 -0.09780844 0.39961344 -1.4188757 -0.43676773 -0.41585675 0.095669806 -0.34847516 0.15947598 0.44898528 -0.059193607 -0.26411986 -1.1420026 -0.09467214 0.7723797 0.08112113 -0.10020635 0.41632918 -0.34681723 -0.45109797 0.18384376 0.6199054 0.26307005 0.36230227 0.05515365 0.3882778 -0.32635677 -0.06815303 -0.27246127
2546 -0.24873532 -0.2669849 -0.3485199 -0.13148864 -0.035193443 -0.4624428 -0.42390254 -0.34130448 -0.16604894 0.0581832 -0.39730096 0.2184394 -0.04919297 -0.6744633 0.0076924795 0.56400204 -0.2634246 0.5401066 -0.017329978 0.17095873 -0.066533685 -0.41636372 0.22668833 0.28812513 0.20155182 -0.14751984 -0.24694368 -0.190672 -0.45208466 -0.17593408 -0.2892625 -0.14021365 0.18009314 -0.095018774 0.20151739 -0.38834143 -0.027763672 0.38758117 -0.11355275 0.0841752 0.4324045 -0.100763515 -0.575492 -0.4006783 0.29253408 -0.73513913 0.45699614 -0.11150539 -0.08673733 -0.7205264 0.91357166 0.71706545 0.2611484 -0.53485507 0.46717057 -0.4494803 0.13255256 -0.24760394 0.92342615 0.31141806 -0.38524684 -0.20100898 -0.24769725 -0.4016119 -0.46752146 -1.0685717 0.09207459 -0.44920352 -0.4015271 0.47629067 0.4210549 -0.30166864 -0.29656497 0.0795083 0.16093533 0.18665734 0.2998364 0.73746175 0.0603591 0.15217607 0.1423724 0.8075998 0.34941724 0.41876525 0.018950708 0.029003432 0.70485234 -0.09443312 0.4331499 -0.05447104 0.111821756 0.47357076 1.0739919 -0.36320105 0.31262106 0.16833651 -0.08004544 -0.027401414 0.0684429 -0.35106564 -0.1154428 0.5976373 -0.68726873 -0.09300863 -0.37888268 0.08225149 0.029085534 0.12477891 0.042420313 0.1922531 -0.7344067 -1.2076855 0.026068825 0.4839701 0.21410342 0.058768664 0.2589001 -0.2710206 -0.32409325 -0.2580301 -0.0028797314 0.1827586 0.6605907 0.2802936 0.016426204 -0.17857973 -0.20857978 -0.43210396
1659 -0.39382952 -0.30077773 0.045826443 0.25296995 0.047345366 0.08878591 -0.7514927 -0.26430792 -0.32579687 0.48925838 -1.0001571 0.5845766 -0.11995728 -0.39003167 0.08401929 0.67169046 -0.08919948 0.5431206 -0.16735674 -0.0017130582 -0.6476798 -0.72269034 -0.1490325 0.20302992 -0.08689482 -0.32753605 -0.6242621 -0.1512054 -0.70929223 -0.59490114 -0.72806793 0.19749007 0.24931918 -0.3502437 0.22922507 -0.36370224 0.099902146 0.05688515 0.09876956 0.3587869 0.3986516 0.118099086 -0.29624176 0.1285692 0.73999715 -0.95194733 0.49532688 -0.28635368 0.30901837 -0.8735311 0.54562557 0.59304744 0.78868663 -0.8351543 0.2606464 -0.8260584 -0.12619525 -0.81511307 0.83941025 0.31459305 -0.1946004 0.25438872 -0.29065326 -0.8370502 -0.66241324 -1.0345738 0.26748827 -0.12874106 -0.34616333 0.63717073 0.3534194 -0.74630076 -0.42780557 0.056583345 0.5207436 0.13502675 0.7986343 0.5374323 -0.20530924 0.39894485 -0.025628433 1.1900308 0.7524493 0.4923351 -0.083886 -0.15687439 0.708905 -0.1964128 0.0973058 0.12986258 0.16578121 0.55116814 0.92918587 -0.59802413 0.036569614 0.19673413 0.20353884 -0.36850432 -0.009413643 -0.5642679 -0.040462952 0.37315962 -1.4698776 -0.48738924 -0.49358553 0.10769991 -0.3774517 0.23930384 0.417663 -0.1051752 -0.4117927 -1.3824489 0.03422297 0.7909561 0.06520472 -0.14152272 0.58935994 -0.47362417 -0.3496842 0.097897075 0.5396586 0.30136845 0.39599425 0.04908572 0.21082672 -0.5313314 -0.20200856 -0.51825035
6 -0.1135736 -0.056352645 -0.6184458 -0.10311134 0.4041773 0.12472203 -0.32428396 0.13854642 -0.32600635 -0.16094434 -0.032300543 -0.12276029 0.09508659 -0.29543018 0.34680548 0.50955284 0.009871352 0.37282863 0.08479794 0.1354061 0.64731276 -0.03542104 0.22519389 0.18936886 -0.10122519 0.25627828 -0.020805886 0.09928778 -0.09600407 0.21403277 0.13390963 -0.5561339 0.31726903 -0.0063988874 -0.038743835 -0.009394513 -0.53693223 -0.0836022 -0.17789489 0.04436581 0.0071516046 0.08056125 0.6114032 -0.16698036 0.44326112 0.18795447 -0.050670497 -0.16768986 -0.22593391 0.04353475 0.23630325 0.52023137 -0.015409386 -0.36984834 0.6371813 0.2203735 -0.6283824 -0.3113049 -0.22116512 -0.13730548 0.20577836 -0.3493525 -0.087851845 0.0063020014 -0.40457326 0.5026089 -0.106647596 -0.5495869 0.17205705 -0.0045364858 -0.23383737 0.32512078 -0.12620835 -0.024976809 0.7763469 -0.43629894 -0.12897739 0.20464827 0.114978075 0.02403857 0.62299186 -0.26316777 -0.2547056 -0.32295424 -0.3826806 0.1148907 -0.33747926 -0.02188232 0.021826748 0.30899185 0.06616707 0.044909008 -0.25354323 -0.5661929 0.034370676 0.42663983 0.27105176 -0.3437771 0.5678493 -0.16118097 -0.57961327 0.21434535 0.17947534 0.42990682 -0.067920655 0.012654941 -0.3608993 -0.5670562 -0.08853541 0.46496186 -0.24848773 -0.12388219 0.11124981 0.21616551 -0.39348704 0.7395413 0.13764755 -0.47098508 0.46658635 0.35239914 -0.010892964 0.6601649 -0.5280358 0.2800162 0.584724 0.016337847 0.2101438 -0.62134546
1416 -0.1383381 0.3553679 -0.5037805 0.027732376 0.49334264 -0.2759985 -0.5625292 0.22875065 -0.51844794 -0.29283208 -0.28138506 0.09467082 -0.13798505 -0.2104716 0.35435733 0.29162636 0.09724711 0.42610353 -0.037777796 0.16752103 0.2458902 -0.1541975 0.42240253 -0.20205793 -0.39894885 -0.018873528 -0.20028618 0.16193704 -0.09720408 -0.024750058 -0.0014816517 -0.15147284 0.49872726 -0.010837422 -0.21366967 -0.18814449 -0.308232 -0.5205482 0.15640278 -0.08964542 -0.287039 0.22745356 0.40079847 -0.3557458 0.10924837 0.15970537 0.18117213 -0.3611534 -0.079016544 0.011303745 0.26193485 0.5347309 0.019031933 -0.21213308 0.45676365 0.12168611 -0.47647017 -0.36649212 -0.11333677 -0.2781641 -0.10302836 0.09158567 -0.18109739 0.1379817 -0.36531737 0.21603653 -0.23062348 -0.31044072 0.12178309 -0.14494704 -0.06724007 0.14034684 -0.1239259 -0.23904477 0.3665213 -0.31161907 -0.039987706 0.16521499 -0.08373437 -0.15927993 0.23509572 0.05601922 -0.26257238 -0.069618225 -0.2635363 -0.15208086 -0.055515442 0.052688792 -0.09746704 0.1423464 -0.049659975 -0.13719517 -0.57504755 -0.6905313 0.017986357 0.19655873 0.40653315 -0.20783114 0.09331273 0.15149283 -0.5051186 0.17989993 -0.021874035 0.08998425 -0.08866005 -0.096881315 -0.20928895 -0.32320702 0.049329944 0.4136882 -0.14733294 -0.15125754 0.18854798 0.1105235 -0.15113391 0.38994652 0.13515149 -0.45078883 0.6329181 0.064212814 -0.060027696 0.6319205 -0.62008 0.14904958 0.11570252 0.53887594 0.33064333 -0.30043754
1602 0.19260077 -0.25053898 -0.48106864 -0.11620486 0.0687739 0.08699153 -0.14890099 -0.0139983855 -0.16464442 -0.43013448 0.2874344 0.2523784 -0.00024246928 -0.096702665 0.10381935 0.8436353 -0.035317495 0.2283106 0.13784663 0.098241225 0.43449354 0.010620362 0.2257509 0.247809 0.043950118 0.058069002 0.24622396 0.26235464 -0.5533059 0.22464137 0.027942933 -0.17715319 0.0927128 -0.2371424 0.26688227 0.013322347 -0.46813664 -0.44884986 -0.18054551 0.03890275 0.02789602 0.0724105 0.4464106 0.21309227 0.28920963 0.035195302 0.098070696 -0.018455068 -0.12980202 0.09914094 0.13639982 0.32277256 -0.110362776 -0.4356423 0.96040356 0.30422255 -0.31338015 -0.13800056 -0.25201413 -0.28034034 -0.17724538 -0.23658821 -0.13211049 0.18469776 -0.591334 0.49372315 0.009233134 -0.45586234 0.040748235 0.11577482 -0.23417531 0.14889443 0.06031158 0.00037286422 0.47432134 -0.29397377 0.25566953 0.16051908 -0.1608693 0.0063709198 0.4775603 -0.15829898 -0.1932861 -0.35450843 -0.23380414 0.13273917 -0.22534822 0.08992716 -0.14852414 0.2673594 0.1901799 -0.04606144 -0.32986313 -0.80368686 0.06547465 0.30826274 0.32379612 -0.2346405 0.38170883 -0.0904965 -0.46570194 0.18385386 0.24357606 0.46370476 -0.1820431 0.14852001 -0.5679357 -0.29771554 -0.41523165 0.6658669 -0.13617523 -0.1521722 0.0041352203 0.1496997 -0.49777076 0.59051895 0.11889797 -0.13328132 0.12390265 0.45955667 -0.02978019 0.47979334 -0.21166255 0.13662308 0.32754865 -0.04434312 0.23682542 -0.3047172
1042 -0.3177247 -0.2029225 -0.33174613 0.09906293 0.46790707 0.25692233 -0.16998975 0.056159988 -0.3017429 0.27070498 -0.26048973 -0.45173338 0.1523406 -0.110854454 0.04067524 0.44338986 -0.35811946 0.2029515 -0.018737094 0.19567789 0.69922423 0.105828956 -0.007369224 0.34193617 -0.4611545 0.30997434 -0.18924275 0.039664555 -0.10820019 0.036512863 -0.014685277 -0.29741853 0.02171034 0.030100208 -0.25575462 0.0047864583 -0.20138769 0.0015760885 -0.362886 0.13966653 0.0020404237 -0.020596385 0.6706178 0.004948177 0.4608625 0.11277235 0.097173676 -0.21196757 -0.13162033 -0.036796696 0.39267543 0.37340617 0.029528229 -0.33062017 0.43331665 0.23982434 -0.49805236 -0.4973446 -0.35930523 -0.16662687 0.46459946 -0.3199728 0.21107322 0.008438727 -0.32396185 0.1380969 -0.30348602 -0.36870518 0.31388828 -0.3399002 -0.51634556 0.081064716 -0.22293968 0.117893934 0.93710077 -0.11267795 -0.042007945 0.05323772 0.092187434 0.110636294 0.6699936 -0.13610034 -0.452389 -0.40884873 -0.32614467 0.14492016 -0.3461709 0.13369057 0.104002 0.19228354 0.14407088 0.31543833 -0.045607325 -0.053059865 0.14363557 0.2624263 0.09242287 -0.40093186 0.49583516 0.0017503999 -0.22443804 0.13373235 0.2605266 0.060292616 0.048775036 -0.06534619 -0.27893186 -0.5771859 -0.24803334 0.20104474 -0.28450355 -0.09308332 0.0910048 -0.08428078 -0.27281952 0.8774744 0.19870323 -0.26921746 0.33735296 0.05615546 0.15335788 0.53138125 -0.12595455 0.50203365 0.3884258 -0.18149614 0.00012191938 -0.5730762
373 -0.21714512 -0.253321 -0.3863663 0.027586091 0.40352502 0.309813 -0.21319222 0.10989954 -0.24493606 0.17556256 -0.21707183 -0.46380958 0.362079 -0.2823713 0.31302267 0.55855876 -0.006347901 0.36117646 -0.03242741 0.09367235 0.93504643 0.13386862 -0.15361154 0.3449987 -0.4608228 0.3599827 -0.2751178 -0.009311629 -0.15592253 0.0793257 -0.10288209 -0.6745777 0.080586135 0.017534323 -0.41450095 0.13426791 -0.59258175 0.022360906 -0.44462964 -0.00032794694 0.14798322 -0.009402479 0.6471908 -0.2428995 0.52169776 0.027611962 0.12803327 -0.26842454 -0.29967952 -0.10330044 0.2624433 0.44278973 0.08525288 -0.3723226 0.5177779 0.105866656 -0.74928725 -0.45348895 -0.15388097 0.111810826 0.47309685 -0.5501816 0.11968639 0.22577253 -0.30692944 0.5003544 -0.064743504 -0.6275368 0.2253219 -0.19871414 -0.3928752 0.3087812 -0.26959363 0.10100788 0.92761534 -0.47437343 -0.21341386 0.30040962 0.1538062 0.099201865 0.9442168 -0.40975612 -0.41939846 -0.36222038 -0.23829924 0.2667031 -0.42970222 0.08689038 0.1384939 0.26921853 0.065148816 0.12994005 -0.037702147 -0.10813642 0.15527683 0.33130947 0.18271697 -0.336444 0.6407641 -0.06587261 -0.58679974 0.34015143 0.17954724 0.4658081 -0.027520988 -0.15745693 -0.45665562 -0.6966556 -0.2879364 0.33078915 -0.41964662 -0.11406761 0.13434756 0.15455022 -0.3464252 0.8915623 -0.024598597 -0.4964313 0.50572264 0.2855897 0.050629523 0.564509 -0.43497306 0.57140946 0.6490595 0.016775876 0.18863325 -0.74126774
7 -1.1266588 -0.29544252 -0.01541051 0.22487506 0.3316663 -0.07802869 -1.2331648 -0.0037605595 -0.6872925 -0.09102848 0.3614953 -0.88761663 -0.06018873 0.8090518 0.19786027 0.23527052 0.7134984 0.117384695 -0.020105114 0.6601985 -0.11842677 -0.8369908 0.73979247 1.5674113 0.53600013 0.36794862 0.3191923 -0.37384638 0.565692 -0.7485651 0.7995316 0.6525277 -1.3877438 0.448345 1.1392161 0.18744375 -0.7383906 0.57454354 -0.3084639 0.707589 -0.9634052 0.023746332 -0.51615655 0.5465004 0.68201256 -0.0994386 -0.0035565281 0.2575802 -0.80332595 -0.5271083 0.032839466 0.9574107 0.03271506 -0.6163797 0.66031647 0.81771606 -0.50312537 -0.027214041 -0.6568374 0.8319408 1.3751041 1.3492032 -0.21746284 0.45409533 -0.043538716 -0.49178645 0.48889887 0.17905924 -0.31262138 0.8694177 -0.25162333 -0.8703377 0.18534593 -0.27621338 -0.8756505 0.2186006 0.2027615 -0.15028185 -0.47662434 0.79420185 0.54854155 -0.71446794 0.43351996 -0.22862598 0.39187005 1.1894886 0.32894427 0.0008576516 -0.071791574 -0.0956902 0.15729488 0.16213599 0.40811196 -0.41895428 1.402179 -1.1269403 0.75392044 0.19395123 -0.25935295 -0.20067644 0.70689684 0.8227296 -0.72394323 0.24847674 0.56673104 -0.8343552 0.2710297 -0.24683708 -0.6440386 -0.5998703 0.259252 -0.53377026 0.38050818 0.1925342 -1.0187649 -0.091170296 -0.5684406 -0.16439974 -0.14026763 0.3909762 -0.9712799 -0.73111165 1.2200533 -0.18780164 -0.15404324 0.3181976 1.3435657 0.7748956
208 -1.1226974 -0.29848203 -0.019850833 0.23137727 0.33662277 -0.0734534 -1.247891 0.0021031182 -0.67567295 -0.075717784 0.33252946 -0.88051766 -0.06815041 0.80239594 0.19341232 0.24698949 0.7001521 0.085904405 -0.009529431 0.6211101 -0.104120344 -0.86682296 0.7602362 1.5523989 0.50853187 0.37276712 0.32637298 -0.3607043 0.5619859 -0.7460458 0.7765236 0.6503079 -1.3845091 0.45300263 1.1523795 0.19355538 -0.74392587 0.5696007 -0.30314595 0.70272654 -0.97084755 0.011854711 -0.5121405 0.54738665 0.6791317 -0.105609976 -0.031329624 0.24108364 -0.80997884 -0.5030497 -0.0018715204 0.927464 0.010665023 -0.64206845 0.63208634 0.83714783 -0.5212022 -0.018042356 -0.6615426 0.8305117 1.3822953 1.3661476 -0.20011054 0.4662677 -0.019920385 -0.5038213 0.51415074 0.20332767 -0.3177689 0.89479315 -0.2842756 -0.8556813 0.18269469 -0.26656026 -0.8545433 0.21377707 0.20097913 -0.13965055 -0.5109254 0.81297284 0.55299443 -0.74406487 0.40818787 -0.2343039 0.3692066 1.1958815 0.34280825 0.024737816 -0.06887516 -0.09235551 0.15823591 0.1236052 0.3966029 -0.43419105 1.4052821 -1.1177388 0.74875706 0.16124964 -0.2538672 -0.17872813 0.70436275 0.8472569 -0.7101134 0.25227833 0.5834701 -0.8589037 0.26565093 -0.25279254 -0.6473305 -0.6044004 0.24143265 -0.51057047 0.39109653 0.18278842 -1.0329334 -0.08670792 -0.5698232 -0.16144271 -0.13874567 0.41954422 -0.9649653 -0.7110735 1.2192053 -0.18149136 -0.18244596 0.31717843 1.3262155 0.7672392
8 -0.9747973 -0.2261258 -0.04564718 0.2745226 0.34707695 0.15522179 -0.62099797 0.26338547 -0.120846465 -0.17883185 -0.054015364 0.11626804 0.37693554 -0.6692353 -0.025538223 0.7577436 0.0011113001 -0.20017718 0.34576905 -0.34729925 -0.032018602 -0.060273673 -0.09890138 0.4719301 -0.32116342 0.17788957 -0.34570757 -0.11041226 -0.05588696 -0.53767675 -0.1442748 0.3291521 -0.10226537 -0.31694022 0.048922498 -0.25501445 0.046603337 0.2800615 -0.22873883 0.3577739 -0.681283 0.5108726 0.11939462 -0.10474534 -0.38885143 0.09352974 0.6346662 -0.22371234 -0.32884452 0.5061709 -0.42773098 -0.12505269 0.3780503 -0.6424629 0.363487 0.5768954 -0.28960726 0.24562587 0.20381118 0.38704997 0.32874984 -0.30084568 -0.46672508 0.49191532 0.344841 -0.0028415276 -0.3739822 -0.0144107025 -0.08563828 0.34413543 0.202092 0.1307327 0.21361825 0.30303258 0.6208005 0.26565698 -0.4005371 0.17030855 -0.3412237 -0.17011811 -0.29059228 -0.39141828 0.58668125 -0.30492628 -0.20429309 0.5890695 0.26250452 0.45505795 -0.3529265 0.40600875 0.31860995 -0.85500413 0.5950804 -0.54477286 -0.027981412 -0.3468408 0.34202048 0.30880475 -0.13284785 -0.34699646 0.507879 1.1137283 0.17711672 0.11846608 0.19240198 -0.425732 0.058968734 -0.0017107766 0.8691749 0.06700882 -0.0059641763 0.6117877 -0.22654067 -0.004135799 -0.24855113 0.28658947 0.07123268 0.05958452 -0.29425147 -0.23031649 -0.7219207 0.39703768 0.2588687 0.13766186 0.24910702 -0.12839402 -0.21053743 0.11669798
281 -0.6980247 -0.1203429 0.3260027 0.12944753 0.2616449 -0.18601836 -0.6128587 0.013506955 -0.108173825 -0.5130007 -0.38953662 0.045559287 0.47010866 -0.7086588 -0.029238287 0.7834404 0.08578264 -0.17311712 0.33546725 -0.27711067 -0.21543153 -0.23666577 -0.09002286 0.5215528 -0.41267464 -0.018893503 -0.39383385 0.08816433 -0.32011133 -0.09529379 -0.02364984 0.18660519 0.06664873 -0.51470345 -0.19557685 -0.1694651 -0.23016195 0.11016953 -0.12131201 0.09533773 -0.5500667 0.4277733 0.046633437 0.031179728 -0.21301094 0.11860306 0.34836313 -0.27304164 -0.20479743 0.21727148 -0.4715619 0.18126383 0.16288349 -0.34672016 0.43506083 0.57087016 -0.20012271 0.3547463 0.36368725 0.54194057 0.32849118 -0.38641766 -0.44433257 0.2550587 0.5983062 -0.47216105 -0.4977765 -0.1437633 -0.29616734 0.34887853 0.09529665 0.15085717 0.4543822 0.040552195 0.45769414 0.020487834 -0.036774043 0.4424528 -0.22186874 -0.05884616 -0.04474478 -0.2728632 0.3129941 -0.039915778 -0.03692677 0.53875804 0.1133234 0.5441344 -0.13606787 0.14616682 -0.019378422 -0.6415694 0.37515223 -0.6226274 -0.31247637 -0.141109 0.3211741 0.30273336 -0.25786427 -0.09508311 0.3173746 0.6372735 -0.1815794 0.10952414 0.16068804 -0.48507828 0.015390408 0.05143091 0.36981907 0.1733443 0.085323155 0.122859076 -0.11911491 0.06594755 0.008929993 0.28956118 0.018377827 0.112677455 -0.52435285 -0.49762958 -0.5779297 0.171092 0.5802276 -0.05135334 0.3649964 0.0038955025 -0.18665817 0.09359226
1996 -0.5182394 -0.26848885 -0.3011242 0.35874623 0.5744601 0.3522238 -0.55292404 0.16377412 -0.003513274 -0.062249128 0.34787515 0.16703232 0.30898285 -0.3986007 -0.55928826 0.73152363 -0.14613168 -0.03704404 -0.10536656 -0.12369147 0.21252632 -0.06861264 -0.23923935 0.37821737 -0.019203428 -0.10856045 -0.11580531 -0.107821636 0.24262363 -0.8488937 -0.463657 0.6678044 -0.120314196 -0.3081222 0.5966852 -0.096861936 0.098507434 0.42598173 -0.22158042 0.62004256 -0.7762105 0.20425043 0.25872576 0.070096895 -0.43536505 0.08327415 0.34343264 -0.1689916 -0.6012668 0.4439547 -0.2651406 0.073126994 0.41393235 -0.661622 0.061457846 0.2660165 -0.044254575 -0.0011478866 -0.38926646 0.18622279 0.1901287 -0.24169788 -0.3048907 0.6696031 0.40664193 0.5524936 -0.3991005 0.08521943 0.046053417 0.3480514 0.018914318 0.17493881 0.1636273 0.24922739 0.43430215 0.1353627 -0.2862772 0.02776395 -0.2980318 0.034027185 -0.4243395 -0.31356922 0.47420618 -0.10705754 -0.20141207 -0.14835106 0.5345777 0.44244316 -0.40253225 0.10578529 0.17969449 -0.9202557 0.54750985 -0.28720576 0.24305499 -0.21186382 0.1042688 0.35312158 0.08304112 -0.19132446 -0.06901077 0.9444523 0.017927304 0.08989561 0.039743096 -0.27457204 0.118706815 0.18289685 0.9974404 0.13933219 0.05659945 0.62405175 -0.40404728 0.12405574 -0.42588478 -0.0054308493 0.15177342 0.11158776 -0.05285003 -0.27967727 -0.42694074 0.18386476 -0.12686428 -0.0979154 0.2191504 -0.051844172 -0.3195061 0.054823495
269 -1.3522173 -0.10661164 -0.18115 0.19743569 0.4713457 -0.14748587 -0.11820281 0.18170698 -0.37134248 0.23965989 -0.31335887 0.25008646 0.055566907 -0.52387017 0.33854222 0.9228213 -0.0679028 0.20449898 0.844801 -0.13134682 -0.17871335 0.11596537 -0.079816766 0.8354235 -0.34601495 0.52274644 -0.21094032 0.040207393 0.1837347 -0.40356076 -0.3846156 0.027195977 -0.1663981 -0.31639823 -0.20797451 -0.46438342 -0.062210023 0.20569743 -0.16387661 0.40811914 -0.5440715 0.58214575 -0.18958409 -0.20399542 -0.6015598 -0.006171258 0.7578437 -0.48279974 -0.5487772 0.42644846 -0.32270026 -0.26557958 0.47825435 -0.6626895 0.5258629 0.54598135 -0.285867 0.5336737 0.41711786 0.19930221 0.47773317 -0.31362405 -0.81662947 0.785713 -0.047372453 0.07028899 -0.29384068 -0.0034085212 0.2008298 0.38671866 -0.13255203 -0.071064144 -0.012727692 0.5278906 1.0074784 0.4086074 -0.76012886 0.35166144 -0.6040595 -0.21347524 -0.048409928 -0.7128459 0.6400368 -0.5262662 -0.2735575 0.8764294 -0.05644253 0.5458992 -0.49946183 0.5928735 0.57552004 -1.0123712 1.0093863 -0.52265805 0.04375822 -0.5542565 0.6769551 0.21061008 0.081666805 -0.3549391 0.9259436 1.2476293 0.46390462 -0.088211805 0.22786225 -0.5199018 -0.37097043 0.26357305 0.8848653 -0.2563518 -0.23191214 0.60800344 -0.16042854 -0.00042767037 -0.097053535 0.48669034 -0.19534461 0.22692238 -0.25104326 -0.3421803 -0.3869958 0.79437697 0.11211647 0.66023344 0.38213387 -0.2953758 -0.3317418 0.27645043
9 -0.3595035 -0.9570119 -0.04478369 0.016163614 0.3729589 0.49593616 0.20036635 0.48888648 0.03843823 -0.015587832 -0.197325 0.34210634 -0.10503901 -0.020242982 -0.6980854 0.96959865 0.45461717 0.314532 0.6911285 -0.021984333 0.001830707 -0.07090324 0.54077417 -0.6530572 -0.16851738 -0.7592164 0.064759165 0.103436075 0.75393707 0.13841662 0.38744715 0.29304326 -0.35238597 1.3485733 -1.3074454 0.69376063 -1.2630359 -0.08778741 0.5564423 -0.623789 0.23678316 0.36204994 0.066630766 -1.0506871 0.07937049 0.2985876 -0.7577791 -0.24528947 0.057303414 -0.15976715 0.86914223 0.40215686 -0.0054356656 -0.2178688 0.70863706 0.39502448 -0.12183344 0.14021094 0.35139674 0.29441634 0.45416927 -0.7133078 -0.6490526 -0.109402806 -0.0015291567 -0.37647355 0.29529452 -0.0058733607 0.27143884 0.3209254 0.10437564 -0.6301549 0.7764017 0.5393941 -0.12295921 -0.54532045 0.006227804 0.029758831 -0.09546517 0.55839217 0.34838927 0.29860103 0.5763307 0.026184373 -0.31964862 -0.52091706 0.29383048 -0.20580131 -0.11563667 -0.60667634 0.2190168 -0.13330925 0.15180007 -0.43322885 0.31580463 -0.014950151 -0.053992547 -0.3589355 -0.20893441 -0.45942107 -0.7038006 1.4698117 0.15997577 0.7808887 0.932184 -0.39717138 -0.30585468 0.34679502 0.052890994 0.02880419 0.85805094 -0.24223006 -1.0567212 -0.65151477 0.3256087 -0.22028314 0.65788406 0.92513585 -0.30551004 0.7268114 -0.039012797 0.3501901 0.59280926 0.88171035 0.06544041 -0.16109398 -0.22367378 -0.28302002
2614 -0.22886683 -0.7870751 0.00039149655 0.057663064 0.3960966 0.31695613 0.08035679 0.46624425 -0.103445426 -0.18882425 -0.14001442 0.21151665 -0.17330931 -0.038555685 -0.62716246 0.9647582 0.3760076 0.33968997 0.73314655 -0.12177875 0.051019214 -0.14228891 0.5904521 -0.63820434 -0.026845593 -0.59868044 0.068230316 0.060708445 0.60913223 0.124551386 0.21336716 0.29750276 -0.36086363 1.2112923 -1.0997157 0.72437733 -1.1072458 -0.030592179 0.47443196 -0.45761973 0.10702703 0.21080644 0.07146112 -0.9664321 -0.0039090863 0.3894264 -0.4757297 -0.14126669 -0.0010011494 -0.23653428 0.8270699 0.44143924 0.10596459 -0.0863272 0.6815766 0.23768769 -0.051614173 0.1326278 0.42848912 0.18567172 0.41773993 -0.54199356 -0.508104 -0.09570281 -0.08651522 -0.4418587 0.21695134 0.04692842 0.20574676 0.30531633 0.12063532 -0.5480515 0.6567808 0.40978006 -0.18914975 -0.4755619 -0.1294812 -0.20199406 -0.21740842 0.3355694 0.33825135 0.32883066 0.529417 -0.10952024 -0.103842296 -0.350983 0.30741858 -0.20618 -0.05121167 -0.49708396 0.17269835 0.022097323 0.036551606 -0.10460308 0.12702943 -0.030217882 -0.01988869 -0.23290367 -0.14810872 -0.44634894 -0.6247133 1.2199985 0.057529144 0.6029962 0.5809269 -0.32534254 -0.1474541 0.41916594 0.2923322 0.017648485 0.81745994 -0.09077616 -0.7278598 -0.5387028 0.2661012 -0.14899988 0.6998495 0.7746125 -0.3073086 0.7037356 0.07686455 0.16618529 0.64329004 0.96619475 0.10544762 -0.14143226 -0.1641587 -0.23250872
723 -0.3169417 -0.9242122 -0.029728482 -0.0448647 0.45154253 0.49473485 0.0465272 0.53497416 0.061733194 -0.086140685 -0.16992918 0.21155426 -0.12548874 -0.08596446 -0.6475616 0.9863363 0.4923975 0.55059046 0.82708925 -0.051761683 0.069450736 -0.0990786 0.45591563 -0.6073661 -0.08733239 -0.7699904 0.1471243 0.12714548 0.7264955 0.22851819 0.32114688 0.3123981 -0.31532297 1.3135607 -1.1935722 0.77713764 -1.2376616 -0.12005459 0.53172684 -0.6524241 0.13433908 0.375062 0.11425024 -1.1774471 0.114842206 0.31130525 -0.7199524 -0.17812812 0.085171424 -0.25011173 0.81456894 0.48315415 0.029132305 -0.30424184 0.76826996 0.37681457 -0.14947318 0.1867241 0.38099766 0.18225344 0.55196196 -0.5952786 -0.5921646 -0.016413186 0.0439614 -0.3619795 0.1860441 0.009814085 0.17288502 0.3348478 0.15017729 -0.6165662 0.7784903 0.5575919 -0.1943038 -0.6087381 -0.021595126 -0.12300134 -0.18466297 0.52930015 0.43772164 0.32908392 0.55398375 0.022178994 -0.13511604 -0.53821105 0.36064944 -0.18701972 -0.111201994 -0.6784119 0.23094182 -0.0060198433 0.14063522 -0.35384104 0.21495432 -0.037711002 -0.21515216 -0.2972045 -0.16266759 -0.5582239 -0.7214455 1.4380232 0.100453556 0.691467 0.7718997 -0.30781397 -0.10861185 0.43102172 0.039215356 -0.037170235 0.84943694 -0.16855162 -0.9444486 -0.58684254 0.41363558 -0.14189237 0.5787663 0.7528528 -0.26756525 0.7314811 -0.008089054 0.25005206 0.56784666 1.0501881 0.0796652 -0.18938898 -0.1745981 -0.39194855
10 -0.782293 -0.3813949 -0.29872796 0.10892824 -0.19080912 -0.5698632 -0.75764894 -0.21645957 -0.25288787 0.46000725 0.3178216 -0.105545156 -0.29146433 -0.3577756 -0.24919353 -0.5141907 -0.2239237 -0.08814711 0.015306878 -0.44272962 -0.27887467 0.04451265 -0.08688008 -0.2113385 0.4864901 0.11944679 0.30420822 -0.44058996 0.518049 -0.3156419 -0.31429246 1.4437164 -0.10038614 -0.14305474 0.21375015 0.21446915 -0.38978413 1.1078175 0.27137452 0.39273933 -0.2624109 0.03318546 0.57228947 0.3296647 -0.26433736 -0.4289071 -0.06404705 0.098641686 -0.5978981 0.041918557 0.93873435 0.5035552 0.098551564 -0.047985133 0.101954766 0.008781526 0.3541558 -0.19200738 0.13248163 0.34724343 0.24108659 0.4780661 -0.1262777 0.44586563 0.31968284 -0.09632431 -0.27602428 0.29176766 0.43096295 0.29589903 0.33531275 0.47075891 0.2857788 0.040192556 0.71686393 -0.005048317 0.6124163 0.6100047 -0.62299067 -0.086618714 0.23589233 0.7237908 0.064154305 -0.44396278 -0.36399552 0.048544157 -0.3250498 -0.67430145 0.5918051 0.19085531 -0.08996485 0.014309084 0.83089113 -0.2663239 0.3145016 -0.28153417 0.4421044 -0.1343382 0.72576207 -0.043403525 -0.49360156 -0.15147075 0.534397 0.6890024 0.87158537 -0.30010772 -0.16753756 0.29569706 0.3302254 0.569221 -0.44084817 0.1996879 -0.34181708 0.070304 0.22738752 -0.32763952 0.4498262 -0.017141951 -0.17543644 0.7002174 0.5079286 0.10993284 -0.6073974 -0.29572415 -0.06663106 0.8560748 -0.3649151 0.12138208
476 -0.5049846 -0.20701197 0.0986015 0.11410224 0.0088106105 -0.37067476 -0.5698922 -0.10279123 -0.15884763 0.20380083 0.5316025 -0.24191825 -0.07276733 -0.26133534 -0.3398141 -0.3163453 -0.12597303 -0.06682444 -0.11500622 -0.14723173 -0.15998778 -0.022382773 0.008948848 -0.17828429 0.35026044 0.15151891 0.14846207 -0.3423125 0.3165922 -0.09792649 -0.21442445 0.99780875 -0.055387337 -0.23215583 0.10281962 0.316538 -0.12800671 0.7099734 0.13038972 0.33853713 -0.21058594 0.17401884 0.37660736 0.15214986 0.022212265 -0.2642331 0.1890137 0.040548377 -0.50210375 0.11096098 0.50070983 0.43689367 0.13726144 -0.08306913 0.008351971 0.012940691 0.26630646 0.04444487 0.029656515 0.27870613 0.34352073 0.33878252 -0.112370566 0.5773285 0.26615545 -0.182223 -0.41681075 0.24256867 0.1788415 0.1729434 0.15446189 0.1755825 0.15119867 -0.04359354 0.38142642 0.17812553 0.14363714 0.4164977 -0.44832572 -0.31316268 0.24737573 0.5838983 -0.018929323 -0.28486043 -0.1605088 0.07160198 -0.30308905 -0.37394083 0.5072448 0.19045317 -0.02312732 0.097291544 0.44650227 -0.21282844 0.1580475 -0.19491096 0.30253485 -0.17640968 0.4008358 0.10718933 -0.4687319 -0.10676774 0.21497412 0.4050053 0.55048305 -0.27257165 -0.0759012 0.32930785 0.23588267 0.6201254 -0.4498238 0.09216812 -0.18656816 -0.19455598 0.3307397 -0.2885532 0.38027883 -0.005760147 -0.19623546 0.5141797 0.31772634 -0.010937239 -0.41125044 0.00813618 -0.09671748 0.6820142 -0.21205422 0.28868878
2545 -0.6353655 -0.36504775 -0.43873647 0.05256114 -0.18866418 -0.54497236 -0.72568125 -0.28293443 -0.3087679 0.51987684 0.23815155 -0.05857184 -0.45514533 -0.35080853 -0.1738671 -0.46231186 -0.21318626 -0.053554773 0.022118926 -0.44197118 -0.37803355 -0.036603283 -0.039268017 -0.14770173 0.44671226 -0.05776468 0.31495807 -0.44680938 0.57423574 -0.4336465 -0.437979 1.5123643 -0.061696418 -0.007568579 0.39046714 0.15195487 -0.4868456 1.2796844 0.44992614 0.39606112 -0.2516971 -0.057868876 0.6542484 0.17062344 -0.26144382 -0.4150483 -0.21213248 0.19743873 -0.5891419 0.014881043 1.0871719 0.66106105 0.147582 -0.14646038 0.16429608 0.18553798 0.38345897 -0.28426707 0.14723654 0.29723513 0.1980624 0.63859165 -0.22912146 0.30067626 0.21887286 -0.06383821 -0.29756024 0.21063589 0.55889404 0.29341796 0.34199402 0.5213182 0.25268435 0.17436531 0.781613 -0.09050872 0.50005776 0.8607774 -0.67211396 -0.0051005054 0.12599951 0.7804164 0.10399238 -0.5235702 -0.35803694 -0.063809015 -0.3824895 -0.48693946 0.6235491 0.17692284 0.065034 0.11215591 1.0114607 -0.26056123 0.61630625 -0.36751446 0.5525242 -0.059899397 0.92773646 -0.18129183 -0.6162752 -0.41932878 0.65087795 0.8449842 0.9511652 -0.23542422 -0.15255214 0.2872049 0.2189148 0.57934994 -0.4031459 0.3496278 -0.39277682 0.07046232 0.29481882 -0.3422597 0.550615 0.007852778 -0.16025357 0.8565918 0.48330325 0.16916785 -0.66117966 -0.28314424 -0.0709793 1.0475608 -0.42091212 0.15790592
11 -0.09316702 0.14135686 -0.13241392 -0.09704256 0.15402055 -0.16015743 0.09111535 -0.06120383 -0.025206482 0.3036892 -0.30806917 -0.57481825 0.115431175 -0.09493731 -0.25677398 0.09571721 0.38935158 0.69713694 -0.38759202 -0.14590007 0.41389918 0.1472155 0.52667606 0.034385007 -0.13400248 -0.13728182 0.30750698 0.07300628 -0.4073466 -0.189358 0.3893168 0.37605733 0.43207762 -0.21650222 0.09726896 0.2713656 -0.38508022 -0.39447471 0.37701535 -0.042189598 0.09806722 0.08220799 -0.1632802 0.048516583 0.059482094 -0.23412926 -0.23940286 -0.31642196 -0.33141953 0.5229106 0.11110804 0.5112911 0.04493834 -0.22697318 0.21869943 0.024895588 -0.1477909 -0.10389681 -0.030911848 -0.060480773 -0.102033794 -0.3958612 -0.13702267 0.15787773 -0.43428797 0.85818166 -0.30006248 -0.28226393 0.21872675 0.9914673 0.13674338 0.010523629 0.05935253 -0.4019885 0.45906696 -0.10227725 0.16107617 -0.23769183 0.04092027 0.21133244 0.5389812 -0.10765611 -0.6138234 -0.46754557 -0.089466296 0.1609096 0.42031646 -0.1777445 -0.6740782 0.11620118 0.20734593 -0.83389384 -0.0704793 -0.5372219 -0.56730205 0.40762424 0.47599876 -0.093580425 -0.22102253 -0.4276192 0.22221996 0.35343242 0.15262203 -0.17790937 -0.03312173 -0.17247133 -0.028223092 0.9471396 0.22732317 0.51135886 -0.11500536 -0.005239981 0.103176154 0.30099857 0.11040121 0.42334306 -0.28647825 -0.15249456 -0.33463404 0.5072552 -0.29984275 -0.28404826 0.42877534 0.3845918 -0.04185611 -0.3000256 0.27398875 -0.19945121
1655 -0.10439181 0.18245389 -0.39230567 -0.22870752 0.16330765 -0.08821656 0.04626146 0.031470094 -0.22525434 0.14831181 -0.32420096 -0.52841717 -0.3146636 -0.03492241 -0.18738045 -0.28788435 0.4503084 0.38349408 -0.29558095 -0.16506568 0.2942509 0.07864957 0.4778734 0.08685688 -0.28862503 -0.18784066 0.24198881 0.19184011 -0.44739157 -0.39214814 0.1145328 0.2949508 0.44544497 -0.14213978 0.04042804 0.08106813 -0.17080636 -0.16839609 0.36813152 -0.09322839 0.09897008 -0.03863485 -0.07581997 -0.07530043 0.24031296 -0.23571765 -0.1423297 -0.318475 -0.11842939 0.39814162 0.40926218 0.40965492 0.13744436 -0.0043770503 0.32875395 0.01762604 0.030683557 0.027113384 -0.19976926 0.10457382 0.07129933 -0.28986448 0.018723384 -0.061019547 -0.12468075 0.47617054 -0.045943215 -0.13876764 0.08148042 0.73637664 0.27176794 0.024367694 0.05783797 -0.2636183 0.33139214 -0.1408942 -0.0027601894 -0.24791619 -0.1183734 0.2460855 0.25513119 -0.13104449 -0.574276 -0.06609175 -0.20256408 0.10304672 0.24300785 -0.0811871 -0.7040279 0.06977921 0.1536068 -0.5934844 -0.07154193 -0.28743377 -0.45892882 0.190472 0.43865973 0.00022718406 -0.005865233 -0.29184386 0.012206588 0.34164703 0.22870709 -0.32179832 0.0019828335 -0.29809573 -0.049011726 0.7888951 0.3076281 0.46817824 -0.049974244 -0.03500421 0.009872566 0.15379049 -0.14472128 0.25350574 -0.42870346 -0.07409945 -0.3106928 0.16293742 -0.20297408 -0.094430566 0.2256656 0.5088609 -0.16732645 -0.13777179 0.1045702 -0.30608585
1839 -0.17847785 0.048030265 0.034542356 0.07379933 -0.035767376 -0.37444755 0.0072019836 -0.032194823 0.0675805 0.20852545 -0.14885584 -0.42098707 0.3904548 -0.03171841 -0.23413485 0.32351977 0.20095696 0.75591344 -0.28588036 -0.14309676 0.4209881 0.19197567 0.5117699 0.1567894 0.0645754 -0.068625666 0.24951412 0.050963353 -0.59012675 -0.14451833 0.40916216 0.512555 0.42131194 -0.11821384 0.014241158 0.11084789 -0.43546823 -0.43158722 0.1380496 -0.09441548 -0.04646805 0.20147035 -0.28077823 0.21536025 -0.01123527 -0.18259604 -0.25405127 -0.2618896 -0.3074244 0.5036756 -0.1623363 0.4240189 -0.015800042 -0.2290444 0.15935294 0.15486544 -0.3050868 0.023195988 0.078449175 0.22627261 0.05048064 -0.22516361 -0.19272016 0.116244875 -0.50840795 0.87552303 -0.18449847 -0.19722223 0.18883255 0.7267538 -0.13767584 0.1652858 0.033334494 -0.48312917 0.5826509 0.13849935 0.3461607 -0.35935614 0.112304315 0.13120131 0.8731093 0.012770136 -0.56070644 -0.6119716 0.12636335 0.5090675 0.23206408 -0.38010284 -0.5970967 -0.0024076782 0.18903303 -0.6605354 -0.037874244 -0.5939655 -0.4930592 0.35818282 0.36434123 -0.128685 -0.41725728 -0.5025599 -0.052571304 0.22152269 -0.10732053 0.04338633 0.025459317 -0.14930719 0.08016357 0.7682952 0.13408129 0.477482 -0.18749937 -0.1710612 0.18311258 0.39662305 0.23470284 0.32428437 -0.077087015 -0.12120403 -0.25059286 0.49140677 -0.2059274 -0.28442672 0.6500277 0.27629858 0.03930472 -0.40994772 0.2773987 -0.040540457
12 -0.020331392 -0.7634589 -0.69440466 -0.08914974 0.9047409 1.6341441 -0.64822584 -0.15618096 -0.10581194 0.4165917 -0.18498738 -0.9094101 0.83657455 0.6107691 0.68755025 1.3292736 1.6934619 -0.08883886 0.7427648 0.027510334 0.5968857 0.83172554 -0.723512 -0.15006717 0.010712218 -0.029425971 -0.89371264 -0.0067842384 -0.48457363 -1.3524247 -0.3005398 0.4319149 -0.264197 1.7878319 0.75866175 -0.2818868 -0.7228107 0.6592511 -0.57996845 -1.2172236 0.6230546 -0.84512806 0.58079845 -0.73212713 1.1169752 -0.21157531 -0.7888431 -0.82777613 -0.6946871 -0.37858495 -0.10290699 0.012912043 0.44724634 0.5812247 0.9571804 0.21684083 -0.3869691 -0.43797135 0.71823454 -0.22880147 0.7431658 -0.09302489 -0.89000565 0.27298987 -0.463782 0.39963603 -0.8450825 0.014296077 0.32276854 0.8540142 -0.16527213 -0.2102413 -0.34145203 0.9580331 1.5953989 -0.880857 -0.36625522 0.85314375 -0.33289772 -0.35065004 -0.115917936 -0.15728056 0.8850338 -0.40299672 -0.53446835 -0.30143473 -0.7375045 -0.13730633 0.11865091 0.8850447 -0.83172756 -0.1453865 2.000049 -1.2478127 -0.39037237 1.1506575 0.32779595 0.6796326 0.8482497 -0.68466175 -0.40181458 -0.8280823 -0.22988215 0.35976744 0.1287349 -0.99723303 -0.57252467 -0.12766747 0.38537794 -0.045460053 -0.14083889 0.043435216 -0.28265867 0.7233452 -0.90397835 -0.10813247 0.15349765 -0.07019725 -0.37320527 1.3456966 1.3800004 -0.014735434 -1.0710766 -0.5934926 0.81548715 0.6066228 0.0064286888 -0.99301374
2661 0.027650895 -0.69550204 -0.7757341 -0.1086934 0.88853467 1.5318526 -0.6480719 -0.14261936 -0.047584567 0.3937153 -0.21383722 -0.8652839 0.8493159 0.5803936 0.7030799 1.4401929 1.7246048 -0.04683003 0.7329666 0.02924828 0.64813 0.7694361 -0.72421205 -0.156354 0.006321211 -0.02195824 -0.88069415 0.038473647 -0.53222424 -1.268994 -0.26739907 0.50939745 -0.25969645 1.8069823 0.8076676 -0.27597454 -0.744282 0.6560425 -0.51559055 -1.21327 0.6444914 -0.758758 0.56943274 -0.679036 1.1225498 -0.3055349 -0.727652 -0.79945755 -0.7756793 -0.4116015 -0.022538973 -0.008814263 0.564895 0.70844704 0.96110415 0.33449033 -0.445263 -0.3511044 0.6976884 -0.23826696 0.78835213 -0.06973511 -0.8117961 0.2884762 -0.3957565 0.33109573 -0.86825633 -0.10107964 0.39269447 0.81819636 -0.2684724 -0.31120735 -0.38178626 0.92559016 1.608911 -0.7366511 -0.40392765 0.8750585 -0.2843545 -0.24864034 -0.12142584 -0.054577965 0.8772716 -0.4074896 -0.5040232 -0.20451325 -0.8567962 -0.14777665 0.18370163 0.9305404 -0.8033794 -0.15261494 2.0022607 -1.2032607 -0.48873717 1.0983546 0.24878 0.7386912 0.7346319 -0.63731116 -0.41632998 -0.8534563 -0.16347772 0.2445086 0.27973077 -0.94068897 -0.5416327 -0.1477537 0.30961093 -0.12502871 -0.28412348 0.000921217 -0.35311696 0.71379524 -1.0191133 -0.0839947 0.11401406 -0.0813003 -0.5040392 1.3208778 1.40076 0.03520657 -1.0831532 -0.5065514 0.7265945 0.5682697 -0.032470092 -0.9372059
1001 -0.06311683 -0.82593554 -0.82895255 -0.15453121 0.9320982 1.6624932 -0.5945228 -0.17563128 -0.095062986 0.41073287 -0.19317473 -0.82000345 0.8400703 0.62065035 0.6232665 1.4041324 1.7010587 -0.05226327 0.8286138 0.043854058 0.6127317 0.7921274 -0.7722988 -0.26933807 -0.040409513 -0.031566624 -0.88790137 -0.0335876 -0.5918203 -1.2579235 -0.39534253 0.51003903 -0.24384439 1.7387438 0.87110907 -0.22014904 -0.70824015 0.5942764 -0.4739432 -1.232837 0.59729743 -0.8469813 0.5471587 -0.7331832 1.1206806 -0.25433078 -0.7508243 -0.8508921 -0.7281509 -0.3520872 -0.08545165 -0.049701635 0.51184946 0.60118663 0.9216542 0.2937381 -0.32536677 -0.31840572 0.7188201 -0.25194934 0.7134786 -0.023743613 -0.838732 0.33494356 -0.36411247 0.36840805 -0.9209833 -0.11892728 0.33730423 0.7019599 -0.17997421 -0.26605713 -0.30396417 0.8404883 1.5781447 -0.79700947 -0.2966624 0.96190333 -0.32081124 -0.21739747 -0.11570815 -0.010071682 0.8603056 -0.38665858 -0.45450905 -0.2813734 -0.8393853 -0.16140287 0.22264151 0.9428726 -0.8213446 -0.1063072 1.9949 -1.2007964 -0.43008327 1.1754535 0.26837698 0.75447994 0.85504746 -0.62823796 -0.37275487 -0.88694805 -0.184261 0.20845185 0.2362412 -0.92670506 -0.4478896 -0.086909644 0.32073942 -0.11444588 -0.27029127 0.046207614 -0.23565157 0.7716729 -1.0255467 -0.17971304 0.20390683 -0.053450838 -0.41498545 1.3558137 1.3678625 0.013350589 -1.1126248 -0.48530248 0.73307633 0.6604322 0.005488747 -1.0355041
1318 -0.029405955 -0.734841 -0.8072883 -0.09661554 0.87521946 1.5774217 -0.6266213 -0.12983738 -0.0860138 0.5154571 -0.13621058 -0.8809453 0.94446135 0.6132936 0.6994986 1.3818775 1.7006545 -0.022221087 0.811743 -0.006973313 0.61988986 0.8692526 -0.71358347 -0.22028615 0.037424598 -0.08834559 -0.88413954 0.028868016 -0.45067176 -1.2877978 -0.27275032 0.4682521 -0.30467117 1.7009604 0.80292845 -0.25749984 -0.657466 0.6625903 -0.4687701 -1.2220623 0.67430604 -0.8756758 0.564444 -0.6874023 1.1434321 -0.22125581 -0.74395627 -0.74302584 -0.67125046 -0.34656885 -0.13006935 -0.014762375 0.49774048 0.5799827 0.92055064 0.24204813 -0.44079092 -0.43728998 0.6897279 -0.25963345 0.7010004 -0.1429567 -0.8783147 0.30273888 -0.35585478 0.3496108 -0.88985705 -0.081870876 0.40523136 0.82682306 -0.23735559 -0.30384725 -0.36331674 0.9781089 1.6319814 -0.7616726 -0.374448 0.8676983 -0.29195407 -0.314426 -0.19899394 -0.10642067 0.90092856 -0.3230614 -0.49459425 -0.33850643 -0.7976088 -0.08428098 0.061525658 0.8964278 -0.832896 -0.11580271 1.9855405 -1.2135631 -0.43484214 1.1237897 0.33445114 0.6940767 0.8322174 -0.6422317 -0.4086293 -0.87696576 -0.17554063 0.31508327 0.16380829 -0.8963524 -0.5764956 -0.071741365 0.41877738 -0.102232195 -0.17190552 0.041910402 -0.26360917 0.74275404 -0.8961637 -0.10530671 0.14753604 -0.06034611 -0.3941088 1.3157183 1.392219 0.0705288 -1.0264957 -0.5727037 0.8967259 0.5907976 -0.051508468 -1.0518428
2662 0.009862315 -0.90414804 -0.7530119 -0.08149391 0.9376554 1.652487 -0.6462001 -0.16860402 -0.09254719 0.43318638 -0.15396458 -0.95992064 0.88403213 0.5966731 0.6185768 1.3731458 1.694793 -0.037845746 0.7581848 0.020540148 0.6163181 0.80010444 -0.777404 -0.2185657 -0.026575444 -0.07753927 -0.9319205 -0.03458029 -0.5927147 -1.2679446 -0.377862 0.45332223 -0.33084637 1.7808281 0.73965526 -0.19169253 -0.68466574 0.61456466 -0.4205892 -1.2129714 0.64029014 -0.8726371 0.5608128 -0.70552224 1.0828174 -0.24926774 -0.7061443 -0.79161704 -0.6592292 -0.38264138 -0.1397466 -0.051627886 0.4785595 0.568169 0.946644 0.19053812 -0.3743825 -0.44035044 0.708669 -0.2542524 0.7571039 -0.15363371 -0.87384045 0.35198793 -0.42745036 0.31819093 -0.8811331 -0.074726954 0.42981032 0.8333173 -0.20942679 -0.22607623 -0.3315304 0.96043366 1.559525 -0.7434471 -0.34932178 0.84321517 -0.20139313 -0.27367228 -0.14170991 -0.056068443 0.848535 -0.32220706 -0.56877434 -0.25359225 -0.81472933 -0.088454425 0.18317872 0.94287795 -0.85920066 -0.19637322 1.955344 -1.2327375 -0.34289584 1.0948386 0.3694939 0.68152976 0.80760914 -0.71332026 -0.43420845 -0.7882918 -0.20773621 0.31409132 0.15424666 -0.94327193 -0.58942103 -0.11361953 0.40154868 -0.09472237 -0.27834854 0.084306926 -0.3021777 0.72016287 -1.0033432 -0.069683015 0.15438162 -0.020507282 -0.38746166 1.3705773 1.3413895 -0.072500266 -1.0830555 -0.57229877 0.8385266 0.55484295 0.04909859 -1.0129375
13 -0.26373428 0.10211424 0.039396986 0.48708498 -0.13115326 -0.2159188 -0.35370758 0.32126075 -0.22095299 0.10325454 -0.011882536 -0.07368413 -0.100957185 -0.21427709 0.06623951 0.36652702 0.44746977 0.19331746 -0.019291177 -0.05309992 0.025481826 -0.083726145 0.101615615 0.25472793 -0.11718685 -0.18626867 0.23679127 -0.26116067 -0.047770105 -0.34594357 -0.20451981 0.2779408 0.22131978 -0.02971417 0.15689577 -0.30899605 -0.2337398 0.24017718 -0.06028429 0.34076375 0.19263528 -0.025185423 0.3695325 -0.0878943 -0.023417717 -0.17421652 -0.08580957 -0.11779385 0.13241251 -0.09596405 -0.5274358 0.36291564 0.35551485 0.14087318 -0.17812008 0.05106138 0.29034585 0.48669404 -0.4043461 0.01762113 -0.030259075 0.14815578 -0.39637277 0.000895083 -0.13060279 -0.1316755 -0.026067138 -0.08738242 0.5377941 0.012354648 0.22432238 -0.006347951 0.075118355 0.008530353 -0.17855798 0.39570853 -0.18902181 -0.062049467 -0.18816711 -0.025292525 -0.3255745 -0.16323063 -0.29599026 -0.015973601 0.20584801 -0.06856138 0.03522398 0.15344979 0.19729376 -0.1340907 -0.060518727 -0.2551074 0.15173817 -0.15964562 0.13479887 -0.027974103 0.397763 0.017343506 -0.078852296 0.11540697 -0.2660254 0.15414387 0.10049887 0.051587835 0.38334188 0.3390282 -0.41719666 0.19048826 -0.07164279 -0.02511942 -0.12522995 0.19581912 0.12777993 0.20599681 -0.34452704 -0.20235431 0.09530642 -0.13291551 -0.5290694 0.0328378 0.18818001 0.20018852 -0.053838905 0.06487756 0.1248769 -0.0942621 -0.10821282 -0.43593395
1810 -0.39156854 0.08971462 0.101506725 0.6338789 0.029016154 -0.046796773 -0.1959245 0.17412773 -0.00055225444 0.027328005 0.035668198 -0.17132105 0.03161554 -0.2102562 -0.36670932 -0.011373519 0.3495244 -0.078682765 -0.07339457 0.21820664 -0.023374293 -0.104200654 -0.124442324 0.05292008 -0.47370085 0.15898907 0.40431446 -0.30159646 -0.038969778 -0.20565036 -0.30424058 0.08955367 0.4605299 0.21808612 -0.021111235 -0.066183746 -0.16337438 -0.0232663 -0.053468682 0.23391683 0.22154476 0.20013657 0.2546177 -0.030078936 0.1931915 -0.023800323 -0.028761756 -0.3653353 -0.14727263 0.04556747 -0.36941758 0.1071123 0.59474355 -0.056325406 -0.013039535 -0.22529966 0.3160393 0.5856641 -0.30841592 0.1200394 -0.07915356 0.23288687 -0.5434345 0.14569545 -0.36252275 -0.024556778 -0.0342336 -0.15155867 0.31189495 0.012789005 0.28593948 0.04031846 0.2016305 -0.34016636 -0.076102525 0.37578228 -0.28498566 -0.105528735 0.028487474 0.13456628 -0.23565033 0.2566855 -0.2034815 0.20741661 0.1315483 -0.07740164 0.057009626 0.35382694 0.29009098 -0.17455201 -0.12851295 -0.19708818 0.24712718 -0.47795463 0.14202853 -0.2376083 0.25035557 -0.2387959 -0.03463558 -0.040946145 0.13545544 0.09425383 0.34424222 0.07517323 0.29799762 0.14989556 -0.37421164 0.10199378 -0.12985568 0.09708511 0.08205591 0.05964901 -0.22184576 0.30125758 -0.51097775 0.03533771 -0.113092616 -0.2621664 -0.48165116 -0.028181361 0.24948215 0.03736365 -0.00805015 0.041094746 0.02153882 -0.104203604 -0.2432369 -0.24390964
1701 0.033460986 0.0029003753 0.055501502 0.31893858 -0.27873644 -0.12760456 -0.5283487 0.23997323 -0.42206618 0.1001858 -0.039600264 -0.10848223 -0.14869583 -0.2858956 0.18206556 0.53098696 0.2909873 0.4826433 0.02908706 -0.19343638 0.095506266 -0.41350925 0.120502666 0.19356082 0.09294936 -0.1075557 -0.04007389 -0.08186541 0.07419089 -0.32665274 -0.13263535 0.14281258 -0.09331854 -0.1387265 0.1966391 -0.25547612 -0.19879298 0.0882405 -0.059301216 0.15232196 -0.012208039 -0.012019494 0.37086484 -0.16441946 -0.11252861 -0.28529224 -0.1615779 -0.1219564 0.19276892 -0.123199984 -0.24852921 0.33939677 0.1046549 0.13810891 -0.27754074 0.25964007 -0.0794759 0.0060040257 -0.53227943 0.061112918 0.067930415 0.26863703 -0.010885203 0.122758634 0.32680634 -0.2879793 -0.0033587213 -0.019925462 0.40834367 0.14250645 0.27612847 -0.12248317 -0.06681306 0.12685092 -0.07883354 0.2643042 -0.16664688 -0.3010672 -0.22651637 -0.06432869 -0.28041765 -0.11519964 -0.09012791 -0.19099036 0.22502209 0.0699568 -0.018484753 0.08660549 0.12815648 -0.052756302 -0.019230874 -0.16843829 0.16879676 -0.043201473 0.24649256 0.012630082 0.2927449 -0.050057728 -0.15159628 0.13738392 -0.23873724 0.08317071 -0.011860934 0.087764814 0.34550145 -0.10512239 -0.35561532 0.24832942 -0.14444521 0.16133551 -0.20640479 0.22137721 0.2564278 -0.04382352 -0.11383093 -0.44493112 0.14798975 0.08402417 -0.4544858 0.09283417 0.1523321 0.12409042 0.17000994 0.074283995 0.088131845 -0.09400943 0.15274808 -0.29107967
14 -0.12631546 1.25733695e-05 -0.09522144 0.3804859 -0.17444724 -0.16992794 -0.38788486 0.35482123 -0.37167034 -0.20745991 0.32492158 0.07455689 0.2907258 -0.19729745 0.21429558 -0.04213023 0.2182383 -0.3928293 0.59437895 0.13783035 0.24502881 -0.10575227 0.1430932 0.2154868 0.098535426 0.02177991 0.051477063 0.67196864 -0.06597072 -0.32226506 -0.026336934 0.3291281 -0.09049182 0.012541159 -0.31898573 -0.22588806 -0.14200057 0.718077 -0.12458006 -0.1718895 -0.12698032 0.2496185 0.65608495 -0.08292456 -0.041330863 0.35579905 -0.18629344 -0.6341953 -0.14368539 0.24265482 -0.1292556 0.6789471 0.3409441 -0.07239588 -0.122157365 0.14731161 0.023575278 0.28103447 -0.71020687 0.028564587 0.19134629 0.2636161 0.27656433 0.16294315 0.07373605 -0.13945977 0.15553564 -0.44512957 0.11268844 0.33360106 0.29477564 -0.116062 -0.3674506 -0.27253398 0.26986408 0.84568965 0.33136758 -0.39261335 0.1846446 -0.022162674 -0.13798869 -0.07587301 0.21925409 0.18218562 0.23206125 -0.0008226479 -0.033696786 0.02096934 -0.19437239 -0.4202794 -0.24511561 0.456827 -0.67756623 -0.47649765 0.12220507 -0.037865978 -0.111084804 0.33887038 0.05670164 -0.28557232 -0.2391021 0.15784921 -0.10684643 -0.0016874017 0.89571434 0.27048835 -0.41345257 0.4564052 -0.2662633 0.27414396 -0.44047025 -0.25933906 -0.715269 0.2383691 0.16626434 0.22990726 0.01852443 0.33136863 -0.14693816 0.24064757 0.15358922 -0.2523997 0.062496856 -0.13128166 0.28956413 0.0943606 -0.19395438 -0.4245766
2034 -0.07984713 0.16954945 0.09815093 0.2495892 -0.051084332 -0.16389368 -0.2240014 0.5206908 -0.10927557 -0.16904035 0.008051759 0.07264982 0.060191136 -0.043269813 -0.020918965 -0.014608419 -0.039239664 -0.21913543 0.3352994 0.29247728 0.20089005 -0.1962027 0.28737777 -0.021858845 0.026505455 -0.083031215 0.1100334 0.17820868 -0.23357195 -0.32006234 -0.09384155 0.2648098 0.14903313 -0.12656532 -0.37831903 -0.25238368 0.18777825 0.6434186 0.2943649 0.20268857 -0.06572394 -0.19788939 0.29735878 -0.13943681 0.27066436 -0.05599441 -0.28775257 -0.54118943 -0.45477703 0.24766195 0.07443617 0.19985628 -0.22981445 0.1519305 0.07475324 0.09522777 0.31642842 0.21910588 -0.36836362 0.15480942 0.04907285 0.39027268 0.09417437 0.04106191 -0.33429053 -0.009866257 -0.16602838 -0.40627456 0.22012126 0.3544111 -0.06114628 0.04212781 -0.32904637 -0.19428477 0.15319912 0.38888282 0.28420433 -0.12771855 -0.1324669 0.359162 -0.012958803 -0.3602865 -0.020826979 0.06427622 -0.036266536 -0.15934496 0.20857988 0.11712534 -0.15571032 -0.25891837 -0.001475481 0.15227121 -0.16811407 -0.26043472 0.1718252 0.062631175 0.09599115 0.18114223 0.08049946 0.20318471 0.013515498 -0.2368833 -0.09917584 0.123535074 0.33057976 0.020679459 -0.11219126 0.34289148 -0.20509872 0.25140905 -0.19827293 -0.1904609 -0.7546682 0.17984007 0.027999237 0.19573422 -0.08731833 -0.0054969317 -0.15548399 -0.03757649 -0.20341395 -0.12551486 -0.2590386 0.11244691 0.030055655 -0.22127873 -0.17160656 -0.5335726
2075 -0.4642919 0.04545438 0.022645103 0.43958727 -0.33627886 -0.18949397 -0.3273722 0.07801233 -0.32677835 -0.019876705 0.4304108 -0.07815164 0.46017772 -0.18790808 0.10701813 -0.10314207 0.28328648 -0.5568505 0.5300235 0.07476666 0.40798676 -0.1651179 -0.00106423 0.4017044 0.09664011 -0.06771005 -0.1261148 0.65716136 0.005327155 -0.32234642 -0.17636567 0.33182475 -0.10741387 0.37873018 -0.14669262 -0.105761044 -0.2180828 0.53198093 -0.41257948 -0.19913548 0.007859557 0.35218012 0.77620894 0.20097083 -0.15805025 0.619102 0.21269421 -0.58733004 0.013700883 0.036314156 -0.19334628 0.81822896 0.6775757 -0.36254138 0.042041514 0.1650988 -0.0044460883 0.13093375 -0.5539706 -0.37236473 0.025269276 0.2253566 0.14278525 0.29516134 0.11591126 -0.14286734 0.37555075 -0.24860299 0.030364893 0.34513414 0.3796183 -0.03279824 -0.12620051 -0.31335434 0.4270517 0.8094594 0.3455225 -0.18309163 0.30592403 -0.1349192 -0.11708048 0.1143213 0.17396356 0.093419276 -0.08689885 0.16984937 -0.14004786 0.26312804 -0.26102298 -0.624858 -0.22441721 0.55682284 -0.77526474 -0.6353476 0.0343759 -0.24503395 -0.16690286 0.41544706 0.1680653 -0.56314504 -0.09753783 0.22717741 -0.00648288 0.018147076 1.0269649 0.2911131 -0.44758973 0.44492516 -0.17588705 0.27122355 -0.55974704 -0.19548842 -0.55677813 0.2349648 0.18798766 0.2706886 0.12687615 0.5729924 0.039699707 0.16666014 0.37961885 -0.3983176 0.09303201 -0.37226036 0.3005118 0.2906568 -0.16846117 -0.49902168
158 -0.072059795 -0.10440668 -0.22853084 0.33832863 -0.25944576 -0.07351645 -0.37903383 0.40372154 -0.2831945 -0.14892077 0.17239216 0.2122131 0.17697486 -0.33242607 0.20760448 0.26562378 0.1584958 -0.23036197 0.47555876 -0.052663106 0.11524357 -0.13499919 0.17202678 0.12907703 0.10940761 -0.25682354 0.123921484 0.26838732 0.04394785 -0.49693736 0.01812076 0.24862729 -0.037808694 -0.007440512 -0.25882545 -0.30244854 -0.040276866 0.7113218 0.02892191 0.057457212 -0.028880354 -0.032381114 0.5381106 -0.19379526 -0.014440204 0.047595277 -0.18165411 -0.5191983 0.013558398 0.14761807 -0.08217063 0.35490635 0.18274194 0.1789452 -0.14263204 0.23856369 0.10917899 0.09132475 -0.690469 -0.08296709 0.12188004 0.26308635 -0.0046219756 0.058407046 0.16792558 -0.034994755 0.0358004 -0.40004656 0.35720584 0.37774107 0.18255958 0.017559603 -0.22124946 -0.20421274 0.08706159 0.5827234 0.14688662 -0.3269131 0.16761616 0.09162023 -0.38961792 -0.26567373 0.04072277 0.0642441 0.20360929 0.06846781 0.17530534 0.0067439033 -0.01958147 -0.23528112 -0.12914266 0.121202245 -0.5075161 -0.2227421 0.15929231 0.0020282592 0.2113569 0.2914706 0.18870133 -0.14750144 -0.1243568 0.14368741 0.049038284 0.14094369 0.72198766 0.10253666 -0.4522424 0.23728797 -0.24146977 0.04097591 -0.43350682 -0.025267415 -0.5057103 0.21989577 0.1504017 0.007976371 0.34506088 0.19016089 -0.12042464 -0.036247484 0.10905564 -0.111980066 -0.0075396723 -0.13394572 0.13283518 -0.1487042 -0.14755441 -0.563756
2077 -0.35105634 -0.049905837 -0.25268987 0.30518046 -0.026018279 -0.34072626 -0.38071984 0.11463009 -0.31208155 -0.16896917 0.39431185 -0.005140107 0.5119557 -0.17607157 0.0523448 0.02151101 0.30159542 -0.641207 0.17821516 0.21380234 0.44700664 -0.32507688 0.11271523 0.37965214 0.03153607 -0.014763015 -0.025616188 0.63427025 -0.10316586 -0.2572156 0.06738896 0.2514443 -0.23999536 0.05294535 -0.11688936 -0.103880234 -0.2609041 0.5393452 -0.2839586 -0.2647077 -0.061113175 0.33565578 0.83383 0.293637 -0.3496908 0.42431372 0.2110603 -0.66820526 0.024863785 0.012609707 -0.21651031 0.51687336 0.7607261 -0.4212991 -0.11383369 0.2902379 -0.13606657 0.042914297 -0.6578126 -0.08111221 0.09206921 0.4021956 0.38643408 0.29361257 0.12575155 -0.2434045 0.24427122 -0.3695035 0.21812008 0.373707 0.36464453 -0.046055358 -0.18112318 -0.10360641 0.3412993 0.94942266 0.288074 -0.18114223 0.348642 -0.16097352 -0.0459943 0.18275078 0.18578756 0.26040515 -0.019943725 0.107227 -0.049524408 0.119754344 -0.39837566 -0.6323675 -0.34846166 0.45011866 -0.83751404 -0.5509913 0.018512947 -0.13034563 -0.27642915 0.30644095 0.12675719 -0.2623538 -0.04198837 0.31651306 -0.07952664 -0.09900421 0.84533536 0.1873098 -0.39028433 0.29738086 -0.028159237 0.26076627 -0.45205572 -0.27160454 -0.82137364 0.32430527 0.10068985 0.0764791 0.014283454 0.52227485 -0.09135353 0.293506 0.26923263 -0.2817732 0.07496921 -0.17223401 0.24342054 0.44362074 -0.36848336 -0.31574172
2668 -0.32984376 -0.07823635 -0.1779493 0.3238034 -0.08900731 -0.11502384 -0.2181497 0.32664514 -0.44045833 -0.10274128 0.41950068 -0.086635016 0.38444826 -0.06494981 -0.0674688 -0.16751184 0.2544042 -0.41316184 0.37009344 0.14993642 0.14601915 -0.13749187 0.05252214 0.13359466 0.019402595 0.034774754 -0.10865215 0.80896145 0.088375196 -0.20860629 -0.088312246 0.5974409 -0.2325107 0.13834985 -0.2811476 -0.15210576 -0.22377455 0.32903546 -0.37569687 -0.34334552 -0.15755124 0.41982445 0.71127856 0.06247678 -0.15929645 0.3504295 0.18226337 -0.5702528 0.03174031 -0.057304546 -0.2734891 0.81044817 0.86222696 -0.48073936 -0.13041653 0.3852674 -0.07984972 0.0987096 -0.77687675 -0.09265548 0.14559491 0.32659057 0.39115685 0.37628233 0.081421755 -0.17315677 0.31828776 -0.28809404 0.22469904 0.3337533 0.27833104 0.02677057 -0.38658968 -0.09565637 0.28117397 1.1056099 0.2894333 -0.15948181 0.46378452 -0.02973692 -0.06343601 0.12568173 0.33523232 0.23617506 -0.08207622 0.22898455 -0.23356242 0.33136377 -0.3892232 -0.4288465 -0.36631146 0.6125017 -0.6574592 -0.68107265 0.010144266 -0.17375697 -0.13264914 0.39066553 0.24087153 -0.76906776 -0.1610735 0.2540325 -0.14004596 -0.032301918 0.95565414 0.24351089 -0.6101016 0.46249825 -0.29036716 0.46343094 -0.534993 -0.34859022 -0.5874237 0.25640318 0.29783034 0.21179198 0.0024020793 0.6186543 0.022122292 0.19884512 0.19428097 -0.45826575 0.029661376 -0.28077865 0.17029613 0.46597824 -0.25573376 -0.19419569
15 0.3308556 0.04271495 -0.05574522 0.16120268 0.8684768 -0.42905024 -0.09249018 0.22907902 -0.32675922 0.3787083 0.57951486 -0.7130239 0.3430503 0.49206057 0.5639757 -0.29400545 0.9160541 -0.64969045 -0.12247214 -0.07544167 -0.027598526 -0.3307973 -0.028461128 1.0671377 -0.45530328 -0.10532534 -0.5339674 -0.7209523 0.61642116 -0.63001966 0.0036182008 0.48790035 -0.21928768 0.73359895 0.27515417 -0.9295962 0.35419923 -0.096294634 -0.23643091 0.53453475 0.9154456 0.11991015 -0.11444658 0.15075752 -0.7866325 -0.25780928 0.27125674 0.65989864 0.25648674 -0.04896035 -0.066839285 0.15593398 0.083283864 -0.4508322 0.90854824 0.9315765 -0.4281497 0.5666272 0.041529097 0.48466304 0.09938823 -0.5700678 0.39901727 0.15990722 -0.7894219 0.3233872 -0.32272092 -1.0147737 0.71166664 0.51372546 0.49246946 -0.36506143 -0.076107845 -0.11441237 -0.5892977 -0.005029961 0.4462462 -0.9166305 -1.0202773 -1.083677 0.07890016 0.43512854 -0.7060931 -0.4103459 0.7126565 0.6581884 0.4646388 0.43874142 -0.310708 0.35202405 -0.6791327 0.09066269 0.8433357 0.14081898 0.9466676 -0.48945203 0.75349677 -0.09374481 0.78274363 -0.095994584 -1.4544903 0.90508956 -0.9456358 -0.41432333 -0.15875171 0.05811688 0.074915685 0.27200988 -0.35313353 0.100925155 0.27923232 -0.26317817 -0.021726757 0.1127042 -0.3359476 0.094389826 0.2704766 0.14588845 -0.03402211 -0.3890878 -0.5065614 -0.18984796 -0.23137435 0.89866376 -0.2662231 -1.0457164 0.6710245 -0.59787375
2367 0.32036766 0.19715299 -0.1486865 -0.076969855 0.7190499 -0.23068321 0.12913269 0.23973384 -0.50408906 0.25296798 0.36750737 -0.72182435 0.30471677 0.3530465 0.45083067 -0.1619172 0.8103611 -0.6266987 -0.037050433 -0.14915137 -0.06898338 -0.26735622 0.19104499 1.0765103 -0.17543645 -0.0893363 -0.3249225 -0.53810143 0.6144028 -0.48882875 0.22929417 0.41804287 -0.25377598 0.56420594 0.25479525 -0.7708181 0.3291517 -0.032643132 -0.1467848 0.51013887 0.91147065 0.24473216 0.011329733 -0.11494649 -0.6449458 -0.20856258 0.18681112 0.58541495 0.08958885 -0.18061274 -0.034919854 0.33410367 0.008869317 -0.46639267 1.0333785 0.9651354 -0.39320725 0.45913726 -0.024652284 0.49962756 0.23414384 -0.540292 0.32224283 0.10722363 -0.59639066 0.443124 -0.3039398 -0.85685647 0.72153157 0.29903796 0.4850712 -0.27667317 -0.098983414 -0.038762692 -0.4287881 0.091610454 0.31439397 -1.0086529 -0.9965796 -0.8301191 0.0029503184 0.27630746 -0.5509078 -0.2830585 0.61160815 0.61104286 0.44535214 0.32273296 -0.24788289 0.46955875 -0.78224576 0.123174526 0.8087721 0.21430698 0.79111433 -0.24499056 0.75502646 0.013431612 0.81306225 0.0145924715 -1.3278583 0.7867693 -0.8360086 -0.37697494 -0.16695173 0.08865516 -0.0066324724 0.22239564 -0.29279098 0.13576171 0.1984791 -0.19943535 -0.021688731 0.06034636 -0.29066464 -0.16601756 0.15166314 0.21448977 -0.07998949 -0.42374173 -0.5463414 -0.055051643 -0.34425837 1.1293461 -0.31684095 -0.9298591 0.869562 -0.57071114
1093 0.27405384 0.07980819 -0.006046899 0.15992515 0.79694206 -0.44719854 -0.079158545 0.19344056 -0.34400672 0.42626956 0.5699104 -0.7296763 0.30617082 0.33761922 0.71363693 -0.14451794 0.8729731 -0.6685846 -0.085621394 -0.07493951 -0.046432525 -0.52046365 0.03788328 1.1262543 -0.3635256 -0.12658556 -0.5303634 -0.77719986 0.6426241 -0.7284558 0.08368552 0.46724343 -0.24256888 0.79129 0.1951893 -0.9752699 0.41052225 0.005751244 -0.27193713 0.6286397 0.88304406 0.18266791 -0.23193334 0.045334168 -0.6233298 -0.34582266 0.23434572 0.6395819 0.19655171 -0.26905957 -0.27096808 0.16076218 0.208693 -0.46613917 0.97112995 0.9118562 -0.4450892 0.5942148 -0.13005297 0.5041299 0.12551004 -0.7058907 0.5077464 0.26763508 -0.77377594 0.3039314 -0.24529833 -0.9631341 0.7235733 0.5595044 0.38634422 -0.36855766 -0.04394556 -0.13472703 -0.5307896 0.0058507645 0.54909134 -0.96326447 -1.0953175 -1.1639861 0.0398586 0.36331514 -0.517377 -0.3546059 0.7699346 0.6918963 0.42264774 0.43634695 -0.33627906 0.3489899 -0.8536785 0.11559806 0.8530299 0.17719626 0.90336007 -0.46880665 0.806611 -0.1375004 0.67330796 -0.18724202 -1.538514 0.76094925 -0.9641217 -0.3970211 -0.23161437 0.11974935 -0.007469832 0.20252137 -0.3358455 0.039383177 0.3618768 -0.23197603 -0.06327101 0.059166443 -0.34145874 -0.08651087 0.20847952 0.15114097 -0.045838904 -0.22631739 -0.63706875 -0.33099332 -0.16199799 0.9341683 -0.33919364 -1.0662563 0.7952762 -0.71980137
1090 0.15050453 0.13355398 -0.06211869 0.14636591 0.8090578 -0.3765805 -0.05977215 0.22019416 -0.25581792 0.52495676 0.53645706 -0.83330077 0.30500382 0.40801924 0.6196383 -0.18367428 0.7791847 -0.7407956 -0.084260225 -0.20622773 0.0669727 -0.41070217 0.11921206 1.2119474 -0.36877173 -0.28365555 -0.41012773 -0.68239796 0.7021164 -0.6057278 0.097219266 0.48465857 -0.28674728 0.7028506 0.18930395 -0.91672516 0.32811707 -0.06964347 -0.220349 0.62044185 0.9082318 0.1829985 -0.009585793 -0.03604417 -0.65625197 -0.35336164 0.33437172 0.62391704 0.15975302 -0.044788808 -0.2415648 0.18050915 0.1352901 -0.44162348 0.99312234 0.7968431 -0.42024973 0.59788936 -0.1824291 0.36538318 0.16076015 -0.75379425 0.40181 0.28614962 -0.71873033 0.18110858 -0.21698342 -0.93614084 0.5733499 0.57418025 0.39832953 -0.37197542 -0.04921223 -0.082929865 -0.42792293 -0.056520544 0.42245865 -1.0541184 -1.0069114 -1.0547553 0.022534069 0.40614057 -0.6878601 -0.3239534 0.76925206 0.5818792 0.41155347 0.5487291 -0.27413142 0.3122807 -0.9045354 0.15729393 0.74543804 0.31916213 0.8460906 -0.3448162 0.8013116 -0.13824768 0.84259164 -0.16408093 -1.3505265 0.7116326 -0.94415003 -0.39399835 -0.13440244 0.0987272 -0.12677944 0.2656457 -0.27662805 0.20995373 0.2491416 -0.28022495 0.094395146 0.11455754 -0.21069102 -0.14662705 0.0903535 0.04606925 -0.16320097 -0.3033609 -0.56034154 -0.28398788 -0.1598306 0.9750403 -0.29708657 -1.0022463 0.75265914 -0.67998767
1271 0.30611125 0.11506555 -0.060135737 0.24796134 0.86114264 -0.38415194 -0.021328857 0.20380263 -0.35956642 0.3489078 0.5564046 -0.7305745 0.32459182 0.50423175 0.5910245 -0.23802789 0.87248975 -0.6348421 -0.12578057 -0.054391842 0.009726763 -0.40818208 0.043593302 1.1707194 -0.4943174 -0.052041236 -0.51971817 -0.87419856 0.6033147 -0.6504837 0.083023414 0.4086257 -0.21571201 0.7304904 0.26239297 -0.9755511 0.38375074 -0.09032782 -0.26702788 0.5683552 0.71361834 0.15264551 -0.25946844 0.022145364 -0.62891114 -0.3296402 0.23463489 0.69431317 0.19778952 -0.09786039 -0.1549566 0.21496397 0.071631186 -0.36270714 0.9130542 0.8971985 -0.4209353 0.6587197 -0.09425803 0.5077464 0.14718074 -0.6176467 0.48647243 0.22212963 -0.75117344 0.31103438 -0.26728034 -1.0337745 0.6762019 0.5342565 0.5161905 -0.47428307 0.019702857 -0.23295687 -0.5685924 -0.054138735 0.48015907 -0.9512506 -1.0576918 -1.1091899 0.09948447 0.42038 -0.5570681 -0.41793966 0.73553145 0.6181219 0.50444317 0.41794014 -0.27478534 0.42359993 -0.8233813 0.0382973 0.8468087 0.17941986 0.9744283 -0.44699174 0.82153374 -0.1494021 0.71500885 -0.11392312 -1.5833917 0.8265318 -0.96506304 -0.36164668 -0.18464555 0.06583657 0.02435759 0.14836165 -0.30460218 0.02527515 0.31794438 -0.274805 -0.011821693 0.1316186 -0.28421688 -0.09477892 0.22387859 0.076008536 -0.034407824 -0.32668412 -0.5414618 -0.33950853 -0.1914632 0.93036085 -0.46722105 -1.0417297 0.7137446 -0.59447044
16 -0.5072077 -0.58301246 0.26234648 -0.2926141 0.4310655 0.20449817 0.51834977 0.13237955 -0.6969065 0.22257961 -0.1395792 0.33650133 0.07235322 -0.8335454 0.42692384 0.21415547 -0.082970046 -0.05790136 -0.33251417 -0.29665673 0.037211068 -0.06588182 0.6236996 0.1437806 0.6119314 -0.30479893 -0.20855646 -0.071538635 0.45319745 0.092738025 0.18442038 -0.7383817 0.09334328 0.4502014 0.2291449 0.25386387 -0.6704169 0.011263341 -0.4623417 0.074377716 -0.44397196 -0.012388777 0.0762423 -0.7977815 -0.11786444 -0.09959265 0.3031826 0.15901227 -0.51581055 -0.33385557 0.749515 -0.1481124 0.13618673 0.0855865 0.09951368 0.2817736 -0.028679762 0.3571778 -0.044335928 0.95469004 -0.09964998 -0.33386815 -0.35443714 0.07379697 -0.36171818 -0.34829727 -0.18329462 -0.19679956 -0.11174904 0.08674107 0.9540107 -0.077881075 0.40974346 0.13518046 0.31950656 -0.121623434 0.30161145 0.3848391 0.028079603 0.5123845 -0.42475292 -0.06687115 -0.050433595 -0.060985755 0.16426829 -0.5709121 0.50779665 0.7580669 -0.076050565 -0.4281536 0.069160305 0.23953153 0.20904453 -0.15710177 -0.051404387 0.5631482 -0.6341731 -0.4856871 0.08753591 0.07356401 -0.39647982 0.3523245 -0.3820334 -0.085827194 0.16116664 0.249883 -0.07747726 0.05904219 -0.071637675 -0.055063747 -0.46703503 -0.4847438 -0.24010512 0.048101917 0.14849423 -0.085358866 0.09362183 0.44553053 -0.048434682 0.17047215 0.684296 0.34518972 0.8967955 0.14589655 0.20794387 0.07757889 -0.006585319 -0.5097838
2444 -0.47191194 -0.22022372 0.096629545 -0.015309058 0.38080838 0.02668053 0.05552184 0.105530076 -0.8055264 0.11926017 -0.13232587 0.41537824 0.16516358 -0.5363563 0.2900683 0.15037228 0.15691334 0.13291173 -0.06986272 -0.04153384 -0.11066073 0.033801757 0.212864 0.18851903 0.456546 -0.24850865 -0.23186274 0.00034021706 0.24573413 0.21137488 0.2592906 -0.8817875 0.07823952 0.29384354 0.20984894 0.049114093 -0.29478538 -0.04686329 -0.070682764 0.27667502 -0.03767524 -0.094282694 0.07502038 -0.44012308 0.11713949 0.0713282 0.32858136 -0.12094262 -0.21434107 -0.49133703 0.35608643 -0.11305147 -0.06101233 0.24677493 0.14226039 0.3748827 0.16142084 0.18141176 0.3522965 0.74916434 -0.055979315 0.24575654 -0.28459927 -0.06272217 -0.233329 0.032707725 -0.117235236 -0.4177014 0.04954443 -0.07507148 0.91100895 -0.11836775 0.6413101 0.2252311 0.27408302 -0.017689865 0.01973489 0.24660622 -0.04728732 -0.020572452 0.13822718 0.09637048 -0.23964378 -0.06360635 -0.3539457 -0.017822668 0.43971962 0.59811246 -0.17976455 -0.6587227 0.092280865 -0.033091046 -0.2789072 -0.04667501 0.16048694 0.35321155 -0.7222603 -0.5547778 0.027550235 0.4280149 -0.15387358 0.5018811 -0.8038403 -0.0137452865 0.0944197 0.31572592 -0.23011613 0.022614786 0.20653026 0.0958118 -0.22545104 -0.13877726 -0.33744 -0.061927397 -0.30080423 0.0065154755 0.15683904 0.50414187 -0.34281233 0.24845871 0.84930706 0.16994925 0.6301691 0.012514872 -0.085970104 0.45240843 0.13180412 -0.4045419
1632 -0.33656615 -0.5743356 0.13647354 -0.11734439 0.40399987 0.14012882 0.5106145 0.08913209 -0.57087636 0.309104 -0.28406838 0.40767306 -0.008130079 -0.61864626 0.47835708 0.20816197 0.091183156 -0.28347296 -0.34775898 -0.46561587 0.07727815 -0.17116913 0.7514504 0.12643908 0.46512705 -0.079827085 -0.33416504 -0.033918772 0.33193463 0.032842316 0.2573193 -0.59784204 0.22135058 0.3334105 0.13110393 0.4273389 -0.65604854 -0.020490952 -0.15893625 0.035103876 -0.51180434 -0.025746886 0.15777634 -0.6628396 -0.11248719 -0.0071919113 0.20079267 0.5407181 -0.4930447 -0.11595616 0.68098766 -0.06576068 0.016503155 -0.06946957 0.17990166 0.2632322 -0.044504605 0.44496006 0.11405954 1.0804777 -0.013755509 -0.24227956 -0.1457942 0.1286227 -0.18648314 -0.42584836 -0.1849436 -0.3347486 0.2010686 0.08978372 0.81892496 -0.05949429 0.3445829 -0.035187103 0.27114055 -0.27586275 0.448432 0.34683734 0.1548745 0.64225656 -0.5247844 0.04454881 0.18090254 0.041405268 0.39148808 -0.71877444 0.3104631 0.76810086 -0.2515589 -0.26038623 -0.22848812 0.22089665 0.15445082 -0.17031434 -0.19351935 0.36339363 -0.38028812 -0.6270027 0.12163442 -0.052007545 -0.43321604 0.3774614 -0.11006944 0.029452255 0.15770556 0.042039193 -0.10204766 0.038844533 -0.017436812 0.051816862 -0.46101293 -0.24935997 -0.4369203 0.12043027 0.29264998 -0.06228739 0.20568301 0.55067605 -0.0589835 0.31862634 0.50283086 0.52719706 0.98694146 0.037220858 0.54518795 -0.09993576 0.096174754 -0.44476092
970 -0.39185545 -0.4619565 -0.12889375 -0.10764094 0.21790724 -0.21292098 0.2645127 0.23440205 -0.45273072 0.076173514 -0.10322336 0.39118174 0.061013512 -0.61296016 0.2513752 0.17925584 -0.13846241 0.09673086 -0.09883623 -0.27389643 -0.14531296 -0.43230936 0.433798 0.11968484 0.36457682 -0.21757948 -0.17256886 -0.05602493 -0.014800194 0.06101916 0.12593983 -0.45483485 0.1070741 0.22955503 0.15231918 0.1445804 -0.45101696 0.16800424 -0.07624959 -0.04385989 -0.53915054 0.1773052 0.0658526 -0.20171268 -0.0836522 -0.33438352 0.22127455 0.36061263 -0.4844387 -0.09337343 0.79750335 0.20796917 0.22456756 -0.1806863 0.061128948 0.13592434 0.19355164 0.22735307 0.00013870384 0.5288835 -0.3252219 -0.35568267 -0.31490734 0.021301351 -0.2576861 -0.52783847 -0.24972172 -0.18162957 -0.27749848 0.3908651 0.51776654 -0.34850535 0.24251649 0.11871667 0.29507774 0.0003939619 0.06285642 0.29116836 0.16052543 0.3863796 -0.54101664 0.27441978 0.26937526 0.04384295 0.126495 -0.4162105 0.46552533 0.31478438 -0.029673273 -0.5293908 -0.053555675 0.41868553 0.4415081 -0.18138835 0.032754913 0.24640386 -0.29026502 -0.2886758 0.24777967 -0.15392058 -0.29657876 0.41878936 -0.28825063 -0.1628897 -0.0509899 0.049754247 -0.12265602 0.08124241 -0.13876416 -0.21112448 -0.21630314 -0.59224623 0.009448792 -0.0912452 0.3622633 -0.046310656 0.42529485 -0.022958286 -0.080964655 -0.05895255 0.33024824 0.3093374 0.6632987 0.1893453 0.2111215 -0.07696013 0.05098811 -0.37556288
2642 -0.19660994 -0.8178969 0.26378873 -0.40473965 0.46533248 0.22049198 0.53584146 0.2650381 -0.5833258 0.35019743 -0.33399683 0.31148183 -0.18709421 -0.694455 0.51754194 0.26669237 -0.041002892 -0.053918824 -0.3410747 -0.48398963 -0.00075211073 -0.3134065 0.67845935 0.2540356 0.4366704 -0.089226276 -0.36672017 0.08362635 0.3975889 0.12569599 0.2579797 -0.7609717 0.094012894 0.19552353 0.13410562 0.29804567 -0.9130318 0.051588334 -0.27932248 0.1681025 -0.47730553 0.027386287 0.28888083 -0.75819767 -0.21220914 -0.09164176 0.07874813 0.34652555 -0.5277747 -0.17987928 0.7826592 -0.20860828 0.10279802 0.06769426 0.27864593 0.10860516 -0.20029126 0.50154716 0.10162158 1.1032987 -0.03829864 -0.11338179 -0.1474587 0.26322877 -0.19597276 -0.3241093 -0.31737414 -0.043638397 0.26213706 0.18042155 0.8831798 -0.09088313 0.44676957 0.0032663047 0.2779907 -0.11454939 0.3883125 0.34670258 0.010189361 0.61717016 -0.53142715 0.03495747 0.047146834 0.035281625 0.49938622 -0.75796705 0.37681422 0.8343274 -0.023972068 -0.23259597 -0.36073056 0.2311734 0.27523628 -0.21139026 -0.31923267 0.3545648 -0.45270324 -0.53570014 0.228248 0.030443188 -0.43306723 0.2523571 -0.18356496 -0.2122295 0.018323038 0.119629845 -0.21232635 -0.047309287 0.020441705 0.23594275 -0.5804232 -0.43580097 -0.50113744 0.03542295 0.32136497 0.04716414 0.003044126 0.38449788 0.077435955 0.5456952 0.5993706 0.2823484 1.1629245 0.12707333 0.56381625 -0.12809977 0.05629359 -0.42841384
