2708 128
0 0.14041348 0.6975881 0.63202035 0.7550898 0.6125469 0.7561438 0.5621639 0.6995989 0.479818 0.31536594 0.40648514 0.5563309 0.3822337 0.64084816 0.37394843 0.45529518 0.46606418 0.41016966 0.72567546 0.23609613 0.5396637 0.5656559 0.45957723 0.38658375 0.6516686 0.6481409 0.6035068 0.5111667 0.68081415 0.7575297 0.23881924 0.6211457 0.3925527 0.6978806 0.36003506 0.17096433 0.81434995 0.8241898 0.6030828 0.56140494 0.47982442 0.7115996 0.77548534 0.5046449 0.5002882 0.6661421 0.50553733 0.3840465 0.4718373 0.29160282 0.6349507 0.74242973 0.63350534 0.5621074 0.5206653 0.16372783 0.70557874 0.7261227 0.2851125 0.38134536 0.4124607 0.5870569 0.5925828 0.19757673 0.5864739 0.21044464 0.5157007 0.33726436 0.558727 0.6091936 0.5229875 0.5472882 0.42114457 0.67292506 0.2967584 0.3643662 0.61739886 0.4420611 0.3757606 0.3072969 0.42053658 0.3755365 0.18817301 0.48155144 0.44939807 0.4145767 0.5302675 0.20962013 0.5039305 0.7637362 0.45292178 0.6005394 0.39628848 0.45072913 0.6952322 0.46869963 0.67528635 0.30887604 0.4073221 0.5570556 0.33246657 0.7765502 0.35734865 0.60466766 0.3904213 0.55558777 0.4363348 0.42970306 0.46721375 0.31570572 0.30116162 0.45641166 0.36789685 0.24228244 0.79358685 0.55440545 0.48891 0.69478846 0.35165253 0.40718782 0.49722597 0.5164378 0.59717757 0.73682785 0.22119385 0.5255771 0.708194 0.48402667
633 0.24410154 0.64414525 0.6062748 0.7019199 0.6076204 0.4916188 0.5294373 0.61546236 0.6014648 0.48070782 0.33950824 0.5179482 0.39290726 0.57721674 0.35712448 0.5831223 0.5971579 0.4108381 0.62033784 0.28150353 0.37786716 0.721604 0.6346011 0.3389988 0.48232245 0.55638564 0.5348736 0.40756798 0.697337 0.50824434 0.340392 0.4789883 0.47997904 0.7023651 0.40780756 0.2377694 0.5754434 0.65857154 0.50228024 0.53704387 0.4679954 0.59624434 0.5703799 0.42648992 0.58552766 0.6237672 0.59027594 0.4132876 0.52558243 0.2708755 0.50827664 0.55942637 0.512109 0.7132006 0.2800229 0.19876729 0.6337481 0.6458552 0.5134705 0.3427976 0.6320501 0.6281103 0.6668865 0.3185624 0.61321235 0.23961988 0.5502598 0.3933502 0.5225701 0.56968504 0.48139328 0.59688073 0.57670605 0.6159476 0.36045852 0.5376216 0.41371998 0.4251371 0.47443745 0.42933556 0.40600684 0.4607913 0.45245245 0.49367124 0.430129 0.62644684 0.5195336 0.41591012 0.57600003 0.54438394 0.48524123 0.5863966 0.4527713 0.5332873 0.5894072 0.44592303 0.50020075 0.45223084 0.41201156 0.38934457 0.43484607 0.68543786 0.45377496 0.38920563 0.55199075 0.62370235 0.42389607 0.5062821 0.41792247 0.4547124 0.38406932 0.4746306 0.42216805 0.33504316 0.6924009 0.62282205 0.58518416 0.7045229 0.37911886 0.4171386 0.37837094 0.40830246 0.6975232 0.5386163 0.22506608 0.39846295 0.71944773 0.5981137
1862 0.18858424 0.7091678 0.64732254 0.7804826 0.5909344 0.51037663 0.58290637 0.63694113 0.5989171 0.40407693 0.3539411 0.5164101 0.4042829 0.66418177 0.38214728 0.58782244 0.631118 0.4432113 0.6771885 0.21536332 0.36001244 0.7228869 0.5973656 0.30656695 0.5727877 0.61862636 0.59540665 0.4164644 0.74880236 0.5853666 0.31793284 0.5620323 0.5401143 0.65528494 0.41478235 0.15569524 0.65507895 0.7501768 0.53775877 0.50955415 0.44921333 0.607446 0.6590272 0.45910013 0.56130135 0.58530116 0.560043 0.4184982 0.50374746 0.23688073 0.59610045 0.52443165 0.54166234 0.697758 0.2936009 0.12967724 0.5921914 0.72054726 0.488481 0.31402403 0.68592966 0.68063575 0.6988826 0.2577818 0.6553079 0.15075383 0.5490455 0.32888332 0.5198051 0.63452893 0.50651425 0.62828934 0.5897862 0.65262496 0.27016175 0.5184892 0.51656646 0.39856723 0.4665547 0.38349807 0.3865942 0.39837992 0.38088763 0.47323975 0.4333835 0.63207924 0.58188736 0.32069245 0.5598973 0.59826225 0.47872618 0.66055536 0.37210774 0.47844216 0.60585666 0.45755768 0.5582757 0.3879533 0.33995906 0.39114237 0.29695624 0.72942185 0.35905197 0.47693714 0.46888867 0.67484725 0.40060523 0.44428575 0.48365232 0.38904837 0.29017633 0.54303676 0.4546386 0.28754392 0.7757778 0.6106482 0.5234939 0.7483422 0.29680857 0.35258874 0.39684317 0.3942852 0.7011489 0.57478064 0.17669003 0.46242943 0.7562604 0.5701137
2582 0.2751368 0.74527353 0.51960486 0.6919952 0.6133012 0.61167216 0.5928108 0.69672877 0.5305554 0.388536 0.39190137 0.5856884 0.34047985 0.60833734 0.39946353 0.4707826 0.4653464 0.29675886 0.6852155 0.23035647 0.56277764 0.59654665 0.5075396 0.33791023 0.5059809 0.54454345 0.4286937 0.50703835 0.6356672 0.589986 0.24460667 0.50409114 0.46343994 0.5639733 0.3902906 0.20126794 0.7087293 0.7537009 0.5577276 0.62429416 0.44019917 0.65789765 0.6806682 0.49637368 0.47247264 0.6950986 0.54217213 0.4643046 0.50715804 0.28586227 0.5429507 0.66143316 0.5293281 0.68348724 0.4462634 0.19351538 0.5993141 0.5529163 0.32175943 0.3934634 0.51648223 0.6519433 0.63476896 0.3045798 0.566188 0.2655859 0.5868437 0.32226107 0.5548194 0.5453792 0.48314428 0.5570206 0.47572634 0.6449551 0.31873092 0.528457 0.5010214 0.5536655 0.34194177 0.3547694 0.42986152 0.42961353 0.34631488 0.5469762 0.34916854 0.473868 0.4965699 0.34156883 0.5084024 0.66317886 0.46964273 0.52295816 0.40984166 0.51612383 0.62606657 0.5404879 0.64265174 0.4095721 0.39243805 0.56126475 0.3610817 0.69412374 0.43559608 0.53273547 0.4710156 0.4849224 0.41526863 0.58923423 0.43788126 0.42248413 0.36360118 0.5731086 0.4396599 0.25015482 0.77240705 0.61088187 0.6133735 0.7457999 0.37385827 0.37603894 0.45215097 0.5554987 0.69402856 0.67226905 0.25940028 0.44145587 0.74518716 0.47618854
1 0.76129484 0.45023224 0.6953243 0.5232255 0.40904602 0.7409595 0.5151543 0.39024678 0.40743577 0.5413822 0.6540238 0.2501999 0.5154539 0.6103644 0.5770746 0.6678703 0.68525267 0.5000353 0.66350156 0.4240284 0.33346415 0.41491744 0.34875077 0.58263886 0.2759434 0.3038555 0.69307613 0.3911222 0.4329555 0.48498383 0.33337912 0.6367565 0.56023437 0.65984476 0.3399771 0.3040094 0.6645565 0.48287266 0.6235261 0.49066305 0.30598775 0.35828328 0.59623086 0.3949649 0.5603207 0.469211 0.48345715 0.61587274 0.5875827 0.5914958 0.6725785 0.37897018 0.4094015 0.31208315 0.46519968 0.33968186 0.6837893 0.6236678 0.4952137 0.46758142 0.38686568 0.50368387 0.415294 0.48455894 0.5593367 0.2949415 0.4435156 0.63409644 0.40286475 0.512541 0.4627014 0.31000876 0.57194024 0.43172187 0.27503762 0.67841905 0.5817993 0.7379539 0.5284996 0.7432155 0.5466765 0.5990612 0.6109371 0.32324013 0.56838226 0.60764277 0.5374885 0.49957287 0.49799806 0.4317364 0.48240244 0.41455156 0.65067 0.5443866 0.48820326 0.5153518 0.14926136 0.44948614 0.62547016 0.38044596 0.4635851 0.7312096 0.4874512 0.50485414 0.1698005 0.5224576 0.39280403 0.45070946 0.54112726 0.43527836 0.47588378 0.48678735 0.44753554 0.38749203 0.7538937 0.41963032 0.48341474 0.55114305 0.73006475 0.34059238 0.51955426 0.43829167 0.6668787 0.66826725 0.43077528 0.46088457 0.5650854 0.40157577
2 0.39206013 0.27371925 0.3963844 0.6794859 0.16106541 0.27470297 0.2810022 0.23273921 0.45396832 0.41430604 0.688235 0.40490112 0.722531 0.55021906 0.6168178 0.7255823 0.370425 0.6328387 0.4911302 0.33062148 0.35864252 0.45800415 0.3237724 0.81639034 0.46506995 0.59783745 0.71128374 0.38543716 0.60323876 0.20851783 0.68557835 0.53303266 0.7589706 0.610238 0.29888117 0.5930117 0.5299873 0.6224329 0.51231253 0.21816218 0.4228958 0.7412904 0.30395162 0.6853769 0.40892202 0.7911296 0.30950832 0.39923027 0.61235565 0.32201052 0.6605548 0.6147268 0.7761082 0.2991541 0.36935583 0.82019 0.77082956 0.6273089 0.63877726 0.2580957 0.29003328 0.38942486 0.4238214 0.88602066 0.5812767 0.36383098 0.65465266 0.16868913 0.28315485 0.38046822 0.2424903 0.7496734 0.73973566 0.36911607 0.64063394 0.5663233 0.6057368 0.32073048 0.7826826 0.71318907 0.57266474 0.4729941 0.81158024 0.2236619 0.7045586 0.42518446 0.47943363 0.4842191 0.7811068 0.34677857 0.5203287 0.2420678 0.37130764 0.43654457 0.39274326 0.45847997 0.16931766 0.5109167 0.48636588 0.3720621 0.55206686 0.7143684 0.6678358 0.3316636 0.0964268 0.7224171 0.3679853 0.66802716 0.7047417 0.36731312 0.56042033 0.40848094 0.45701894 0.55075336 0.5294643 0.51496446 0.49578267 0.35948166 0.22106005 0.6588422 0.35475248 0.52763563 0.39420366 0.76107806 0.5059765 0.5274505 0.7388495 0.47611827
652 0.58632755 0.28051686 0.58254725 0.52231073 0.4285481 0.38623235 0.45386702 0.2795527 0.4451639 0.3504441 0.45140076 0.39294618 0.61302316 0.49990192 0.58622336 0.6441113 0.5411636 0.6264495 0.53963846 0.43537283 0.30668873 0.59139836 0.48155448 0.69861317 0.61625665 0.6401319 0.743374 0.3881621 0.4781911 0.40561947 0.69626135 0.41299397 0.5124461 0.6532389 0.379449 0.7064499 0.56997544 0.51447904 0.53580505 0.37276343 0.46356186 0.50544727 0.40362698 0.48032218 0.49012884 0.608362 0.4256822 0.4490213 0.5712791 0.36553693 0.54785377 0.57168347 0.61651736 0.38407657 0.46372288 0.58178097 0.6958203 0.56380075 0.5313453 0.3469836 0.49059975 0.29303318 0.4757625 0.8199854 0.4361499 0.5321398 0.5485724 0.36097002 0.4162224 0.43855605 0.32560658 0.5848675 0.5741924 0.35672134 0.59760016 0.40947655 0.5228045 0.5171746 0.63772064 0.59116954 0.49323562 0.4888432 0.75236773 0.45199588 0.6426416 0.45749694 0.48181388 0.45793375 0.61257756 0.40163937 0.34764695 0.34608072 0.47909597 0.6326805 0.56162417 0.4093262 0.20193703 0.41425094 0.5181833 0.4610553 0.5437164 0.53487426 0.572487 0.38655496 0.2893959 0.63431436 0.28729415 0.47742254 0.6518714 0.5775354 0.5018038 0.36238298 0.33914754 0.46901047 0.5463619 0.45295584 0.5136905 0.34334892 0.40508857 0.5770552 0.45063516 0.49329564 0.5318523 0.72249055 0.48926198 0.47081998 0.587897 0.5769657
654 0.5575168 0.3549753 0.5179454 0.5175578 0.41706663 0.43284464 0.4597728 0.34736478 0.44926164 0.40370768 0.48319894 0.4461201 0.60293436 0.488862 0.58420664 0.61004215 0.4695936 0.5844334 0.5567542 0.45013863 0.3849106 0.53606683 0.475768 0.6554954 0.56323975 0.589805 0.6748523 0.40669262 0.48546344 0.41852635 0.61490905 0.45592654 0.542879 0.58304065 0.4092359 0.66510785 0.5536113 0.5159864 0.490255 0.3987152 0.47824094 0.5437227 0.44009623 0.5259132 0.48109868 0.6228948 0.48020902 0.45363945 0.5267274 0.41013703 0.55341125 0.55552894 0.5984213 0.39600366 0.44860277 0.5823459 0.6231684 0.5290148 0.50665027 0.4020002 0.43042606 0.3728934 0.49616757 0.7337175 0.45601553 0.52548575 0.5183834 0.38108405 0.4227724 0.45205152 0.3746247 0.568722 0.56429183 0.43364403 0.58178484 0.4532227 0.5536213 0.4775319 0.59396046 0.5599008 0.50392896 0.4947716 0.6629976 0.43987098 0.64608234 0.44938567 0.47056374 0.46405417 0.59573466 0.47725332 0.39356735 0.4069141 0.4602085 0.52775216 0.5400151 0.4650073 0.2777984 0.4514617 0.48787814 0.46843827 0.5250994 0.5608607 0.5515768 0.40784466 0.32020736 0.5721575 0.4011597 0.48321807 0.59759915 0.5171051 0.53421384 0.37368247 0.4024812 0.45347318 0.5461034 0.48819795 0.4954049 0.41691664 0.4200104 0.5833149 0.48202705 0.5069019 0.50674963 0.6740684 0.5214943 0.45717195 0.57698125 0.504334
1986 0.8724714 0.87280744 0.84367913 0.7761781 0.7767105 0.81986815 0.29192534 0.9225348 0.70578206 0.94426185 0.9480812 0.7830523 0.6790797 0.6112428 0.1901937 0.92942363 0.21311797 0.040618405 0.4614474 0.37376493 0.621443 0.47007385 0.1514114 0.07523142 0.01317996 0.15489954 0.12470844 0.14300807 0.90304655 0.14770773 0.01634019 0.75956017 0.6244569 0.1909351 0.023166664 0.0058550406 0.2572608 0.985171 0.6439471 0.9645871 0.06481177 0.8322423 0.154954 0.9335824 0.03740905 0.6997076 0.52791846 0.2750815 0.9636912 0.10401467 0.4789815 0.9366011 0.2183213 0.96289593 0.88872504 0.68349195 0.9515721 0.5081518 0.5682441 0.12961055 0.17886223 0.63485307 0.8401189 0.52854097 0.86878145 0.0667348 0.97729206 0.07230976 0.20278351 0.030947926 0.30414912 0.092338674 0.58214265 0.69296426 0.19212991 0.92744803 0.8467515 0.9239802 0.17347448 0.82665306 0.7477497 0.8224131 0.41468146 0.27581477 0.13124958 0.051484637 0.042793326 0.67801434 0.11000649 0.0138011 0.8125325 0.15047623 0.7026082 0.78301513 0.09110934 0.8132146 0.66347253 0.6641384 0.5322099 0.7676134 0.2200691 0.8730273 0.7586641 0.5068919 0.018533256 0.79628146 0.10478596 0.8831867 0.6678273 0.06790772 0.31719452 0.8478384 0.5967605 0.60953313 0.67814183 0.8602723 0.8599496 0.9657617 0.56988394 0.33489785 0.03594225 0.8736456 0.78009117 0.7955106 0.18128288 0.8273336 0.8010715 0.2763737
332 0.75197154 0.47426546 0.64378375 0.5997015 0.38668734 0.58912575 0.5360542 0.41830957 0.30985257 0.65727895 0.6932106 0.428388 0.5976424 0.7912181 0.68906325 0.6127927 0.7786963 0.5210866 0.45890707 0.45620173 0.3788208 0.39791068 0.14800268 0.48237142 0.28468135 0.256451 0.6277573 0.2621864 0.67507124 0.17585082 0.36746168 0.5220262 0.5210501 0.5032489 0.27569056 0.323344 0.7030033 0.5608174 0.48120913 0.6438358 0.27565295 0.20232078 0.6038858 0.7131721 0.75947094 0.36823228 0.53620243 0.6567206 0.5221145 0.5396194 0.66945004 0.4748614 0.45667577 0.31854215 0.25841168 0.20541605 0.5938262 0.5459805 0.34901366 0.4370438 0.19208454 0.804539 0.24620748 0.5789043 0.61292994 0.22488324 0.5394635 0.32759234 0.31299827 0.47799093 0.3899476 0.11517052 0.7774989 0.36473778 0.27492326 0.895632 0.40960672 0.6357948 0.66511416 0.60703045 0.70519704 0.8636291 0.7550173 0.306386 0.41349125 0.7962286 0.34684458 0.66367006 0.6041312 0.52545035 0.4886363 0.28281498 0.5593043 0.32426384 0.42201644 0.7649621 0.1805515 0.82297605 0.69577426 0.33751765 0.6355062 0.81366587 0.3877051 0.3195867 0.10204916 0.48545083 0.6250576 0.52136815 0.6073661 0.32050988 0.7096943 0.45800436 0.53210974 0.25956598 0.8313513 0.43597582 0.49428606 0.802758 0.34819674 0.42838672 0.5102981 0.4226584 0.8374543 0.79820216 0.31224653 0.29747534 0.6732697 0.22103894
1666 0.6231954 0.47517863 0.4220696 0.39854094 0.28605187 0.70340085 0.67578125 0.6448595 0.23395719 0.47844064 0.86366934 0.30837268 0.73128325 0.7690487 0.7296541 0.83863556 0.5966798 0.7010146 0.61579514 0.27411246 0.34435773 0.12959918 0.32041672 0.42478848 0.2833292 0.19767247 0.57911193 0.46405524 0.5473577 0.38298997 0.22581416 0.7910414 0.51965255 0.38663116 0.15942644 0.25590646 0.5084808 0.4725354 0.61475664 0.551989 0.28911886 0.41383588 0.66552234 0.7231433 0.5280692 0.41984874 0.3344914 0.57399064 0.6523233 0.6610951 0.7887433 0.3420761 0.23278841 0.16647694 0.3495869 0.45565116 0.69474703 0.7099547 0.56071573 0.37869743 0.46961528 0.65411776 0.26901868 0.4429062 0.5803816 0.3112417 0.7199234 0.7951426 0.5174246 0.29574442 0.43459255 0.51356524 0.6991284 0.6144852 0.24934983 0.72369844 0.40486968 0.8139777 0.58687234 0.7480354 0.48928562 0.759891 0.49244097 0.2961951 0.5215495 0.37110218 0.32969525 0.62483346 0.32439396 0.7539819 0.4807538 0.32113189 0.5444873 0.7892973 0.67919856 0.5034693 0.093943775 0.4943001 0.5424688 0.61314046 0.37846252 0.84889954 0.53847533 0.36949167 0.11554353 0.5941295 0.64698696 0.59489584 0.71563834 0.42244846 0.5074065 0.40360865 0.19306752 0.49906084 0.4553989 0.60797364 0.6451812 0.65007496 0.31870028 0.25005063 0.5381597 0.42306784 0.40062973 0.6784064 0.16316879 0.5418492 0.7721503 0.606797
1454 0.6482185 0.4829011 0.580433 0.5189897 0.43851408 0.6243782 0.5263722 0.49298736 0.43707588 0.5321394 0.60855985 0.38246903 0.52330846 0.5973084 0.5739405 0.60376465 0.5887691 0.5029412 0.5764232 0.44991252 0.42792732 0.4175288 0.37912768 0.5021869 0.35943058 0.38052693 0.57892567 0.4333507 0.49727178 0.4469263 0.3875831 0.5753128 0.5256768 0.5562342 0.3811752 0.38605267 0.5963912 0.5201356 0.544999 0.53250223 0.38765633 0.4265021 0.5527329 0.50330544 0.5448664 0.48121908 0.514131 0.52840567 0.5312345 0.5202932 0.6195962 0.4806366 0.42606014 0.41194677 0.47001076 0.41252595 0.5951389 0.55628926 0.48923743 0.4748962 0.41817075 0.5535554 0.4449771 0.48549962 0.53182024 0.41422713 0.48536962 0.5479102 0.4340207 0.47957572 0.47232068 0.38920733 0.55499715 0.48210475 0.3704054 0.6246343 0.54107505 0.6477644 0.5218559 0.61993724 0.52349174 0.5927013 0.5458014 0.3989081 0.520425 0.53007203 0.46722156 0.523885 0.4803919 0.4826923 0.4886674 0.43560013 0.5477741 0.50923973 0.4966304 0.5399664 0.30972615 0.5073011 0.5495192 0.4500805 0.47735363 0.6494248 0.50422066 0.47921497 0.29516706 0.5019272 0.47987354 0.48398522 0.53021187 0.44890895 0.4890469 0.48348042 0.4475587 0.4279658 0.6392308 0.48449492 0.50093037 0.57362 0.5723301 0.43562987 0.50828826 0.4757316 0.5833747 0.6097954 0.42524123 0.48133984 0.5790098 0.42202026
3 0.5372209 0.58082765 0.3092541 0.42606452 0.41780275 0.47049597 0.5999737 0.4734576 0.51232845 0.45869187 0.52814025 0.58064425 0.51880443 0.5895598 0.56993926 0.5661992 0.53179985 0.5992662 0.56923527 0.46171597 0.48951232 0.3368647 0.6071862 0.39586294 0.6008161 0.39203984 0.43239883 0.42848787 0.51773477 0.43525577 0.43438187 0.42660388 0.5436764 0.42606172 0.37002495 0.4854297 0.44135204 0.44863218 0.5536219 0.56433827 0.46933895 0.41301292 0.60333896 0.537837 0.55409145 0.538813 0.6099072 0.48652783 0.45777056 0.46733582 0.49005607 0.42586273 0.33700266 0.5732333 0.3295309 0.3527587 0.50316304 0.41696978 0.5172081 0.50434136 0.5521062 0.5191744 0.65453744 0.4299712 0.4711655 0.39594972 0.4771391 0.5172571 0.5486202 0.48319998 0.49058527 0.6514768 0.4681613 0.61740446 0.60713035 0.42598036 0.43312773 0.51977444 0.51574284 0.57439065 0.46694598 0.65205187 0.5042783 0.5496639 0.48246694 0.5345455 0.48677427 0.58282787 0.50968516 0.4922869 0.43199843 0.48923197 0.44836876 0.31250045 0.61151284 0.6288608 0.5387387 0.46864527 0.45689747 0.6142753 0.45744336 0.50633126 0.5778637 0.5378929 0.6335355 0.47078848 0.5056632 0.45751506 0.41328114 0.5886995 0.46306732 0.3965729 0.49845666 0.4710459 0.54790276 0.5695652 0.5356285 0.6437856 0.62099797 0.45425376 0.6166149 0.5469865 0.5022494 0.35568908 0.48236427 0.40623268 0.40273598 0.5074452
2544 0.68014467 0.4826127 0.54788303 0.63608986 0.45277366 0.43908265 0.5383072 0.59037614 0.4803881 0.5106039 0.42336306 0.5080273 0.6220328 0.55804056 0.5573845 0.54725575 0.55769914 0.51168954 0.6075898 0.4611802 0.42829657 0.39154765 0.56385726 0.5406049 0.5625527 0.47857714 0.53772235 0.38182387 0.5469873 0.4656664 0.5932198 0.33836892 0.5713041 0.36056146 0.56826836 0.5814329 0.5792976 0.49330556 0.4516119 0.5170503 0.54508555 0.52686197 0.3539514 0.48700136 0.4652315 0.40105817 0.61287576 0.41141763 0.3741438 0.38918597 0.51765424 0.4241438 0.50864947 0.5204552 0.3939757 0.45779383 0.29443842 0.5210279 0.519448 0.55661404 0.54937464 0.4430862 0.57927495 0.658244 0.4841338 0.61044425 0.505946 0.6307867 0.59832144 0.48907435 0.579151 0.5861992 0.5234467 0.5120769 0.5903825 0.44714668 0.6197831 0.6313136 0.47573355 0.5611338 0.49599072 0.38244897 0.50548893 0.54190177 0.56331146 0.4337601 0.52169895 0.49423692 0.45198888 0.54284626 0.49591604 0.6341199 0.33427295 0.5896043 0.37136716 0.54127496 0.51418847 0.391094 0.36897296 0.4321854 0.5560788 0.348798 0.42422774 0.37544882 0.5170196 0.5031076 0.32653013 0.4258609 0.51346326 0.48533446 0.41780096 0.50481397 0.515785 0.3863668 0.4607001 0.64967245 0.5072197 0.5205876 0.4414464 0.5452416 0.5596123 0.6671103 0.43617576 0.37528694 0.5029084 0.4115025 0.42373872 0.5594309
4 0.13497502 0.65171313 0.25858694 0.22401679 0.46596113 0.15559618 0.300373 0.33358154 0.42975566 0.41602555 0.268054 0.4396364 0.792884 0.5371891 0.6343382 0.38908923 0.34755337 0.5687115 0.68881524 0.49568206 0.60936594 0.4206481 0.744267 0.74191546 0.6466923 0.601684 0.38084626 0.77455795 0.2804509 0.375739 0.63767093 0.6414882 0.57098407 0.5856717 0.8337116 0.27881068 0.5845523 0.79982454 0.28560555 0.6850597 0.5508436 0.59894526 0.8336184 0.43892834 0.62632436 0.76037145 0.70156944 0.7194759 0.42999762 0.36402422 0.34508708 0.37066433 0.8565325 0.4563193 0.34766296 0.24015279 0.86877257 0.68297404 0.6668794 0.24777034 0.111568205 0.60541975 0.2476198 0.88207245 0.78232944 0.2691079 0.4910874 0.3334866 0.35188955 0.6706947 0.42830104 0.26161903 0.4714615 0.79468304 0.5995703 0.3050867 0.50587314 0.4670955 0.450282 0.38329607 0.3920199 0.25346875 0.15785326 0.32118878 0.59971285 0.34874532 0.72198784 0.53082794 0.58849967 0.62311137 0.5787319 0.39726958 0.60302764 0.4422913 0.2622585 0.8855941 0.46047997 0.302639 0.34782472 0.66125125 0.7909565 0.33530924 0.41460207 0.4665789 0.27917832 0.42969447 0.6989369 0.2913005 0.5533008 0.24479061 0.8486864 0.5399544 0.6210617 0.16491242 0.6962228 0.29131824 0.85050255 0.49217817 0.44152436 0.31366295 0.6269974 0.6375403 0.22394106 0.56362224 0.67846894 0.447942 0.46121916 0.22002374
2176 0.17164893 0.69186825 0.3951347 0.20120348 0.4972495 0.07481801 0.20602298 0.23867886 0.5344936 0.27439904 0.27337065 0.4096514 0.90032953 0.45704472 0.6064398 0.36618587 0.37766376 0.59291726 0.61345613 0.52706647 0.5396228 0.5045179 0.84371537 0.84549516 0.74717605 0.6302495 0.40758136 0.72899204 0.25852036 0.19763596 0.67983747 0.43923244 0.44426957 0.58422554 0.8645732 0.4098413 0.5349087 0.77642125 0.19243535 0.7430314 0.5235998 0.42777663 0.8270492 0.46326044 0.5208443 0.8245592 0.7281912 0.74664193 0.42082775 0.2887638 0.29925737 0.33652565 0.92475796 0.54472935 0.33343592 0.17909992 0.88539857 0.6195799 0.62844384 0.2346609 0.092009254 0.48105365 0.28782138 0.95361674 0.8278842 0.2570281 0.6511307 0.3541889 0.3581239 0.60271025 0.37810862 0.27645373 0.67018414 0.77668846 0.60498637 0.25716066 0.6469193 0.3410574 0.44774514 0.36873773 0.37960717 0.17227878 0.16884142 0.4336193 0.5634883 0.37399644 0.6478609 0.5729787 0.62419075 0.6247416 0.671424 0.54839617 0.6472044 0.45770577 0.1788123 0.9114674 0.37525254 0.41056812 0.26687685 0.6932195 0.90898293 0.2952893 0.31671593 0.20739445 0.14893056 0.45080507 0.51825714 0.23350018 0.5257535 0.24322008 0.9284951 0.543237 0.7287648 0.20064978 0.5608087 0.32084376 0.9411619 0.6486491 0.28864306 0.2694854 0.5541529 0.6771794 0.2668393 0.6447649 0.8234037 0.45773214 0.225105 0.23087381
1016 0.2021365 0.5882069 0.33363092 0.25609112 0.5632602 0.17085233 0.33216515 0.31990224 0.5291788 0.39924192 0.33393353 0.4748207 0.77682626 0.52831507 0.6272903 0.40363005 0.32902986 0.53029305 0.50637716 0.5347046 0.57270086 0.45832005 0.7287848 0.6841492 0.66708684 0.55878216 0.44099692 0.73131436 0.34504074 0.2736075 0.66922265 0.492442 0.4936979 0.5186425 0.73585624 0.43907613 0.5017769 0.67833096 0.27938846 0.6987715 0.5331679 0.4909113 0.7835809 0.5185335 0.5566947 0.7198216 0.63466525 0.6275227 0.41583005 0.35094514 0.33691883 0.44310486 0.79731214 0.5101425 0.3331693 0.34087524 0.7814976 0.5206575 0.56719136 0.28187338 0.19688503 0.56146663 0.37579167 0.84994537 0.71660316 0.31461295 0.5081282 0.33827183 0.34610295 0.6203964 0.45055714 0.34067056 0.5288547 0.71314806 0.69320166 0.33722773 0.4850833 0.37497932 0.46011013 0.3893327 0.4626101 0.2881525 0.20964229 0.3953196 0.55195487 0.43067524 0.60467076 0.5827905 0.6380036 0.5523185 0.6129198 0.44739506 0.5300121 0.45961156 0.3363102 0.8450492 0.532015 0.47058487 0.38666317 0.64229834 0.7752156 0.37381497 0.47336704 0.36758015 0.33098698 0.44243822 0.60721976 0.36633998 0.5458892 0.3740691 0.8105717 0.5729472 0.5962765 0.33233386 0.54890746 0.41165733 0.8417022 0.55097306 0.4181459 0.3509322 0.48948008 0.5483592 0.3283514 0.5654922 0.70225286 0.49947307 0.39870226 0.25324523
1761 0.2070605 0.57375395 0.21276549 0.2827871 0.45941052 0.12925787 0.25728607 0.38631317 0.31892958 0.52651405 0.32489827 0.38514644 0.8779562 0.3730109 0.5362447 0.44113734 0.42900038 0.6206599 0.5972216 0.56784904 0.43361345 0.367418 0.904466 0.45217296 0.55142426 0.30760092 0.48463577 0.64697045 0.31144395 0.3784104 0.67599094 0.65344054 0.3633484 0.68313575 0.73605853 0.4372407 0.23084088 0.62844205 0.22128491 0.83240104 0.40262732 0.48198503 0.6330036 0.6467256 0.618203 0.55163413 0.7526464 0.7479208 0.59500057 0.22194852 0.5328334 0.4200612 0.6136105 0.46827856 0.3080281 0.5018248 0.9019383 0.62330174 0.7859928 0.34608525 0.34131658 0.6951255 0.26231343 0.8466666 0.5520906 0.26815534 0.4306301 0.44082627 0.3554078 0.57877415 0.60747385 0.29680476 0.40396294 0.7830558 0.79796267 0.1995751 0.67915183 0.5236933 0.33662975 0.5289097 0.33729914 0.41261232 0.2172265 0.16575244 0.4766536 0.4727438 0.6701119 0.7509344 0.5322774 0.4286845 0.5880419 0.3522569 0.75408334 0.43019503 0.30209813 0.89768636 0.37622368 0.42408344 0.4306883 0.75402814 0.7583672 0.64038813 0.65781826 0.40464678 0.26991984 0.5538576 0.7046592 0.23298758 0.4983657 0.3388601 0.847727 0.4299539 0.5982538 0.4213356 0.45628092 0.38605106 0.8350751 0.46627882 0.71591586 0.41950235 0.45813623 0.33129737 0.20538273 0.4610303 0.7848602 0.53107846 0.21320078 0.13845517
1256 0.10816413 0.6759404 0.27188385 0.17676067 0.4817407 0.09873569 0.23376906 0.23744479 0.4234645 0.3279679 0.22059628 0.43493024 0.8757902 0.5171559 0.6330896 0.3594208 0.3154678 0.6053775 0.6936608 0.511619 0.5866015 0.42675394 0.82075566 0.8304571 0.7127428 0.6033868 0.3857694 0.7913753 0.25705335 0.28785917 0.6918609 0.5792489 0.5223838 0.5865469 0.87239575 0.28038383 0.56929046 0.8200096 0.21015708 0.7367491 0.54972893 0.5628641 0.8800417 0.44825155 0.59025425 0.8244467 0.71464103 0.76414806 0.41224533 0.32251307 0.29709327 0.3402558 0.9149961 0.4584504 0.27943477 0.17940007 0.8988262 0.6842951 0.7097301 0.20225932 0.07576458 0.5582197 0.24389346 0.9345766 0.85538536 0.22482072 0.5433319 0.32020098 0.35259208 0.6748514 0.43030673 0.22684523 0.5069174 0.8399956 0.6621746 0.2459158 0.5357145 0.38440183 0.44767112 0.37611645 0.38745487 0.16874431 0.11812571 0.30740988 0.6211154 0.3397365 0.72424185 0.5663515 0.62619346 0.6531737 0.60420626 0.40584192 0.6298786 0.46122018 0.18876924 0.9235361 0.40444186 0.3286873 0.30848828 0.71189904 0.8798887 0.3149281 0.38655704 0.36813712 0.21272296 0.42650023 0.6726123 0.2520547 0.5627221 0.21952632 0.91836876 0.536451 0.6978536 0.14696962 0.6768048 0.3057004 0.9160369 0.54492575 0.3650079 0.27588904 0.6223022 0.67174405 0.20562692 0.58744895 0.7658116 0.42754656 0.3349122 0.21392214
2175 0.1285192 0.66195893 0.2540459 0.24355106 0.4618129 0.1498848 0.30778807 0.34311283 0.4253574 0.3941356 0.25937992 0.44280192 0.7761433 0.5463353 0.6246743 0.36761898 0.36619687 0.57892257 0.6811608 0.47520626 0.6091124 0.4238389 0.7623414 0.73721844 0.658025 0.62213326 0.35148755 0.77357394 0.28501052 0.38595265 0.6414303 0.6318085 0.5613852 0.5962915 0.83016425 0.29118478 0.5809757 0.798208 0.28860566 0.6930548 0.5469516 0.5891054 0.82858425 0.44174972 0.636767 0.7646988 0.6861441 0.71587324 0.43514767 0.3560783 0.37331486 0.37489435 0.8545047 0.47366124 0.35626915 0.2414522 0.86432725 0.668604 0.67239994 0.25983495 0.121382125 0.607953 0.23987019 0.87342036 0.7663377 0.28065684 0.4965546 0.32934916 0.3749575 0.6667876 0.43009958 0.28458267 0.48381886 0.7900172 0.59325373 0.29541883 0.49567667 0.44877595 0.4649323 0.37222135 0.37369987 0.25273222 0.16086453 0.33918342 0.5688548 0.36107025 0.7307672 0.52726763 0.59313196 0.64267457 0.5757331 0.40683034 0.5995122 0.44572914 0.2578392 0.8773228 0.46980423 0.31619552 0.34096712 0.67039454 0.78511906 0.34010863 0.41496372 0.46456507 0.2815619 0.42265487 0.6933394 0.29846612 0.54955745 0.2420911 0.8409808 0.5387251 0.6179624 0.17728767 0.68784535 0.29928952 0.84724957 0.50730777 0.4083489 0.31481096 0.62213784 0.63298947 0.22734286 0.5651042 0.6775767 0.43867123 0.44616944 0.23297712
5 0.54753876 0.6524729 0.30363846 0.73492324 0.29554832 0.5583703 0.52393377 0.48082072 0.50405616 0.3517765 0.4011532 0.5660728 0.14639461 0.5417206 0.4622519 0.18508251 0.38815784 0.5548108 0.6482395 0.49194863 0.5958175 0.7132487 0.46421683 0.70295304 0.28932363 0.69580233 0.461948 0.5728577 0.40551224 0.6101428 0.45745578 0.63352144 0.45900372 0.7078359 0.550009 0.63869894 0.3669824 0.7364949 0.39517766 0.38947842 0.47585425 0.63506925 0.35905564 0.6570906 0.49676523 0.7034424 0.2856299 0.39254388 0.55267984 0.50951046 0.5270562 0.74043256 0.5864357 0.5044341 0.80188495 0.6236341 0.4465572 0.32321468 0.70508826 0.59455246 0.30094746 0.44583496 0.42173272 0.30007792 0.5617569 0.65357345 0.57515794 0.295296 0.38430396 0.49829647 0.40831348 0.54757994 0.5577336 0.35719246 0.39154294 0.39020255 0.6940394 0.23100254 0.64125735 0.27080736 0.3988616 0.48039514 0.4936864 0.7285188 0.41124755 0.41381696 0.5115163 0.36403835 0.55102485 0.56883323 0.44879016 0.5547638 0.3558447 0.3373997 0.30356887 0.32063094 0.57863194 0.6210179 0.39897287 0.6364347 0.26660734 0.6177622 0.4511782 0.5918638 0.24350432 0.3603727 0.621068 0.6213853 0.62960124 0.41068158 0.50800794 0.5486695 0.62418115 0.45712343 0.56949174 0.6180782 0.34482574 0.49289954 0.29853454 0.47073695 0.71479857 0.6030157 0.49132004 0.6952107 0.7744163 0.48700452 0.5278046 0.42785913
1629 0.66951066 0.69637495 0.34400406 0.71755004 0.18556765 0.40005302 0.52093124 0.6556856 0.45381925 0.41917425 0.51448816 0.4423735 0.181183 0.49751815 0.3679605 0.23983812 0.250708 0.45614362 0.6174842 0.5542806 0.55860996 0.67003113 0.27040935 0.6819379 0.3521455 0.5421259 0.448434 0.6371219 0.40451333 0.52970123 0.282209 0.59093475 0.3795306 0.6697385 0.68997604 0.6389611 0.38851127 0.70492965 0.43183485 0.33952415 0.46649954 0.6047501 0.3614718 0.6670278 0.47462943 0.69745475 0.45902818 0.3055341 0.5788309 0.49780148 0.4930951 0.7996912 0.6244585 0.58684427 0.8235445 0.63501126 0.4546174 0.28310117 0.67576146 0.6262038 0.4197014 0.5133539 0.46403491 0.38831094 0.40710485 0.70811343 0.6330322 0.47723913 0.48280403 0.46383977 0.2471205 0.63844424 0.31604698 0.2869981 0.3079452 0.35082763 0.6157058 0.33591226 0.61330676 0.2577277 0.43016765 0.5049973 0.5044782 0.71998584 0.4310585 0.33599633 0.3770191 0.51135963 0.4775595 0.6674652 0.46695024 0.52521384 0.40278244 0.34309644 0.39035264 0.3564249 0.5485222 0.564169 0.45639235 0.57755935 0.34861585 0.6965931 0.54350317 0.6122144 0.32132623 0.38537508 0.61653197 0.713833 0.5409018 0.5607093 0.6028866 0.5104043 0.50596005 0.39618877 0.45646626 0.5019257 0.4870562 0.3744902 0.3619918 0.550748 0.71166724 0.72921056 0.40975004 0.7013254 0.69080013 0.63743895 0.52705824 0.40415668
2546 0.7262249 0.4768794 0.59258306 0.48118258 0.18123955 0.47678858 0.32626513 0.57073283 0.43181822 0.54346544 0.3283141 0.2539214 0.16715907 0.32142732 0.40153086 0.37102115 0.53572416 0.61934626 0.42797557 0.6213691 0.5977007 0.60053355 0.25423992 0.776348 0.41702974 0.39030635 0.50681823 0.73899037 0.2513659 0.5313731 0.21100295 0.58457434 0.33339292 0.85944355 0.7908754 0.7147686 0.50438666 0.47082913 0.4152306 0.3095181 0.4920986 0.4812878 0.44905198 0.46404803 0.48610967 0.84783053 0.49114424 0.34999385 0.5626607 0.6676744 0.6380768 0.84832096 0.62314504 0.48991185 0.7603307 0.71327245 0.5674615 0.2452413 0.5611211 0.53889567 0.49781743 0.5452362 0.43984368 0.23218076 0.40385422 0.75963104 0.48953688 0.5873051 0.588729 0.44066092 0.30239818 0.30896834 0.34128496 0.28117904 0.18129252 0.6696744 0.7677688 0.28561798 0.5333912 0.32985142 0.37463298 0.41917855 0.30022296 0.56616277 0.5312918 0.36412144 0.35870174 0.5321936 0.43821582 0.72375417 0.42447272 0.44104093 0.84066725 0.5371379 0.50907254 0.2525641 0.21655674 0.6146767 0.5358308 0.5895578 0.58891934 0.77425164 0.41570124 0.38937315 0.31340578 0.26219377 0.8029874 0.66422415 0.38062915 0.5303399 0.46953788 0.21611741 0.5750418 0.45087206 0.68083537 0.34868875 0.5364679 0.5423151 0.4572923 0.66462433 0.67707634 0.42225507 0.5682915 0.7442292 0.6692891 0.60033995 0.59474593 0.41528016
1659 0.6185556 0.631512 0.37454298 0.6533518 0.26449162 0.48480344 0.5235429 0.56865275 0.45402542 0.42008522 0.44685507 0.43686113 0.19615819 0.5090527 0.44473115 0.2896591 0.4287672 0.58287454 0.6174818 0.49100676 0.5220995 0.6407456 0.42662275 0.6473043 0.3643618 0.5594203 0.44699305 0.61420214 0.36849964 0.5990826 0.3705864 0.62898624 0.4365469 0.68398017 0.6433769 0.6342529 0.41827825 0.65134054 0.43544823 0.40295067 0.46023053 0.5691518 0.41414782 0.60454714 0.5093604 0.7060574 0.3971945 0.37716457 0.5722499 0.55193615 0.5585005 0.70959306 0.56507015 0.52360135 0.74736696 0.58941406 0.46548265 0.33711562 0.6739011 0.5850622 0.43364987 0.5033559 0.4705558 0.32137504 0.47734603 0.60492295 0.5707057 0.4361582 0.47985744 0.48514503 0.35737985 0.5501878 0.45518777 0.35456297 0.3556197 0.42181364 0.6732988 0.32186684 0.57500863 0.31272632 0.39263487 0.45939535 0.44491735 0.65913737 0.45772246 0.39422277 0.510189 0.4444865 0.49877623 0.6198089 0.4544673 0.51666075 0.51824355 0.4625207 0.4086424 0.3633413 0.45658287 0.5565943 0.4014051 0.624722 0.3189937 0.6570181 0.43803415 0.5672856 0.2697151 0.38407484 0.63195544 0.6128958 0.58206874 0.44643462 0.48690525 0.4677594 0.54843205 0.44383886 0.5697827 0.5268126 0.43636176 0.48901674 0.41018027 0.46084952 0.6824242 0.5874029 0.4863695 0.63890374 0.6832754 0.48364043 0.52723676 0.43317658
6 0.35530442 0.75661653 0.608267 0.5826387 0.81349206 0.6618719 0.60395736 0.64826185 0.51188785 0.3054977 0.5227093 0.73872125 0.5825418 0.495516 0.544053 0.4473921 0.38869885 0.22561695 0.72338235 0.3474559 0.49348056 0.44346464 0.77237487 0.3364459 0.16139089 0.7243134 0.34720382 0.40050402 0.38923144 0.77277255 0.5482238 0.6623849 0.6563314 0.28004557 0.1911083 0.3469905 0.27610624 0.6923694 0.58807033 0.60640776 0.39097285 0.46699288 0.47135893 0.4055141 0.86800563 0.5415038 0.29076913 0.6673696 0.7198296 0.61409855 0.5278915 0.14504111 0.34862038 0.50291383 0.61749756 0.33007896 0.7374402 0.62004256 0.60852444 0.5855085 0.25725913 0.35598052 0.38130888 0.56764054 0.5226168 0.32075116 0.62818736 0.44773957 0.412003 0.5105536 0.5592543 0.66544515 0.6283869 0.5798229 0.33689713 0.44885078 0.2447586 0.664283 0.7592511 0.5080995 0.3526876 0.55105 0.82468164 0.7252019 0.2436269 0.549731 0.839551 0.43531364 0.39593196 0.66177833 0.3460084 0.5910474 0.28842443 0.48936343 0.22306497 0.39750203 0.48598456 0.5279994 0.3412123 0.44864643 0.36274377 0.4039721 0.55968684 0.5620404 0.2480543 0.53206646 0.45074868 0.608779 0.48863715 0.3761612 0.52297664 0.61240613 0.34098879 0.3482022 0.62545824 0.4959572 0.34081513 0.7165665 0.41747504 0.2891917 0.44266734 0.77514136 0.60276073 0.41467586 0.2351681 0.30710158 0.6514583 0.5793977
1416 0.09725019 0.9210449 0.4635569 0.8429106 0.76487887 0.2837618 0.58614755 0.98198247 0.7980352 0.051540878 0.77120775 0.9728387 0.40906247 0.14517255 0.12641753 0.09789445 0.1046449 0.4696501 0.38326302 0.35790953 0.6626532 0.7515393 0.8729479 0.37100655 0.7766721 0.9300341 0.2115772 0.3467192 0.49952343 0.867078 0.2536799 0.21324757 0.310273 0.14291348 0.8076469 0.5771988 0.062158097 0.8278533 0.5079472 0.59741044 0.41409102 0.9087798 0.8172244 0.4436464 0.8382538 0.3722044 0.226665 0.33317813 0.7950321 0.50126755 0.8433637 0.4199217 0.649911 0.92200905 0.7894778 0.47182643 0.18484928 0.78093326 0.18821013 0.5495766 0.5057793 0.282597 0.80104494 0.5856241 0.32327613 0.7675008 0.93983793 0.8337887 0.5317 0.09083686 0.5979942 0.92613006 0.28170857 0.54409385 0.07697098 0.04854376 0.2243192 0.6707485 0.85062814 0.33455646 0.23888534 0.12076868 0.6590822 0.7947421 0.022482425 0.6858157 0.8249274 0.65413964 0.40959015 0.8727171 0.49444112 0.7322047 0.3262612 0.29106778 0.26228687 0.20008644 0.3700724 0.8555605 0.18388496 0.5898584 0.40940297 0.5702256 0.29458204 0.41967195 0.3112976 0.69532233 0.379913 0.6792647 0.5857482 0.44347644 0.80460644 0.54030806 0.23626022 0.21766868 0.65716 0.47844636 0.11204982 0.79045784 0.13942288 0.27585244 0.5336148 0.40187004 0.7970476 0.16135469 0.29846683 0.34409097 0.112397045 0.68438035
1602 0.43065348 0.69623035 0.7698155 0.54806113 0.74502146 0.74732214 0.5572806 0.61285007 0.51679873 0.46751758 0.3174989 0.9270327 0.82463235 0.3546737 0.3356252 0.4182181 0.3524124 0.44834065 0.5678318 0.7850722 0.40518922 0.4548531 0.72157174 0.5598784 0.312191 0.42424408 0.7520303 0.25230306 0.617519 0.73056036 0.5446274 0.2991813 0.3953454 0.14292556 0.23288248 0.57979935 0.08022335 0.43779227 0.43841258 0.42021284 0.62994033 0.30390602 0.26599002 0.6511964 0.8419575 0.2486442 0.3461636 0.6057992 0.63946587 0.842526 0.1583674 0.12700672 0.35466522 0.4160263 0.25599742 0.339189 0.49197 0.5449781 0.62702435 0.63081735 0.2703613 0.22907472 0.59261954 0.23055801 0.72477925 0.31308758 0.74964714 0.7806591 0.65189695 0.4184884 0.7446659 0.42854083 0.5681631 0.57402664 0.40602735 0.5408177 0.2329239 0.18961923 0.7424829 0.4859163 0.58201617 0.73236954 0.7361749 0.8649264 0.34177926 0.6275192 0.47898445 0.713091 0.27826217 0.78129745 0.31410414 0.76936096 0.32728547 0.36793348 0.17790656 0.20937656 0.38596326 0.7079291 0.59343094 0.47501978 0.6859846 0.51533055 0.38375878 0.31175992 0.5280631 0.63185906 0.682376 0.5695319 0.35337803 0.5369022 0.6478879 0.24460354 0.6188631 0.26078013 0.3580217 0.7080334 0.22795385 0.8334705 0.35886836 0.54962164 0.8106002 0.80440366 0.6596048 0.15561786 0.30344987 0.3466007 0.20542654 0.8143146
1042 0.88965255 0.82192093 0.5328665 0.83686805 0.65708864 0.72680897 0.77379274 0.6958739 0.20918564 0.15799952 0.28193387 0.8857906 0.83950573 0.61863786 0.28002992 0.19327861 0.17175819 0.20115434 0.89132565 0.29116988 0.28644747 0.2236197 0.75015616 0.89275986 0.11137934 0.82347393 0.27451074 0.18674661 0.30846933 0.8826871 0.8514336 0.23140562 0.6437639 0.14816529 0.32480052 0.415088 0.13234583 0.35885936 0.45717058 0.6956517 0.26769593 0.53343755 0.27972713 0.51392 0.88145924 0.35950947 0.21025501 0.63224953 0.8977553 0.80238426 0.85936683 0.058813643 0.28009093 0.5815499 0.3366415 0.3506695 0.16258194 0.288071 0.7115643 0.84041417 0.094112575 0.14729717 0.79913455 0.3704701 0.46323583 0.29921675 0.810382 0.8331772 0.8196967 0.17075746 0.57586294 0.8428594 0.41096106 0.70354587 0.3833756 0.23553994 0.065741114 0.66905415 0.90476274 0.7373326 0.54728013 0.22143337 0.8015439 0.87905663 0.14778328 0.8146824 0.93814266 0.7432172 0.5830946 0.8939905 0.14172138 0.6101734 0.08967385 0.58745646 0.013131358 0.38407648 0.05508404 0.63357484 0.58725154 0.50353646 0.4479023 0.8323447 0.58600444 0.7253926 0.07773464 0.43742564 0.09506996 0.84079015 0.6935897 0.59114677 0.39816836 0.5032529 0.6030381 0.13212092 0.6409884 0.63184756 0.13231681 0.8434003 0.5458453 0.2146633 0.85321444 0.9670163 0.91491973 0.29662845 0.5449644 0.059762698 0.12639253 0.57442427
373 0.5491851 0.5462188 0.59037495 0.6250193 0.6032324 0.4465572 0.5069961 0.5934678 0.41073248 0.41696683 0.49073878 0.6720698 0.67443144 0.43351078 0.41793433 0.46942964 0.35263154 0.36984813 0.6147591 0.44457886 0.46602026 0.39775777 0.50992835 0.5848638 0.39228645 0.5770978 0.47598773 0.28253922 0.5446353 0.62323767 0.6276896 0.36507076 0.58373076 0.29895192 0.50858593 0.42805147 0.35324922 0.5284248 0.55110604 0.4476862 0.5118504 0.5586997 0.44307292 0.48645234 0.756645 0.4259263 0.41560304 0.5795626 0.55960405 0.56753886 0.61142623 0.28606227 0.5055692 0.46744713 0.31211534 0.33649164 0.30566713 0.56681126 0.6494687 0.6334267 0.4008936 0.33396047 0.60491204 0.6608173 0.5959453 0.41463014 0.57380044 0.6192227 0.633604 0.5138725 0.5117282 0.5410327 0.46223563 0.599932 0.4951291 0.46334913 0.27563882 0.65015215 0.77725637 0.5328394 0.5147672 0.4055516 0.72213906 0.5247007 0.36131927 0.62311846 0.7739019 0.59802294 0.44470644 0.58095115 0.36015323 0.48655972 0.35253385 0.50914854 0.21810861 0.3619606 0.3592767 0.61306053 0.47739252 0.30160737 0.62106913 0.45290047 0.49830264 0.6354463 0.48024684 0.57686555 0.4166452 0.55564845 0.5023197 0.511421 0.5905571 0.50211465 0.57404506 0.33686498 0.58867633 0.5891459 0.35586718 0.5580488 0.41820005 0.45061338 0.5389922 0.7065595 0.6026196 0.27147567 0.35068545 0.26808977 0.41031477 0.61501616
7 0.59487426 0.45405206 0.28788567 0.4132731 0.3622087 0.501679 0.48652592 0.58104944 0.49007437 0.49415353 0.5362155 0.5235605 0.52357036 0.43551928 0.5953058 0.54413444 0.3657952 0.50171185 0.61572576 0.4558073 0.63988453 0.38903293 0.4328396 0.6999528 0.5771009 0.52017754 0.50509435 0.4146105 0.45572126 0.49231187 0.46897677 0.40285978 0.5880149 0.5023973 0.5231285 0.5536128 0.48531967 0.4584794 0.4318835 0.32142606 0.5253832 0.55632323 0.47034618 0.5028166 0.3609265 0.55568516 0.50231904 0.467847 0.46432713 0.46160397 0.47259763 0.4847026 0.5342951 0.40908143 0.34423277 0.5175604 0.31438085 0.46088603 0.4095676 0.5161957 0.5225406 0.39273867 0.6552419 0.60940087 0.47981095 0.6441205 0.46583098 0.5527541 0.61810875 0.40274474 0.4097936 0.57847077 0.51310843 0.570785 0.41170207 0.48114473 0.4932282 0.64697653 0.5084675 0.5222518 0.5089217 0.592968 0.41681513 0.55074596 0.6413294 0.39608666 0.507357 0.5892304 0.547283 0.5729803 0.44686466 0.5561986 0.41695294 0.39963087 0.5476704 0.43838602 0.31779727 0.40714702 0.4864416 0.43190548 0.58255434 0.5038218 0.5143732 0.42604482 0.65815544 0.45008013 0.52382606 0.48777577 0.48297727 0.6206827 0.5503477 0.46149758 0.5015561 0.3579603 0.4986403 0.5906786 0.539426 0.5507543 0.44254243 0.5587353 0.7117837 0.5958268 0.5102976 0.624417 0.47525424 0.5261949 0.5239398 0.48031065
208 0.5070446 0.49623543 0.46614295 0.5033367 0.4661732 0.5055691 0.51048714 0.51654404 0.50964594 0.47892576 0.5244581 0.49227273 0.48799372 0.51347214 0.5249263 0.49886128 0.48390716 0.5037968 0.52423453 0.46787295 0.5218528 0.46280965 0.47955772 0.50895816 0.52274996 0.49369687 0.50061613 0.48843983 0.4874742 0.5050732 0.47830495 0.48811412 0.51367986 0.5017181 0.49634513 0.51057386 0.5386156 0.51057655 0.5127786 0.4826368 0.50266325 0.5111776 0.5197593 0.4910343 0.510084 0.5162382 0.51350635 0.48403966 0.4599448 0.48592016 0.5297134 0.5298593 0.49963352 0.49674803 0.48798734 0.47655126 0.48272413 0.49556482 0.47687826 0.5162072 0.49051878 0.49308532 0.5267641 0.5069833 0.49179348 0.50826365 0.47131407 0.4982955 0.50019497 0.51645875 0.4805356 0.524138 0.50412315 0.50130546 0.49800774 0.4733088 0.51433814 0.538659 0.5087561 0.49917898 0.48306027 0.502629 0.49096453 0.50761706 0.50808823 0.47906575 0.52244794 0.49848077 0.50504965 0.51404047 0.49450552 0.5003166 0.48202273 0.46664616 0.5177836 0.49899387 0.51239294 0.48249567 0.48171863 0.48813882 0.49744746 0.4872036 0.502356 0.5160703 0.5098113 0.4849865 0.49236813 0.48229423 0.48298872 0.5034636 0.4858165 0.49852273 0.49530205 0.47559628 0.52408946 0.5058085 0.50326186 0.5092633 0.5134934 0.50054085 0.53153104 0.51949644 0.48762664 0.50947535 0.49396998 0.4969372 0.5008575 0.46620354
8 0.43016836 0.67747366 0.5765638 0.54864097 0.5959432 0.53652984 0.42131177 0.7155646 0.728871 0.4515837 0.61619663 0.492894 0.37379822 0.4068148 0.56387454 0.63993263 0.28057697 0.21456246 0.47318396 0.25014472 0.57570827 0.50158757 0.5821565 0.32373607 0.38851118 0.3059211 0.4383919 0.7405269 0.27121454 0.5528115 0.2746096 0.6170355 0.7626156 0.17703992 0.3797457 0.5900952 0.5960325 0.65899825 0.5650035 0.41780943 0.45809713 0.5849978 0.29450986 0.37178797 0.44975153 0.63855666 0.40845856 0.47575948 0.46601623 0.55062395 0.3892098 0.6926681 0.5751549 0.6636113 0.79632854 0.6882256 0.6002471 0.5085689 0.33214477 0.5190119 0.5780742 0.4591883 0.61612445 0.6106498 0.4567552 0.39666674 0.5208627 0.488704 0.43463457 0.5486899 0.43183824 0.68804145 0.6038972 0.26493666 0.31643978 0.4556528 0.6622301 0.72804123 0.33020064 0.4140952 0.34069154 0.36460263 0.52597785 0.71726954 0.29941794 0.16604246 0.75603765 0.5267128 0.3996894 0.56571543 0.7235728 0.6106547 0.57751954 0.72657436 0.39486748 0.40571147 0.7987602 0.39808738 0.26956928 0.4450192 0.38860974 0.23954448 0.44455042 0.39581004 0.35205397 0.46366954 0.39157727 0.6530072 0.34547657 0.36095273 0.34936973 0.82862866 0.45999977 0.4835506 0.5411286 0.4605002 0.6565657 0.6421835 0.57868063 0.3733346 0.37987137 0.78448176 0.41159543 0.6379608 0.3102678 0.76230913 0.69382983 0.27318355
281 0.654854 0.5293849 0.87649727 0.704475 0.60302716 0.5377252 0.1472088 0.7668203 0.58378243 0.46010602 0.6399176 0.3831219 0.8432013 0.37995297 0.3924247 0.25000033 0.7598721 0.38380745 0.38117105 0.479463 0.54732025 0.22416429 0.60167557 0.791126 0.60048455 0.30568594 0.47681737 0.40689984 0.47592628 0.6196715 0.5129495 0.40475923 0.592084 0.3241272 0.56719947 0.5748385 0.6840858 0.8245404 0.5468291 0.4372139 0.4481707 0.20064186 0.23521484 0.43978608 0.3297126 0.42501277 0.3824618 0.55420536 0.48385936 0.31418535 0.53789544 0.33632934 0.793342 0.55564207 0.6575011 0.38941383 0.612733 0.50791377 0.23979554 0.6528145 0.35914555 0.22446229 0.39838374 0.85061926 0.5206729 0.50760424 0.5118162 0.50981754 0.67282796 0.42264256 0.6901525 0.35038865 0.6991336 0.37642795 0.23081705 0.6506605 0.9341406 0.6644309 0.3566041 0.5811041 0.4905589 0.2593192 0.3936425 0.53521866 0.49290493 0.24377027 0.7196292 0.551158 0.34699085 0.43008626 0.8471678 0.7566869 0.782844 0.6354236 0.12441384 0.39133468 0.43861204 0.3205676 0.2829643 0.38262683 0.85867566 0.29590273 0.2245201 0.17271955 0.13667338 0.49592915 0.16448344 0.27531156 0.32699832 0.1625087 0.3499806 0.84233224 0.7926116 0.5482278 0.65032166 0.66116285 0.62252957 0.8145025 0.25527242 0.62068677 0.58972806 0.7323398 0.47024682 0.714474 0.37653837 0.8418723 0.10177123 0.4104663
1996 0.63548714 0.49983972 0.83556896 0.77475595 0.46149796 0.7353048 0.29248932 0.52742237 0.67877144 0.5288947 0.74504906 0.41140473 0.35987172 0.40593806 0.47767907 0.6237763 0.7668202 0.51467484 0.5226502 0.40397984 0.34844175 0.5856971 0.49771866 0.3733287 0.32791412 0.24741668 0.61857486 0.35299188 0.57492024 0.6683659 0.27670398 0.73000306 0.82118577 0.28662962 0.3476797 0.45876998 0.6575099 0.7816675 0.6228237 0.2081846 0.40219522 0.46389246 0.2360638 0.27360305 0.32450232 0.45585865 0.37474498 0.45525807 0.42086056 0.47470582 0.42364404 0.46944115 0.5747828 0.567459 0.78607184 0.5054626 0.53080964 0.74557185 0.557892 0.54370725 0.67178285 0.3468892 0.52645916 0.6168639 0.6229228 0.47911397 0.35949674 0.34462264 0.3557047 0.585949 0.70999354 0.58044493 0.59464914 0.22366074 0.28989714 0.6003778 0.90990627 0.61540323 0.43506566 0.7002956 0.41127503 0.37799942 0.81292266 0.40001404 0.6445443 0.2758557 0.6705759 0.3473126 0.34940583 0.22506282 0.69978476 0.6105118 0.67759264 0.4826137 0.33527577 0.31966454 0.6625581 0.34630764 0.22636874 0.26528764 0.34644312 0.22524711 0.37827665 0.41721025 0.37292504 0.6294547 0.29537126 0.39552897 0.34483543 0.17975195 0.3341025 0.8161731 0.6820454 0.6669632 0.7307778 0.5768722 0.23976703 0.55991316 0.47098222 0.64898527 0.4053966 0.5754652 0.4013793 0.46353328 0.24391402 0.76544553 0.52663285 0.5995171
269 0.42122236 0.5654281 0.7408784 0.583354 0.42643884 0.6264649 0.3589388 0.36301264 0.61421496 0.23858298 0.3797158 0.5345559 0.66252905 0.34591427 0.31801367 0.37350756 0.5292765 0.3665959 0.6333286 0.36927405 0.28332588 0.8206537 0.4333658 0.6271231 0.34131745 0.3438518 0.5811714 0.54696596 0.49041453 0.6180482 0.6298311 0.44180998 0.7133354 0.21484041 0.50047255 0.5400902 0.7472725 0.59102494 0.58736897 0.2530381 0.58378416 0.47018847 0.16553956 0.23728235 0.33657756 0.42121658 0.5706469 0.59022856 0.46177727 0.5534379 0.30976132 0.5109418 0.6854809 0.69886565 0.61597365 0.36127406 0.5866213 0.70688075 0.5374913 0.5399455 0.565646 0.29866347 0.6893456 0.44640034 0.7007947 0.61291283 0.37804854 0.5180377 0.56784815 0.56552845 0.6116936 0.718845 0.4907305 0.36458996 0.2332938 0.49934354 0.65202343 0.47579476 0.22958188 0.6097019 0.41351306 0.2553372 0.7717711 0.5850865 0.51016784 0.33222407 0.67627275 0.61957204 0.49354735 0.2745397 0.66691035 0.49271327 0.65419704 0.572696 0.22779918 0.27899113 0.6887462 0.25677305 0.3939948 0.32010195 0.50924283 0.28690132 0.45739672 0.5550928 0.6968412 0.63709545 0.20445853 0.42693585 0.2718421 0.43483144 0.3469973 0.8184991 0.78287286 0.26615497 0.64594156 0.38406146 0.27830705 0.42790148 0.68415576 0.67052644 0.7541896 0.7928166 0.57780904 0.5845471 0.3289674 0.68804693 0.39198202 0.58175504
9 0.5421659 0.5061592 0.40185937 0.63400203 0.4634037 0.23154199 0.5442037 0.5069704 0.54908663 0.31123805 0.4548275 0.47092333 0.3823537 0.6278231 0.66425943 0.40609756 0.58294743 0.66766757 0.44504353 0.52414817 0.49567798 0.3547576 0.4628045 0.3944685 0.6564884 0.59604055 0.5938964 0.6674582 0.36313915 0.35240176 0.6166465 0.43400747 0.4375927 0.6165682 0.6523694 0.5983693 0.548515 0.6261787 0.53428197 0.6056692 0.48597747 0.55261743 0.710444 0.45579603 0.7389886 0.55879074 0.617112 0.36642238 0.37302637 0.30673635 0.63481367 0.6700941 0.45083502 0.58318967 0.6942476 0.44783753 0.593848 0.4604904 0.5048998 0.42774847 0.4569517 0.5768785 0.35189483 0.7985166 0.3926867 0.5760061 0.5110715 0.35940114 0.23632619 0.58540386 0.50096357 0.62720495 0.33473775 0.45002759 0.7090565 0.31109777 0.6417081 0.5791615 0.68497837 0.40248358 0.3928495 0.33753544 0.6242003 0.4540374 0.33221516 0.5482055 0.50923127 0.3655075 0.4642933 0.46199378 0.38166812 0.29285827 0.34166396 0.37864363 0.6064651 0.7264865 0.6235406 0.49608037 0.33466357 0.6546116 0.45826235 0.41488507 0.5227859 0.5577487 0.3807597 0.40459183 0.38602102 0.5147565 0.55845666 0.5823846 0.44218788 0.5108906 0.37501243 0.4915271 0.73328775 0.37332165 0.51642495 0.41664106 0.43649417 0.45316872 0.4640295 0.36698335 0.41484872 0.34775075 0.5717164 0.45332408 0.64779925 0.3846884
2614 0.5587991 0.66062915 0.37358075 0.7331279 0.43147057 0.1787118 0.6285856 0.5828486 0.60122514 0.38422394 0.3786018 0.45308933 0.2587639 0.6999467 0.69280857 0.53449667 0.6172993 0.65584695 0.631868 0.50308675 0.5106328 0.38329962 0.5863342 0.3118421 0.61352247 0.71687037 0.50151485 0.6706592 0.3224036 0.3011809 0.46556336 0.38404775 0.4735907 0.7517248 0.6222254 0.44106996 0.6192724 0.7135902 0.45262063 0.688707 0.37650076 0.61124796 0.7712925 0.35621578 0.6677649 0.6344807 0.78086233 0.36250144 0.41707543 0.178225 0.61745334 0.630096 0.45625597 0.79309946 0.75419974 0.43954468 0.77465534 0.45648056 0.5214481 0.34448484 0.45459342 0.7152251 0.23808785 0.88247854 0.30832425 0.57058805 0.54216725 0.17343917 0.14235868 0.49804497 0.4669695 0.65099794 0.37185344 0.4920606 0.63608134 0.29232326 0.68520147 0.6100658 0.6284778 0.47292182 0.31660122 0.38202706 0.71108377 0.46373817 0.335077 0.5162489 0.31331933 0.3028431 0.42016754 0.39841798 0.30728617 0.26491502 0.29812106 0.29496568 0.59041107 0.8639437 0.53736895 0.35449395 0.3049509 0.7012426 0.38731766 0.4604989 0.60269344 0.49760705 0.3678514 0.37543875 0.26081437 0.54990435 0.51513976 0.41531774 0.48083088 0.5197288 0.28685516 0.4456597 0.8004112 0.27600744 0.6347846 0.5758235 0.4162776 0.52475226 0.41245422 0.3410412 0.43431202 0.38632584 0.6257838 0.46626246 0.763211 0.32423618
723 0.5389212 0.509179 0.40253267 0.6367581 0.45960644 0.23719575 0.5417078 0.5075082 0.54698473 0.31138125 0.45471412 0.4748672 0.38445777 0.6248087 0.65795165 0.40473098 0.5805036 0.6654111 0.449553 0.52398074 0.496587 0.35491997 0.46334964 0.3981336 0.6508273 0.590708 0.594369 0.6658553 0.36536664 0.35424 0.61096936 0.43204165 0.43500006 0.617805 0.65090144 0.5901005 0.5481406 0.62594306 0.5331778 0.60669804 0.48385718 0.5596195 0.71060437 0.45507535 0.7340336 0.55911165 0.6161624 0.37004158 0.376063 0.3080097 0.63460994 0.6706144 0.45239025 0.5837626 0.6924172 0.44987038 0.5975777 0.46486056 0.5045548 0.4264961 0.45245686 0.57777166 0.35142684 0.79481524 0.39783552 0.5749472 0.5143316 0.36195543 0.23731264 0.58069247 0.5068753 0.62496454 0.33295408 0.45339975 0.70579284 0.31174847 0.6425794 0.57877976 0.68003505 0.4099933 0.39469177 0.33527362 0.6233312 0.44883704 0.33041003 0.5489152 0.5040677 0.36802843 0.46441936 0.4620786 0.38307536 0.2897739 0.34476635 0.378093 0.60163635 0.7266695 0.61794627 0.4959987 0.3396568 0.6565618 0.46153444 0.42347282 0.5257444 0.55676126 0.37923586 0.40560377 0.38447157 0.5188646 0.5554507 0.5788016 0.44597867 0.5096 0.3788607 0.48722497 0.7342013 0.3745332 0.5148042 0.4190235 0.44061294 0.45574984 0.46670374 0.36688742 0.4174325 0.347511 0.5740256 0.4531586 0.6441706 0.3862815
10 0.6841012 0.5361972 0.6121723 0.6917974 0.53310627 0.46092895 0.6129032 0.69028133 0.51092243 0.70703584 0.38983056 0.47115576 0.45003098 0.5599984 0.4152209 0.6275154 0.47856134 0.33249816 0.6579414 0.4835237 0.37697563 0.664172 0.46739468 0.37285462 0.34372452 0.5803109 0.6882208 0.4169347 0.49745673 0.5059053 0.45472932 0.46648607 0.3201598 0.7007589 0.5980445 0.41808018 0.4720799 0.54317063 0.4067743 0.66627747 0.449592 0.68378824 0.33551365 0.57064605 0.60798943 0.37767637 0.6432457 0.3941194 0.5917516 0.36943966 0.48500592 0.6809207 0.43982485 0.61674947 0.57905823 0.51347405 0.5499889 0.5883769 0.5131546 0.46225473 0.41997045 0.64519805 0.52671874 0.5214245 0.46241114 0.34100825 0.6944972 0.52431023 0.3567724 0.45896748 0.36529797 0.35438985 0.5593219 0.37148076 0.5193606 0.4246799 0.54235315 0.67549765 0.4530668 0.41480055 0.5105287 0.49352336 0.5309484 0.6103404 0.40420988 0.52635896 0.4213924 0.4195082 0.44041592 0.50708926 0.40592262 0.5456987 0.36772496 0.7129468 0.42670396 0.6110195 0.4057465 0.4618629 0.53596103 0.48199022 0.41397214 0.64277405 0.41794035 0.39802682 0.21791519 0.6076087 0.33587757 0.5529751 0.65518373 0.50064623 0.43246564 0.3784529 0.33624128 0.27865848 0.4421231 0.4367564 0.6314864 0.4619994 0.6357177 0.3827026 0.38116828 0.58972573 0.6123613 0.5403112 0.56879616 0.3560794 0.6863809 0.31202272
476 0.24217688 0.42229858 0.19684505 0.685909 0.15483925 0.7068857 0.31351894 0.23174512 0.58482236 0.7984791 0.6367747 0.53699 0.35027713 0.55214435 0.3459564 0.6001232 0.44346073 0.5216144 0.5167629 0.3564927 0.51975775 0.6509467 0.4894112 0.71472764 0.66314363 0.24684109 0.7052867 0.4324738 0.73080903 0.5222043 0.20312631 0.7673904 0.7875263 0.63614917 0.39476442 0.2915402 0.5537124 0.6231302 0.39766526 0.15113254 0.4151031 0.79019403 0.40290794 0.50618345 0.08783357 0.5402196 0.34912717 0.59279335 0.47798914 0.40836254 0.21345022 0.6608231 0.75690335 0.40114665 0.3984888 0.7777361 0.65414643 0.6421453 0.32397425 0.28723562 0.44909233 0.6638799 0.48800188 0.4006094 0.5652987 0.15707006 0.38170156 0.14567986 0.34861964 0.55586755 0.51091075 0.54181963 0.56600124 0.29895082 0.6229553 0.4532511 0.5998854 0.22787276 0.26167387 0.7265456 0.6919792 0.6819567 0.47854015 0.2966402 0.86931634 0.45906487 0.3561574 0.40802404 0.8352446 0.50157005 0.7050747 0.4884943 0.5279726 0.18751416 0.6475006 0.66502494 0.46071675 0.27741748 0.74388367 0.434224 0.37705508 0.6982906 0.65090454 0.42854634 0.47828957 0.6340844 0.5661025 0.66256535 0.46608743 0.30971152 0.6449541 0.67419326 0.6857792 0.5928373 0.4715833 0.50974095 0.4965367 0.30963367 0.47058043 0.7142277 0.52717245 0.42958537 0.3315542 0.82589173 0.5599151 0.8391848 0.54681903 0.29013366
2545 0.36418867 0.49231502 0.27330372 0.51574636 0.3052802 0.6310355 0.46974155 0.40106753 0.54713273 0.5264133 0.53812534 0.54405403 0.44660568 0.5268907 0.47896343 0.50618386 0.41667846 0.53267163 0.58727545 0.390968 0.52659976 0.5135028 0.5180824 0.5898527 0.5536447 0.3447392 0.63030994 0.5132797 0.52076757 0.48165438 0.36332017 0.56974757 0.59155387 0.54340076 0.39464438 0.50140905 0.5757411 0.5385279 0.4943608 0.35407805 0.5051077 0.6561049 0.4752254 0.5285675 0.3229844 0.53878427 0.49791613 0.54367906 0.42260987 0.47257036 0.40848583 0.64852375 0.5583991 0.45975572 0.44412613 0.59318435 0.6178206 0.5488102 0.38287282 0.43144938 0.39064956 0.5491596 0.5199267 0.4053048 0.5411027 0.39298764 0.43717378 0.4125008 0.41353104 0.5053944 0.4882947 0.5611544 0.5794352 0.47162643 0.52406067 0.44644 0.5762446 0.4286548 0.3447447 0.57382023 0.52076346 0.58956116 0.457001 0.47151577 0.62121886 0.4078032 0.42052943 0.502959 0.6246751 0.5275227 0.5940405 0.47221455 0.5205273 0.35581678 0.6033358 0.5332962 0.5095948 0.37480778 0.58061594 0.54209346 0.45196164 0.59636045 0.5576267 0.46150827 0.4841566 0.5097538 0.53636605 0.50727415 0.44178134 0.44664246 0.52156734 0.5334634 0.5530616 0.43263453 0.52652913 0.5301079 0.5269488 0.4596296 0.5822612 0.55996513 0.652677 0.4816776 0.42296708 0.68114936 0.5730396 0.6434873 0.4978608 0.34933978
11 0.3425359 0.5097946 0.38351822 0.3350561 0.52399147 0.3801708 0.44714227 0.73769635 0.5727604 0.57047254 0.7254557 0.5648047 0.5683309 0.3513711 0.4356189 0.38652876 0.4442939 0.50592315 0.32907125 0.5186289 0.60856205 0.38781756 0.63455576 0.38125038 0.47007743 0.4261282 0.33720762 0.53099126 0.36062458 0.49820295 0.48194697 0.49236518 0.35353756 0.4576318 0.5508437 0.7745227 0.35693622 0.39217475 0.48776013 0.53395486 0.55443376 0.44510853 0.46356493 0.6035579 0.74339926 0.4855773 0.48940757 0.5873079 0.49262306 0.6505363 0.5639338 0.48178837 0.48922557 0.563577 0.4947545 0.65800846 0.6043011 0.44284484 0.35657302 0.6678536 0.33942547 0.61577356 0.3478536 0.5373394 0.37464023 0.51599133 0.5606983 0.5412911 0.4152876 0.42351913 0.4062717 0.47524127 0.7696153 0.4185065 0.47276372 0.5508933 0.44893983 0.49673933 0.5320237 0.407844 0.42222252 0.6092753 0.6177045 0.5805301 0.3320803 0.5103262 0.5709111 0.67906284 0.47508353 0.58994603 0.6740011 0.4806352 0.7471792 0.53888345 0.517387 0.4569941 0.47572395 0.70545197 0.47208235 0.5227772 0.67972714 0.47189736 0.4373975 0.31453434 0.33622187 0.49315244 0.7019821 0.4646988 0.39974082 0.34340534 0.6474567 0.4318013 0.44721067 0.63302755 0.3017796 0.40091777 0.604534 0.62610525 0.54049385 0.5057777 0.4849198 0.37238467 0.47173962 0.45800546 0.5577909 0.44600114 0.32690883 0.29708374
1655 0.4190127 0.6427667 0.34935078 0.43429 0.50066257 0.3415014 0.46581504 0.7878615 0.6740248 0.54386216 0.87006795 0.7064061 0.3900369 0.13177492 0.2542006 0.3750251 0.24322137 0.48379463 0.2171028 0.665484 0.5386668 0.82885617 0.53553337 0.20888293 0.21337241 0.53658545 0.12902556 0.47353426 0.23906897 0.3747494 0.41525567 0.2960317 0.21206647 0.40666565 0.7241063 0.91208863 0.2630153 0.109983146 0.24587812 0.66344196 0.46940777 0.553003 0.2705639 0.4920532 0.74928594 0.42625365 0.75727445 0.48614833 0.63805604 0.8664462 0.5424006 0.71164054 0.5502861 0.8443715 0.7779502 0.8526131 0.37205687 0.4394686 0.32300556 0.8664376 0.29350382 0.6994889 0.42036638 0.42039496 0.2079008 0.74791163 0.65271163 0.57780296 0.2887474 0.22983202 0.3502413 0.70183843 0.7508213 0.22014686 0.5497978 0.329033 0.24137442 0.3158748 0.48157626 0.37085712 0.43678582 0.6763684 0.85927695 0.66093665 0.14986537 0.7540644 0.4456055 0.7869932 0.63872635 0.507782 0.7285822 0.3719652 0.8164576 0.32911316 0.4780008 0.6434049 0.62417525 0.93152326 0.5436288 0.44035557 0.6709353 0.5621439 0.46204203 0.3278593 0.5226032 0.46073395 0.6245513 0.6551689 0.25453278 0.28869814 0.9243311 0.4163604 0.49338153 0.7531604 0.11728398 0.12183946 0.36616758 0.6091309 0.81785977 0.58411175 0.34530297 0.37411216 0.7218823 0.27033225 0.8160627 0.11753921 0.22236188 0.18612564
1839 0.4096162 0.5635694 0.7241693 0.5293557 0.67475754 0.7189045 0.3980819 0.87254643 0.5244315 0.7872603 0.67981774 0.5371253 0.3261208 0.21397375 0.28693083 0.28962833 0.41881868 0.3105801 0.40414643 0.79586726 0.6331986 0.48505792 0.66639924 0.34525856 0.44972274 0.24402173 0.62527305 0.42623624 0.36304647 0.79435956 0.26418838 0.3839508 0.14845882 0.6331756 0.5034304 0.8246857 0.27458346 0.4594695 0.5498534 0.5035925 0.52866876 0.25522056 0.33875757 0.6042798 0.84235275 0.3336369 0.3717256 0.52658784 0.58423114 0.73659164 0.19714358 0.4552556 0.5944863 0.37048006 0.55847555 0.6438903 0.68347275 0.45605886 0.2725053 0.799465 0.44742516 0.42584783 0.27972415 0.4190669 0.22701226 0.4083519 0.48692498 0.7203055 0.5792135 0.5823372 0.48608252 0.19309144 0.52341956 0.15524006 0.42640206 0.41986096 0.51295084 0.5106958 0.4534829 0.3269122 0.5613886 0.8472755 0.5370872 0.69461554 0.3002587 0.5474579 0.59730655 0.69129395 0.41817147 0.638913 0.680109 0.70557076 0.82817453 0.51117545 0.58608013 0.26255408 0.50258386 0.7175155 0.68116325 0.39605957 0.7743457 0.5456162 0.37360233 0.27199045 0.36177737 0.5238383 0.75480956 0.4372557 0.2973109 0.35567164 0.74425143 0.30455813 0.3080582 0.49722868 0.27570507 0.50376785 0.51115644 0.5954988 0.8218214 0.52773887 0.52954936 0.52004784 0.550639 0.42596543 0.5384274 0.47491232 0.13634583 0.3308464
12 0.31890655 0.52969164 0.44268206 0.21071412 0.7063193 0.52972883 0.49897784 0.5897883 0.6418678 0.5828363 0.72092855 0.25127465 0.2866911 0.5242724 0.3540504 0.3061594 0.41490647 0.2771242 0.38563243 0.41649374 0.62999994 0.6708545 0.55417085 0.4752493 0.63813144 0.6815317 0.24168617 0.63045293 0.37315494 0.70874053 0.36097857 0.7494934 0.285684 0.81826395 0.53836256 0.5030973 0.6022548 0.58025026 0.53846705 0.53459233 0.43132648 0.2622378 0.7453416 0.41494688 0.50736046 0.6497438 0.37776703 0.5088822 0.604001 0.48776457 0.38786134 0.5900169 0.6174295 0.64109975 0.6735591 0.33071855 0.73052496 0.3348795 0.2701315 0.5785412 0.4374023 0.5290131 0.56519705 0.35329792 0.32548073 0.28204346 0.37548247 0.3150869 0.5006419 0.6133912 0.16372056 0.44055125 0.60325986 0.3478182 0.3793284 0.32138646 0.26660198 0.521789 0.4198149 0.24947649 0.47015238 0.62970096 0.26124027 0.7389758 0.6055713 0.4791404 0.69292665 0.46572724 0.6939918 0.55660814 0.66021514 0.65931207 0.717875 0.5263237 0.7350678 0.5227579 0.6160953 0.45307267 0.587697 0.4877574 0.49330813 0.49273017 0.5253743 0.56595206 0.4626123 0.47489983 0.526873 0.40764987 0.4882972 0.5346695 0.56809276 0.6537075 0.31301874 0.7197679 0.27441153 0.29163557 0.80714655 0.4429998 0.65822846 0.2972461 0.34112495 0.52637 0.55285406 0.8803619 0.4822068 0.7145575 0.38543192 0.22911936
2661 0.3616377 0.5241234 0.44719648 0.27600712 0.6521722 0.5290828 0.5024807 0.56748563 0.6074423 0.5525561 0.6704205 0.30670592 0.3318694 0.5188013 0.39769652 0.3501424 0.43846652 0.32895467 0.42558402 0.4282425 0.5986317 0.6227513 0.5465925 0.47783992 0.60088235 0.62962025 0.30445814 0.59669316 0.39931503 0.6628871 0.39005917 0.69311017 0.33899853 0.7556984 0.5237534 0.50316995 0.5808306 0.5615387 0.5320695 0.52545655 0.44638586 0.3209636 0.694561 0.43009445 0.5131683 0.6175929 0.40955645 0.5080509 0.5700574 0.48616377 0.42087454 0.56744915 0.5816681 0.60002935 0.62742054 0.3659423 0.6802319 0.37835136 0.32030076 0.559772 0.45361167 0.52166325 0.54915035 0.39011827 0.36575145 0.3334909 0.39846167 0.36197585 0.49516207 0.592225 0.23395242 0.46436167 0.5747683 0.38623646 0.41257027 0.35789746 0.32604337 0.52815276 0.43787473 0.31103903 0.47079772 0.5969197 0.32029775 0.680432 0.5770198 0.4859642 0.65498024 0.47144467 0.64999586 0.54536945 0.61792916 0.6173227 0.6629901 0.5116471 0.68774396 0.5186486 0.5867972 0.45929298 0.55911165 0.4923307 0.48992813 0.49529597 0.5232705 0.5504221 0.47138473 0.47657514 0.5194776 0.42915484 0.48596674 0.529178 0.54811233 0.61583084 0.3543306 0.6590627 0.33916563 0.34518668 0.74069005 0.45721632 0.6294509 0.3417476 0.38650408 0.5169865 0.53817916 0.8131283 0.485374 0.6580688 0.41901085 0.284111
1001 0.364943 0.51905566 0.44514093 0.2787403 0.6454759 0.51884377 0.50914705 0.56426996 0.60815537 0.54746664 0.6690089 0.30653766 0.33069432 0.52835697 0.4101722 0.35372362 0.44193813 0.3334868 0.43066004 0.42277098 0.5963797 0.6081899 0.54245067 0.4761479 0.6022906 0.6296017 0.31706694 0.59717166 0.39679402 0.65987074 0.40144032 0.6937887 0.34826162 0.75041884 0.521611 0.5130173 0.58198327 0.5608245 0.5382829 0.50918436 0.45336705 0.32105622 0.69547594 0.4324113 0.5342154 0.61662394 0.40448257 0.5095431 0.555519 0.48663267 0.428008 0.56028444 0.57468605 0.5920284 0.62064123 0.36297244 0.6738417 0.37811857 0.3280469 0.5622603 0.45243812 0.525985 0.5458187 0.3998209 0.3703875 0.3310806 0.3937996 0.35772678 0.4846329 0.6040194 0.23192707 0.47142723 0.58722013 0.38298914 0.41475192 0.3641337 0.33012342 0.5307478 0.45785168 0.30850166 0.4655628 0.59216934 0.3399101 0.6836463 0.5777126 0.48726392 0.6638511 0.46794158 0.6448577 0.5500978 0.6090768 0.6157632 0.6496817 0.50936455 0.68528414 0.5115794 0.5866129 0.45997947 0.548539 0.48490733 0.48625 0.48549917 0.52128273 0.55073786 0.46478418 0.47775626 0.5240018 0.42810985 0.48871526 0.5322141 0.5369266 0.613937 0.35386148 0.6568163 0.3457987 0.34716123 0.7375083 0.45639935 0.6186769 0.34304696 0.39202744 0.516574 0.53225464 0.8076425 0.47946957 0.6583578 0.43407455 0.28317782
1318 0.33306116 0.52475566 0.44144806 0.23152263 0.68526644 0.5208698 0.50739396 0.5779395 0.63280517 0.5661816 0.70257056 0.2660302 0.29521838 0.53215694 0.38070184 0.32101458 0.42960817 0.2954326 0.40555692 0.41268998 0.6176981 0.6430951 0.5541356 0.47185564 0.6259155 0.665497 0.27311137 0.6222745 0.3756585 0.69450796 0.38014108 0.7362497 0.3095094 0.7992468 0.5291815 0.51301414 0.59490687 0.5744287 0.544041 0.5157642 0.4413083 0.2779674 0.7332581 0.4189343 0.5357318 0.6421005 0.37939683 0.5133552 0.58008856 0.48680538 0.40395117 0.5723041 0.5969663 0.61873156 0.654037 0.3362519 0.7148888 0.34809247 0.29261976 0.57417566 0.4418681 0.532145 0.5536337 0.37319508 0.341086 0.29287052 0.3767007 0.3242198 0.48538068 0.6219216 0.18226002 0.45575148 0.6082561 0.35464102 0.39037395 0.33794716 0.28851786 0.52745885 0.44587582 0.265339 0.4618632 0.61595565 0.30018255 0.72572905 0.5957073 0.4855878 0.6935106 0.46143207 0.6768075 0.5597006 0.6370962 0.64591384 0.68957454 0.51884204 0.720921 0.513877 0.6052013 0.4547613 0.56693316 0.48358256 0.48642853 0.48432943 0.52404433 0.5592223 0.45516554 0.47544134 0.53091437 0.41347784 0.4893902 0.53794885 0.5502029 0.6394401 0.32227147 0.69866055 0.30262148 0.30909675 0.7861161 0.44662988 0.6408737 0.308828 0.3594314 0.5203742 0.5436281 0.8587656 0.47675273 0.69741005 0.41369992 0.24414428
2662 0.33331847 0.5294812 0.4460712 0.23360622 0.6895558 0.53427917 0.4988956 0.5800211 0.62843096 0.57112527 0.70149195 0.27163365 0.3033631 0.51943064 0.36778325 0.32063666 0.42495722 0.2941307 0.40020466 0.42262685 0.6170795 0.65726906 0.5554625 0.47441864 0.6197235 0.65993863 0.26296616 0.6185472 0.38333952 0.69269496 0.36972576 0.7297653 0.3025302 0.7974962 0.5313392 0.49937332 0.59181523 0.5726112 0.53454435 0.5370558 0.4341489 0.28334022 0.7273618 0.41863754 0.5063867 0.63815737 0.38927972 0.510188 0.595533 0.4871453 0.39732167 0.58023816 0.6030981 0.62593555 0.65761936 0.34429067 0.7159396 0.3521573 0.2881296 0.5694719 0.44455883 0.525972 0.5579071 0.36383274 0.34048158 0.30137083 0.38489455 0.33434469 0.49878109 0.60384214 0.19119567 0.4479086 0.58825123 0.36302087 0.3923596 0.33424142 0.2873143 0.52381635 0.42081776 0.27451017 0.4713075 0.61751837 0.28096926 0.7149824 0.5933082 0.48429358 0.6770146 0.46849248 0.6792208 0.5503047 0.6459723 0.6425762 0.70056 0.52212393 0.7184463 0.5234458 0.60436475 0.45610487 0.5794291 0.4926224 0.49182358 0.49730933 0.5273559 0.55892676 0.4665425 0.47509646 0.5235668 0.41755965 0.4865738 0.5333951 0.56375426 0.64047205 0.3276524 0.6977834 0.29794958 0.31200787 0.78329986 0.44758254 0.6520985 0.31232634 0.35521004 0.5203359 0.5498768 0.8578458 0.48451883 0.6925879 0.39613745 0.250654
13 0.30084124 0.45745668 0.68432045 0.6336645 0.48460895 0.5369282 0.5816942 0.57711905 0.46186978 0.5898126 0.564866 0.38403094 0.51557934 0.6101785 0.34704545 0.5267557 0.53774494 0.4664944 0.5795432 0.4395539 0.32554525 0.604181 0.45279232 0.4358832 0.42013302 0.50421566 0.49904054 0.38304007 0.7249063 0.51918167 0.49356872 0.4815954 0.456018 0.5582901 0.37707683 0.499005 0.7085211 0.55282134 0.65833217 0.3836094 0.6114929 0.49004304 0.4089479 0.5054868 0.6325477 0.45495886 0.5628224 0.4394598 0.42192203 0.48299062 0.46832246 0.38545153 0.5976108 0.5271479 0.30210024 0.37761843 0.6516736 0.6182397 0.6118108 0.5561198 0.5043583 0.53884435 0.34016395 0.43963644 0.5072123 0.46714175 0.4594563 0.5213823 0.55669016 0.62377805 0.40176606 0.58474034 0.65371656 0.47368997 0.46511534 0.6357258 0.30893978 0.36863604 0.53741544 0.5087253 0.52132636 0.558874 0.6972128 0.44371277 0.6304071 0.5154619 0.39568675 0.47251496 0.50890505 0.49182612 0.6025578 0.5215796 0.5073405 0.65558195 0.5632621 0.27460685 0.5291656 0.42034626 0.54940236 0.2612083 0.53114843 0.50861216 0.528539 0.5015733 0.5607079 0.6674153 0.47454533 0.45264962 0.45018265 0.3318539 0.46074206 0.4768787 0.34118518 0.52728915 0.3517334 0.6044511 0.49262843 0.37259114 0.4113103 0.620653 0.4217938 0.5088876 0.40650856 0.45685357 0.28874302 0.44549298 0.54265344 0.7278608
1810 0.1497147 0.4509387 0.8839164 0.6468568 0.109376594 0.48933938 0.313608 0.56811565 0.17998883 0.44485968 0.8260718 0.17623779 0.95678514 0.14526024 0.029228404 0.49590817 0.7790868 0.09333998 0.2398415 0.24351597 0.4707128 0.81313723 0.08731435 0.4954138 0.13316214 0.6214497 0.02826092 0.35688204 0.8478872 0.34839585 0.6043315 0.085123286 0.056128595 0.6981022 0.24723266 0.3183666 0.9148491 0.06282201 0.9571723 0.85447705 0.61146545 0.5098678 0.010528609 0.7730311 0.1452922 0.69727474 0.5653073 0.8155184 0.9496156 0.6690756 0.8892043 0.5885344 0.7708942 0.6047363 0.62096846 0.8997021 0.9636031 0.5499169 0.26591343 0.8213669 0.774116 0.49996167 0.10306446 0.14000863 0.13422328 0.6599949 0.9616972 0.65056676 0.9809029 0.14949861 0.13040657 0.83387953 0.8850626 0.4115091 0.19069396 0.9531257 0.2216714 0.26819268 0.049222335 0.7975821 0.6174148 0.77120024 0.8965544 0.2777044 0.052687645 0.6572701 0.0974918 0.5840567 0.5510621 0.14879261 0.8911569 0.12651788 0.96409535 0.96048135 0.598494 0.06694896 0.4966217 0.49621472 0.94207406 0.62017924 0.80889434 0.92638695 0.6763334 0.70558214 0.28549057 0.8611414 0.06293605 0.8620066 0.22578335 0.36659873 0.1703586 0.17060347 0.6353072 0.724811 0.01500944 0.13227084 0.76482636 0.22549903 0.77438474 0.7766076 0.10261278 0.7537089 0.63652 0.6544105 0.6191906 0.14743137 0.24344768 0.9389103
1701 0.017737122 0.29866454 0.9502012 0.5137195 0.9164376 0.9537886 0.13753085 0.85503906 0.39595923 0.3765471 0.6028951 0.6244175 0.88311756 0.28675827 0.019926954 0.6099696 0.123006955 0.20383124 0.36585668 0.27770498 0.23083852 0.85588443 0.6767418 0.61719763 0.39445835 0.42345697 0.27575973 0.15730299 0.9645287 0.575148 0.15685834 0.20934916 0.057312414 0.90088093 0.059448626 0.06672769 0.8658478 0.85181546 0.57292306 0.93521947 0.36211357 0.9229226 0.71631813 0.5106911 0.12617242 0.82699513 0.5152563 0.07382425 0.8676311 0.10561343 0.69327503 0.97248477 0.8660614 0.8857185 0.094851695 0.38691083 0.9727265 0.925353 0.2530788 0.0946746 0.2076669 0.14761049 0.9171862 0.097463585 0.7996447 0.5853993 0.74807703 0.85278803 0.89493644 0.046007264 0.56726426 0.4157599 0.1485717 0.8911836 0.3985368 0.22522186 0.088989004 0.5281713 0.13360739 0.86725545 0.706916 0.17535305 0.01868629 0.055963207 0.5129294 0.21078591 0.1068213 0.8125676 0.7960788 0.3215544 0.84307057 0.25031072 0.8998112 0.9617539 0.5022955 0.17655432 0.22964907 0.5793955 0.8640401 0.38022116 0.94228154 0.9710024 0.85948604 0.14484496 0.6049041 0.88365483 0.13625647 0.46454248 0.34741417 0.21028511 0.6628254 0.1408561 0.068497576 0.4274676 0.29828987 0.92290944 0.6699245 0.63943505 0.711666 0.7693049 0.06479133 0.44605872 0.81448287 0.89466214 0.056858182 0.437484 0.12440303 0.9216941
14 0.39756292 0.49193197 0.652151 0.5952249 0.5228293 0.7219847 0.38258302 0.4062048 0.5282395 0.713486 0.4577964 0.49404964 0.27507013 0.2326313 0.6590527 0.8059298 0.58279437 0.5207443 0.58492774 0.58601224 0.6133244 0.8044544 0.74095094 0.46475148 0.4494006 0.63813895 0.5422303 0.35531285 0.46884748 0.6024657 0.2658986 0.49904126 0.6533953 0.54089874 0.41376302 0.4414335 0.39962822 0.59775877 0.5669534 0.6459968 0.41789848 0.7185594 0.27352053 0.46779174 0.28522462 0.67278004 0.30114028 0.54918987 0.7241785 0.6162132 0.2901335 0.4011047 0.74718213 0.176256 0.61829555 0.82237124 0.64288414 0.77287346 0.50583625 0.29046384 0.6979775 0.24109128 0.33986238 0.6322468 0.44222185 0.46646282 0.7001706 0.56863976 0.63357 0.46779543 0.5642071 0.21220537 0.5286386 0.31589735 0.47197345 0.51145744 0.7154707 0.55601174 0.31469697 0.6512102 0.5334487 0.7635777 0.30947012 0.33428207 0.45011762 0.39121115 0.5691512 0.25644013 0.54705435 0.30744103 0.5631883 0.6770107 0.6887289 0.68307465 0.6302762 0.33020583 0.3943947 0.48727393 0.5162998 0.51896435 0.32671463 0.31940368 0.29014248 0.3966113 0.26342222 0.60050493 0.6438441 0.45740333 0.6956808 0.25219518 0.6520122 0.24034616 0.3631282 0.33185983 0.5461536 0.5946243 0.3891968 0.39712125 0.69384134 0.28779536 0.22776943 0.48543292 0.41910908 0.39049852 0.700134 0.1879825 0.5491144 0.7333152
2034 0.69305956 0.42674178 0.29874822 0.58650035 0.18910785 0.87161815 0.6040097 0.80453074 0.11685165 0.8955958 0.91601163 0.91164905 0.35477048 0.18150076 0.7477765 0.9555212 0.8904 0.9405888 0.2002838 0.820602 0.5778911 0.68475026 0.22301693 0.05297433 0.26333892 0.30938056 0.061423585 0.11842838 0.81526005 0.5002219 0.119297855 0.39940685 0.63248354 0.085370764 0.09573335 0.50462216 0.1845282 0.3010046 0.5550366 0.8986729 0.14102006 0.626008 0.08187074 0.8702511 0.09760747 0.40051162 0.4037946 0.34049994 0.9762299 0.86642635 0.38270766 0.47654727 0.2412078 0.2952606 0.6317947 0.98225176 0.5378535 0.778482 0.29677388 0.2700525 0.9407601 0.6156822 0.2259465 0.30709627 0.080290735 0.8405656 0.91651493 0.17306621 0.793661 0.015184391 0.77901876 0.29850483 0.20108734 0.24382795 0.53591543 0.88178116 0.5004558 0.55905426 0.11485972 0.9312146 0.7679793 0.99560225 0.80348694 0.06137293 0.27943295 0.4634881 0.047518276 0.7090647 0.44731385 0.07972982 0.307177 0.03552944 0.9363239 0.5282695 0.9259141 0.7246997 0.13806434 0.8352307 0.72172594 0.92362005 0.10204633 0.8368496 0.52676827 0.49814203 0.6096909 0.6975211 0.85607207 0.8494175 0.80056155 0.10826939 0.66633093 0.04996846 0.20190634 0.5516725 0.6035676 0.37260106 0.019515531 0.7879765 0.7283069 0.82193476 0.29186675 0.23439966 0.80128664 0.13410237 0.22373673 0.022597646 0.70432687 0.9200442
2075 0.6907631 0.6065269 0.6636251 0.64929366 0.26743302 0.6559133 0.28218746 0.22045122 0.5466031 0.5833917 0.35208887 0.48205206 0.27192214 0.17639764 0.6833729 0.86372745 0.7757795 0.5248298 0.63476175 0.44861773 0.57912785 0.8658687 0.78923184 0.602623 0.4802404 0.5411923 0.44733584 0.3061864 0.37891814 0.49258393 0.15345658 0.45333585 0.7878401 0.44321805 0.50748235 0.40996373 0.41408294 0.46723947 0.3739042 0.5827897 0.28242767 0.6420854 0.15357682 0.27190572 0.095991515 0.7422818 0.3506654 0.7042898 0.7350321 0.60321844 0.31121045 0.41822562 0.7814631 0.25457835 0.77823764 0.8176562 0.50511384 0.76510423 0.48064557 0.28755617 0.81533235 0.257545 0.40737817 0.70785475 0.44656488 0.5991534 0.752769 0.56582355 0.7344825 0.35482588 0.6228668 0.29712957 0.58280563 0.20608175 0.2656435 0.48194093 0.8602917 0.62869424 0.21710612 0.7866446 0.42022118 0.70918167 0.47837824 0.47289336 0.4243872 0.3911441 0.5491471 0.27399516 0.5522575 0.43258765 0.49040988 0.76941127 0.7204949 0.5405542 0.4236862 0.5054525 0.29519576 0.47347832 0.4279988 0.5774995 0.36986846 0.25002065 0.26598486 0.21357763 0.27802208 0.48979017 0.47147152 0.5529855 0.5421546 0.30176604 0.7707416 0.28247213 0.6476529 0.26776618 0.5808073 0.42643163 0.46142223 0.5520497 0.56024164 0.361871 0.28538 0.68937176 0.49335408 0.57067376 0.78567207 0.24377942 0.51019835 0.71723634
158 0.41024423 0.41975823 0.5609588 0.61391455 0.46787852 0.54966694 0.50357103 0.4526301 0.573176 0.79750925 0.4814867 0.42260292 0.19960237 0.516773 0.571174 0.81783634 0.6194426 0.6329696 0.5442913 0.4368343 0.36999807 0.8249524 0.763413 0.39628989 0.47899812 0.562904 0.51447994 0.21944945 0.68204355 0.4048403 0.28653124 0.5193335 0.65484554 0.64185524 0.27821127 0.58883506 0.41553107 0.6519609 0.54217654 0.5306308 0.459159 0.56874484 0.24465573 0.61467534 0.5012748 0.5860676 0.37817603 0.37603864 0.5774492 0.47380224 0.36297825 0.547301 0.64852387 0.39886227 0.3062678 0.63636315 0.57501024 0.67244405 0.73235154 0.3328092 0.66385376 0.37287766 0.4827084 0.4917181 0.5283107 0.37915918 0.59532017 0.54814774 0.60691893 0.4982213 0.3051922 0.27776262 0.792301 0.2995874 0.48260936 0.5576455 0.43802774 0.4410041 0.5778297 0.5308174 0.48350284 0.8479616 0.41084462 0.49329868 0.54576045 0.42267716 0.52434707 0.46344632 0.6017589 0.31768793 0.6130372 0.73093736 0.6345903 0.7149216 0.55821085 0.2352517 0.39955845 0.62440664 0.49766326 0.3002425 0.36863324 0.34395492 0.35295734 0.29185843 0.33473122 0.68612146 0.69117975 0.3483823 0.6840933 0.23864749 0.60773045 0.257798 0.29282257 0.47619697 0.40398657 0.7831933 0.5359011 0.4905275 0.4750144 0.34075418 0.25731218 0.46342695 0.42894801 0.50196224 0.5129373 0.24353074 0.5022159 0.7003736
2077 0.70845324 0.6167258 0.6696968 0.45176825 0.30906144 0.714117 0.3775469 0.21485773 0.53952783 0.58311325 0.26466396 0.52310467 0.3078071 0.2515846 0.6034023 0.82049453 0.76191664 0.519385 0.7584224 0.43205982 0.4767919 0.8721191 0.75009024 0.61294293 0.29025987 0.51397854 0.5341313 0.32894376 0.38745788 0.5654381 0.1867502 0.61905414 0.71229 0.52649593 0.41368052 0.4074413 0.3883535 0.54136676 0.35240233 0.47669047 0.35337266 0.58760107 0.18821937 0.3529646 0.15699695 0.80102026 0.3727569 0.71009105 0.71752626 0.6455543 0.26037526 0.42250872 0.63644814 0.36069217 0.68446314 0.6361961 0.6499361 0.6807479 0.6229498 0.27652183 0.6270329 0.34591398 0.53073376 0.4231694 0.6778819 0.47811216 0.73569 0.4213081 0.60507363 0.36169353 0.51637316 0.24396592 0.73738986 0.31379887 0.18967974 0.6621069 0.84562105 0.4707223 0.23581788 0.68685764 0.3726757 0.66383487 0.56935793 0.6380466 0.59207714 0.3163221 0.44981986 0.31158555 0.44294232 0.45544228 0.36678103 0.7170787 0.74413204 0.62713856 0.3731186 0.4107808 0.21611054 0.42623672 0.37774208 0.63998044 0.32061744 0.37374726 0.27555257 0.21332547 0.22272657 0.51042366 0.5967535 0.5161034 0.54601437 0.30559856 0.6334693 0.23146944 0.68657947 0.21932648 0.62699014 0.4684943 0.51467854 0.6833874 0.5170553 0.4064931 0.48266858 0.6967288 0.6030164 0.6934451 0.7002135 0.29675776 0.6617775 0.683618
2668 0.5285998 0.55101854 0.57136333 0.4880389 0.38332975 0.748167 0.3281141 0.2592192 0.57869756 0.6842502 0.2969045 0.57408506 0.29199114 0.23435636 0.55730844 0.75681514 0.72737676 0.41961947 0.73556304 0.40531373 0.58899045 0.8445294 0.74371153 0.6082977 0.28808033 0.51057726 0.59271413 0.2704436 0.4656387 0.6005673 0.22152665 0.62018424 0.71364874 0.6005277 0.39002004 0.38684088 0.3759511 0.5920608 0.46090254 0.40257433 0.46489802 0.684017 0.16887902 0.4012808 0.27106985 0.76395667 0.31283075 0.7410127 0.6486094 0.6258826 0.22917926 0.41627118 0.65835387 0.25007266 0.5411464 0.5975221 0.6370652 0.73046863 0.5549923 0.32193965 0.504121 0.3225157 0.47885725 0.43182614 0.7109068 0.36442813 0.7016833 0.444122 0.6024845 0.49278256 0.5040352 0.19967416 0.8015799 0.35159737 0.2621538 0.7171524 0.78508747 0.5057027 0.30188817 0.609795 0.43228602 0.74359155 0.5507052 0.60359424 0.55164677 0.38958573 0.5933302 0.27063105 0.5049432 0.44051555 0.46423897 0.7365962 0.7127458 0.582964 0.43779346 0.29707378 0.3004503 0.44739616 0.44280156 0.5002234 0.40531576 0.32488015 0.24550273 0.24402618 0.2520804 0.5407915 0.68312263 0.47524518 0.518685 0.3079495 0.62245715 0.24641241 0.68835205 0.19756705 0.63725066 0.5889867 0.5138816 0.5972541 0.5259931 0.35587242 0.47784787 0.643934 0.5617144 0.6355786 0.6518321 0.24561436 0.67989707 0.6644464
15 0.22090143 0.6757142 0.25288564 0.49032658 0.20213981 0.25656182 0.61668324 0.25506145 0.7207869 0.24124117 0.60712147 0.3507071 0.27219263 0.41551155 0.5493012 0.7537804 0.1551103 0.43851873 0.6990196 0.19493675 0.48234785 0.54753625 0.7142121 0.4881407 0.7898857 0.30821532 0.80997044 0.719302 0.2085261 0.3457824 0.21321641 0.36497235 0.6781324 0.42775312 0.49955246 0.6075972 0.5821486 0.33382842 0.7538718 0.2300186 0.48421878 0.7315166 0.76347125 0.32985187 0.5625242 0.67159253 0.48963255 0.78568935 0.3056027 0.58498555 0.5713761 0.5680815 0.68001574 0.4461681 0.43976122 0.60138124 0.70492077 0.59002817 0.42710236 0.42641976 0.70525205 0.52689785 0.52164465 0.75491774 0.42769352 0.15655842 0.48420691 0.67129284 0.33741695 0.77077645 0.21929252 0.7847942 0.63773584 0.32249114 0.4049633 0.19666128 0.41764003 0.62624866 0.5166297 0.5792116 0.31289518 0.41893443 0.7404867 0.5244051 0.2482503 0.5108449 0.7083965 0.5509564 0.59542197 0.62218267 0.57902586 0.48128372 0.5626308 0.3886668 0.74753296 0.3880687 0.46178964 0.41122547 0.56908315 0.41636628 0.37507737 0.45826012 0.6015443 0.6773975 0.37777153 0.5976132 0.42982486 0.5633036 0.35560727 0.61699486 0.70398545 0.5673195 0.41680288 0.37317774 0.5649899 0.27275866 0.79660684 0.3059571 0.8252527 0.21413271 0.4797911 0.3871203 0.32029617 0.4811711 0.7668444 0.67656225 0.4665308 0.2376853
2367 0.2480997 0.56595796 0.13565518 0.13139883 0.13174367 0.14706421 0.5150315 0.11318303 0.85034263 0.19232562 0.73778355 0.40345845 0.2317191 0.11357547 0.4511416 0.9070714 0.112011306 0.3494933 0.65197444 0.1018765 0.6494351 0.67519015 0.76488197 0.4638035 0.94992274 0.32717875 0.7867848 0.6215514 0.1348528 0.36711812 0.08673957 0.32813093 0.80655193 0.40779075 0.7134709 0.50962967 0.5486396 0.18935691 0.8755131 0.1371676 0.42865667 0.92663795 0.93018216 0.117309 0.25875565 0.86690277 0.51416045 0.9214399 0.34231985 0.5481597 0.71425253 0.63407636 0.6799129 0.57579124 0.40643525 0.69377255 0.6660803 0.67540205 0.16026162 0.21370259 0.8845983 0.4893228 0.87778294 0.8828095 0.35536796 0.1332957 0.5201988 0.61124927 0.3100953 0.6646024 0.10470476 0.8077265 0.47457004 0.3515907 0.310385 0.14474237 0.4388136 0.90352297 0.36099562 0.8218179 0.26860008 0.24283394 0.87159085 0.30374897 0.28241807 0.55452126 0.80954117 0.54147285 0.6758684 0.3997954 0.41512334 0.27764404 0.8445528 0.2651796 0.9307472 0.45589903 0.21591546 0.32705534 0.6114105 0.47925174 0.33285695 0.32116428 0.7206256 0.81422573 0.56484836 0.6832314 0.3841394 0.57036316 0.28977472 0.8434245 0.7864159 0.3465097 0.4942499 0.30299696 0.7734037 0.07953004 0.84865993 0.15437536 0.96273273 0.2090834 0.2803274 0.17368756 0.45330352 0.49183333 0.8545727 0.70180345 0.47613525 0.16334811
1093 0.23557767 0.66663337 0.23967637 0.48320612 0.19723488 0.23725569 0.6049621 0.23438051 0.7355956 0.23070644 0.59904283 0.380857 0.2865259 0.40085 0.5289675 0.7587581 0.14896281 0.42460275 0.66941094 0.17706847 0.46463966 0.57094795 0.72654015 0.5097797 0.8319372 0.29861918 0.8130475 0.7080812 0.21619344 0.326874 0.20388475 0.3464379 0.7160073 0.37967378 0.49932328 0.63255775 0.57643485 0.34177023 0.77151453 0.22313018 0.47332302 0.7519843 0.7571505 0.31346583 0.51680595 0.678905 0.4895993 0.79191625 0.31785813 0.56073135 0.5686457 0.5858729 0.6906802 0.47957 0.44077164 0.6273285 0.7075049 0.5752103 0.36747515 0.38566312 0.7183472 0.50409347 0.564188 0.7891811 0.39042443 0.15774858 0.5064854 0.67007005 0.3450026 0.74532115 0.2051359 0.80476934 0.6052922 0.29954508 0.41201168 0.18803002 0.39349878 0.6510019 0.4967863 0.61267215 0.32538486 0.4052263 0.766666 0.527622 0.24894455 0.5044201 0.7081931 0.5673779 0.62430394 0.62286264 0.5802763 0.46451342 0.57572937 0.38621244 0.7612559 0.3976264 0.43929413 0.39194354 0.58524245 0.4270478 0.3731471 0.43797678 0.62287354 0.6686341 0.37505302 0.6063585 0.39164522 0.5903898 0.35777953 0.65369153 0.70418453 0.5779916 0.4133593 0.3554663 0.59585226 0.26484352 0.7973425 0.27983814 0.8241815 0.22455694 0.46719876 0.3975801 0.33490437 0.51795846 0.7614818 0.7034584 0.44307154 0.23416102
1090 0.099851236 0.71886784 0.15678352 0.41800377 0.19911027 0.1441039 0.6422251 0.20484035 0.8033233 0.16974752 0.6834149 0.3687485 0.2207178 0.33242226 0.49823895 0.8106581 0.1112411 0.5562944 0.7030357 0.13657786 0.52826995 0.5828438 0.8170047 0.5012312 0.90537566 0.35731602 0.80921614 0.7316757 0.15918317 0.39196512 0.17039585 0.31704015 0.7277764 0.40978816 0.55201435 0.5771043 0.5059456 0.27289566 0.7805392 0.10710041 0.50370663 0.72699904 0.86473477 0.22006021 0.5186859 0.6236949 0.44520018 0.89262056 0.27064845 0.640455 0.5665559 0.46675974 0.74002236 0.5294083 0.3591983 0.5063982 0.6736601 0.6431377 0.4620272 0.45783857 0.84484285 0.48283783 0.52597815 0.8467458 0.4632571 0.087488964 0.44104886 0.6082581 0.34496298 0.8192908 0.1723681 0.8531199 0.741982 0.37555993 0.3297446 0.118449286 0.2754796 0.602205 0.6036176 0.5430794 0.22245793 0.4300404 0.8258301 0.5816168 0.20704249 0.5585667 0.791793 0.60503525 0.56160563 0.6096255 0.5698481 0.4574792 0.6644657 0.32017612 0.81044716 0.295813 0.39379558 0.3894218 0.59168875 0.3411265 0.39408445 0.36473557 0.6002039 0.7928476 0.6337864 0.67101663 0.39715457 0.5112324 0.26965114 0.601967 0.82354146 0.7102722 0.50455797 0.52508366 0.5254107 0.18531549 0.8601806 0.33624616 0.7770573 0.17291598 0.53017443 0.2356081 0.27793407 0.4022483 0.7561256 0.77865505 0.37083262 0.25683877
1271 0.2546922 0.6707362 0.24771126 0.541035 0.19420563 0.26169738 0.62848526 0.2571329 0.7109944 0.24851698 0.58517647 0.3921204 0.28356794 0.4589536 0.5392433 0.73536247 0.174923 0.45768818 0.683573 0.19549173 0.46016216 0.52874154 0.70842737 0.5060912 0.8090648 0.3064985 0.8066064 0.6966503 0.23614274 0.34101853 0.22539537 0.34595147 0.6990253 0.3884225 0.48126823 0.6215081 0.5848999 0.35331887 0.75491595 0.23562251 0.47885692 0.7263385 0.7307544 0.34237427 0.5391558 0.6305397 0.49208733 0.77146995 0.30756107 0.56379706 0.56873155 0.5727124 0.66663194 0.47638157 0.44782302 0.61160946 0.6844567 0.5668627 0.40547583 0.4237741 0.6934592 0.5226704 0.51646453 0.7586969 0.4019181 0.1678369 0.49914673 0.65610445 0.3495755 0.74476737 0.23572 0.7953839 0.6215701 0.30625522 0.4286903 0.1984115 0.4097368 0.6173289 0.51798964 0.59956104 0.333443 0.43085566 0.75921136 0.5498896 0.2520066 0.5094639 0.68125737 0.5541271 0.59906894 0.6313064 0.57109386 0.476294 0.5266409 0.3781419 0.72426975 0.40911394 0.4669554 0.39484653 0.5828976 0.43514287 0.36810756 0.44867954 0.6065029 0.6673628 0.37610203 0.5918026 0.38678697 0.5832881 0.3670102 0.6151295 0.6738165 0.58418876 0.4266683 0.37047455 0.5774144 0.2906532 0.7716988 0.3103658 0.79518276 0.24259943 0.508741 0.42073855 0.32550994 0.48888752 0.7560587 0.6890865 0.43762547 0.24979512
16 0.3838381 0.38791057 0.5622306 0.5588419 0.7291076 0.64185005 0.39459974 0.41051674 0.65679574 0.44795313 0.26886174 0.42438743 0.27595758 0.45982134 0.41665328 0.45993605 0.5172821 0.3116931 0.609945 0.3387593 0.68718016 0.31360543 0.69614124 0.54007876 0.28493994 0.46020573 0.65596825 0.6057518 0.34402242 0.5131403 0.4966904 0.38579822 0.2515141 0.8610505 0.3713641 0.406413 0.60518163 0.5071378 0.553171 0.5297525 0.6570998 0.76441693 0.50392306 0.31830436 0.572897 0.7366289 0.35344395 0.5614743 0.2573722 0.37003604 0.4771605 0.81289375 0.40858862 0.48160836 0.59238714 0.45455137 0.68860376 0.46356833 0.6117295 0.55453986 0.2706787 0.3445087 0.3730411 0.5334911 0.78481483 0.46027786 0.5159399 0.5169029 0.37972322 0.69663364 0.6305129 0.38289967 0.74833894 0.6229707 0.76112944 0.4688132 0.6638982 0.61362845 0.5527801 0.39202702 0.3324339 0.19997902 0.45278758 0.65748614 0.3091612 0.35077506 0.51571745 0.2184851 0.31015268 0.48724508 0.47511396 0.4156171 0.45382413 0.83505446 0.43207997 0.29037055 0.6859452 0.46178067 0.46428138 0.56330025 0.7449668 0.31421062 0.5274016 0.38713917 0.4929355 0.3345592 0.29418063 0.5848549 0.31289542 0.5215423 0.33910105 0.522749 0.55829537 0.6704328 0.43676236 0.74592376 0.85205996 0.51576996 0.4451829 0.37971464 0.33783972 0.43455064 0.36657473 0.40175954 0.6545702 0.4588922 0.7210002 0.6245548
2444 0.48031035 0.33645254 0.32442838 0.80391526 0.30099303 0.28378943 0.2358795 0.6695985 0.59459543 0.7439274 0.65790945 0.40930256 0.60291505 0.5086217 0.378058 0.47632676 0.35294545 0.746253 0.15644091 0.5822861 0.39703667 0.19195916 0.3180969 0.54917824 0.6962379 0.120348886 0.85392565 0.6190504 0.4959542 0.3159919 0.32294965 0.669697 0.6744579 0.61854756 0.69214594 0.59586567 0.27942634 0.5722584 0.5155691 0.23675226 0.5047237 0.60471034 0.4653934 0.60576147 0.70307434 0.1972201 0.7248247 0.33381993 0.34953836 0.4233154 0.8051974 0.837712 0.42231333 0.5309586 0.48268124 0.7453594 0.4972925 0.45961514 0.48514774 0.55941695 0.4266635 0.6498649 0.42203173 0.55368114 0.34813812 0.27670902 0.26846045 0.7336587 0.26318955 0.60589355 0.57629395 0.5118971 0.26495138 0.47975487 0.6504033 0.44353014 0.6447018 0.40054762 0.7739337 0.46189597 0.5342641 0.490952 0.30233717 0.19960743 0.46869156 0.5850949 0.5522011 0.71452844 0.46412036 0.57059956 0.75396365 0.39198488 0.66123676 0.18222184 0.49854946 0.48013625 0.45730972 0.56167495 0.68160653 0.2605771 0.6490926 0.79410934 0.5690637 0.6008742 0.42607343 0.5008107 0.68528265 0.4731278 0.3017538 0.48798952 0.45336437 0.6976899 0.6418585 0.773482 0.73428553 0.4803948 0.40723273 0.37567556 0.47351146 0.6582677 0.5871798 0.124741584 0.25639445 0.34694642 0.4199712 0.898504 0.32999763 0.12693018
1632 0.5991638 0.41886008 0.4079176 0.5862793 0.52784514 0.5626326 0.36861756 0.5416752 0.6460342 0.43015662 0.4465424 0.47660765 0.3057673 0.5647662 0.6182887 0.3780854 0.57641995 0.6513545 0.327679 0.4377188 0.5367553 0.18834206 0.57833284 0.5773121 0.59603834 0.16514912 0.8033813 0.6852712 0.2828868 0.4045621 0.37199217 0.51583165 0.52871513 0.64000696 0.43660712 0.7275261 0.44140327 0.53810906 0.4773152 0.35622975 0.46787268 0.4188625 0.667173 0.43966216 0.70969373 0.5758802 0.40603346 0.41943812 0.28195965 0.4697171 0.59533423 0.76699126 0.3438811 0.46322167 0.50303966 0.5090132 0.5329268 0.3048682 0.31807032 0.49625447 0.3659708 0.5101047 0.51303464 0.5039371 0.5113972 0.38953257 0.31576025 0.56260985 0.27194503 0.59089535 0.65580094 0.45551354 0.519579 0.39828345 0.5792621 0.51965284 0.7430505 0.5157678 0.6509207 0.44036925 0.41599083 0.3919969 0.40292197 0.54081327 0.39971074 0.49297485 0.60337377 0.5558288 0.48675913 0.6746476 0.56057924 0.4235572 0.6061657 0.42202067 0.57332367 0.47197086 0.410386 0.6042314 0.4355881 0.55822885 0.64747494 0.60125 0.46527785 0.2659318 0.31989968 0.27198467 0.584735 0.54614794 0.32767025 0.5715315 0.35505536 0.6098319 0.54164124 0.61748815 0.8326204 0.6580238 0.57605714 0.73256385 0.44599006 0.46168482 0.6569626 0.23712982 0.5680271 0.56975055 0.45423287 0.7260143 0.5194435 0.23723012
970 0.6059941 0.39785972 0.39836022 0.5766011 0.3700047 0.4123934 0.2730038 0.56830305 0.530101 0.54064417 0.32226363 0.3573274 0.19419955 0.3764064 0.6059046 0.39848617 0.5412042 0.716951 0.33934245 0.5604266 0.4829189 0.335805 0.61450833 0.5248583 0.4221389 0.08725335 0.8531819 0.78500456 0.23895669 0.42077023 0.28327957 0.6908256 0.51365846 0.72570664 0.54109675 0.8183251 0.23762181 0.66295516 0.36967304 0.25782475 0.44001833 0.44661343 0.4791918 0.5496475 0.64467895 0.68102723 0.37756273 0.4281729 0.38742167 0.40405568 0.52773404 0.84052587 0.3587693 0.41588014 0.5991431 0.7649264 0.6979903 0.2730367 0.6269268 0.3981249 0.6360178 0.60603553 0.3468658 0.5534732 0.47463185 0.5928471 0.27893308 0.45866597 0.22716041 0.59444684 0.65777236 0.30740824 0.36701596 0.30357957 0.45741478 0.6240538 0.8811385 0.42205414 0.5653422 0.38679364 0.30615488 0.43835354 0.47753537 0.35716125 0.47333854 0.31251803 0.47402287 0.6915191 0.34968495 0.55633414 0.51184094 0.28847283 0.81616503 0.5417077 0.5663615 0.30439296 0.2741275 0.618323 0.39114177 0.60703427 0.5568367 0.7155377 0.5883091 0.24959837 0.3185776 0.30203697 0.8441383 0.597205 0.35573608 0.5301356 0.43787095 0.56143147 0.53327113 0.6465573 0.8513858 0.6904271 0.54920036 0.61710066 0.39429727 0.6632472 0.65341914 0.12497733 0.42478594 0.64576256 0.4656873 0.8633705 0.6658402 0.24392511
2642 0.6200637 0.41159576 0.41607428 0.5820539 0.53918475 0.56729734 0.36180943 0.5441811 0.66896015 0.41135103 0.46537322 0.48645714 0.28908908 0.58223873 0.619574 0.3410324 0.5776592 0.660586 0.29128113 0.44214022 0.53687894 0.168674 0.5714459 0.59315383 0.60829824 0.15010396 0.8140872 0.69591594 0.2787722 0.39311442 0.36440238 0.52185106 0.54110074 0.62905675 0.42239475 0.750237 0.42726544 0.5571438 0.48899755 0.33453843 0.45780233 0.39117104 0.70468867 0.43905345 0.7293266 0.58082634 0.37515914 0.4073556 0.26753977 0.46968663 0.6164917 0.77359337 0.3256711 0.4832564 0.506483 0.5065083 0.526898 0.2688521 0.2974086 0.4920362 0.34737587 0.50933385 0.52990204 0.49805376 0.51404744 0.39571908 0.2968335 0.5534599 0.24400106 0.58554476 0.6627036 0.45452815 0.51644754 0.38224092 0.5620951 0.5396206 0.74851334 0.50569236 0.6859402 0.44604218 0.4195807 0.3707477 0.4201677 0.5461498 0.39576527 0.5026048 0.60612506 0.5794731 0.491114 0.6763988 0.5697422 0.41281286 0.6145867 0.39562607 0.5644888 0.45622423 0.39523765 0.63532674 0.43196183 0.5564516 0.6535303 0.60920423 0.47897232 0.2551712 0.29817197 0.25637004 0.59409344 0.55657065 0.32113397 0.58338845 0.33849254 0.6372216 0.54738736 0.64836305 0.85766995 0.6756552 0.5585781 0.75377387 0.42271018 0.47359326 0.6664733 0.2116404 0.59289426 0.5873938 0.44047323 0.76738137 0.4975875 0.22121768
17 0.6119369 0.65084636 0.48677486 0.40236038 0.2715421 0.5016726 0.7577287 0.31925717 0.5594026 0.29916793 0.76254183 0.40290028 0.59071445 0.7712284 0.27516535 0.42908436 0.5023082 0.27362 0.7237691 0.14336205 0.29642943 0.54866654 0.66450053 0.50748456 0.53787476 0.35223094 0.32800454 0.25205174 0.7389003 0.32598186 0.2840256 0.4657537 0.48940682 0.2615119 0.35645565 0.3861792 0.77792597 0.4663205 0.7100378 0.54815894 0.45509797 0.5313797 0.69240725 0.48628077 0.3121217 0.4086969 0.48580396 0.78143954 0.25573948 0.40577188 0.73735845 0.32317418 0.465739 0.71746576 0.32437855 0.20016974 0.4298779 0.51706916 0.47340363 0.5705358 0.3851717 0.67261827 0.5881493 0.42363933 0.6663601 0.46536243 0.6136381 0.76044106 0.5477297 0.5078159 0.29540184 0.681703 0.86308837 0.5008164 0.27622366 0.47966534 0.30098104 0.75568795 0.3792876 0.77488184 0.4691432 0.2903096 0.8175544 0.63972765 0.4920792 0.54110533 0.3758514 0.5951498 0.53014123 0.61756957 0.6888582 0.6940467 0.3928752 0.6181253 0.34990406 0.50081307 0.51114315 0.4932011 0.52970964 0.41077366 0.45522517 0.36226374 0.63145405 0.46643242 0.2825095 0.62456906 0.22206414 0.4143307 0.506273 0.49522814 0.64910334 0.6642566 0.5314455 0.4694725 0.19875938 0.649355 0.80337816 0.35741982 0.48396567 0.35484406 0.41919526 0.6819853 0.4117099 0.7138467 0.6751396 0.63932407 0.17527942 0.52585185
24 0.48089075 0.40011898 0.7531563 0.14171414 0.30464414 0.69167614 0.5499886 0.15984008 0.72038203 0.3499049 0.7096888 0.44088477 0.45935777 0.792258 0.1864101 0.48403057 0.79186445 0.33634877 0.49769846 0.15717342 0.20577757 0.6172507 0.76983654 0.38886037 0.59025645 0.20920025 0.41911635 0.18130441 0.9067435 0.38675123 0.16006297 0.799637 0.4874895 0.47588027 0.155175 0.3015409 0.6846017 0.727993 0.8017705 0.43508855 0.49115607 0.52293193 0.8279654 0.42446858 0.39292768 0.7463156 0.23410976 0.5780102 0.20722252 0.27490118 0.65919095 0.573701 0.29021868 0.80436814 0.27031967 0.13630624 0.7584301 0.6035169 0.653116 0.21350421 0.37059328 0.6315173 0.8769716 0.10011323 0.8937341 0.47868958 0.5227817 0.6886157 0.45662 0.50540566 0.3020235 0.5632086 0.82935286 0.4316326 0.23136625 0.5872956 0.4290827 0.6438909 0.5408596 0.8670374 0.39281455 0.19835217 0.7885582 0.5867194 0.7549513 0.38469344 0.3532583 0.5681291 0.5329707 0.47043717 0.6117065 0.7275325 0.6062127 0.6165111 0.415874 0.28808033 0.58494765 0.5702886 0.39469752 0.48421973 0.47786534 0.25753808 0.78153074 0.22240227 0.2873704 0.737641 0.5246859 0.31521064 0.44107148 0.63111025 0.3715371 0.26870888 0.44422877 0.62329006 0.2838626 0.8196227 0.7576365 0.33512414 0.42179626 0.5663482 0.2187942 0.59166014 0.36373314 0.78704685 0.33011082 0.86227167 0.24129613 0.77716655
2140 0.66016227 0.4851536 0.5123035 0.2228424 0.5369916 0.6056404 0.7211995 0.1862631 0.49656856 0.30942854 0.6099177 0.5404752 0.6721455 0.8362188 0.36144525 0.32370207 0.80258644 0.5529677 0.52859163 0.2461507 0.20026425 0.41616616 0.87186354 0.3241026 0.60434663 0.2564661 0.23599143 0.23380032 0.82279235 0.48206544 0.51333034 0.7134192 0.5496948 0.16966236 0.23828408 0.4697778 0.5892692 0.5583919 0.5795288 0.69282484 0.4579556 0.26839286 0.7380456 0.47159684 0.32180727 0.3242928 0.39903566 0.6987008 0.21772026 0.34800518 0.6503046 0.24370249 0.19734682 0.7592926 0.30030474 0.14776404 0.3907606 0.42003205 0.7080927 0.49771968 0.50057715 0.62148696 0.69521004 0.23214824 0.74976605 0.6018086 0.3472211 0.6376155 0.5482949 0.52404153 0.68033767 0.6159254 0.72923535 0.6412793 0.6141144 0.4162445 0.38030183 0.609036 0.3915251 0.8090559 0.41990158 0.24396157 0.71767807 0.59484625 0.73348874 0.4754104 0.43737444 0.6210122 0.44781512 0.4939046 0.56944686 0.68351203 0.4319063 0.6123246 0.3006851 0.6311985 0.71928436 0.4988779 0.35038814 0.637305 0.3811939 0.17599279 0.7293176 0.4443787 0.5796516 0.55558145 0.37510794 0.2455256 0.5179255 0.5135111 0.46803832 0.66902226 0.6162166 0.7840763 0.21826708 0.819971 0.61066 0.42074767 0.37657872 0.52973855 0.40883076 0.5735071 0.30436876 0.53768384 0.49754414 0.7248661 0.1051432 0.70914644
1316 0.63261425 0.5083545 0.4430708 0.29189432 0.5476517 0.555883 0.7168039 0.24911846 0.45071054 0.34986797 0.5729183 0.56530625 0.65916765 0.8203351 0.36670074 0.30861986 0.7636902 0.56101775 0.5381679 0.25758713 0.22851783 0.4024699 0.8552021 0.3390745 0.5665544 0.28460193 0.21366075 0.2647594 0.7976666 0.5049275 0.55724365 0.6877548 0.56353414 0.1691887 0.3020697 0.46514544 0.5543654 0.5627776 0.5402003 0.69397753 0.47301218 0.31799227 0.68198544 0.4939765 0.35555637 0.30307922 0.4214476 0.68654466 0.24921933 0.36772972 0.64183176 0.24590805 0.22246017 0.7413435 0.29834312 0.1762269 0.33830932 0.41756746 0.7254168 0.5386851 0.4992619 0.628863 0.6317724 0.28073198 0.7195537 0.59183943 0.36929622 0.6172461 0.5728545 0.5239336 0.6942667 0.6145481 0.6917489 0.6640126 0.65605354 0.4204316 0.34455112 0.5985489 0.40824398 0.7606646 0.4288431 0.2564204 0.68661356 0.5742231 0.6899952 0.48603943 0.4812262 0.62086177 0.4443717 0.51993537 0.56568563 0.6328279 0.41295534 0.6431936 0.27973306 0.63816756 0.7092106 0.4971974 0.35660368 0.62425756 0.38900998 0.19672978 0.6968871 0.49630085 0.6036315 0.53139514 0.39090425 0.29419303 0.53743017 0.46999004 0.4850955 0.7087888 0.6265379 0.7593569 0.24074706 0.8144164 0.5838306 0.4263515 0.3428821 0.5145366 0.44422877 0.5769553 0.306035 0.4680327 0.48538572 0.6471117 0.13153332 0.695644
1315 0.53531796 0.50913066 0.43952504 0.32533482 0.51730555 0.56843513 0.6107731 0.35928988 0.47479242 0.41695336 0.5479735 0.5668189 0.5606035 0.68284714 0.39918935 0.36988848 0.67071563 0.5025503 0.49499097 0.34028617 0.39154875 0.43254632 0.72458154 0.40593988 0.5660228 0.3447283 0.27329198 0.36978278 0.68231803 0.52567685 0.47200093 0.5991865 0.49380144 0.2981729 0.3663755 0.47550973 0.54766977 0.5284567 0.54522383 0.6234825 0.49620256 0.39077622 0.612974 0.48223883 0.41030103 0.4382191 0.42182502 0.6246895 0.35249048 0.45308432 0.52517766 0.39431453 0.33971864 0.64417166 0.38959202 0.28437585 0.4432484 0.4404684 0.5703527 0.5218076 0.48202524 0.5667213 0.5800922 0.32904065 0.62648076 0.5526489 0.45085955 0.5628089 0.5977119 0.50338584 0.58994055 0.55024314 0.60787714 0.56796074 0.5824026 0.45504054 0.36603466 0.5737982 0.41273907 0.6459754 0.45891905 0.40214008 0.5905086 0.59439194 0.58205086 0.46643832 0.48676816 0.5755558 0.4790893 0.55781007 0.53803277 0.5564254 0.5012919 0.59106433 0.41602543 0.57539207 0.65551436 0.5074605 0.44427845 0.6160008 0.4873198 0.28915086 0.61915445 0.4732752 0.60131437 0.49002486 0.47005358 0.4167063 0.47389013 0.5072222 0.50814587 0.58122176 0.5654115 0.6352091 0.32383284 0.68476814 0.5932666 0.4760076 0.4176943 0.5103453 0.48083174 0.5996042 0.39276555 0.51558065 0.4606492 0.57096076 0.25547123 0.6326469
