2708 128
0 0.48747316 0.8522304 0.62514704 0.5389903 0.48933744 0.21692479 0.5267584 0.2799977 0.69178337 0.65323514 0.32176727 0.67237484 0.41759473 0.46571848 0.4200913 0.5193734 0.7991829 0.35387647 0.54898924 0.44857764 0.5910415 0.4246174 0.7504292 0.17752574 0.77457535 0.32018796 0.6625991 0.3913872 0.68051094 0.24388885 0.6688003 0.5169936 0.60409284 0.67075807 0.57437617 0.36442053 0.5680804 0.7672435 0.5998176 0.25238842 0.36016116 0.5627796 0.3221295 0.6338165 0.4957634 0.45720056 0.57276994 0.38876298 0.4643211 0.6498998 0.37550348 0.38575134 0.4094101 0.402315 0.51612127 0.45974714 0.2953585 0.5429457 0.41575956 0.36605683 0.80475974 0.48211288 0.6567541 0.46631554 0.68137753 0.5085244 0.92533034 0.5849772 0.28472283 0.504046 0.7204 0.43670288 0.30788642 0.77123713 0.5270076 0.7870585 0.4360015 0.72700727 0.5019607 0.72532785 0.1351751 0.28153044 0.51804423 0.720241 0.44565517 0.51423806 0.4798646 0.6943446 0.25675276 0.5285698 0.49190462 0.8503907 0.704125 0.44502786 0.52213246 0.4101138 0.16513298 0.48992977 0.43936956 0.53214616 0.72974926 0.34133494 0.41147336 0.6816172 0.5295626 0.5491611 0.5115261 0.57464606 0.37422022 0.37772077 0.51870114 0.5123757 0.52879435 0.5008915 0.26051688 0.3939914 0.39435336 0.64225733 0.14996184 0.48975107 0.24359985 0.5486023 0.6706191 0.5133851 0.5053385 0.49908435 0.49022403 0.32673877
633 0.49848303 0.8005705 0.60460216 0.5388258 0.6213855 0.309843 0.42336768 0.3263287 0.72359216 0.49625164 0.25109124 0.5580311 0.37056172 0.51205426 0.38466612 0.5533896 0.5910434 0.4512873 0.6947663 0.4549702 0.3657552 0.40809602 0.565325 0.26567528 0.75513667 0.3887857 0.54125494 0.48008657 0.6801291 0.33280158 0.6579227 0.4853267 0.62282884 0.60542864 0.67681736 0.5421982 0.665995 0.6291438 0.5070015 0.30959934 0.44342285 0.34878352 0.44401196 0.59737873 0.62662196 0.5333077 0.51907647 0.44247606 0.5666588 0.5503709 0.50277007 0.48854542 0.3950224 0.4559265 0.60314757 0.4849158 0.39991167 0.6768506 0.3935391 0.48898226 0.5065258 0.50811094 0.7569238 0.44410834 0.5295378 0.34144598 0.71929944 0.48110217 0.50200164 0.42969802 0.72756445 0.4981973 0.38234222 0.7178927 0.30729932 0.61205685 0.48759684 0.6842331 0.38469052 0.6826 0.2883302 0.3315898 0.59751683 0.6751845 0.4548387 0.53607345 0.61045384 0.60310745 0.4252771 0.5972366 0.55964273 0.6038834 0.5503796 0.47022453 0.44039062 0.457282 0.33876985 0.28791958 0.5409391 0.6438892 0.7024599 0.4120042 0.39395696 0.4741297 0.5751557 0.43314365 0.4790914 0.43272087 0.44702283 0.51191556 0.5249872 0.42017293 0.5198423 0.45026764 0.2468551 0.3774681 0.23404756 0.6051799 0.15156248 0.4861379 0.45559007 0.652484 0.5354 0.602074 0.46149483 0.6970517 0.52131623 0.4215446
1862 0.6420246 0.8486182 0.6361304 0.62060493 0.571916 0.20294482 0.43274853 0.4099811 0.7640137 0.506904 0.2151083 0.6150823 0.34502453 0.5031558 0.42848423 0.5586262 0.6546494 0.40487987 0.66850233 0.42988026 0.29847258 0.44949228 0.60867643 0.17683746 0.7779053 0.33467308 0.5710043 0.491801 0.782027 0.3539922 0.71640855 0.4656937 0.61694616 0.5645652 0.6337623 0.47446173 0.76103485 0.72468483 0.54648906 0.20446981 0.32885304 0.22756393 0.43119088 0.67521924 0.58621144 0.47188798 0.4731254 0.4392227 0.5505439 0.747239 0.439743 0.4696323 0.3548049 0.42267388 0.5835058 0.44408742 0.32887205 0.70936143 0.3841511 0.42978752 0.6563163 0.45632014 0.74977857 0.47670162 0.60935605 0.39673397 0.8163506 0.5915161 0.5200344 0.59216976 0.7375496 0.48805186 0.2985591 0.8328192 0.4236288 0.64381516 0.45417708 0.7127907 0.36643246 0.7425513 0.2585021 0.28044504 0.55217505 0.6620554 0.44605133 0.5345042 0.5044967 0.62549686 0.3825514 0.63180214 0.4823132 0.754866 0.61473966 0.40571746 0.37960353 0.4400997 0.25289747 0.2235143 0.53783566 0.6452581 0.7143455 0.38171604 0.30954713 0.5630487 0.56316227 0.49066952 0.5224144 0.53786933 0.37124062 0.43208727 0.5225063 0.41353118 0.50561315 0.43538576 0.24729551 0.43744555 0.25179932 0.71792364 0.08211471 0.44440338 0.46659625 0.66801566 0.58426356 0.49512845 0.46696782 0.7854696 0.5456313 0.3570602
2582 0.41553953 0.7666975 0.5940118 0.5940351 0.5234342 0.3546955 0.5337719 0.32096416 0.67341316 0.7012758 0.37166637 0.48790035 0.27746236 0.53152364 0.25482303 0.50668263 0.69322497 0.49163565 0.59730494 0.42938778 0.47132286 0.37517515 0.6919337 0.26758856 0.63676876 0.33111012 0.6160484 0.35128236 0.58147484 0.20714182 0.69485795 0.5134005 0.5861599 0.50342005 0.71486783 0.52153397 0.61816156 0.6968659 0.55101144 0.4894777 0.38902923 0.42473707 0.40768754 0.58288115 0.56234 0.49161917 0.5992648 0.38582247 0.5365774 0.6024313 0.5558252 0.40969974 0.41031894 0.42321667 0.54220825 0.49065852 0.3422394 0.5759145 0.33358365 0.3540771 0.65186197 0.58342326 0.71312994 0.60216916 0.6970726 0.5131069 0.8851101 0.54809004 0.43932974 0.35437897 0.7826485 0.4426619 0.42691126 0.73033285 0.43316293 0.67886716 0.48878157 0.68039393 0.492704 0.69714105 0.19923991 0.26837754 0.5666647 0.72331643 0.4860841 0.6534992 0.5294801 0.6425744 0.4255498 0.59859204 0.57678956 0.53992116 0.6268935 0.4139803 0.46512955 0.50270575 0.25844792 0.33893344 0.40470573 0.5232535 0.5617382 0.24517971 0.36952507 0.58345324 0.58064586 0.4620034 0.5414085 0.59407574 0.42804828 0.40475497 0.5642602 0.4271728 0.48970228 0.45825905 0.25394288 0.26137757 0.33276972 0.5646811 0.19830957 0.5251091 0.32385442 0.6371738 0.66538167 0.644593 0.4263614 0.61157334 0.45461664 0.5023049
1 0.37881765 0.6471619 0.36740613 0.5410197 0.315498 0.46276313 0.6362148 0.5830907 0.5815172 0.64283454 0.42783505 0.49837214 0.5444864 0.48869398 0.42970562 0.38592252 0.36222887 0.33980885 0.45446068 0.4446394 0.49515915 0.48876652 0.8071277 0.3503953 0.6611258 0.5016567 0.4761753 0.6797453 0.5963806 0.23634382 0.35000396 0.37505102 0.47315773 0.46764204 0.7023101 0.23869328 0.5606328 0.5087192 0.66555053 0.36485702 0.57151055 0.519745 0.4470177 0.6782166 0.48714694 0.42544475 0.25074905 0.31418064 0.50202626 0.7049443 0.27187586 0.55366266 0.43097833 0.33829874 0.48896158 0.5669863 0.60494536 0.567015 0.4841617 0.32421675 0.4176187 0.7387582 0.4621346 0.6100164 0.7383159 0.7836359 0.764344 0.46183336 0.63490605 0.517965 0.5463276 0.37193927 0.45662633 0.75949943 0.74953324 0.428398 0.37089744 0.4573434 0.4091615 0.6175406 0.5100154 0.522998 0.3989493 0.3899506 0.48442945 0.5961258 0.24365194 0.46702802 0.35686722 0.45670655 0.45102313 0.54245055 0.5510453 0.32384643 0.40923408 0.63735956 0.4501461 0.46014348 0.4945032 0.65171736 0.67543083 0.39018956 0.57925105 0.67763585 0.426872 0.62382406 0.311601 0.6357267 0.41322285 0.6369038 0.5871742 0.5537274 0.44581738 0.22309017 0.7373908 0.40895736 0.48473865 0.690018 0.39158472 0.42451242 0.56325734 0.7093124 0.475955 0.68764335 0.36317545 0.5922128 0.5487016 0.4732844
2 0.46678084 0.2348884 0.4673388 0.6446678 0.48642087 0.26333916 0.45012727 0.7090435 0.736034 0.62994987 0.2824893 0.46313927 0.35783064 0.73151517 0.713358 0.60081375 0.65676963 0.46231002 0.36929777 0.37584117 0.54241306 0.53883713 0.55382884 0.4816083 0.8659142 0.46727362 0.38660735 0.6606507 0.6966566 0.41931728 0.74390674 0.4730699 0.35102826 0.5302136 0.5857502 0.41630846 0.7385275 0.59497327 0.39377177 0.615491 0.48001364 0.38588667 0.36939242 0.59045553 0.36249122 0.3029353 0.43844065 0.5879216 0.34875876 0.3401564 0.32486206 0.17629807 0.27063918 0.49004278 0.50709015 0.66109127 0.37964898 0.15911035 0.63630354 0.59417903 0.7053982 0.25351667 0.2782763 0.39436504 0.49221492 0.7449602 0.656526 0.48775992 0.5786983 0.867808 0.29149914 0.40167162 0.38562337 0.8481784 0.8216767 0.41479072 0.5146444 0.41382983 0.5392562 0.6023485 0.6983529 0.79197896 0.25415456 0.49494284 0.62026596 0.4779798 0.2700312 0.40944958 0.59758484 0.42965353 0.120487645 0.48255274 0.33433414 0.19521743 0.6578009 0.46494302 0.101179324 0.4876316 0.25110862 0.7095143 0.6508392 0.73663515 0.39567125 0.906351 0.18456876 0.33500338 0.5627383 0.544085 0.35186413 0.4275316 0.5436446 0.7182968 0.67544335 0.3046527 0.6417237 0.67713225 0.714997 0.6849036 0.4603796 0.45493132 0.79148114 0.51126283 0.6443731 0.34627306 0.59518826 0.32929122 0.55319345 0.25244853
652 0.5974793 0.54021096 0.4511215 0.52480793 0.39662516 0.30171016 0.37216797 0.7630503 0.5274887 0.50772524 0.444868 0.48090264 0.55916786 0.6430378 0.61259204 0.56387967 0.5774001 0.35729575 0.41939306 0.39152277 0.51212615 0.6310547 0.5965687 0.48476467 0.78049356 0.42920214 0.41518575 0.6544948 0.6905524 0.48803085 0.46430594 0.33678314 0.41068035 0.52097327 0.50162363 0.442941 0.5785844 0.3209062 0.522223 0.45635396 0.5257234 0.51201123 0.42453983 0.5247996 0.55487156 0.39229348 0.3129416 0.5624567 0.4334133 0.63635075 0.24856949 0.28195167 0.40054765 0.6243451 0.46709824 0.61088413 0.5391334 0.41927916 0.4596735 0.5523664 0.42660493 0.34216326 0.46128765 0.4313019 0.38617495 0.62939054 0.4168438 0.4718909 0.54951614 0.6758025 0.36996034 0.6106554 0.42235935 0.66286165 0.7453243 0.5021802 0.55352986 0.5089848 0.53424954 0.69704086 0.71697956 0.5971054 0.42901736 0.2553868 0.5063613 0.6079112 0.47810394 0.6198227 0.5367403 0.41043004 0.26925483 0.6832057 0.5469984 0.37319788 0.47403014 0.5661945 0.37708557 0.3637429 0.35540405 0.7309882 0.55700225 0.6595923 0.48715734 0.60273486 0.27041605 0.46000665 0.43188998 0.47346315 0.45048213 0.5181848 0.62825537 0.6765037 0.5551826 0.36974457 0.6326739 0.6745748 0.5628434 0.69151366 0.42557356 0.3642374 0.6519956 0.591078 0.5127726 0.33890983 0.55149347 0.43700132 0.65133756 0.36775282
654 0.5380244 0.45569855 0.46158493 0.5418408 0.45930254 0.3524724 0.4383294 0.7207261 0.53691155 0.5334434 0.49275854 0.48111007 0.51174366 0.60671055 0.5460706 0.54560477 0.5692158 0.40883312 0.41693166 0.41540417 0.5050917 0.5658788 0.5506467 0.50562745 0.68642575 0.45289972 0.42957103 0.6007896 0.6577666 0.45521286 0.51978445 0.40684456 0.41536456 0.5158389 0.5064218 0.47644797 0.5845442 0.4332026 0.5000679 0.522244 0.48877597 0.4941236 0.43205392 0.49161133 0.52356404 0.44299415 0.39733684 0.5582562 0.45810258 0.5459682 0.34498718 0.3389628 0.42063877 0.5869913 0.48535135 0.6009045 0.50223607 0.40371054 0.4839916 0.52147496 0.5393606 0.39535248 0.45820418 0.45284843 0.41646683 0.6090876 0.492356 0.49041733 0.51323146 0.64169335 0.426255 0.52476937 0.44173416 0.638299 0.6811362 0.50261885 0.5030719 0.47723046 0.5120693 0.6292789 0.61907494 0.5895819 0.4277605 0.34149373 0.5295595 0.5705341 0.48251477 0.51929665 0.5608735 0.4708378 0.28504613 0.5554225 0.53869194 0.3864527 0.55402255 0.52395564 0.3675631 0.39098936 0.3705016 0.6680599 0.5333736 0.6380845 0.48091835 0.63649 0.327521 0.4533998 0.48100075 0.4779274 0.45327112 0.50467175 0.58253145 0.614124 0.5618356 0.40913245 0.5726946 0.5982395 0.54875964 0.62810504 0.4671073 0.4350338 0.6049027 0.5609972 0.52792424 0.3699241 0.55253345 0.43131304 0.5570098 0.42918247
1986 0.14331867 0.78356814 0.795902 0.8315935 0.3335056 0.9302365 0.5306685 0.26108333 0.6943101 0.9373099 0.41607964 0.34084576 0.33581835 0.5948025 0.0022932333 0.08115967 0.41645265 0.667925 0.23966597 0.36299926 0.22733945 0.54208004 0.91489226 0.49436605 0.9623795 0.39927673 0.6442117 0.5565039 0.24793375 0.039563023 0.6490888 0.8666226 0.749147 0.2768575 0.8931801 0.09100833 0.9108235 0.9089059 0.17630246 0.9148502 0.20804347 0.068326436 0.7974333 0.35083783 0.23996978 0.22357334 0.7657169 0.029235862 0.4077032 0.22452112 0.82474595 0.74584365 0.4492744 0.3307162 0.66055745 0.073732816 0.9155494 0.06359949 0.0804533 0.12763938 0.32562804 0.25003088 0.5457723 0.9344257 0.9874751 0.8393667 0.9130063 0.452767 0.97596323 0.80924666 0.9001755 0.18804705 0.71190643 0.09524864 0.82379264 0.89842486 0.9500575 0.47420302 0.7790965 0.071713954 0.24058527 0.35116974 0.32001916 0.8769531 0.6593057 0.5676702 0.6645073 0.73130643 0.24694526 0.42598316 0.952904 0.15381244 0.683475 0.28401127 0.11520367 0.7745522 0.58127934 0.11326203 0.077231124 0.33214778 0.6004809 0.108997986 0.070184484 0.92711645 0.94136775 0.45323983 0.42021304 0.98624915 0.63107806 0.4622771 0.6402877 0.059366353 0.90045565 0.16305557 0.5495008 0.06995066 0.48145786 0.14761557 0.1683609 0.21132034 0.30789334 0.8546717 0.4407647 0.57297903 0.029360522 0.9618063 0.09480947 0.9041368
332 0.19941011 0.35920882 0.34950164 0.5043059 0.32364118 0.54312956 0.41979963 0.46554112 0.6190785 0.89561653 0.27070335 0.27507606 0.4323268 0.501682 0.3984308 0.43371403 0.44688028 0.40519175 0.4956714 0.36738032 0.54785633 0.39711285 0.83672655 0.39536214 0.78566146 0.45921385 0.38716298 0.67359054 0.39103717 0.13250315 0.54833627 0.35796657 0.42168006 0.20835535 0.8058842 0.35347578 0.5081778 0.40260386 0.8456172 0.56597656 0.6299653 0.764948 0.34864873 0.80812615 0.3866189 0.22978468 0.2451796 0.2546486 0.54090613 0.7449669 0.23542403 0.40400597 0.22568487 0.24894565 0.44743127 0.5112494 0.59162587 0.6235632 0.31695423 0.4644576 0.35714725 0.73378783 0.30162492 0.7044143 0.78512114 0.8623241 0.7386251 0.53149736 0.41056547 0.48429057 0.49462718 0.348834 0.53091365 0.7888103 0.6931759 0.33202362 0.44204652 0.67351 0.5433506 0.8004279 0.3603005 0.6543534 0.3363238 0.7520956 0.6011699 0.74399364 0.14713065 0.30006415 0.6572784 0.3581386 0.45769078 0.4683302 0.3608708 0.18707511 0.21656987 0.6614377 0.41535017 0.21861522 0.20201464 0.83876526 0.48995122 0.28996226 0.6281297 0.7992525 0.5125175 0.63214785 0.42161292 0.8239509 0.5121946 0.567375 0.76128507 0.63766366 0.5293176 0.16077553 0.6927745 0.46410558 0.72810787 0.6744918 0.43057224 0.44485807 0.6412202 0.85098696 0.2831389 0.78313494 0.28599378 0.511988 0.57204014 0.5396987
1666 0.58037394 0.5011738 0.42426103 0.57403666 0.3498368 0.55574316 0.76390857 0.40400213 0.6966187 0.47412434 0.1592356 0.5695826 0.3510691 0.65931815 0.3623515 0.41122735 0.22747749 0.46817762 0.7627953 0.43566823 0.316036 0.36612672 0.67193186 0.537077 0.72844094 0.5586125 0.4539852 0.71715915 0.60816795 0.2873268 0.4436964 0.31870076 0.38323608 0.44504082 0.7903854 0.37105784 0.9171916 0.59687585 0.6722927 0.5109029 0.38040233 0.27801412 0.7033807 0.67633736 0.41103226 0.5025776 0.4438828 0.29430887 0.6470992 0.76965946 0.5885385 0.68246514 0.521899 0.38523337 0.7119668 0.26500896 0.8335284 0.41534412 0.5306383 0.23418799 0.32580894 0.64448756 0.1769472 0.6156027 0.7614145 0.6943632 0.5978691 0.33502716 0.85891336 0.70761275 0.40277028 0.20342332 0.43627757 0.7903922 0.57783216 0.13220479 0.38957053 0.37745407 0.3171676 0.59775126 0.43936592 0.6701681 0.4346757 0.35666713 0.47489983 0.709398 0.39985964 0.1933405 0.6010974 0.6003339 0.35288903 0.42886496 0.30141708 0.2374695 0.26972738 0.5459081 0.3681434 0.5286055 0.4331458 0.9068669 0.5980578 0.31740242 0.38780352 0.71720237 0.48868755 0.6101977 0.27221194 0.452249 0.39450502 0.53805155 0.30996466 0.41212103 0.28140914 0.16232347 0.7796655 0.46658176 0.7634606 0.6961014 0.27413648 0.33269855 0.88446003 0.78555137 0.32082033 0.47841397 0.32431272 0.69133407 0.45848048 0.3359552
1454 0.42192626 0.54536474 0.41911516 0.538049 0.41912183 0.49889427 0.5489018 0.4847343 0.5809358 0.6009691 0.4205034 0.48539478 0.4596833 0.5024654 0.39653113 0.43801028 0.39616778 0.4348076 0.5060996 0.46469247 0.47064695 0.4686932 0.6801784 0.4450431 0.5910365 0.5296909 0.47977957 0.5901558 0.53068995 0.31032994 0.46979412 0.44778484 0.48082525 0.4863365 0.6209395 0.3875576 0.5895807 0.53004116 0.6106973 0.48061648 0.51672655 0.4864184 0.50021076 0.59416056 0.5137796 0.44460547 0.38741088 0.38093185 0.5088529 0.6163952 0.43156603 0.54781604 0.4495387 0.38854113 0.48675278 0.5136938 0.5729217 0.51542056 0.47698754 0.38857213 0.47367522 0.62159747 0.43807825 0.5970707 0.6522642 0.63447815 0.6746038 0.5092827 0.5899127 0.5094013 0.5505846 0.39510918 0.49843505 0.6149396 0.6133546 0.43797296 0.4395598 0.47225925 0.44354084 0.53668386 0.48629656 0.5114021 0.43812117 0.4958641 0.51242286 0.5866906 0.37797904 0.39634505 0.500647 0.49744794 0.47353473 0.45504287 0.48943624 0.38484135 0.44039482 0.5547798 0.4671436 0.40539506 0.42877573 0.6206335 0.57829916 0.4318287 0.5251232 0.63962626 0.5147305 0.56784016 0.40472636 0.58076745 0.47110465 0.5537994 0.5188946 0.49059957 0.49782073 0.3342883 0.6376286 0.42635787 0.52913004 0.5803855 0.4279242 0.44383544 0.55933684 0.6258444 0.47698432 0.60012364 0.4014747 0.560083 0.46945947 0.51032865
3 0.49046746 0.5191386 0.4265148 0.46078426 0.65605205 0.5732168 0.56051505 0.5715807 0.47586596 0.44597146 0.51849437 0.45640874 0.5705754 0.35875654 0.26177934 0.46636158 0.51085013 0.33255285 0.36364186 0.49404073 0.42804372 0.4238811 0.5430657 0.50374055 0.493126 0.4397967 0.4828436 0.52492446 0.5080936 0.39409772 0.5014153 0.4216858 0.47445047 0.47102317 0.42298192 0.48029855 0.45622867 0.40585175 0.5215679 0.5001698 0.5247742 0.6196035 0.5519687 0.5043128 0.57560915 0.5230397 0.39987522 0.6753996 0.5167982 0.3753397 0.44454277 0.45225298 0.5234596 0.5221504 0.37393168 0.36634213 0.74707234 0.71641755 0.506488 0.5355539 0.589608 0.536942 0.51653063 0.5244396 0.65718865 0.55188096 0.51035047 0.51308423 0.43476373 0.56532574 0.4898703 0.5425463 0.44470003 0.30884078 0.39396742 0.48945564 0.47490123 0.4943287 0.45544952 0.43055752 0.32236266 0.5309078 0.4834498 0.47368842 0.43954265 0.48170194 0.55234224 0.5327457 0.46136877 0.5483318 0.5336501 0.5372206 0.5494816 0.49904755 0.5726158 0.5192252 0.5823249 0.41486415 0.392921 0.57494336 0.4658409 0.5944949 0.5764081 0.5124129 0.65224916 0.5759835 0.4451154 0.53932095 0.45465404 0.602979 0.54487014 0.5364461 0.6292123 0.44658476 0.5667831 0.4566529 0.656143 0.4040852 0.4911858 0.44529048 0.34160233 0.62022823 0.5308179 0.49168637 0.43850476 0.6380939 0.46888775 0.5094113
2544 0.6032752 0.5491224 0.4657809 0.52857375 0.52664775 0.439241 0.62126887 0.36754742 0.53401047 0.456339 0.55281734 0.63168615 0.4293699 0.49662545 0.32838532 0.48363397 0.4169947 0.43722975 0.48898187 0.39103022 0.4107113 0.5023611 0.53076917 0.55548376 0.544553 0.53309196 0.4810581 0.39186996 0.5422892 0.4513634 0.5299914 0.46298108 0.49088937 0.5521953 0.47871062 0.55135703 0.6109167 0.64872086 0.46358004 0.57218206 0.43045563 0.31865084 0.6382397 0.41862473 0.5908267 0.5314662 0.5394325 0.42140478 0.47457874 0.47336558 0.5748188 0.612675 0.6571482 0.5657611 0.4962077 0.40306696 0.5103282 0.44671285 0.5035813 0.36671668 0.52522403 0.5036926 0.516836 0.5722593 0.57292944 0.3662639 0.5933814 0.59526944 0.33415318 0.44149444 0.7190606 0.45699298 0.5403048 0.36716372 0.54346395 0.5151715 0.6672541 0.59333867 0.5530561 0.3881613 0.42362317 0.37142676 0.48056814 0.35828185 0.4394241 0.61975527 0.6838046 0.48829037 0.53366 0.45161638 0.54402167 0.63187706 0.6227106 0.52535176 0.47994176 0.5136394 0.44983616 0.54126626 0.430422 0.42578351 0.45155826 0.369444 0.52564615 0.528047 0.6478144 0.5920941 0.48522243 0.4362918 0.4242096 0.4664014 0.47153124 0.40600052 0.53076094 0.50373095 0.5424381 0.4044376 0.5629634 0.45393744 0.3644328 0.3621191 0.5083971 0.5285988 0.71483564 0.48190737 0.41396695 0.45686242 0.35786197 0.4793786
4 0.15264729 0.23452719 0.35768864 0.66743875 0.42616832 0.39705604 0.6026504 0.25944766 0.5363464 0.80382425 0.5034875 0.47710472 0.316709 0.77692324 0.5540423 0.45537066 0.6307262 0.50436234 0.313418 0.3307774 0.4235945 0.7585205 0.60826296 0.5647416 0.68435663 0.6706196 0.34301728 0.6875728 0.34810132 0.3550171 0.6668273 0.44157797 0.3428399 0.79354244 0.7157789 0.6860956 0.3182932 0.89454114 0.2878515 0.35486874 0.86225265 0.5243481 0.4457579 0.77023166 0.74706614 0.51713705 0.2865077 0.244297 0.2769381 0.08673197 0.24608794 0.26756275 0.18886001 0.44538334 0.288173 0.6017668 0.41156006 0.4530484 0.6484849 0.62542474 0.23191914 0.30730432 0.61398506 0.4493117 0.25873584 0.7522961 0.7306375 0.49596295 0.43319514 0.8039399 0.42138883 0.6054892 0.5464545 0.61308956 0.80769515 0.63697106 0.6185564 0.3580691 0.5530727 0.49046382 0.61044747 0.39361823 0.52517855 0.1811482 0.44828892 0.63311374 0.091063134 0.3931432 0.2691673 0.60147154 0.31015506 0.58495194 0.21097447 0.22702135 0.7189895 0.47511977 0.78718066 0.54501617 0.67508113 0.24139784 0.71320987 0.6402454 0.36956826 0.5671028 0.67693055 0.49161053 0.5405122 0.7861081 0.5089985 0.59364563 0.3946331 0.37655565 0.82817346 0.54902834 0.36574 0.26106706 0.20704038 0.46587637 0.46831095 0.46465242 0.32221472 0.56492805 0.60164607 0.7816026 0.40675735 0.59733295 0.6247811 0.43703583
2176 0.24239737 0.10767356 0.33646792 0.62180525 0.5046291 0.37973163 0.59815025 0.19564153 0.45393077 0.8770331 0.51104623 0.35169613 0.37624323 0.76556987 0.5268281 0.46591088 0.60722303 0.56959194 0.1470549 0.3192315 0.34509796 0.8136585 0.4194435 0.77726287 0.6308773 0.66957 0.24744561 0.68135023 0.5028101 0.33260125 0.71331364 0.33219683 0.30587736 0.7112129 0.7160024 0.73878103 0.32774472 0.9107149 0.13459459 0.43698287 0.8979636 0.40280262 0.52629304 0.7089296 0.5998862 0.69812083 0.2297227 0.313977 0.2933365 0.054796644 0.33105278 0.33060077 0.2044697 0.5845828 0.32069546 0.39396805 0.5243912 0.33013663 0.59113073 0.833158 0.15304242 0.28848785 0.75992435 0.50081503 0.32205287 0.7451071 0.8098462 0.38669917 0.37629536 0.91919726 0.32719186 0.5673627 0.5879778 0.8145436 0.87502414 0.5993088 0.8025414 0.26295 0.6387839 0.54621375 0.55780053 0.4013458 0.48134968 0.16278276 0.4346076 0.5220984 0.10351854 0.5445467 0.22966067 0.5555174 0.25358054 0.59376365 0.14371833 0.120276384 0.60856164 0.5701287 0.74506164 0.76033485 0.76883876 0.13049093 0.6578524 0.5477654 0.4701394 0.5240443 0.67047083 0.5527957 0.6507561 0.9001661 0.49375528 0.52842265 0.457875 0.38265198 0.7843886 0.35587314 0.42810395 0.21578039 0.114790164 0.4073876 0.5679518 0.46730506 0.36527216 0.75559086 0.7138226 0.7578714 0.32176477 0.4601098 0.7272088 0.4940839
1016 0.38754472 0.2512322 0.38086385 0.55198133 0.53503716 0.3800253 0.5117562 0.3834896 0.4354265 0.7500679 0.50459725 0.4416404 0.41854426 0.70424235 0.391594 0.5197685 0.6153099 0.5456732 0.30887088 0.4232393 0.4258399 0.6931252 0.4947468 0.5525678 0.61214525 0.6083315 0.31730917 0.64920604 0.4414396 0.36372194 0.64195096 0.4403189 0.39025357 0.6560343 0.70476604 0.621951 0.381077 0.7304177 0.19428682 0.5159733 0.78811634 0.5043776 0.44128597 0.67208546 0.64655066 0.5470769 0.3423618 0.49977836 0.4105171 0.1899126 0.32142723 0.33046708 0.2898397 0.61813575 0.3375378 0.553357 0.44049284 0.47012827 0.52875775 0.7145087 0.30065793 0.31848022 0.67277944 0.47899702 0.3425082 0.6410614 0.6363955 0.4708217 0.44620007 0.752755 0.34475473 0.57303613 0.5175008 0.56808645 0.6836578 0.62458557 0.628991 0.3742019 0.523044 0.49254063 0.5063602 0.43112266 0.5180271 0.2596083 0.4793533 0.5281889 0.28783843 0.5182743 0.241373 0.5957325 0.32037544 0.49227244 0.26141787 0.31583777 0.62367356 0.5423539 0.63302016 0.5868808 0.655689 0.31849003 0.6065471 0.6644604 0.4514678 0.5901612 0.539334 0.48337173 0.5478221 0.69656396 0.5129966 0.5883364 0.52629644 0.44070804 0.7181968 0.5136367 0.33669874 0.35292715 0.24318172 0.4927447 0.5979466 0.52276874 0.38536665 0.62261134 0.55846846 0.65550053 0.43839136 0.5471351 0.62160397 0.43031374
1761 0.2753645 0.34457272 0.47662926 0.52703357 0.40819708 0.1703238 0.31839138 0.22727717 0.36336637 0.9101426 0.2814039 0.37039945 0.28786218 0.7678087 0.46337816 0.5794289 0.7362697 0.5739613 0.37673226 0.45284453 0.42978403 0.6374561 0.44369802 0.6091371 0.72354186 0.4558704 0.49944428 0.5772559 0.39285302 0.28111878 0.72082436 0.3055688 0.41875353 0.77595603 0.6513203 0.5815398 0.30286518 0.54103786 0.15524156 0.44426042 0.80096054 0.7139796 0.48156676 0.87943566 0.80054253 0.59378356 0.4176089 0.37857103 0.37080583 0.23305967 0.3031966 0.15916033 0.2997284 0.57156533 0.1980842 0.6171699 0.47943932 0.73987335 0.44934598 0.8090096 0.14104314 0.1693451 0.7779565 0.51262367 0.3321984 0.5686399 0.724631 0.65300864 0.45758143 0.73618644 0.43349048 0.4776474 0.5226184 0.54446936 0.8226068 0.72167194 0.6629955 0.32266575 0.6407847 0.72392344 0.55223835 0.27723303 0.49714205 0.20098309 0.43207705 0.56343246 0.35741082 0.7225127 0.27296507 0.5680032 0.32672143 0.8883431 0.24674252 0.3346543 0.33764938 0.3324301 0.88701075 0.6000207 0.54368633 0.37327516 0.40674588 0.49670967 0.44631428 0.39390275 0.5382681 0.4857699 0.5099294 0.8434048 0.5186417 0.5241277 0.45166558 0.40970355 0.8304109 0.6374277 0.3123764 0.2645333 0.2793151 0.34983933 0.33735782 0.33130336 0.27947038 0.39116794 0.6638231 0.7087977 0.48440164 0.76077604 0.70511025 0.4118534
1256 0.1385223 0.14059629 0.34323707 0.7091751 0.41284055 0.374595 0.6271287 0.22465356 0.5223564 0.8720069 0.54009813 0.43693298 0.30402386 0.83325315 0.5516487 0.42784086 0.6511379 0.55411696 0.17871796 0.27656764 0.37850606 0.8231973 0.55983305 0.6450625 0.70505834 0.7090021 0.29170787 0.7265715 0.3674823 0.3246984 0.7125871 0.39511248 0.29151124 0.7980641 0.74509764 0.7324059 0.3050793 0.92646 0.17536977 0.36416185 0.9034053 0.43636748 0.4746015 0.7710319 0.69262516 0.5867322 0.26697087 0.2655437 0.22776498 0.047736857 0.24933109 0.26195943 0.17032792 0.50795716 0.25292554 0.5621625 0.4463654 0.37085238 0.6623895 0.7428859 0.18881585 0.25697294 0.66822284 0.4503436 0.2548703 0.78157544 0.7953361 0.43538788 0.42020592 0.89509344 0.35269505 0.61214817 0.57996213 0.7277983 0.8760147 0.6893112 0.7122009 0.2853829 0.61945844 0.43689483 0.6071312 0.3991648 0.47701553 0.13865891 0.4321063 0.61490566 0.065125555 0.46806675 0.20954564 0.5551529 0.27261126 0.62161756 0.13820179 0.15843047 0.7121939 0.50011957 0.8254792 0.6223927 0.7491919 0.14295596 0.7193626 0.6265971 0.35953763 0.61870164 0.7125771 0.5086395 0.5828054 0.87902266 0.47654325 0.55326164 0.41748095 0.3191196 0.84971213 0.48801324 0.3775027 0.21275921 0.13787615 0.45996022 0.5137456 0.46461546 0.34592485 0.6320476 0.6499532 0.7977 0.3436102 0.5424614 0.7123158 0.45060188
2175 0.18087405 0.21338004 0.3256171 0.73684907 0.41388777 0.37665328 0.58921045 0.2976689 0.54556155 0.80055237 0.49454835 0.46328107 0.2714166 0.75942236 0.5357538 0.45838866 0.580871 0.54589695 0.25973043 0.31614232 0.38373008 0.74056315 0.6424199 0.51149 0.693408 0.7064141 0.36701927 0.66051835 0.3455888 0.3120491 0.7155518 0.36997294 0.2802998 0.81750345 0.7244644 0.71537745 0.37217596 0.8739928 0.20553854 0.402514 0.83534366 0.425367 0.49802527 0.7031193 0.7366309 0.5106889 0.34945893 0.3929197 0.27589095 0.10011193 0.3577248 0.28661788 0.22531696 0.48470527 0.24726507 0.6060227 0.40438345 0.49054822 0.6591873 0.677152 0.2778969 0.3005643 0.61533934 0.46906877 0.27206188 0.6836027 0.73049396 0.5762482 0.41391212 0.78324515 0.4304273 0.6132375 0.55708796 0.70082176 0.8140652 0.6809309 0.6116174 0.33739838 0.5995231 0.4041453 0.5741705 0.32221103 0.5052604 0.15361615 0.43454367 0.60164255 0.10057789 0.47733203 0.3478768 0.53984416 0.29825106 0.5843871 0.16683426 0.22819704 0.71458524 0.48010838 0.80325407 0.60881454 0.70055366 0.24372396 0.69293064 0.60315543 0.36343533 0.60060495 0.65577155 0.54030186 0.6176156 0.7535372 0.45467228 0.5294529 0.37496483 0.35285488 0.7984051 0.55207855 0.3631903 0.22648594 0.23192078 0.44097048 0.43809783 0.42983544 0.34873042 0.5514518 0.69528365 0.7740889 0.45236853 0.5528541 0.6080853 0.48862556
5 0.47743157 0.66199183 0.45965075 0.59855086 0.440354 0.30839834 0.41966483 0.59469134 0.5825864 0.6663083 0.7827152 0.48270312 0.6937687 0.4860208 0.3775596 0.54961616 0.4528416 0.33567077 0.44284245 0.2381272 0.554786 0.5928274 0.569784 0.45833597 0.49934176 0.43760195 0.45218682 0.64258087 0.6854654 0.38169524 0.36964887 0.43686917 0.625645 0.503396 0.35034937 0.44005162 0.534192 0.35974172 0.7984056 0.36186147 0.5173238 0.46347576 0.5843826 0.5303645 0.7381753 0.63101786 0.3931213 0.22864175 0.5495129 0.2746033 0.3173777 0.591042 0.60515225 0.58773196 0.4049593 0.7683789 0.34813255 0.7472374 0.46582347 0.4564785 0.53892434 0.5970936 0.6214859 0.36370462 0.2230559 0.5359089 0.78745353 0.37901103 0.49088958 0.40861762 0.5233415 0.35599852 0.47737205 0.5066784 0.7097749 0.7504568 0.36092517 0.626299 0.58760566 0.58474094 0.60899734 0.37201104 0.35199592 0.32139856 0.5319659 0.56373465 0.5692099 0.24364766 0.47074383 0.59587586 0.4746942 0.5063681 0.7372376 0.6875012 0.5523025 0.37601605 0.62312055 0.22961144 0.32217914 0.34274226 0.48120466 0.55982685 0.6439164 0.33119735 0.5804696 0.3881884 0.21551822 0.40360454 0.5273653 0.6058277 0.47959694 0.46797493 0.72644526 0.47057837 0.7256544 0.58076245 0.26482594 0.643588 0.3848894 0.39770946 0.41354325 0.55851674 0.5222114 0.62865514 0.40951285 0.51523817 0.46586198 0.6611148
1629 0.45859617 0.80617076 0.56992316 0.5930375 0.5321804 0.30020052 0.4135897 0.5509918 0.45404676 0.5451272 0.7524143 0.6092135 0.5994904 0.52556926 0.29093337 0.62774354 0.45889857 0.35513625 0.5860209 0.23033221 0.5437361 0.56377506 0.5679476 0.54245895 0.56709826 0.3556806 0.52071124 0.43421662 0.6064606 0.40339184 0.4267149 0.43684196 0.6477839 0.40410346 0.4484737 0.39839432 0.681334 0.31314242 0.7424136 0.3663051 0.42717448 0.56502104 0.621483 0.4605538 0.7504755 0.60314196 0.5902359 0.34298685 0.488892 0.24782068 0.37958965 0.44179112 0.74154663 0.68625736 0.40938804 0.6870964 0.42368868 0.64501685 0.51872844 0.26750293 0.5700698 0.66314715 0.56285405 0.41593638 0.315841 0.423672 0.72858113 0.35209402 0.48246127 0.2708229 0.6566865 0.29310387 0.4565581 0.41654772 0.64578074 0.6248045 0.3545131 0.6820489 0.63879 0.6092091 0.7218143 0.38339728 0.36678368 0.25163656 0.50226665 0.6950893 0.75902593 0.2987632 0.5860335 0.581988 0.5371972 0.5075435 0.8387696 0.719619 0.58377236 0.3288757 0.34694225 0.3181775 0.24134576 0.34110793 0.35812554 0.49848035 0.5823131 0.3323026 0.53412896 0.315621 0.292728 0.2823921 0.43633875 0.51246935 0.45595652 0.4978776 0.6529122 0.5448264 0.75097656 0.642414 0.35603598 0.6052124 0.3803079 0.38562503 0.589191 0.51300555 0.6686268 0.5606838 0.45922133 0.5331434 0.38667145 0.5602657
2546 0.6668641 0.8880029 0.55275065 0.61090386 0.5518655 0.6044486 0.63929075 0.4523523 0.73103094 0.30782235 0.5726427 0.657942 0.5785491 0.42135888 0.5155635 0.65477 0.55507016 0.4173365 0.7700521 0.29293638 0.6123563 0.349298 0.3645662 0.49272072 0.3585472 0.28896493 0.5198007 0.34132943 0.36505103 0.7398455 0.4292262 0.2690012 0.6088673 0.46237525 0.4147493 0.4806531 0.5345558 0.32937238 0.6745232 0.120223776 0.2732445 0.604368 0.71764463 0.5901538 0.58878475 0.70472 0.70621926 0.6027837 0.6460386 0.1971164 0.5338507 0.41889697 0.84235 0.58578193 0.5400947 0.31314853 0.4820566 0.8788245 0.5413727 0.26644883 0.6098257 0.72311807 0.56614244 0.40667984 0.4556521 0.48982686 0.68486536 0.25841784 0.67860085 0.16170873 0.82210714 0.42502367 0.39454126 0.34211567 0.24960716 0.36285764 0.45008993 0.7082136 0.5339707 0.5224959 0.5332044 0.41934478 0.52066076 0.33476236 0.40239334 0.59725434 0.8131374 0.45317748 0.57465625 0.5548491 0.67237604 0.3743537 0.61606 0.6500803 0.39994317 0.27645126 0.40412417 0.31649697 0.30719241 0.23318364 0.24945222 0.20877811 0.3999135 0.24125494 0.51523364 0.24372579 0.3959943 0.28528515 0.40661034 0.49381796 0.40370613 0.5044838 0.6664368 0.5467977 0.5728834 0.50606334 0.76046 0.479538 0.32177216 0.4404981 0.7579616 0.41671607 0.83336085 0.7176026 0.35100153 0.6661598 0.6504827 0.5225886
1659 0.47083148 0.73215705 0.4931702 0.6303439 0.5073964 0.40689316 0.49875593 0.54126835 0.53511393 0.56553954 0.7211726 0.5603954 0.6052169 0.49228546 0.3248932 0.58500916 0.5348471 0.38115934 0.5840822 0.29960388 0.55491906 0.56901664 0.56980604 0.47177273 0.44939885 0.39400584 0.5008844 0.4869379 0.56086063 0.4678497 0.40772963 0.397971 0.57233834 0.46495724 0.4366726 0.48937443 0.5568265 0.4229833 0.76323384 0.32396528 0.44968826 0.59283894 0.5768582 0.49262443 0.71510136 0.61100364 0.5139597 0.38623923 0.58860284 0.29725364 0.404169 0.46437308 0.6701477 0.6168404 0.40952417 0.5384938 0.4512174 0.722845 0.45885435 0.36285394 0.5732767 0.62617433 0.557366 0.3918751 0.29478267 0.47397625 0.65770024 0.3359171 0.47222406 0.35348108 0.6266456 0.37810606 0.46212766 0.42908776 0.5293891 0.6374363 0.38674903 0.58280456 0.563598 0.6247009 0.5491096 0.38016483 0.45409355 0.29786846 0.47182173 0.6434355 0.63618743 0.31918964 0.5361297 0.6097069 0.52883196 0.5111075 0.72595966 0.6713438 0.5660888 0.4224158 0.5240356 0.26308927 0.27708974 0.34675565 0.39324728 0.46790424 0.4987066 0.30668372 0.56356347 0.35751805 0.30505162 0.34893423 0.5283051 0.51724017 0.47082272 0.5144837 0.6818091 0.55475986 0.6318769 0.51230973 0.43688273 0.5718763 0.44000116 0.44949102 0.5002009 0.5398153 0.61199605 0.5758772 0.41201445 0.55359304 0.5125849 0.5918586
6 0.76668113 0.8362899 0.36745968 0.4071445 0.5642 0.4181883 0.4546611 0.3987165 0.33183295 0.51610476 0.41651475 0.55935615 0.37136245 0.6562123 0.607552 0.5405193 0.53720194 0.49725544 0.7552884 0.68136615 0.44626266 0.49671522 0.48621866 0.46078476 0.2054635 0.6976561 0.4511345 0.48057732 0.760877 0.56814986 0.47380626 0.66833234 0.5802191 0.7632822 0.43023512 0.5004007 0.39585695 0.6239301 0.6269613 0.47689718 0.5032796 0.61678404 0.33941498 0.4367242 0.55872023 0.5327436 0.45356953 0.18322492 0.44161767 0.79675215 0.4082197 0.5179277 0.18673605 0.30725652 0.5772364 0.67770267 0.11540243 0.34413508 0.32394934 0.66434103 0.5555556 0.4645474 0.6820724 0.6108026 0.2685965 0.39017275 0.6595321 0.7120403 0.2933995 0.21819931 0.6179128 0.6759169 0.4795619 0.8216731 0.28291205 0.403655 0.5027203 0.2767173 0.2540754 0.4543449 0.3246311 0.28985572 0.7483525 0.4565228 0.61706567 0.4438392 0.3174547 0.31149834 0.5492402 0.6305226 0.32404774 0.32397482 0.51055926 0.5518342 0.49606347 0.78422 0.5745039 0.21142742 0.348877 0.54701877 0.8803772 0.63131505 0.59980875 0.5537724 0.48982146 0.37650123 0.5610318 0.24353354 0.68442184 0.33663416 0.5148888 0.68014437 0.27840728 0.49116102 0.3656518 0.4510703 0.4217352 0.7018386 0.7261799 0.6273166 0.5475713 0.5217531 0.2685771 0.62333 0.6078874 0.46853796 0.32936832 0.34857115
1416 0.9486062 0.78956836 0.43401882 0.47567496 0.3219516 0.494048 0.54151297 0.83717006 0.11963671 0.89316696 0.8051904 0.5780994 0.44686145 0.5457376 0.8129681 0.19395308 0.87707204 0.47037396 0.19738454 0.57572055 0.7290727 0.81126016 0.66088593 0.48198813 0.44479665 0.46148396 0.61159915 0.52375305 0.7891391 0.6025352 0.21765783 0.85325634 0.51769817 0.9477746 0.089016005 0.28259894 0.6401511 0.7290772 0.4006308 0.7984424 0.23363692 0.62891126 0.1656186 0.31191772 0.09901667 0.37427396 0.11553879 0.03248151 0.4293517 0.8618742 0.32931772 0.22456895 0.11140431 0.33765888 0.54299366 0.8984279 0.08193326 0.104153715 0.26458025 0.15313746 0.86937624 0.0694685 0.3252429 0.8062064 0.17473872 0.95087683 0.84220403 0.91175 0.80895984 0.7252396 0.25900695 0.86237866 0.3019814 0.6382172 0.5166491 0.75727177 0.25708148 0.45795923 0.599787 0.45389983 0.67224663 0.2808212 0.6653782 0.6112074 0.7905201 0.3080879 0.1503354 0.17379445 0.11857393 0.7620868 0.16329983 0.3851376 0.7918278 0.54150665 0.3695319 0.86447334 0.3990525 0.30274355 0.10660175 0.66549945 0.9258148 0.79890585 0.29296353 0.61582905 0.5627482 0.3430964 0.43281114 0.7847282 0.6070919 0.047114737 0.6935801 0.6719739 0.30511698 0.44753975 0.47780412 0.7701957 0.75394773 0.8028692 0.7759374 0.66558295 0.07793784 0.92890286 0.11921624 0.23722623 0.78769284 0.10339158 0.20085181 0.1518308
1602 0.6919326 0.76487684 0.57140607 0.18001951 0.7454633 0.6196878 0.29280606 0.53083533 0.14956863 0.07175272 0.7760833 0.35641193 0.29392976 0.6705742 0.46434033 0.43218896 0.6068583 0.3826911 0.56130743 0.5999241 0.41130474 0.7220302 0.3187672 0.6241054 0.057204995 0.5353017 0.4538715 0.3030086 0.56351894 0.6117784 0.4399321 0.72439885 0.6982056 0.32455274 0.29592124 0.41548157 0.4843881 0.50851583 0.7077869 0.38336328 0.72263765 0.5465373 0.5507956 0.5725785 0.24377285 0.75347936 0.21205232 0.55282545 0.503398 0.75527495 0.46548843 0.433365 0.38522136 0.66336024 0.64975727 0.6179746 0.36773646 0.43599996 0.41276133 0.40150365 0.6969794 0.57428294 0.7174168 0.83158594 0.3989107 0.38913015 0.58420634 0.23689769 0.65474904 0.26692694 0.5987165 0.84596455 0.54529166 0.53551066 0.055499252 0.5415032 0.382711 0.5336156 0.28120026 0.15658893 0.6810422 0.67569476 0.6808424 0.3371436 0.52851176 0.6494662 0.7037453 0.30777037 0.42218044 0.64041924 0.68852323 0.0762937 0.47948667 0.6114429 0.6307487 0.8389138 0.35042563 0.061955616 0.44039524 0.1848187 0.8998039 0.6654143 0.39607045 0.59987736 0.58725125 0.35101336 0.35987887 0.25798118 0.47232404 0.24317354 0.7279567 0.56752306 0.17349881 0.27335778 0.5316125 0.76527333 0.6034544 0.90701765 0.6904032 0.8322201 0.7436154 0.5422484 0.2535594 0.60550517 0.3547268 0.53666055 0.49245635 0.16054326
1042 0.8732497 0.27236447 0.73640186 0.22360301 0.40988556 0.20975253 0.5925273 0.6621342 0.13491997 0.40428466 0.9552155 0.33901423 0.4313779 0.8359148 0.7062584 0.31099132 0.9124514 0.7749794 0.6405667 0.85657644 0.7770716 0.7194376 0.3048805 0.6527026 0.082637966 0.5158655 0.56460273 0.35165665 0.7361739 0.4833334 0.34409484 0.8536181 0.62356645 0.9323531 0.3104424 0.49594218 0.3626211 0.8449993 0.7009649 0.8259546 0.42877364 0.3794713 0.110600844 0.17011133 0.10121636 0.78019553 0.41316402 0.05377012 0.5400274 0.9462317 0.5451722 0.27684194 0.24575382 0.38941666 0.95087975 0.9211352 0.02802042 0.10464941 0.14682305 0.20702785 0.858901 0.24090652 0.83868307 0.536213 0.2791657 0.528369 0.84349406 0.49684006 0.7590455 0.17013197 0.7435852 0.9227387 0.58343554 0.90209454 0.086675115 0.7848799 0.29955107 0.59717494 0.2902981 0.84299034 0.48097143 0.50386626 0.86571366 0.87436765 0.7486772 0.3061272 0.5963339 0.4538902 0.24232508 0.59279585 0.16389786 0.034544844 0.7351308 0.5752688 0.530804 0.8047676 0.29753673 0.18068369 0.5672716 0.6401898 0.90612 0.40006402 0.07902742 0.56888574 0.15239438 0.20820096 0.3044625 0.12826954 0.60886604 0.13481936 0.83070713 0.46683028 0.073256366 0.33970106 0.08518758 0.4770546 0.15602897 0.9453689 0.691418 0.9423867 0.5149032 0.5695191 0.1878267 0.4260536 0.8212266 0.13139556 0.5406809 0.2680532
373 0.64869916 0.6182991 0.532882 0.32004488 0.50607157 0.38772762 0.34230277 0.5166706 0.39644393 0.50373584 0.69570094 0.44096586 0.4958836 0.6685924 0.5912151 0.5383702 0.64641154 0.4899003 0.5903752 0.5849646 0.6462024 0.52773166 0.4264454 0.36597884 0.16447562 0.44999236 0.47994322 0.39060232 0.61852473 0.42208928 0.52028686 0.55972016 0.5955929 0.64901423 0.43562213 0.49113744 0.50686544 0.5638704 0.48353004 0.48072693 0.5208961 0.62913775 0.31244326 0.51640856 0.4806941 0.59992635 0.30529267 0.41383207 0.5341716 0.7632039 0.3829159 0.37121308 0.357087 0.59718144 0.6172628 0.5818504 0.25824466 0.42231357 0.36751616 0.3547042 0.748884 0.44314125 0.6656375 0.6986606 0.32962462 0.49602324 0.7526381 0.5125055 0.56695575 0.32930666 0.6340791 0.5466073 0.40701145 0.6563302 0.30667442 0.6427706 0.345178 0.57663393 0.39964277 0.6803728 0.58365846 0.40528852 0.576187 0.59578836 0.5832313 0.56728274 0.6249511 0.3932535 0.38898313 0.6192326 0.36350322 0.32579973 0.62794185 0.5046542 0.49752176 0.5547383 0.34561223 0.26141816 0.43393987 0.47947824 0.7112675 0.5527871 0.35798538 0.5368451 0.42084953 0.4516832 0.43870604 0.48162052 0.4932754 0.33578438 0.5785036 0.4910573 0.38690072 0.4229844 0.3832438 0.63610834 0.5606297 0.801555 0.5159353 0.7045325 0.5512327 0.5092253 0.42934874 0.47538233 0.56179583 0.3991462 0.45284855 0.3217737
7 0.53675056 0.6011526 0.432449 0.5624451 0.48642093 0.6484876 0.58432204 0.6235534 0.6296554 0.43007752 0.47669968 0.57651633 0.59266204 0.4002721 0.37202543 0.52618456 0.4761797 0.42987543 0.49554408 0.50977176 0.47656903 0.4460726 0.5268377 0.402754 0.41626164 0.444651 0.4237459 0.54973364 0.4132709 0.49575716 0.5410849 0.4120161 0.47374937 0.38316888 0.5487795 0.45311564 0.5608809 0.49168453 0.4329869 0.36520606 0.41882998 0.47337317 0.53009 0.5667505 0.51837707 0.47442058 0.42865887 0.6429492 0.5629589 0.61642385 0.46992218 0.49782956 0.55216616 0.51474816 0.4425952 0.3065839 0.5793226 0.59705836 0.4970763 0.32838157 0.6367233 0.58092445 0.3986196 0.60456055 0.61173236 0.70264316 0.5710144 0.4822055 0.6347542 0.5383918 0.5995427 0.5029859 0.39587533 0.343439 0.50435424 0.3581071 0.41485053 0.50402856 0.40506595 0.45856634 0.46940094 0.51515865 0.5065689 0.55764335 0.47904316 0.479811 0.5027293 0.47932732 0.41208798 0.56020796 0.49248388 0.3416598 0.58088887 0.40957248 0.50585675 0.51662034 0.4498991 0.4245172 0.42813918 0.48924485 0.45185098 0.46996856 0.36132792 0.5647707 0.47991663 0.4883818 0.46937677 0.510363 0.46282527 0.57552266 0.49941656 0.46018347 0.572001 0.4882638 0.4720569 0.5040865 0.74612564 0.5214064 0.47544456 0.4990738 0.5996846 0.65835917 0.641172 0.47401792 0.45341414 0.6723765 0.49670935 0.45859936
208 0.24732354 0.48950025 0.45312425 0.5290841 0.6647912 0.49593562 0.5299184 0.4275076 0.5147337 0.5238383 0.39509872 0.52443075 0.40608522 0.4381644 0.38306144 0.49105546 0.38112855 0.5378768 0.34243828 0.4597615 0.41370693 0.42340824 0.43772134 0.38585836 0.5167088 0.49679393 0.44552034 0.5534284 0.5435605 0.40515196 0.525378 0.47338748 0.47213608 0.43061653 0.6507041 0.45670015 0.5965378 0.45420718 0.52496463 0.50571245 0.6119419 0.5490123 0.41016257 0.50151736 0.5393885 0.49377865 0.4766105 0.70091736 0.4460624 0.43672916 0.35685375 0.5393809 0.4991898 0.5125616 0.3757376 0.5725783 0.6602316 0.5608162 0.62546295 0.53547263 0.5562201 0.5803179 0.5146838 0.45119056 0.45330545 0.44779474 0.33791742 0.48469087 0.37484977 0.5521703 0.47166058 0.33199427 0.45030537 0.55272853 0.42839253 0.34546942 0.2967818 0.3739728 0.43576524 0.60165596 0.42422473 0.62190795 0.4748251 0.64354825 0.44757178 0.56177765 0.43058398 0.45021135 0.6075582 0.5739278 0.4646638 0.58185226 0.5554248 0.47270718 0.5476971 0.52061397 0.4313395 0.5920447 0.514437 0.6655393 0.5478189 0.596844 0.5952464 0.59095395 0.6091823 0.56218153 0.53258777 0.5393689 0.4260651 0.49181712 0.5447611 0.5337167 0.4953526 0.4671804 0.55966544 0.44929832 0.45017317 0.5447078 0.5785648 0.5070033 0.5208387 0.6441936 0.56558853 0.44976988 0.48715645 0.44050074 0.537589 0.3987439
8 0.44123927 0.4876118 0.39974838 0.7026186 0.66609037 0.45798826 0.64795077 0.34874538 0.7242738 0.5910972 0.6858676 0.510406 0.22684045 0.40102285 0.3206507 0.61490774 0.37653014 0.54958713 0.52567273 0.45000952 0.32006535 0.4615115 0.33145952 0.58211654 0.56973404 0.39424685 0.40335628 0.47799677 0.43308014 0.48961264 0.79500395 0.51206774 0.5314927 0.78685194 0.5566547 0.5918105 0.64939684 0.76378596 0.34052896 0.79623926 0.5452725 0.21308856 0.571445 0.5667891 0.7528999 0.5309994 0.52116793 0.35600728 0.58142394 0.25374082 0.6686838 0.42829517 0.51780516 0.42660955 0.5016373 0.6940775 0.34457013 0.54678476 0.5819208 0.32475096 0.6880653 0.42248505 0.64158964 0.54964155 0.33530155 0.40774906 0.60119796 0.73464346 0.4713917 0.524203 0.6608019 0.5323445 0.4800416 0.32653067 0.5449276 0.43679246 0.3718911 0.41131377 0.3289575 0.32988715 0.6082399 0.37877148 0.6378045 0.6583895 0.54747903 0.3333207 0.48469865 0.17577381 0.6415563 0.7864058 0.35638934 0.15266712 0.569649 0.40091386 0.68396795 0.4260409 0.41743985 0.3504804 0.47848594 0.6614758 0.4811499 0.61537606 0.3522032 0.5576587 0.53028977 0.30753034 0.6896079 0.41514874 0.42272052 0.505312 0.41468334 0.4112009 0.7623664 0.46990895 0.30474555 0.2564327 0.30832845 0.41405252 0.34781283 0.44515094 0.36762515 0.63491666 0.82798135 0.5759988 0.60314983 0.592285 0.20569234 0.5029496
281 0.6911639 0.3543546 0.4616083 0.5663352 0.7394336 0.53806645 0.4938981 0.20703141 0.55449855 0.8326174 0.5645285 0.31611907 0.4096632 0.3470303 0.66442674 0.5355152 0.1227436 0.7955567 0.3120259 0.43958968 0.17473853 0.5064022 0.13057171 0.8112906 0.63521594 0.6048963 0.5326 0.40333968 0.7782865 0.7674407 0.5743286 0.42784503 0.6203232 0.54354143 0.22098914 0.3120462 0.7619156 0.6654224 0.11309282 0.5716468 0.49243936 0.1040027 0.66549534 0.3965089 0.21901612 0.7323564 0.20631701 0.5242626 0.63720256 0.12614197 0.89466625 0.713363 0.7616061 0.53993714 0.5664755 0.29775584 0.7412653 0.43067926 0.6510089 0.65530807 0.393917 0.5019172 0.86910516 0.6819553 0.7001143 0.19633934 0.27626887 0.49720925 0.40725335 0.7378359 0.5587928 0.27088204 0.5771594 0.82762235 0.76117486 0.18924958 0.7010294 0.22205652 0.5417442 0.5104208 0.8564726 0.47731045 0.27291912 0.70796233 0.5333453 0.24176207 0.48361072 0.4899591 0.69272 0.41292584 0.41632056 0.36753714 0.48241758 0.19846733 0.16083154 0.42157677 0.48420313 0.71601546 0.6986961 0.29546827 0.2782896 0.33869722 0.57910293 0.38138396 0.55541766 0.5063542 0.7721743 0.89946777 0.30622154 0.36884442 0.45723745 0.4281773 0.5279983 0.20634416 0.73753434 0.43564782 0.25627798 0.2441037 0.36284795 0.34016994 0.85613257 0.48300695 0.8631413 0.4814273 0.46057418 0.6776377 0.28758582 0.56696177
1996 0.66472757 0.5079228 0.52519363 0.72732383 0.79984766 0.5835947 0.4362811 0.42466423 0.6585936 0.65851647 0.45861727 0.58653903 0.45200223 0.510325 0.616938 0.6292588 0.37297222 0.6728909 0.6283243 0.35190403 0.17873015 0.6600217 0.23793595 0.57608306 0.7670461 0.5943023 0.27020952 0.56667525 0.5744131 0.7158188 0.7849884 0.69190353 0.6161341 0.3742391 0.47519523 0.31788662 0.7574707 0.8355882 0.30076778 0.436876 0.52602184 0.17445208 0.59669906 0.5344395 0.43659663 0.383404 0.399059 0.37758335 0.49512103 0.09456057 0.5761053 0.4909573 0.33313712 0.37485725 0.4921703 0.52235985 0.31268486 0.4647035 0.5631423 0.58089733 0.61150664 0.34680787 0.5700825 0.4283921 0.43825874 0.40202087 0.41161895 0.6491259 0.3195196 0.79153365 0.2959457 0.31644773 0.42816815 0.61671376 0.6260989 0.24683277 0.71942747 0.5354337 0.49123114 0.25218257 0.7126284 0.55971855 0.34932935 0.78547436 0.6151176 0.29218933 0.22367159 0.12223677 0.61139053 0.5713524 0.34351334 0.27401802 0.412555 0.30197546 0.45337534 0.3827308 0.30105942 0.24200568 0.51023114 0.40835536 0.5312804 0.8153903 0.40216285 0.5822578 0.7152128 0.2756071 0.75323373 0.7784776 0.48652604 0.46991298 0.46903282 0.3790246 0.7931187 0.48074874 0.43558857 0.67845297 0.22170733 0.46807125 0.49847224 0.47931024 0.7904917 0.65420413 0.5048905 0.5285614 0.46921295 0.7929384 0.2872351 0.53675115
269 0.35635707 0.5418322 0.6146144 0.6773517 0.6213364 0.5393393 0.6455891 0.79246604 0.5715138 0.56258214 0.5271386 0.6478906 0.45608157 0.47123188 0.68674463 0.6063404 0.35735893 0.5643633 0.4849149 0.30685616 0.2355514 0.47831276 0.23664176 0.72163033 0.638581 0.35179576 0.36228624 0.5116729 0.6973366 0.7653486 0.60752386 0.68450266 0.57758445 0.21855085 0.49369192 0.5953353 0.5898995 0.6014348 0.33214682 0.49646187 0.43918902 0.25425994 0.48708335 0.5686116 0.4020545 0.44835603 0.4697615 0.47856528 0.38039213 0.26301038 0.51006645 0.49505746 0.5236451 0.44914648 0.581922 0.6004761 0.49062544 0.40877658 0.6051399 0.35269228 0.4300088 0.68318176 0.48221505 0.4846113 0.61143094 0.5411528 0.18075572 0.5338131 0.29774275 0.73070544 0.5281258 0.4033812 0.46140394 0.6350955 0.60545194 0.18439092 0.5788832 0.4813243 0.4509982 0.36377835 0.76229054 0.703687 0.35775423 0.58059704 0.6053548 0.49332726 0.4854873 0.23427829 0.60433793 0.42491046 0.5587488 0.44361204 0.69995004 0.3693612 0.43929827 0.5248335 0.32327002 0.30982652 0.56353873 0.4938061 0.23923033 0.5700199 0.5666382 0.48711425 0.47065467 0.28800672 0.7259416 0.723316 0.3833803 0.57211983 0.69162345 0.34546992 0.5772096 0.5216638 0.52920526 0.6672942 0.21388449 0.42354083 0.47024286 0.49675098 0.7884285 0.7297865 0.3819159 0.37567973 0.48066747 0.5266347 0.32453948 0.6515409
9 0.27491552 0.55732113 0.52101046 0.6108373 0.5889796 0.5202924 0.4287735 0.5682645 0.28133205 0.3612536 0.31089237 0.6498118 0.6117987 0.5483129 0.26365447 0.46324572 0.59744567 0.53026307 0.50701094 0.59411246 0.4833436 0.59817326 0.60419816 0.5270611 0.54322475 0.67363256 0.38888413 0.55309576 0.54982424 0.34493166 0.5046719 0.48954773 0.39621857 0.52413064 0.6765345 0.41884273 0.6378149 0.65584826 0.63514906 0.20610884 0.4158871 0.5399516 0.5528094 0.4195473 0.44568348 0.6139839 0.57686013 0.6157913 0.42434835 0.5782684 0.4573945 0.5512741 0.3846707 0.60311025 0.39092997 0.39886802 0.45614317 0.37815806 0.4643576 0.4307688 0.5305837 0.52183676 0.36905 0.41944608 0.32649168 0.58283615 0.6960702 0.40644947 0.67360353 0.5866272 0.57692516 0.27950573 0.4733939 0.38238153 0.46919888 0.41215727 0.4350939 0.2360837 0.5253091 0.4671871 0.37896535 0.5201491 0.589236 0.2183132 0.48312035 0.45005724 0.50219274 0.466663 0.52432895 0.59190476 0.42324063 0.4838055 0.494811 0.5133699 0.6961886 0.59454644 0.5172804 0.55262566 0.30886036 0.27603373 0.7918252 0.6237924 0.3435083 0.57154983 0.49200866 0.551684 0.37044337 0.3038046 0.6573253 0.43689346 0.3711487 0.38893545 0.50691915 0.69457877 0.40227437 0.4149492 0.4155309 0.5850838 0.67170244 0.5645612 0.67495906 0.6312768 0.63579565 0.33993486 0.4655892 0.68703634 0.5013967 0.53419703
2614 0.23159684 0.74787265 0.6174611 0.6317394 0.5173162 0.5610255 0.34038553 0.69643486 0.15009017 0.31105176 0.26957077 0.67957103 0.741287 0.44363344 0.31064877 0.351622 0.66171527 0.59094036 0.34613493 0.64474916 0.40104836 0.6522612 0.6078312 0.5333543 0.5714337 0.7026014 0.42911738 0.601079 0.61754364 0.34022295 0.4644432 0.50560945 0.39143348 0.35798544 0.7367955 0.1845643 0.67192984 0.4834273 0.56259304 0.083403766 0.35733885 0.4726458 0.5979779 0.2667561 0.40154976 0.6812969 0.81340915 0.5898537 0.3367958 0.70427865 0.3632138 0.6106134 0.424191 0.530152 0.39299175 0.58103186 0.42600536 0.48623446 0.4260746 0.56393623 0.46565992 0.41192356 0.38228446 0.3781018 0.3306556 0.7434625 0.71314186 0.4058004 0.63802665 0.51781714 0.7321388 0.3872314 0.458646 0.47496298 0.6076246 0.34504855 0.5528117 0.25413257 0.6151208 0.40962288 0.22065185 0.49760965 0.69263625 0.31263778 0.43641025 0.36224434 0.48448634 0.5798009 0.6122702 0.45294967 0.48956075 0.38181683 0.56064445 0.55364347 0.58620083 0.49513555 0.64256334 0.66605604 0.35956696 0.18465436 0.84156835 0.5628285 0.3316433 0.67804897 0.60080814 0.5490235 0.42788154 0.2638547 0.74115866 0.3110079 0.32053193 0.34280398 0.40626863 0.71270823 0.39078277 0.42661154 0.41714478 0.5766567 0.6517486 0.51031405 0.7080291 0.5785979 0.66542655 0.29375166 0.48822433 0.749139 0.5694688 0.65832275
723 0.27591595 0.55764216 0.5191645 0.6059362 0.5829223 0.52655053 0.42353633 0.5700444 0.27897775 0.36673063 0.31250972 0.6451515 0.6207139 0.54916126 0.26665488 0.4630408 0.59466034 0.5271111 0.50446767 0.60048264 0.48440892 0.6002206 0.6070289 0.5215103 0.53801805 0.67371076 0.38843527 0.557648 0.5462253 0.34537518 0.50377256 0.48386484 0.39488643 0.52040386 0.67836547 0.40943784 0.6346089 0.65310687 0.6311926 0.20540394 0.41927725 0.5449154 0.5533816 0.41879317 0.4508015 0.61152816 0.5715964 0.6134699 0.42864174 0.5837628 0.45296788 0.5475392 0.38422564 0.6006736 0.38982555 0.3895533 0.46038467 0.38013458 0.4621131 0.43638954 0.52894914 0.51830375 0.37048322 0.42764503 0.32519183 0.591236 0.6952511 0.4055378 0.6773553 0.58778745 0.5778772 0.2816841 0.470668 0.38332337 0.47415584 0.4085064 0.4376306 0.23372231 0.5226047 0.47044492 0.38013905 0.5170542 0.59026694 0.21852413 0.48120666 0.44263366 0.49329355 0.4717876 0.5220448 0.5911112 0.4216038 0.48366705 0.49235028 0.5099222 0.69046986 0.59478617 0.53083396 0.5568532 0.3079977 0.27875963 0.79204583 0.6235348 0.33928016 0.5727123 0.49388838 0.55675334 0.3719758 0.3105798 0.6587801 0.43810117 0.3676749 0.3921179 0.50776505 0.6900562 0.40629146 0.41651124 0.43066025 0.58377135 0.6740848 0.5643229 0.67229944 0.6275464 0.63275 0.3426804 0.46502912 0.6976938 0.5028347 0.53062737
10 0.5004818 0.35517678 0.42207533 0.6517021 0.3062919 0.3638717 0.68632674 0.6246535 0.6128339 0.5486841 0.6651894 0.3974471 0.33944672 0.5061106 0.3115491 0.35806492 0.5570852 0.48706722 0.34863532 0.43394855 0.48979065 0.51640105 0.7288776 0.39622006 0.59721607 0.5436669 0.5734724 0.5824441 0.5492677 0.31418353 0.465534 0.47511965 0.37996185 0.7222222 0.5186597 0.4433577 0.51526576 0.6614039 0.6014365 0.7068844 0.4462094 0.30714998 0.45939955 0.38587505 0.5961077 0.43256235 0.5506353 0.3470976 0.4793992 0.63663363 0.48943907 0.54695684 0.52349454 0.40243974 0.5697386 0.64490116 0.47787854 0.5575608 0.4169372 0.4250319 0.59739494 0.36027756 0.54398847 0.4905854 0.64942294 0.5953932 0.57823384 0.6184993 0.52933794 0.51240796 0.63529855 0.6431029 0.5661882 0.6857553 0.6833652 0.7104561 0.5538618 0.49263966 0.51578057 0.50693387 0.29926932 0.40644535 0.5365325 0.44677824 0.49984217 0.5982944 0.42789122 0.57042634 0.5803371 0.4608869 0.35318503 0.4030801 0.5436407 0.4053698 0.5250966 0.53839093 0.54101515 0.41416627 0.45998728 0.7207572 0.5075443 0.3626816 0.38085666 0.715253 0.4248811 0.59880555 0.5200807 0.41887355 0.46568644 0.5692972 0.51486933 0.5152012 0.5739028 0.36731017 0.5037854 0.280827 0.5777361 0.53231895 0.29035592 0.37521443 0.3226157 0.32926062 0.6687437 0.4983036 0.49238142 0.37843102 0.45611992 0.69976413
476 0.7817447 0.13735317 0.56081235 0.4167449 0.45718303 0.43407983 0.45181856 0.34851253 0.59351104 0.51102537 0.77699697 0.34525967 0.69867766 0.6805762 0.50503993 0.5039416 0.42176163 0.576293 0.62290627 0.5100125 0.7194078 0.58992743 0.71301544 0.37850717 0.70245785 0.74762166 0.4306373 0.6551989 0.3231368 0.509872 0.48054188 0.48649138 0.47213337 0.8474135 0.3821582 0.33319613 0.5765045 0.74955434 0.8275813 0.64938456 0.52631515 0.4448722 0.51646394 0.2728706 0.50309825 0.19362961 0.33249062 0.5458805 0.51371145 0.29341644 0.503882 0.3280315 0.57133794 0.41820472 0.7195604 0.22752786 0.67214346 0.44705215 0.6026297 0.37377632 0.7920439 0.32677597 0.37236577 0.4465666 0.7402881 0.2549286 0.46661696 0.47680855 0.66307217 0.72125214 0.15592068 0.42702326 0.51601094 0.6347018 0.34932935 0.5332249 0.6826615 0.66295594 0.57706034 0.53147197 0.6872471 0.59359777 0.29275596 0.58296186 0.5748001 0.3892147 0.40503395 0.20669758 0.58634675 0.3033952 0.28182182 0.38258746 0.20509218 0.3627777 0.41610447 0.23195754 0.24601431 0.48997825 0.4562152 0.88281363 0.34046322 0.6615634 0.26986915 0.7534589 0.5457724 0.7564902 0.55535805 0.647068 0.38023284 0.6472587 0.33371252 0.41223955 0.6898316 0.25862625 0.80242544 0.8040169 0.7125508 0.59452385 0.50001675 0.44150957 0.63983595 0.13844 0.3214488 0.39248395 0.4188497 0.4755243 0.36762246 0.64896333
2545 0.63355637 0.30747277 0.43334377 0.49793935 0.5140095 0.49813706 0.5996451 0.4122663 0.5928341 0.5479484 0.6756687 0.43354762 0.5761029 0.58641744 0.42637026 0.4763918 0.45670894 0.5274199 0.58308536 0.4507734 0.5858583 0.50479597 0.5894871 0.44571406 0.50978297 0.5870741 0.45561913 0.56997925 0.44655418 0.46138924 0.43322158 0.46007028 0.48575437 0.6070484 0.45487425 0.4696948 0.53056115 0.6277371 0.65800416 0.5995208 0.5481619 0.4897598 0.47741285 0.46299887 0.52639824 0.39187118 0.33700433 0.46420652 0.550286 0.35689384 0.46648243 0.40907907 0.5149631 0.474141 0.57427883 0.4044049 0.59341383 0.5043555 0.53855616 0.40004396 0.59775805 0.4711709 0.46646872 0.45056412 0.60641015 0.44464454 0.48400968 0.4599293 0.4970953 0.53558034 0.35163927 0.46204776 0.51834613 0.49425438 0.5027705 0.4935689 0.56021297 0.6051192 0.5163204 0.6072483 0.5796787 0.5417798 0.38927737 0.5778996 0.51684487 0.6047172 0.407782 0.3379141 0.50611496 0.46803853 0.3602027 0.41318047 0.43698725 0.42213577 0.51054054 0.4182875 0.38105726 0.45024624 0.47819683 0.67075676 0.4032212 0.55174977 0.43111446 0.53525144 0.5506182 0.5557624 0.40675327 0.5546457 0.45423675 0.61285406 0.48297915 0.5131889 0.5966793 0.3950568 0.6280079 0.5775921 0.58659905 0.55106235 0.51763743 0.47218594 0.58376 0.42133734 0.49241185 0.51980484 0.45296133 0.4864985 0.48127103 0.49740222
11 0.22100991 0.5534861 0.38721704 0.34921685 0.6031031 0.69647664 0.41163042 0.3884206 0.49620068 0.47167936 0.26966622 0.45390847 0.31818938 0.38214526 0.56223994 0.45640555 0.5540902 0.4357876 0.41469935 0.5435769 0.5882587 0.423406 0.50535166 0.5964631 0.3741324 0.5184334 0.43824172 0.31061876 0.4545928 0.4654842 0.54508287 0.6264206 0.5103578 0.48796523 0.48572227 0.6533587 0.37648484 0.5751553 0.52842486 0.5014867 0.5161141 0.59844637 0.38252786 0.5386389 0.41155767 0.47513142 0.31485227 0.430431 0.3417759 0.6098182 0.3864839 0.65383655 0.23638335 0.4765321 0.42013147 0.56799203 0.4728864 0.28662112 0.49771056 0.35276487 0.48711765 0.5544106 0.3982052 0.6420122 0.45679888 0.6556567 0.6437482 0.62278247 0.56071174 0.38787585 0.6928687 0.46705705 0.5272776 0.24290586 0.49294183 0.4222666 0.48756236 0.4879508 0.50302887 0.49578735 0.53064865 0.5485051 0.63054925 0.61577207 0.5328193 0.66579956 0.4516955 0.60000813 0.5544601 0.65299314 0.5819944 0.48693722 0.6006613 0.42657402 0.71292514 0.6524181 0.30015582 0.55866885 0.3796046 0.23810774 0.7645217 0.5266141 0.66813666 0.5602599 0.5053756 0.6577441 0.51501805 0.5584951 0.63472193 0.42467278 0.4948389 0.5805956 0.5051254 0.5705565 0.38711995 0.3677169 0.5121057 0.43898678 0.5491915 0.5715245 0.27211025 0.5775927 0.6896702 0.47525552 0.46377313 0.30844587 0.41957763 0.4874458
1655 0.4001448 0.89326435 0.2981394 0.1747153 0.601575 0.9321909 0.0867751 0.56603175 0.634241 0.45583665 0.087758444 0.36550674 0.22949375 0.14184606 0.9113829 0.38415256 0.50500077 0.27370152 0.52311504 0.59331757 0.5998629 0.53300774 0.5437205 0.5686455 0.4823338 0.3480666 0.5840583 0.10165986 0.4349754 0.49122804 0.42608833 0.574099 0.57357967 0.1550723 0.23208037 0.28377387 0.51732886 0.27244034 0.28608292 0.5189153 0.38682956 0.6945721 0.5021765 0.50955147 0.19187315 0.51024663 0.07000985 0.56139773 0.7588402 0.8707436 0.64356697 0.82299036 0.2545185 0.50891936 0.34121716 0.6541942 0.65033776 0.2388107 0.24164478 0.29523572 0.45165703 0.48645058 0.2742564 0.8985871 0.29578355 0.726118 0.5246022 0.7187721 0.43754154 0.22012223 0.8052256 0.36346418 0.5329143 0.07387121 0.5789137 0.48950157 0.750055 0.6604327 0.6249621 0.34574252 0.739305 0.5672165 0.55644214 0.7892975 0.47795406 0.7649124 0.7084945 0.6929149 0.6993518 0.49887115 0.8168402 0.71094596 0.6502724 0.41537777 0.4611987 0.8007519 0.30125386 0.30566198 0.21380559 0.16276656 0.89467484 0.60857934 0.78074497 0.41490406 0.58377284 0.71039605 0.4196644 0.853613 0.77898663 0.13966672 0.6408695 0.7360315 0.42625105 0.4524347 0.3615395 0.46608266 0.8775348 0.36626598 0.4303486 0.4940673 0.18201968 0.7033152 0.6315742 0.3863603 0.41094628 0.25654197 0.38670734 0.38033673
1839 0.20435119 0.57192695 0.34586686 0.3343859 0.6312798 0.82709473 0.27346486 0.6111806 0.54247063 0.11838177 0.381926 0.37348443 0.3076463 0.2651056 0.7108214 0.34408808 0.49794218 0.29567647 0.34332362 0.7682965 0.6511107 0.4409613 0.5220083 0.6338945 0.09316806 0.4501328 0.5014562 0.26518822 0.36917436 0.28052923 0.53141713 0.48920667 0.4248004 0.59055114 0.38746497 0.7379375 0.1775477 0.47450733 0.3726249 0.4463206 0.71731067 0.76565087 0.5104441 0.5625097 0.49745786 0.66997725 0.19436021 0.8407989 0.42472768 0.69147444 0.6687664 0.39639422 0.21908851 0.33786738 0.34705088 0.628414 0.6124659 0.34911677 0.52253807 0.3752612 0.52106935 0.76726085 0.4207377 0.81451803 0.4779184 0.57948333 0.7734485 0.6836938 0.61010545 0.39211366 0.7254303 0.62485576 0.6063352 0.18417813 0.2331205 0.548695 0.46000716 0.30075425 0.3690238 0.2131097 0.7375545 0.5869 0.6247939 0.4924419 0.4733473 0.5080327 0.52450264 0.48793048 0.58873653 0.5136051 0.75325394 0.2717598 0.2969738 0.3771487 0.83164304 0.7175683 0.547572 0.2860435 0.6185895 0.21917495 0.8353846 0.6666448 0.6075377 0.34950525 0.6043683 0.5741064 0.5405509 0.7265444 0.60755736 0.37637073 0.60346365 0.427294 0.4273137 0.51084995 0.42212662 0.26060286 0.42232534 0.39845553 0.716767 0.698913 0.1841885 0.74963546 0.5675044 0.570496 0.49264723 0.2557205 0.50799936 0.60871005
12 0.66222674 0.6426577 0.54205996 0.5718262 0.57389975 0.36996278 0.41989017 0.63845396 0.8260706 0.36534837 0.44256064 0.7718058 0.48461562 0.5142185 0.65634644 0.5632766 0.39319456 0.3346773 0.37478122 0.24339306 0.31371647 0.7591697 0.50487477 0.2988958 0.7205008 0.6117365 0.45531902 0.49503946 0.6602139 0.7132999 0.39232498 0.44548172 0.49940497 0.22538444 0.43548128 0.50690544 0.69258565 0.55694264 0.4762138 0.11221676 0.42011005 0.28773028 0.50156707 0.33176926 0.59739393 0.52793413 0.39428496 0.7619165 0.62119955 0.36418197 0.3849429 0.66425425 0.8228435 0.6205285 0.2892618 0.47257176 0.47617924 0.5745316 0.6421096 0.46792534 0.64048874 0.66353905 0.6477883 0.48149872 0.32493517 0.41762134 0.365643 0.25271577 0.3224401 0.6037308 0.79117584 0.46488634 0.4467516 0.59012157 0.40429488 0.49182075 0.5001567 0.64578974 0.42571622 0.56144565 0.66257167 0.5245808 0.24649134 0.24866372 0.3500899 0.7267879 0.6943606 0.48778328 0.39767268 0.32937708 0.5824042 0.67483693 0.60610443 0.56751406 0.4746897 0.40417886 0.44898242 0.19218516 0.47747684 0.23685275 0.36905885 0.46040916 0.52499884 0.58172864 0.69369465 0.41333777 0.4531625 0.55598706 0.31086138 0.4287322 0.6469446 0.44718874 0.6186113 0.50028867 0.66462576 0.61886454 0.5092533 0.6234588 0.38619176 0.48443297 0.6972966 0.4478958 0.49731594 0.56679285 0.27235147 0.56693494 0.7573198 0.3009274
2661 0.6263304 0.601337 0.52029026 0.5650501 0.5497324 0.3960615 0.43207088 0.62389874 0.7757382 0.39656043 0.46124858 0.72733945 0.50016254 0.513737 0.62544084 0.56011426 0.40192866 0.36135122 0.40117025 0.28342196 0.35117462 0.7112328 0.51550764 0.32567063 0.66772443 0.59706867 0.45042548 0.5013475 0.6288723 0.6673927 0.42032406 0.4532789 0.4896194 0.2698561 0.4561799 0.51979524 0.653996 0.55421215 0.47412106 0.16282205 0.4348294 0.3317548 0.4939982 0.3575971 0.59477836 0.50663567 0.4122422 0.71594435 0.5872496 0.3976935 0.39764515 0.63730013 0.76314825 0.60002124 0.3245245 0.46495262 0.46889812 0.5549034 0.61495316 0.46966133 0.6168821 0.63807374 0.60815257 0.48781425 0.3521742 0.43743205 0.3897055 0.30749172 0.35373795 0.5766973 0.74185944 0.46640763 0.45216691 0.5839299 0.43522596 0.4969852 0.4902692 0.6285676 0.44155487 0.5537786 0.6372692 0.5060674 0.28789657 0.28676626 0.3863442 0.6904338 0.6438834 0.48571578 0.42930537 0.36593685 0.5511399 0.6358988 0.5910764 0.55033594 0.49366927 0.4240927 0.45791206 0.24734691 0.4848709 0.28632656 0.3919954 0.47595775 0.5222587 0.562054 0.6481244 0.44285783 0.47337487 0.53510946 0.34822765 0.4571197 0.60917246 0.4595979 0.5973722 0.5071679 0.63560265 0.604836 0.5125002 0.5986637 0.4102766 0.48962215 0.6596316 0.46195433 0.4954598 0.5538176 0.32385248 0.54330647 0.70159626 0.34956583
1001 0.62500685 0.59733206 0.51636714 0.56755227 0.55105364 0.39334303 0.43058875 0.6211232 0.7752782 0.3945866 0.46004495 0.72759885 0.49677968 0.50849986 0.62262887 0.5603824 0.3978187 0.36155266 0.39914608 0.28484544 0.34934083 0.7118781 0.5176906 0.32275456 0.66608226 0.6018416 0.4498297 0.5013357 0.6280853 0.66727746 0.42194128 0.45338064 0.4878853 0.2737877 0.4543897 0.52248544 0.65482306 0.5581996 0.47702876 0.16231552 0.43416536 0.3296826 0.49295127 0.35877565 0.59386325 0.5052067 0.4094191 0.7167958 0.58766776 0.4039373 0.40021178 0.641597 0.7624342 0.5992139 0.32131544 0.46332276 0.46308342 0.55684644 0.61666393 0.46967795 0.6205103 0.6392996 0.6089241 0.4899117 0.34894493 0.43444005 0.38890624 0.31184468 0.35576013 0.5756956 0.7445425 0.4682072 0.45280993 0.58526534 0.4313296 0.49867883 0.4813353 0.6263547 0.43913808 0.55204815 0.6376552 0.5028014 0.28896102 0.28468016 0.38747758 0.68697435 0.64054155 0.48421904 0.4322269 0.36933786 0.54933405 0.632353 0.59023106 0.5512614 0.4961785 0.42877784 0.45926756 0.24724379 0.48294955 0.28527632 0.39771894 0.47494575 0.5221002 0.562852 0.6459428 0.44619125 0.47580588 0.5281311 0.3477236 0.45609567 0.6083756 0.46202037 0.5963206 0.5081952 0.63518924 0.6029771 0.51421815 0.6002489 0.40984517 0.4910703 0.6585855 0.4633121 0.5007617 0.55608463 0.32607263 0.542503 0.6990542 0.34747395
1318 0.65532744 0.6222933 0.5295794 0.5778067 0.56462926 0.37184173 0.4175665 0.64171106 0.81706893 0.3683206 0.44831678 0.7641726 0.48960578 0.50848216 0.65043217 0.5675589 0.38468164 0.33793727 0.37839746 0.24913095 0.32074344 0.7516017 0.51637465 0.2950188 0.70408225 0.6195311 0.44745666 0.49828476 0.65299183 0.70526123 0.4013701 0.4481482 0.49076134 0.2360562 0.4393557 0.5221173 0.6846916 0.5678913 0.47737375 0.12105522 0.42039606 0.29434347 0.49478707 0.3326836 0.60351676 0.5105968 0.39299247 0.7536383 0.6097777 0.3816598 0.38633123 0.66552645 0.80709916 0.6170929 0.29303405 0.46068355 0.45823053 0.56755465 0.6394565 0.46653843 0.64063287 0.6619739 0.63648325 0.4876813 0.32304868 0.4213197 0.3635202 0.27368745 0.32934523 0.5974324 0.78358966 0.4686943 0.4466851 0.60013354 0.4121279 0.49637133 0.48742905 0.64757925 0.4292145 0.56083226 0.66425437 0.5091988 0.25343266 0.24773388 0.36308455 0.71883994 0.6737438 0.48244005 0.4137256 0.33971885 0.5676442 0.6593086 0.60483193 0.5619695 0.48669603 0.41479352 0.4474054 0.20443548 0.47754616 0.24733016 0.37640038 0.46472862 0.525165 0.5764002 0.6775851 0.42833528 0.471875 0.5399406 0.3180648 0.44075215 0.6350723 0.45484185 0.6138193 0.5064953 0.6615233 0.6237295 0.5166692 0.6198798 0.39112526 0.48649177 0.688252 0.45126352 0.5010346 0.5658398 0.28885466 0.55322784 0.7384714 0.3164088
2662 0.65412974 0.6283467 0.5358724 0.57346946 0.56221056 0.3761065 0.4199984 0.6425398 0.81517553 0.3754868 0.44920793 0.76210725 0.49318847 0.5153428 0.6525459 0.5666574 0.392207 0.33939826 0.38114837 0.24957669 0.3236278 0.74844915 0.51260877 0.30104747 0.7067155 0.6103861 0.4506229 0.49705663 0.65208673 0.70352143 0.40167597 0.44865516 0.49433762 0.23246272 0.44272816 0.51591367 0.682019 0.5601318 0.4712316 0.1234455 0.42142597 0.2983832 0.49708542 0.3341623 0.6025237 0.5135367 0.39984718 0.7502685 0.6085296 0.37303963 0.38512072 0.65809095 0.8072068 0.6167212 0.29751495 0.46419668 0.46711951 0.5657596 0.6358198 0.46780124 0.63477314 0.6587389 0.6353517 0.4856131 0.3307301 0.42579675 0.3681221 0.26960126 0.32795823 0.5973779 0.77962434 0.46549442 0.4462467 0.596307 0.4184133 0.4948214 0.499522 0.64838433 0.43322757 0.560836 0.66079324 0.5135448 0.253606 0.25378302 0.3620858 0.71977574 0.67765546 0.48752677 0.40858147 0.33592325 0.5719637 0.66503984 0.6050242 0.5613266 0.48136017 0.4083837 0.44814718 0.20713487 0.4800649 0.24833278 0.36891365 0.46446472 0.525149 0.5760245 0.6794937 0.4238338 0.46783212 0.55121744 0.31940597 0.4408851 0.63537824 0.45085916 0.6148353 0.50521547 0.6597946 0.6228865 0.513851 0.61515284 0.39115962 0.48491642 0.68724424 0.44906098 0.4942974 0.5637456 0.28720504 0.55699307 0.7401374 0.31909704
13 0.73224825 0.6657106 0.37939346 0.39887038 0.609945 0.54294544 0.4054972 0.40677395 0.6836733 0.42269 0.23582011 0.5285095 0.6009601 0.53192896 0.54052645 0.5998834 0.41368115 0.34959072 0.69220966 0.5524114 0.36803743 0.4191876 0.5773624 0.42277136 0.69442064 0.571479 0.40800098 0.6192659 0.573802 0.52278924 0.60144037 0.38413778 0.4911693 0.5667513 0.61093265 0.6579912 0.536486 0.36777633 0.30047187 0.39577997 0.5277202 0.4687035 0.51278937 0.442814 0.7047161 0.3894266 0.48634392 0.5636343 0.4941721 0.44492722 0.4454088 0.50015545 0.30712 0.4581171 0.5378189 0.32181132 0.62046707 0.5649095 0.5008638 0.71668345 0.3528639 0.4703362 0.49674028 0.4013605 0.5422474 0.40972146 0.46007428 0.49731973 0.5295415 0.45215732 0.4294831 0.68702847 0.3907213 0.57668245 0.38535175 0.39906818 0.6171293 0.6625261 0.31956425 0.5265215 0.40595952 0.41491833 0.6114899 0.5663236 0.4517267 0.47667605 0.42107072 0.62874234 0.4425257 0.55551463 0.45633468 0.47592723 0.3166756 0.4533049 0.55924904 0.43922937 0.4867117 0.46301544 0.6650703 0.6925381 0.67807055 0.670388 0.59378505 0.50767994 0.56297964 0.5316686 0.5166414 0.34915647 0.5324708 0.64398533 0.38970155 0.5868692 0.490995 0.40416688 0.41667527 0.5162114 0.43400437 0.42861152 0.3771943 0.44915465 0.4731301 0.6098475 0.2786502 0.6059249 0.5459484 0.6761996 0.5570729 0.39746106
1810 0.539094 0.610847 0.67110634 0.53606874 0.75737953 0.8647837 0.62607944 0.07014766 0.9581637 0.8026487 0.012225585 0.413907 0.03178588 0.7879825 0.83762866 0.34338167 0.8547093 0.7181331 0.9312457 0.5865875 0.51998514 0.3705077 0.24938099 0.77681994 0.6194886 0.10413725 0.8674167 0.15126894 0.6647621 0.7942905 0.45652696 0.6466269 0.5776962 0.284132 0.8254969 0.97016394 0.7790412 0.6519723 0.025661586 0.7279825 0.47896513 0.50483215 0.5125023 0.7557449 0.34459418 0.7614458 0.70609266 0.62240046 0.9585916 0.026670957 0.94100976 0.19713472 0.46030417 0.42521217 0.80312926 0.07403874 0.9789468 0.14122963 0.4535892 0.7892785 0.033082712 0.2751452 0.33056414 0.31554493 0.5988071 0.19777012 0.13777073 0.017825305 0.9348225 0.9407703 0.5568326 0.2206227 0.60196584 0.43196756 0.046185967 0.67025304 0.95248413 0.2600765 0.28363964 0.7721053 0.4844228 0.78854525 0.52484465 0.90297997 0.28968573 0.9453241 0.89714247 0.33798224 0.17754178 0.8226261 0.9456771 0.79592 0.019038945 0.55422 0.4169038 0.4635715 0.14456657 0.19715515 0.72022456 0.14620356 0.18680906 0.29478902 0.28116703 0.26787278 0.8616852 0.09774341 0.2267538 0.9651732 0.8409995 0.12595037 0.41746908 0.45208007 0.66843224 0.46652943 0.23767723 0.0718179 0.31598598 0.05081786 0.40507686 0.7690421 0.16823499 0.656019 0.024115762 0.494978 0.061446246 0.1961055 0.9528717 0.23644902
1701 0.06494913 0.96500057 0.92649245 0.15126918 0.40611938 0.6660951 0.72985923 0.04938113 0.77675533 0.7392983 0.11039543 0.7528685 0.7340644 0.67085993 0.14773063 0.13720998 0.9184939 0.43671924 0.5376861 0.6474642 0.9175792 0.11917313 0.76947296 0.1649422 0.9930587 0.18674727 0.8900675 0.6787698 0.7756251 0.09604602 0.19897355 0.79426956 0.84639937 0.9608485 0.9105184 0.334097 0.27561644 0.71332073 0.07826657 0.44463685 0.609703 0.81390166 0.25486058 0.44462872 0.15434681 0.8315509 0.83995104 0.44576755 0.8207384 0.04052189 0.7091249 0.47778773 0.78143895 0.540475 0.95179075 0.2911032 0.93465614 0.1883413 0.3454496 0.7074372 0.11541287 0.24815342 0.9059796 0.1675924 0.79802364 0.1930719 0.784033 0.01904671 0.58577895 0.693368 0.70405143 0.52586937 0.43609196 0.20330854 0.033209 0.97892314 0.94534165 0.4691017 0.5020792 0.18740077 0.008549446 0.6538144 0.64917654 0.9358246 0.30985764 0.13497758 0.9898783 0.9309751 0.007026013 0.15005518 0.9797197 0.9555639 0.2932441 0.80429894 0.3116122 0.38080642 0.34246993 0.8605969 0.67586124 0.8118496 0.907232 0.2567948 0.44047636 0.8315846 0.74902165 0.31964746 0.11412249 0.7694272 0.6021641 0.7819028 0.6771719 0.12035709 0.638598 0.40486747 0.042143013 0.11435568 0.1409838 0.11244806 0.11191663 0.5388813 0.054164518 0.35499677 0.09490918 0.4525874 0.101710655 0.15272148 0.5380273 0.38952637
14 0.57619715 0.5516416 0.5630479 0.62421846 0.6905629 0.45962584 0.47177443 0.32953218 0.49624306 0.43662286 0.4023285 0.70626336 0.46667513 0.28389108 0.46932542 0.5119677 0.5567345 0.5408052 0.5379336 0.41040325 0.28273696 0.68559605 0.46367213 0.5749062 0.77288485 0.6346754 0.5751671 0.3940277 0.62397987 0.470772 0.6280156 0.5674922 0.46770412 0.7174517 0.3189043 0.45270547 0.892089 0.6701358 0.3060688 0.22783402 0.38066435 0.5056732 0.49627432 0.2816495 0.25594398 0.68572915 0.6193059 0.5454273 0.6265682 0.47259715 0.78985405 0.7344991 0.6894457 0.6561527 0.5329638 0.19412945 0.70782334 0.63398784 0.47535443 0.42604467 0.7969759 0.30410865 0.33110282 0.4170911 0.5107253 0.30073977 0.31259972 0.3208221 0.32249385 0.75911224 0.5324252 0.5475163 0.3573121 0.7913844 0.20326304 0.6077346 0.27185687 0.65579414 0.5094754 0.40518957 0.20603015 0.515045 0.55409425 0.769627 0.492437 0.44191247 0.78434724 0.19430965 0.5418708 0.4330638 0.4317652 0.33957198 0.5424287 0.4756714 0.42495006 0.4458425 0.2898506 0.37443793 0.41065246 0.5953015 0.72056025 0.55497175 0.34443673 0.65733784 0.5789584 0.45718202 0.5324421 0.21031603 0.48372406 0.20703599 0.39151996 0.3836718 0.48143676 0.35246992 0.42993483 0.6751653 0.7069951 0.6026931 0.22603013 0.5459878 0.7787548 0.75598323 0.39143187 0.29506236 0.5598425 0.21662046 0.36824673 0.42711762
2034 0.53063846 0.67655694 0.6615207 0.08277198 0.23827718 0.67070675 0.136711 0.289597 0.21669176 0.94956905 0.12158745 0.47392654 0.26104394 0.37744927 0.822394 0.20482592 0.679247 0.5654965 0.63390046 0.89181536 0.37104294 0.81187946 0.5287195 0.77291095 0.7526864 0.7488355 0.8346631 0.23296657 0.4740666 0.651618 0.19547352 0.68097955 0.49427816 0.6782259 0.42305464 0.011713388 0.80603725 0.696186 0.10460178 0.074215606 0.12961616 0.9346849 0.22962959 0.4729453 0.042054974 0.89242977 0.7250212 0.061132424 0.96442777 0.9657447 0.69420284 0.9803371 0.8530938 0.30384853 0.7234382 0.20870066 0.83694017 0.6539688 0.07791342 0.5420311 0.6789624 0.2624545 0.5968713 0.8972232 0.5760572 0.7194434 0.42571527 0.11887187 0.9412899 0.28060398 0.9835306 0.24209285 0.5496913 0.81846625 0.15348163 0.673661 0.30384085 0.18414004 0.15025045 0.63876253 0.07469627 0.62009454 0.7092325 0.6265224 0.518129 0.3407006 0.90433687 0.4273099 0.36188573 0.55933666 0.63556886 0.20096236 0.25426075 0.5390016 0.033943668 0.44572583 0.91585356 0.08736631 0.21225753 0.29453006 0.8824614 0.11145917 0.36536118 0.96955174 0.37021637 0.70868534 0.49682006 0.73721933 0.8455202 0.057349063 0.503912 0.5767725 0.36107707 0.074249096 0.38784114 0.17523152 0.96754676 0.5194474 0.34788048 0.8513004 0.54596996 0.035474837 0.025809813 0.68892574 0.17354278 0.6762956 0.6875112 0.43845707
2075 0.56394476 0.60509276 0.5033125 0.75776345 0.5549119 0.45790964 0.54651237 0.25896913 0.47678915 0.54126793 0.5013503 0.6470286 0.35628352 0.24117875 0.27311042 0.3653915 0.5679906 0.7182809 0.33671626 0.35972175 0.36883658 0.7052957 0.47735047 0.5201469 0.42622623 0.72971463 0.60670316 0.43310416 0.6086183 0.23672308 0.5347438 0.60147345 0.48094714 0.80820024 0.26398534 0.3564802 0.8936598 0.67606664 0.24681701 0.19750397 0.5221757 0.63446933 0.42763832 0.3382775 0.30274957 0.7574568 0.5293662 0.51782525 0.53360784 0.6186882 0.7794586 0.6606966 0.7126176 0.57089007 0.40574408 0.27454326 0.6191467 0.6668529 0.41866657 0.3183841 0.7860119 0.22877175 0.41276118 0.68718237 0.64881927 0.5375685 0.50068355 0.39972994 0.26379186 0.8081145 0.6588738 0.6344833 0.42024884 0.883841 0.35495442 0.59287494 0.29489243 0.5116418 0.6458422 0.4311469 0.22226624 0.39524266 0.5070753 0.8626775 0.5727031 0.61589384 0.8059493 0.06953326 0.5367602 0.28467834 0.35893616 0.0963332 0.6037765 0.28790015 0.19968854 0.52661717 0.26846778 0.26702747 0.22695252 0.5592251 0.6489933 0.33006364 0.26255924 0.7023625 0.6765345 0.3138284 0.54675996 0.3617514 0.52488935 0.14683387 0.47279814 0.3004055 0.5354564 0.27727166 0.625575 0.6736698 0.8807755 0.68634176 0.31585604 0.41414213 0.88901466 0.8483935 0.6979728 0.32179174 0.45074284 0.06490933 0.311529 0.5925657
158 0.67397636 0.5999594 0.36958688 0.53987193 0.56748873 0.5035628 0.30354124 0.36018333 0.64319015 0.50762546 0.31588975 0.5625586 0.6420369 0.3233137 0.42962718 0.5009121 0.34558004 0.37747788 0.5283519 0.4317811 0.2148508 0.5921228 0.5413099 0.47174153 0.8073484 0.68143016 0.51443744 0.66744196 0.67870325 0.5336296 0.5565709 0.35673234 0.44921878 0.68287224 0.3042029 0.53172106 0.821041 0.45628956 0.2573269 0.15913405 0.3793568 0.47891068 0.47679153 0.41665116 0.40542188 0.57578886 0.4411534 0.42235243 0.5818819 0.6393097 0.6325842 0.8224274 0.44268966 0.6358208 0.5151482 0.13357198 0.791498 0.71506375 0.4161476 0.6719793 0.56013495 0.31449154 0.41025987 0.4143464 0.49648803 0.38659805 0.25566655 0.37064317 0.57768565 0.6102195 0.5351766 0.70703214 0.34840167 0.7539397 0.43161392 0.61978495 0.24920692 0.68990386 0.3555694 0.57824105 0.29296893 0.43307418 0.5812213 0.65475416 0.49707824 0.4820527 0.5053815 0.5320306 0.5785121 0.5581917 0.36341888 0.36618748 0.49734792 0.3940029 0.39046878 0.43389463 0.64416987 0.2237815 0.5672892 0.70309013 0.8045089 0.5985608 0.44522208 0.593919 0.5325335 0.58274835 0.50431687 0.24764766 0.5221325 0.4692371 0.3698203 0.5577619 0.51367635 0.25557458 0.46199238 0.6178491 0.6738521 0.5733257 0.14317203 0.40549728 0.74372905 0.73081124 0.27817658 0.42431575 0.5895611 0.5781889 0.5005098 0.41714284
2077 0.6264194 0.77943915 0.43904853 0.7193381 0.45003676 0.5148887 0.33465126 0.14745115 0.6067691 0.75767326 0.4392832 0.6344361 0.34972715 0.260936 0.30595425 0.49747106 0.45322558 0.63624597 0.34503537 0.33763194 0.43860793 0.7092769 0.4835466 0.48518887 0.4007941 0.65498227 0.579959 0.43103427 0.5640732 0.26411834 0.5820575 0.5451927 0.5571742 0.7281233 0.24043958 0.48402444 0.82502735 0.5562302 0.35278067 0.27707893 0.50500584 0.7137317 0.47455898 0.39700335 0.3759111 0.69195086 0.5158218 0.42023927 0.5334084 0.7307314 0.7766271 0.80335647 0.6452022 0.57107335 0.2699369 0.2207549 0.53785366 0.5397196 0.3133664 0.43594342 0.74850017 0.3450298 0.3958595 0.74723274 0.5044502 0.41581324 0.71943444 0.49868223 0.29952344 0.7459494 0.48100248 0.46104166 0.42774758 0.8533263 0.4708306 0.71132755 0.25621337 0.44243658 0.6350087 0.42779744 0.25470525 0.25413507 0.48766634 0.8586548 0.5892911 0.5461238 0.7137092 0.12880328 0.5178971 0.40956944 0.4973337 0.30603385 0.6107414 0.37531027 0.1590571 0.57901543 0.39379084 0.23645772 0.22707477 0.4768768 0.6194186 0.32372203 0.44621184 0.545145 0.69788635 0.40065897 0.5984363 0.6107319 0.5848765 0.12862158 0.4459888 0.34789744 0.51467377 0.3134705 0.657188 0.6086973 0.7392365 0.6315288 0.41083193 0.40620178 0.702692 0.87552077 0.53611094 0.36950216 0.4046908 0.07053111 0.35368487 0.6278365
2668 0.7049112 0.5233832 0.39661625 0.66995937 0.50847644 0.426768 0.3747849 0.2105208 0.5254109 0.7094618 0.5657472 0.59339654 0.51851183 0.18554239 0.3334788 0.5089507 0.3977424 0.5874819 0.3408399 0.39115986 0.43188652 0.6646293 0.49683335 0.49554455 0.3694151 0.65322626 0.533967 0.417408 0.56942767 0.334586 0.6005589 0.47382653 0.5266294 0.7420034 0.19964218 0.5142395 0.84841216 0.5342489 0.39431113 0.25377914 0.39947525 0.5082351 0.521937 0.45282057 0.31403786 0.6521793 0.3924971 0.47753912 0.62178135 0.7803347 0.7695434 0.80826867 0.69625527 0.61900234 0.30984777 0.21235318 0.5496261 0.71763086 0.4229639 0.33705297 0.83143747 0.39300984 0.34034553 0.6971215 0.54722977 0.3988443 0.7253162 0.564041 0.46012354 0.75488794 0.5228795 0.4739 0.40090135 0.7214109 0.42134973 0.70812374 0.17722452 0.6182904 0.5986105 0.45976916 0.3574873 0.2753802 0.44432515 0.8336713 0.584783 0.44043913 0.73124534 0.1067512 0.4805575 0.49955407 0.456024 0.26488996 0.577208 0.469868 0.22841245 0.46471033 0.33959997 0.32318512 0.29155937 0.37339804 0.5603295 0.3354666 0.4610587 0.57365763 0.6282616 0.5832966 0.4683744 0.47304386 0.521521 0.16199286 0.3909192 0.32168585 0.5279102 0.31708497 0.6787494 0.6772383 0.7452668 0.66314566 0.30319747 0.45817542 0.6915514 0.8454649 0.624049 0.3570165 0.45466143 0.13174154 0.3196244 0.5719967
15 0.42454377 0.3549267 0.31918934 0.63766974 0.53244376 0.28348038 0.59252167 0.45088902 0.57299346 0.29470792 0.35334724 0.72698796 0.16679808 0.5142501 0.22473091 0.52018017 0.22435634 0.44303337 0.54615766 0.3369733 0.3058628 0.47762337 0.48141456 0.5948739 0.65350264 0.48250622 0.20976888 0.5280873 0.41546735 0.37937889 0.61339813 0.35638458 0.32802895 0.6168626 0.8817941 0.7644617 0.5469482 0.6785816 0.25803617 0.6641857 0.6438302 0.43080083 0.49061707 0.78293836 0.6836868 0.34274352 0.54876065 0.6706454 0.3753929 0.7247785 0.27490878 0.64803237 0.42664728 0.62128055 0.54267645 0.5160564 0.5640855 0.4815063 0.4921933 0.35094813 0.19253659 0.69612795 0.3576303 0.5266211 0.5804458 0.2347259 0.18889906 0.7948099 0.3314282 0.46367282 0.6734619 0.3613831 0.6261844 0.3959578 0.43704432 0.4501639 0.55969864 0.579223 0.37016064 0.41601858 0.6089453 0.5830727 0.5578684 0.1392932 0.49344283 0.84295845 0.74135566 0.28476396 0.70702684 0.55313295 0.52537745 0.660953 0.36872852 0.38561428 0.46349907 0.6905645 0.24425456 0.29538453 0.75685287 0.8193392 0.43837398 0.5014917 0.6631858 0.7012149 0.424471 0.6389764 0.7555928 0.47073358 0.39606154 0.681605 0.7785094 0.40081304 0.54682225 0.3979962 0.43556648 0.3058218 0.18950069 0.6285188 0.42838612 0.35379344 0.677813 0.8392527 0.53839415 0.4859273 0.3599965 0.15846547 0.52856535 0.6008429
2367 0.36685416 0.44712076 0.1915849 0.49106053 0.3872709 0.3243779 0.44190577 0.12688644 0.74354535 0.13576797 0.2883499 0.69107497 0.058028355 0.35456917 0.18681823 0.3209313 0.09746852 0.4032846 0.30567908 0.34776455 0.5278907 0.47545552 0.43010813 0.60629284 0.7475072 0.40335938 0.10784131 0.73777044 0.14144473 0.21792424 0.5343546 0.17630412 0.34265286 0.8502967 0.93432164 0.49730468 0.29328224 0.66903204 0.45815703 0.81328964 0.8974598 0.46114197 0.6792207 0.9693275 0.61593056 0.31928065 0.29202318 0.7399896 0.3605495 0.88609254 0.13325015 0.75311923 0.3606595 0.50955206 0.581256 0.8291027 0.6448585 0.44185993 0.5122552 0.31055844 0.08096133 0.72462785 0.30371526 0.69804895 0.5453455 0.18569916 0.37780842 0.9326607 0.40318802 0.43546414 0.43219617 0.22873542 0.7852162 0.09811533 0.5549416 0.50342506 0.69632244 0.4192063 0.3698149 0.16222407 0.75480723 0.7677108 0.59589195 0.10083919 0.42802337 0.7996347 0.727078 0.18791467 0.7416602 0.5185798 0.7000288 0.85860723 0.110811464 0.22113876 0.22617587 0.79721427 0.20678808 0.3509023 0.91468835 0.95666075 0.70607907 0.54417676 0.7771754 0.81414956 0.53526926 0.8349738 0.778168 0.8645684 0.32227746 0.73956233 0.9031217 0.35232702 0.5787418 0.16477728 0.5292231 0.1637474 0.098348364 0.7946974 0.5107891 0.16424349 0.4634171 0.94598347 0.74096835 0.541542 0.18780114 0.042860255 0.6637887 0.5334423
1093 0.31864387 0.39139256 0.31454173 0.62682617 0.52396584 0.29528332 0.5922838 0.4516299 0.5277582 0.28215805 0.31524163 0.7257011 0.16270332 0.4533622 0.21395162 0.4664818 0.21686189 0.4577189 0.4982806 0.35608822 0.322926 0.44139454 0.48982686 0.5444872 0.64647347 0.47725338 0.20905586 0.5486823 0.42017815 0.3195493 0.5789073 0.38398722 0.33526307 0.64175296 0.9007309 0.68610567 0.5142241 0.6780697 0.23875095 0.6677352 0.68507075 0.4825211 0.45596194 0.80955356 0.673811 0.35283422 0.53718424 0.6635142 0.36222932 0.75331366 0.22836569 0.6855132 0.40029114 0.59630066 0.554675 0.5837223 0.56422883 0.5134876 0.48174453 0.35918388 0.16752566 0.68168813 0.37548673 0.53967005 0.5803348 0.26160517 0.1641317 0.8187486 0.2984929 0.4429637 0.7004307 0.3301483 0.62842935 0.39056432 0.44622695 0.46165016 0.55338436 0.54638785 0.3831269 0.38692135 0.54883486 0.6024779 0.5809253 0.1601455 0.49565554 0.8292686 0.7505817 0.28059104 0.7066153 0.53376645 0.54851335 0.68154734 0.39412045 0.38357973 0.43073663 0.7298546 0.2515638 0.35263065 0.7657849 0.84749055 0.5267216 0.50605613 0.6930213 0.7238981 0.42439044 0.66837555 0.75968945 0.4833545 0.42003673 0.7058202 0.7982485 0.40612915 0.5493109 0.3914183 0.41905233 0.28617623 0.20319654 0.6345757 0.43154606 0.33824536 0.64544314 0.8493406 0.57316047 0.48315853 0.35883173 0.12502572 0.49742082 0.6306921
1090 0.36475658 0.28378966 0.25658932 0.6050309 0.47858843 0.1851628 0.4688675 0.48193645 0.5927507 0.3581615 0.27018663 0.7319874 0.10542496 0.43213892 0.2849546 0.53918666 0.1008479 0.43010178 0.4019027 0.30959046 0.18227279 0.46421263 0.32763228 0.5999279 0.62059474 0.42952326 0.15090996 0.57352585 0.50493836 0.46264872 0.64194506 0.34857085 0.3500556 0.49060985 0.91789204 0.8019375 0.49573562 0.5931677 0.10422388 0.6784847 0.6981335 0.27975428 0.4357479 0.9138884 0.6997092 0.3352242 0.45331633 0.64337415 0.38165912 0.8834865 0.18122737 0.8209641 0.40656233 0.6559676 0.4977677 0.67965394 0.46323544 0.5772904 0.49249145 0.4543795 0.085442334 0.76476216 0.4813572 0.65274435 0.5193132 0.20880772 0.101097114 0.88623875 0.33837846 0.426967 0.8089533 0.34198627 0.6693297 0.39940915 0.51719403 0.46137828 0.4633586 0.57916576 0.26657447 0.40332654 0.7470449 0.58889586 0.5280812 0.10837322 0.52384186 0.85950726 0.7985792 0.3067776 0.7054659 0.6169288 0.611285 0.73812425 0.37397307 0.40245548 0.30041847 0.7653367 0.3353236 0.2197598 0.8796958 0.7834956 0.40329963 0.42529505 0.8193126 0.75495726 0.34824732 0.70649403 0.82615376 0.60167384 0.35234502 0.7271545 0.88289964 0.37757868 0.5253509 0.33913332 0.4112219 0.26105863 0.088528916 0.6772725 0.33188087 0.33974057 0.6758712 0.88896644 0.5062363 0.5647412 0.3204444 0.14038602 0.57062435 0.57415515
1271 0.36105514 0.37817883 0.3303931 0.6285303 0.5355171 0.2938516 0.5890263 0.47779328 0.5254523 0.3085846 0.34228358 0.71339095 0.18458524 0.47203636 0.2272477 0.49099332 0.23231998 0.455372 0.5075015 0.35591683 0.30807963 0.4596362 0.48023286 0.5622082 0.62544644 0.48168772 0.229269 0.53919303 0.4483513 0.36506557 0.57922727 0.39314103 0.34524393 0.6016386 0.87645173 0.7187458 0.5351547 0.6513494 0.2518536 0.642084 0.649413 0.46301967 0.45817626 0.7765676 0.6741533 0.36389235 0.54668766 0.6509743 0.3757634 0.7253669 0.25579426 0.66347957 0.42252502 0.6031523 0.53569466 0.55279744 0.56089514 0.5198343 0.49295637 0.37388527 0.18886924 0.6806148 0.38690603 0.5260879 0.57154536 0.27106792 0.17064747 0.78430355 0.33030593 0.45881268 0.69556683 0.36295843 0.6132704 0.416566 0.4361018 0.45451614 0.5233859 0.55518824 0.3759978 0.424775 0.57125 0.585561 0.56542486 0.16758502 0.49859348 0.8224381 0.73418933 0.29453084 0.6917486 0.5523083 0.53570074 0.64478946 0.41322076 0.40913 0.45248604 0.7017341 0.27472985 0.3312422 0.74176216 0.8098952 0.47636637 0.50005853 0.6769508 0.6939213 0.42996487 0.6349179 0.74073964 0.45921043 0.41911444 0.6858016 0.7755545 0.41683453 0.5411609 0.40983945 0.43945482 0.3126558 0.21030389 0.61691725 0.4336105 0.36484545 0.6506376 0.831059 0.53618044 0.4884205 0.37366086 0.16043673 0.5111814 0.61011934
16 0.74088156 0.46049595 0.33447012 0.46638948 0.2714363 0.5337704 0.36501306 0.50895107 0.7012621 0.8191684 0.7496361 0.3438328 0.7683547 0.43051815 0.7018848 0.56084245 0.32991633 0.5051715 0.4964007 0.4680901 0.597655 0.5660628 0.50200397 0.5903037 0.7947221 0.58217305 0.45441422 0.7594629 0.37652832 0.6673616 0.36651307 0.2402776 0.50581557 0.7716312 0.25327033 0.23580182 0.437552 0.23917642 0.6383658 0.342248 0.41188884 0.4794813 0.50928706 0.5474412 0.36098492 0.49809593 0.30604428 0.32943684 0.6985751 0.5546095 0.5042525 0.6831361 0.64791864 0.46627405 0.50682294 0.6258802 0.6048015 0.785003 0.43588215 0.52029616 0.6017158 0.48177183 0.52417815 0.38391054 0.41271025 0.5620041 0.5929472 0.46936944 0.7845338 0.36316168 0.2854818 0.54518247 0.489947 0.46494472 0.76846945 0.54387486 0.2890609 0.52603257 0.42503113 0.60460275 0.71815264 0.50737953 0.44474295 0.6149188 0.5651933 0.2611802 0.3463665 0.48907372 0.5234927 0.48233733 0.31227967 0.30470958 0.39279845 0.42770585 0.2968574 0.22636034 0.784127 0.28832218 0.6024295 0.68987405 0.38222808 0.53928936 0.5369297 0.5267243 0.26527435 0.54810745 0.37401628 0.605774 0.501168 0.6123704 0.44928205 0.5369086 0.66288865 0.24941683 0.60791355 0.5355872 0.42504016 0.5569736 0.38518408 0.39963585 0.6088863 0.31391883 0.4336186 0.60899323 0.5638424 0.7005871 0.62138206 0.6364579
2444 0.47815096 0.84465045 0.46308357 0.56125784 0.16387308 0.70439065 0.4856267 0.17223676 0.77589405 0.75227267 0.6425226 0.8102522 0.60828984 0.64366263 0.81060153 0.7408003 0.24361783 0.6324087 0.49799842 0.3977479 0.7272201 0.41211066 0.2090443 0.6276407 0.59371656 0.39825645 0.3315336 0.6458396 0.15621498 0.8524253 0.68361056 0.36369827 0.61279553 0.72964513 0.48927808 0.5431378 0.34805116 0.4799823 0.22973445 0.53766847 0.48348624 0.43064907 0.61084026 0.7072187 0.5541859 0.38231677 0.7040537 0.21558098 0.254922 0.49176043 0.51661384 0.4227077 0.6620867 0.5195377 0.51331025 0.44742095 0.2045277 0.10193635 0.6837029 0.24320826 0.4894774 0.47265378 0.31655338 0.707571 0.20676234 0.6468971 0.66603214 0.70987713 0.5560363 0.29775783 0.5577202 0.50473344 0.4312482 0.17963451 0.8739307 0.18051505 0.46519828 0.3644117 0.50399345 0.26397753 0.8815134 0.4041119 0.5792011 0.6438119 0.5888364 0.20857279 0.35030556 0.51695794 0.46993554 0.42947713 0.51331073 0.534712 0.667863 0.34004626 0.26649582 0.34080443 0.56743115 0.82001674 0.566985 0.49302214 0.3265773 0.35324678 0.3259231 0.50027263 0.33777624 0.30327213 0.77577364 0.6891731 0.34697056 0.44637844 0.34017053 0.34445462 0.55687606 0.6455614 0.43033448 0.6097918 0.6874653 0.40531662 0.61631817 0.3102396 0.7666767 0.6357967 0.8132554 0.46996814 0.67163134 0.43517318 0.28065407 0.22963347
1632 0.6264469 0.5860774 0.407329 0.6346844 0.2916523 0.6442026 0.62397057 0.5246147 0.55975264 0.64457136 0.6921015 0.6554739 0.73328525 0.72723037 0.78879917 0.63822716 0.40993068 0.6817884 0.73203003 0.51454884 0.58358365 0.46036544 0.3290254 0.53570765 0.34561545 0.513904 0.371848 0.60421443 0.30678162 0.7311591 0.5364756 0.29047003 0.4596961 0.70946366 0.51999605 0.5733648 0.3728308 0.4378892 0.18708609 0.29711452 0.53149855 0.4702858 0.55957717 0.72188 0.44290844 0.5335518 0.44747186 0.6066907 0.50088745 0.4690888 0.57455605 0.34245595 0.5603108 0.590017 0.52060735 0.3997405 0.48319125 0.58773756 0.5481958 0.38402286 0.45907468 0.53594726 0.38147202 0.47187167 0.4210774 0.4546977 0.44374758 0.50706446 0.55911905 0.41984046 0.33060616 0.49532193 0.44650152 0.38753518 0.624966 0.3634909 0.5048874 0.40076774 0.45466807 0.34482202 0.7636032 0.45490095 0.50738084 0.45737547 0.51486605 0.38952285 0.4414598 0.40843698 0.33886325 0.3585773 0.4579674 0.49499232 0.30544478 0.44236583 0.34238148 0.3696005 0.74013823 0.47938892 0.7731811 0.3830874 0.32043284 0.51125205 0.3019131 0.36324888 0.32760972 0.3902042 0.4358137 0.6356529 0.46190742 0.5292914 0.44292977 0.23708671 0.55529404 0.6173526 0.34223425 0.57213885 0.45883065 0.55904526 0.5909046 0.51689196 0.8892604 0.5371324 0.47525465 0.50495714 0.56805193 0.6509651 0.56679845 0.47692558
970 0.6393301 0.5680267 0.5368174 0.7314243 0.2751989 0.6627918 0.4230603 0.5161904 0.7792267 0.5793242 0.5234885 0.7249026 0.6248013 0.7647693 0.72150946 0.72876984 0.4992708 0.7404397 0.7977701 0.45480505 0.6352389 0.53145266 0.3050851 0.55698025 0.4924737 0.55776066 0.32566676 0.4971682 0.12257063 0.77384377 0.65394586 0.27514735 0.4359574 0.6104518 0.57782817 0.6953407 0.3960608 0.44000766 0.25067225 0.16981201 0.3318436 0.4661438 0.62446046 0.63928723 0.54268205 0.43583885 0.68687916 0.7161278 0.47477174 0.44094828 0.64857614 0.28918433 0.6794974 0.5711086 0.380623 0.31957763 0.27388957 0.5525923 0.4690866 0.2694849 0.4744857 0.5582679 0.35500243 0.5064659 0.3664555 0.4963484 0.6029418 0.537315 0.79364526 0.30525458 0.6016979 0.43675834 0.5080035 0.19577043 0.5267986 0.30693477 0.56881654 0.52109134 0.557264 0.4192091 0.8741047 0.38622373 0.46073118 0.39576232 0.5389425 0.4840974 0.62660396 0.531278 0.48824307 0.32170498 0.5117875 0.34570095 0.275425 0.43924657 0.29730192 0.22508344 0.7240706 0.27548942 0.5279104 0.24765831 0.14119515 0.31597674 0.16156611 0.30154276 0.31535208 0.23713525 0.55081725 0.63608456 0.48302197 0.4902496 0.44601744 0.1764638 0.7312507 0.78339225 0.27471265 0.5082101 0.54083866 0.45060515 0.58858216 0.50258917 0.9206774 0.40972456 0.7061772 0.60908234 0.48431125 0.76468205 0.71957755 0.6008119
2642 0.6024636 0.603061 0.40486494 0.6511344 0.2701365 0.67982435 0.6520775 0.505472 0.5812916 0.63915354 0.6916291 0.67112035 0.73933154 0.74743754 0.8259373 0.6545869 0.39487755 0.7057575 0.76968324 0.5175279 0.5981105 0.45048445 0.31703222 0.5299803 0.32484937 0.5079962 0.36653066 0.5926013 0.27716753 0.74159634 0.549731 0.27925226 0.4628393 0.7263713 0.53920645 0.58695596 0.36921534 0.45101327 0.16247709 0.29208496 0.5541527 0.44855428 0.58007616 0.74510473 0.44048783 0.54121155 0.42696574 0.6120962 0.5050549 0.4537316 0.6075331 0.32458964 0.5710341 0.5933642 0.53164667 0.38264343 0.48172662 0.5821694 0.5631942 0.34810746 0.43837166 0.54674596 0.36604193 0.48356974 0.41488028 0.4489781 0.44177783 0.49424773 0.56926626 0.41662416 0.31758517 0.48534188 0.4425086 0.37610483 0.6301797 0.3386199 0.518891 0.39081603 0.460443 0.3125315 0.79452765 0.44674546 0.5122493 0.4689387 0.50830144 0.377012 0.44014153 0.39837146 0.31660533 0.334759 0.47648868 0.5002802 0.2851748 0.43019217 0.32975927 0.3739857 0.74981946 0.51808107 0.79540443 0.3597163 0.31739837 0.4950464 0.27272958 0.32688737 0.3087194 0.37731007 0.4150184 0.6414426 0.45548832 0.53007597 0.42034096 0.20654047 0.5532428 0.63293463 0.32289767 0.5741444 0.4671297 0.56018203 0.5847817 0.5204382 0.9109143 0.546651 0.50428236 0.5179343 0.5704366 0.65574414 0.5588885 0.46528032
17 0.32770848 0.8174694 0.3820205 0.6487113 0.34298584 0.6379876 0.7798673 0.2528601 0.77720714 0.65653324 0.69595456 0.75214005 0.64921445 0.5441569 0.39933085 0.75139 0.30217835 0.37590006 0.7802075 0.31058535 0.39750648 0.41818222 0.44052812 0.56254154 0.5864063 0.359834 0.43418425 0.5375131 0.5425664 0.75951654 0.54306227 0.33422226 0.5908038 0.5422996 0.455185 0.81369436 0.37664008 0.71211755 0.5370254 0.3394776 0.44791004 0.49521247 0.51659894 0.7286361 0.42890394 0.6238369 0.44595784 0.29504764 0.6019123 0.54185396 0.697817 0.8334464 0.6859331 0.7284084 0.6501143 0.06401863 0.65744096 0.44505912 0.38780677 0.35172603 0.48463455 0.8462539 0.5002201 0.4103946 0.5197118 0.21408054 0.2974262 0.1924283 0.23891571 0.36906457 0.5376934 0.4828495 0.4409032 0.55297846 0.5159757 0.5673542 0.3102607 0.42890078 0.2688808 0.3993056 0.30169728 0.4034679 0.6284568 0.3658132 0.4644694 0.48708415 0.5434389 0.675492 0.35195467 0.54457766 0.6974103 0.750314 0.7509754 0.4837892 0.48473507 0.7356901 0.6385544 0.28409785 0.68473625 0.42124268 0.45496458 0.2672097 0.50651777 0.27784923 0.24113627 0.460623 0.49212885 0.31340373 0.4348323 0.72419363 0.562515 0.4442526 0.4662695 0.46260765 0.25985906 0.33820036 0.27671683 0.52042466 0.28326192 0.5219389 0.7847192 0.7459523 0.42229033 0.5160588 0.41740856 0.5407414 0.4254627 0.48344666
24 0.40355772 0.87907267 0.59643847 0.7427944 0.1940659 0.5782961 0.56299144 0.67964906 0.86481327 0.37249258 0.5086034 0.7862275 0.88604724 0.40044373 0.506255 0.7036848 0.38263503 0.36496404 0.7790782 0.36992922 0.36358145 0.4100539 0.6482441 0.18282345 0.7395163 0.33019018 0.47022736 0.6953765 0.63201475 0.39205438 0.6210698 0.23692869 0.5179837 0.4648173 0.6079416 0.6700915 0.51509625 0.7632864 0.18004058 0.10557326 0.39451483 0.35098094 0.55462295 0.62112516 0.6634584 0.6089869 0.42033952 0.638431 0.6520144 0.7972917 0.79041207 0.7389443 0.63996315 0.71472836 0.7498885 0.042675607 0.61874807 0.65454733 0.28344652 0.3095466 0.42548472 0.75111264 0.63929665 0.48130372 0.6264502 0.3966901 0.39275932 0.2937721 0.24486795 0.5798534 0.60201627 0.5363943 0.2713811 0.8151134 0.73049736 0.70784754 0.5566908 0.7337293 0.4120016 0.5275588 0.2454768 0.18420057 0.5607879 0.43956143 0.42455438 0.35163966 0.6394668 0.81596965 0.264309 0.23812202 0.63422334 0.74549985 0.7715389 0.24068001 0.35719052 0.48253852 0.6824726 0.45177248 0.88873386 0.7412047 0.4639608 0.27755868 0.18528163 0.14215843 0.24461792 0.53317934 0.6488464 0.471559 0.39002353 0.86916554 0.45779708 0.16168503 0.45942837 0.57342625 0.110568896 0.56586605 0.29366183 0.48860255 0.05917874 0.35400727 0.79109347 0.8140797 0.48686478 0.34696725 0.6029147 0.74293894 0.36371192 0.8017437
2140 0.35056844 0.69900405 0.5469078 0.5813358 0.47919908 0.56055033 0.43259844 0.46624017 0.642124 0.7041817 0.5718763 0.70822793 0.7912613 0.49461913 0.39016253 0.8485917 0.48506424 0.46184912 0.5800799 0.41454238 0.27263346 0.63501966 0.3093599 0.66554147 0.6395179 0.38750452 0.30233437 0.47057652 0.4749619 0.52255595 0.76276195 0.2360737 0.50771946 0.17888188 0.54785615 0.7957461 0.3671465 0.45274404 0.38038746 0.1831008 0.55160886 0.59494823 0.51954454 0.5262728 0.4438476 0.726176 0.46898133 0.77638435 0.58850294 0.75726736 0.7436293 0.7230331 0.7208599 0.80616546 0.33730713 0.0704815 0.59190804 0.5895364 0.22597915 0.57744485 0.5382033 0.85966706 0.6726578 0.5151509 0.5026991 0.2902109 0.5068974 0.21339855 0.088496946 0.5474948 0.47433028 0.5097036 0.405746 0.683418 0.5111619 0.41758737 0.39946136 0.48193318 0.39320466 0.6185504 0.23023124 0.34924293 0.5868896 0.5470787 0.41491562 0.36273462 0.6891081 0.8204646 0.33960277 0.27957797 0.64364445 0.7213803 0.7237704 0.32361257 0.34096688 0.6508513 0.762337 0.28154823 0.675824 0.3416691 0.22950031 0.29273593 0.44291565 0.1872144 0.28664717 0.4222666 0.6236352 0.52659285 0.4504324 0.5633368 0.7347845 0.24896173 0.3839078 0.57417023 0.13871443 0.4368647 0.14821717 0.540851 0.4535917 0.62341845 0.8469419 0.9075246 0.44497246 0.4376694 0.48271322 0.7075462 0.66867864 0.6060365
1316 0.3436685 0.6536026 0.51077265 0.5678535 0.5126078 0.549958 0.46058738 0.44521984 0.6282581 0.742255 0.53451145 0.6788743 0.7450635 0.5298104 0.4096662 0.8382136 0.50130326 0.47476095 0.549112 0.4212662 0.28095493 0.61437243 0.31068328 0.674646 0.6296002 0.40897658 0.29645988 0.46218318 0.48078546 0.52794003 0.7729194 0.26506177 0.5033702 0.20529875 0.57358265 0.80843526 0.36958936 0.42144322 0.364497 0.22475454 0.568671 0.5692156 0.49098936 0.53202266 0.44377047 0.6968757 0.47090566 0.7480309 0.5468237 0.7074458 0.689573 0.68305314 0.6675684 0.78265613 0.30962765 0.10502582 0.56381965 0.57101613 0.26082954 0.6053824 0.5398257 0.8351698 0.6562953 0.50923914 0.49487486 0.33004925 0.54471254 0.23845015 0.10729275 0.54787403 0.47515363 0.53436834 0.41235626 0.6605276 0.4956495 0.3902501 0.39135578 0.4594888 0.38322905 0.60600936 0.2457024 0.3753673 0.5908462 0.5794852 0.4274879 0.38209108 0.6523843 0.7981733 0.3275742 0.31629452 0.61994094 0.68561417 0.676036 0.34565806 0.37662 0.65778404 0.7313373 0.29812637 0.63489217 0.30206132 0.2554384 0.3216351 0.4933384 0.25093386 0.30356336 0.4145766 0.58716744 0.51636577 0.4583667 0.52334887 0.72662854 0.27780417 0.40788633 0.5624894 0.15608403 0.41001347 0.15979879 0.54260933 0.50095266 0.6385005 0.8245814 0.89972097 0.4540037 0.47906563 0.47176754 0.68695456 0.6742483 0.5424029
1315 0.37346572 0.6161009 0.5059811 0.5652872 0.46685374 0.56265867 0.47620347 0.51525974 0.59578335 0.620055 0.48461008 0.6136715 0.67886615 0.51700073 0.4618351 0.705392 0.5002143 0.48050377 0.49722633 0.43492144 0.400983 0.5548425 0.43060133 0.58026654 0.5972809 0.4637215 0.36158428 0.50868917 0.5051901 0.49416703 0.6543107 0.34234256 0.4768954 0.3319256 0.57008165 0.6947102 0.4408461 0.44436845 0.45503652 0.29624152 0.50860244 0.50115323 0.5203055 0.46891323 0.469411 0.6072092 0.5070449 0.6744819 0.49392238 0.631192 0.59703803 0.63075316 0.5896473 0.67788684 0.39504194 0.23244461 0.5565374 0.5202079 0.36428988 0.53974354 0.52694225 0.7160864 0.54046303 0.4883644 0.48360875 0.44110346 0.56928694 0.32864535 0.28222132 0.5491038 0.47640204 0.49042943 0.4385616 0.60048085 0.5254583 0.42666906 0.4646008 0.45900914 0.46330604 0.5304222 0.33476737 0.4270314 0.5556083 0.511151 0.45431566 0.4298178 0.58792484 0.6966848 0.42356324 0.37203494 0.57563454 0.6185421 0.5843219 0.4022415 0.44903645 0.5796164 0.61835307 0.42719835 0.56721663 0.37667608 0.377034 0.3961302 0.4898099 0.36973348 0.3811516 0.49407682 0.53711575 0.50648534 0.4926127 0.5175201 0.5902725 0.33570516 0.45048067 0.54258144 0.29778004 0.45040357 0.28296673 0.5222593 0.4937118 0.5540976 0.70053905 0.7782493 0.49651495 0.44567996 0.46431983 0.5799 0.6033087 0.5876168
927 0.3169764 0.7552154 0.3968441 0.6573603 0.39808172 0.57388985 0.69778824 0.34666592 0.67133844 0.6788092 0.6000372 0.6594545 0.5488175 0.54468864 0.40629798 0.7585036 0.369461 0.44455844 0.6714424 0.32450765 0.33873785 0.46040452 0.38702083 0.5997981 0.5005507 0.3729376 0.38085747 0.4934344 0.5717008 0.71057695 0.62934643 0.35903305 0.5508529 0.46831462 0.4943958 0.8401099 0.3803052 0.62956095 0.53992647 0.3872632 0.47915906 0.4252853 0.5103147 0.68730867 0.4680685 0.59615177 0.44294947 0.3789595 0.4897764 0.6371876 0.62234145 0.79909235 0.55885625 0.7249499 0.53013885 0.12087217 0.575632 0.50652593 0.35550475 0.4417861 0.44772282 0.79336697 0.5404167 0.445123 0.4814783 0.26324478 0.35081547 0.31267172 0.2639523 0.45546928 0.4759859 0.4932174 0.44781402 0.63133013 0.5481562 0.5050951 0.35374713 0.38685414 0.3378363 0.4560381 0.3189331 0.36575344 0.65884334 0.37502128 0.47994483 0.5183239 0.5005908 0.70664126 0.4309278 0.5771265 0.6479687 0.7601483 0.71703273 0.4543197 0.46706954 0.75397277 0.63474655 0.31309155 0.64263064 0.37074015 0.42232314 0.30230114 0.54627854 0.27040482 0.26353508 0.51711416 0.5655524 0.3873105 0.47940767 0.6385903 0.57630014 0.422734 0.44986054 0.5184033 0.25840163 0.34485665 0.20430368 0.54021686 0.33730364 0.520327 0.7100118 0.7715534 0.49451095 0.46051255 0.43677622 0.53287876 0.47691566 0.5807134
