2708 128
0 0.9999819 1.0 0.9999993 1.0 0.99999475 1.0 0.999826 7.931627e-05 0.999943 3.9036357e-05 0.9999608 0.9999746 6.0736895e-08 7.354886e-08 1.0 0.999992 3.1216582e-06 0.999972 0.99998677 0.99997675 0.9999999 0.9999503 0.9999827 0.99999976 0.99998105 1.0 1.0 2.407348e-05 1.0 0.99997973 0.9999908 2.30926e-08 0.9999913 0.9999393 0.99999475 1.0 0.99999416 0.99999845 1.3310142e-07 1.0 3.7100376e-09 4.813689e-09 2.3996216e-05 0.9999999 6.6811035e-06 0.9998703 0.99996483 0.99999976 1.0 1.0 6.737826e-05 6.7978384e-08 1.0 0.99999535 0.9999746 3.7946418e-05 0.9999888 0.99963236 0.9999944 4.2601252e-05 0.9999987 3.388656e-09 0.999998 1.0 0.98227143 3.5140473e-09 0.99999964 1.0 2.1201311e-08 0.99996173 1.7107672e-05 0.9999938 1.0 8.689242e-09 0.9948624 0.99999964 0.9999852 0.99999 0.9999925 5.4246816e-09 0.99999344 0.9999995 0.99999416 0.0010327941 0.9999881 1.0 1.0 4.872243e-09 0.9999945 0.9999994 0.9999938 0.99994266 0.99996805 0.99999344 0.99999785 0.99999356 0.9997321 0.99999 0.9999795 0.99996424 0.9999987 1.0 2.1462153e-08 4.2673953e-05 0.9999778 0.9999963 0.99995756 0.9999987 1.0 0.99993527 1.0386723e-05 1.0 2.0762864e-05 0.99999046 0.9999924 1.0 0.99994576 5.3845227e-08 0.99999976 0.999984 1.6091896e-08 0.99999976 2.8841674e-08 0.99997985 0.99999857 0.9999434 1.0 1.0
1 0.99998176 1.0 0.9999993 1.0 0.99999464 1.0 0.999824 8.0102895e-05 0.99994266 3.9580947e-05 0.9999608 0.99997425 6.183567e-08 7.4772515e-08 1.0 0.999992 3.1525722e-06 0.99997187 0.99998665 0.9999765 0.9999999 0.99994993 0.9999825 0.99999976 0.9999809 1.0 1.0 2.4370675e-05 1.0 0.99997926 0.9999907 2.3514893e-08 0.9999912 0.9999385 0.99999475 1.0 0.99999404 0.99999845 1.3519231e-07 1.0 3.7852974e-09 4.9312745e-09 2.4377347e-05 0.9999999 6.808998e-06 0.9998698 0.99996424 0.99999976 1.0 1.0 6.823137e-05 6.852879e-08 1.0 0.99999535 0.99997425 3.8249862e-05 0.9999888 0.99962974 0.9999944 4.3203894e-05 0.9999987 3.4291499e-09 0.999998 1.0 0.9822421 3.553944e-09 0.99999964 1.0 2.1643276e-08 0.99996114 1.7243474e-05 0.9999938 1.0 8.819919e-09 0.99485886 0.99999964 0.9999852 0.99998987 0.9999925 5.5334253e-09 0.9999933 0.9999995 0.99999404 0.0010471337 0.99998796 1.0 1.0 4.9682827e-09 0.9999944 0.9999994 0.9999937 0.99994147 0.99996793 0.99999344 0.99999774 0.99999344 0.99973005 0.99998987 0.9999794 0.99996364 0.9999987 1.0 2.1865013e-08 4.309555e-05 0.99997735 0.9999963 0.9999572 0.9999987 1.0 0.9999347 1.05570925e-05 1.0 2.1173113e-05 0.99999046 0.9999924 1.0 0.9999455 5.5116764e-08 0.99999976 0.9999839 1.6379698e-08 0.99999976 2.9397121e-08 0.99997973 0.99999857 0.9999429 1.0 1.0
2 0.99998057 0.9999999 0.9999993 1.0 0.9999943 1.0 0.9998165 8.4944666e-05 0.9999392 4.1584048e-05 0.9999584 0.9999728 6.773493e-08 8.2285545e-08 1.0 0.99999154 3.3904116e-06 0.9999701 0.9999858 0.9999753 0.9999999 0.9999473 0.9999815 0.99999976 0.9999796 1.0 1.0 2.5907102e-05 1.0 0.9999783 0.9999901 2.578555e-08 0.9999906 0.99993527 0.9999944 1.0 0.9999937 0.99999833 1.462402e-07 1.0 4.2320285e-09 5.4261404e-09 2.5549063e-05 0.9999999 7.325838e-06 0.9998641 0.9999622 0.99999976 1.0 1.0 7.16571e-05 7.5425405e-08 1.0 0.9999951 0.9999728 4.0713014e-05 0.99998796 0.99961394 0.9999939 4.53159e-05 0.99999857 3.8118513e-09 0.99999785 1.0 0.9818055 3.970084e-09 0.99999964 1.0 2.3681203e-08 0.9999591 1.8277657e-05 0.9999933 1.0 9.744007e-09 0.9946568 0.99999964 0.99998426 0.9999893 0.999992 6.1470167e-09 0.99999297 0.9999995 0.9999937 0.0010765207 0.9999871 1.0 1.0 5.5004055e-09 0.99999404 0.9999994 0.9999933 0.99993885 0.9999658 0.99999297 0.9999976 0.99999297 0.99971944 0.9999893 0.99997807 0.9999616 0.99999857 1.0 2.4043853e-08 4.5880137e-05 0.9999763 0.99999607 0.9999547 0.99999857 1.0 0.9999317 1.1173722e-05 1.0 2.241743e-05 0.99998975 0.9999919 1.0 0.9999422 6.055228e-08 0.99999964 0.9999827 1.827479e-08 0.99999976 3.2557463e-08 0.99997854 0.99999845 0.9999387 1.0 1.0
3 0.99998176 1.0 0.9999993 1.0 0.99999464 1.0 0.9998246 8.078902e-05 0.9999423 3.9682956e-05 0.9999603 0.99997413 6.25357e-08 7.567094e-08 1.0 0.9999919 3.1685317e-06 0.9999716 0.99998665 0.9999764 0.9999999 0.9999498 0.9999825 0.99999976 0.9999807 1.0 1.0 2.4445837e-05 1.0 0.9999794 0.9999907 2.372664e-08 0.9999912 0.99993837 0.99999464 1.0 0.99999404 0.99999845 1.3718058e-07 1.0 3.8430232e-09 4.9809783e-09 2.4387018e-05 0.9999999 6.828422e-06 0.99986887 0.999964 0.99999976 1.0 1.0 6.828813e-05 6.970442e-08 1.0 0.99999523 0.99997413 3.8532646e-05 0.9999887 0.9996276 0.9999943 4.3145676e-05 0.9999987 3.481225e-09 0.999998 1.0 0.9821508 3.6076049e-09 0.99999964 1.0 2.168625e-08 0.99996114 1.7345119e-05 0.9999938 1.0 8.944623e-09 0.9948437 0.99999964 0.9999851 0.99998987 0.9999925 5.5836575e-09 0.9999933 0.9999995 0.99999404 0.0010519164 0.99998784 1.0 1.0 4.997994e-09 0.9999944 0.9999994 0.9999937 0.9999416 0.9999677 0.9999933 0.99999774 0.99999344 0.9997292 0.99998975 0.99997914 0.9999635 0.9999987 1.0 2.2110052e-08 4.353663e-05 0.99997735 0.9999963 0.99995697 0.9999987 1.0 0.9999342 1.062978e-05 1.0 2.1128071e-05 0.99999034 0.99999225 1.0 0.9999449 5.526583e-08 0.99999976 0.99998367 1.6622351e-08 0.99999976 2.9679777e-08 0.99997973 0.99999857 0.9999424 1.0 1.0
4 0.9999808 0.9999999 0.9999993 1.0 0.9999944 1.0 0.9998166 8.4934145e-05 0.99994004 4.155059e-05 0.99995816 0.99997294 6.7798524e-08 8.0330814e-08 1.0 0.9999914 3.3859944e-06 0.9999701 0.99998593 0.99997556 0.9999999 0.99994814 0.9999815 0.99999976 0.99997985 1.0 1.0 2.5400721e-05 1.0 0.99997854 0.9999901 2.5606267e-08 0.9999907 0.99993587 0.9999944 1.0 0.9999937 0.99999833 1.4897144e-07 1.0 4.16602e-09 5.41357e-09 2.5660896e-05 0.9999999 7.188832e-06 0.99986243 0.99996245 0.99999976 1.0 1.0 7.1114955e-05 7.492827e-08 1.0 0.9999951 0.9999726 3.9910854e-05 0.99998796 0.99961543 0.99999404 4.571322e-05 0.9999987 3.8019614e-09 0.99999785 1.0 0.98195213 3.926444e-09 0.99999964 1.0 2.3637703e-08 0.9999591 1.8273404e-05 0.99999344 1.0 9.66088e-09 0.99470735 0.99999964 0.99998426 0.9999893 0.999992 6.0776153e-09 0.99999297 0.9999995 0.9999937 0.0010946013 0.99998724 1.0 1.0 5.496273e-09 0.99999416 0.9999994 0.9999933 0.9999392 0.9999665 0.99999297 0.9999976 0.9999931 0.9997248 0.99998915 0.9999778 0.9999621 0.99999857 1.0 2.4092238e-08 4.528661e-05 0.9999765 0.99999607 0.9999554 0.9999987 1.0 0.99993074 1.1052185e-05 1.0 2.2271846e-05 0.99998987 0.999992 1.0 0.99994254 5.974452e-08 0.99999964 0.99998283 1.8115601e-08 0.99999976 3.2118802e-08 0.99997866 0.99999845 0.99994075 1.0 1.0
5 0.99998045 0.9999999 0.9999993 1.0 0.9999944 1.0 0.9998141 8.520119e-05 0.9999393 4.2026608e-05 0.9999579 0.99997294 6.8257854e-08 8.188677e-08 1.0 0.9999913 3.4641262e-06 0.99996984 0.9999857 0.9999752 0.9999999 0.9999466 0.9999813 0.99999976 0.9999795 1.0 1.0 2.5865975e-05 1.0 0.99997807 0.9999901 2.5966134e-08 0.9999907 0.9999347 0.9999944 1.0 0.9999937 0.99999833 1.5024283e-07 1.0 4.3248174e-09 5.5277076e-09 2.5663467e-05 0.9999999 7.339229e-06 0.9998615 0.9999621 0.99999976 1.0 1.0 7.1699615e-05 7.5001196e-08 1.0 0.999995 0.9999727 4.0519815e-05 0.9999881 0.9996145 0.9999939 4.5713266e-05 0.9999987 3.869295e-09 0.99999785 1.0 0.98183745 3.9705683e-09 0.99999964 1.0 2.435109e-08 0.9999585 1.8403167e-05 0.9999933 1.0 9.92176e-09 0.99471515 0.99999964 0.99998415 0.9999893 0.9999919 6.2287233e-09 0.99999285 0.9999995 0.9999937 0.0010829902 0.999987 1.0 1.0 5.5841265e-09 0.9999939 0.9999994 0.9999932 0.9999379 0.9999658 0.99999285 0.9999976 0.9999931 0.9997162 0.99998915 0.99997795 0.9999616 0.99999857 1.0 2.421067e-08 4.533501e-05 0.99997604 0.99999607 0.99995506 0.99999857 1.0 0.9999305 1.1334667e-05 1.0 2.2427716e-05 0.99998975 0.9999918 1.0 0.99994266 6.151429e-08 0.99999964 0.9999827 1.8320755e-08 0.99999976 3.2536853e-08 0.9999784 0.99999845 0.9999392 1.0 1.0
6 0.9999825 1.0 0.9999994 1.0 0.999995 1.0 0.9998307 7.648742e-05 0.99994504 3.7761376e-05 0.9999622 0.99997544 5.7405902e-08 6.893782e-08 1.0 0.9999924 3.0043439e-06 0.9999732 0.99998736 0.9999776 0.9999999 0.9999521 0.9999833 0.99999976 0.99998164 1.0 1.0 2.324358e-05 1.0 0.99998045 0.9999912 2.166872e-08 0.99999166 0.99994123 0.999995 1.0 0.9999944 0.99999857 1.2584292e-07 1.0 3.4797845e-09 4.486843e-09 2.3121851e-05 0.9999999 6.4121427e-06 0.99987364 0.9999659 0.99999976 1.0 1.0 6.499426e-05 6.3806695e-08 1.0 0.9999956 0.99997544 3.6422607e-05 0.9999893 0.9996426 0.99999464 4.1232684e-05 0.9999988 3.1416971e-09 0.9999981 1.0 0.98258626 3.2744587e-09 0.99999976 1.0 1.989693e-08 0.9999627 1.6444517e-05 0.99999416 1.0 8.165949e-09 0.99497414 0.99999964 0.99998593 0.99999034 0.99999285 5.0906053e-09 0.9999937 0.9999995 0.9999944 0.0010100829 0.99998856 1.0 1.0 4.56655e-09 0.99999464 0.9999994 0.99999404 0.9999443 0.9999691 0.9999937 0.999998 0.9999938 0.99973947 0.99999034 0.9999801 0.99996567 0.9999988 1.0 2.0124329e-08 4.1084666e-05 0.9999784 0.99999654 0.9999591 0.9999988 1.0 0.9999373 1.0015909e-05 1.0 2.003541e-05 0.99999094 0.9999927 1.0 0.9999474 5.0753577e-08 0.99999976 0.9999845 1.5180648e-08 0.99999976 2.705541e-08 0.99998057 0.9999987 0.99994504 1.0 1.0
7 0.99998283 1.0 0.9999994 1.0 0.9999951 1.0 0.99983335 7.524907e-05 0.9999459 3.71497e-05 0.9999628 0.9999758 5.5894564e-08 6.713901e-08 1.0 0.9999925 2.9390337e-06 0.99997354 0.9999876 0.99997795 0.9999999 0.9999529 0.99998367 0.9999999 0.999982 1.0 1.0 2.2837687e-05 1.0 0.9999808 0.9999913 2.105792e-08 0.9999918 0.9999423 0.9999951 1.0 0.9999945 0.99999857 1.2245424e-07 1.0 3.3707033e-09 4.3527395e-09 2.2731023e-05 1.0 6.285897e-06 0.9998752 0.9999664 0.99999976 1.0 1.0 6.4081876e-05 6.204206e-08 1.0 0.9999957 0.9999758 3.581178e-05 0.9999895 0.99964654 0.99999475 4.0518735e-05 0.9999988 3.047594e-09 0.9999981 1.0 0.9826863 3.1678722e-09 0.99999976 1.0 1.9299339e-08 0.9999633 1.6118476e-05 0.99999416 1.0 7.921113e-09 0.9950105 0.99999964 0.9999862 0.9999906 0.99999297 4.939059e-09 0.9999938 0.9999995 0.9999944 0.0009997579 0.9999887 1.0 1.0 4.423495e-09 0.99999475 0.9999995 0.99999416 0.99994516 0.9999697 0.9999938 0.999998 0.9999939 0.9997433 0.99999046 0.99998045 0.99996614 0.9999988 1.0 1.9592568e-08 4.0451283e-05 0.9999788 0.99999654 0.9999597 0.9999988 1.0 0.99993825 9.825633e-06 1.0 1.9645837e-05 0.99999106 0.99999285 1.0 0.99994814 4.947415e-08 0.99999976 0.99998486 1.4733611e-08 0.99999976 2.6270714e-08 0.9999809 0.9999987 0.9999459 1.0 1.0
8 0.99988365 0.99999905 0.9999925 0.99999976 0.9999552 0.9999999 0.9991443 0.00047484884 0.9996717 0.0002398158 0.99976975 0.9998448 1.2244564e-06 1.3877568e-06 1.0 0.999933 3.0087998e-05 0.9998198 0.99990654 0.99986255 0.99999857 0.9997142 0.99988186 0.999997 0.9998727 0.9999999 0.99999976 0.00015606404 0.9999999 0.99986935 0.9999298 5.9865096e-07 0.99993277 0.9996537 0.9999589 0.9999999 0.99995196 0.99998355 2.45563e-06 0.9999993 1.2391259e-07 1.6478663e-07 0.00016663689 0.9999989 6.236978e-05 0.99942195 0.99976975 0.9999964 0.99999976 0.9999993 0.00036678635 1.4455136e-06 0.99999976 0.99996257 0.9998455 0.00024173771 0.9999211 0.99856704 0.9999546 0.00027057822 0.999987 1.1095689e-07 0.9999795 0.99999917 0.96348035 1.19179084e-07 0.99999595 0.9999994 5.311721e-07 0.9997882 0.00012798219 0.9999511 0.9999999 2.399491e-07 0.9867742 0.99999523 0.99989855 0.9999306 0.9999461 1.584594e-07 0.9999491 0.99999475 0.9999553 0.0037834584 0.99991024 0.9999999 0.99999976 1.4184918e-07 0.9999547 0.9999931 0.9999447 0.9996679 0.99981636 0.9999498 0.99997854 0.9999505 0.9989792 0.999928 0.99985313 0.9997726 0.99998593 0.99999976 4.967035e-07 0.000283082 0.9998604 0.99996734 0.9997534 0.99998546 0.99999964 0.9996425 7.918047e-05 0.9999999 0.00014144642 0.99993074 0.99994445 0.9999999 0.9997074 1.0955356e-06 0.99999607 0.9998809 4.0682207e-07 0.9999963 6.504774e-07 0.999877 0.99998546 0.99968946 0.9999999 0.9999999
9 0.9999814 1.0 0.9999993 1.0 0.99999464 1.0 0.9998228 8.063623e-05 0.9999422 3.9785184e-05 0.9999602 0.99997413 6.2851385e-08 7.591598e-08 1.0 0.9999919 3.2162382e-06 0.9999716 0.9999865 0.9999765 0.9999999 0.99995005 0.99998236 0.99999976 0.99998057 1.0 1.0 2.4541958e-05 1.0 0.99997926 0.9999907 2.3937373e-08 0.99999106 0.999938 0.99999464 1.0 0.99999404 0.99999845 1.3744352e-07 1.0 3.858859e-09 5.0013984e-09 2.4460925e-05 0.9999999 6.8475615e-06 0.99986684 0.99996424 0.99999976 1.0 1.0 6.805462e-05 6.95452e-08 1.0 0.99999535 0.999974 3.85955e-05 0.99998856 0.9996271 0.9999943 4.3327094e-05 0.9999987 3.498198e-09 0.999998 1.0 0.9821233 3.6359895e-09 0.99999964 1.0 2.1825969e-08 0.9999609 1.746491e-05 0.9999937 1.0 8.937478e-09 0.9948277 0.99999964 0.999985 0.99998987 0.9999924 5.629383e-09 0.9999933 0.9999995 0.9999939 0.0010622123 0.99998784 1.0 1.0 5.0517026e-09 0.9999944 0.9999994 0.9999937 0.9999416 0.99996746 0.9999933 0.99999774 0.99999344 0.999731 0.99998975 0.999979 0.99996364 0.9999987 1.0 2.215391e-08 4.329814e-05 0.99997735 0.9999962 0.99995697 0.9999987 1.0 0.9999341 1.0630511e-05 1.0 2.1050942e-05 0.99999034 0.99999225 1.0 0.99994457 5.5676015e-08 0.99999976 0.9999838 1.6739722e-08 0.99999976 2.9854537e-08 0.9999795 0.99999857 0.9999423 1.0 1.0
10 0.9999808 0.9999999 0.9999993 1.0 0.9999944 1.0 0.99981815 8.403009e-05 0.99994016 4.131207e-05 0.99995863 0.99997306 6.6348214e-08 8.018447e-08 1.0 0.99999154 3.348609e-06 0.99997056 0.99998605 0.9999753 0.9999999 0.9999479 0.9999815 0.99999976 0.99998 1.0 1.0 2.5420788e-05 1.0 0.9999784 0.99999034 2.54391e-08 0.9999908 0.999936 0.9999944 1.0 0.9999937 0.99999833 1.4490993e-07 1.0 4.1170916e-09 5.329325e-09 2.5351139e-05 0.9999999 7.1983745e-06 0.9998635 0.9999627 0.99999976 1.0 1.0 7.097817e-05 7.3571584e-08 1.0 0.9999951 0.99997306 4.0018596e-05 0.9999881 0.99961746 0.99999404 4.52014e-05 0.9999987 3.739735e-09 0.99999785 1.0 0.98186606 3.8932955e-09 0.99999964 1.0 2.3373813e-08 0.9999596 1.8270737e-05 0.99999344 1.0 9.559279e-09 0.99470866 0.99999964 0.9999844 0.9999894 0.99999213 6.0215606e-09 0.9999931 0.9999995 0.9999938 0.0010824719 0.99998724 1.0 1.0 5.3970126e-09 0.99999416 0.9999994 0.9999933 0.9999391 0.9999665 0.9999931 0.99999774 0.9999931 0.999724 0.9999893 0.99997795 0.999962 0.99999857 1.0 2.3639414e-08 4.5046916e-05 0.9999765 0.99999607 0.9999554 0.9999987 1.0 0.99993193 1.1031882e-05 1.0 2.2165754e-05 0.99998987 0.9999919 1.0 0.9999434 5.907011e-08 0.99999964 0.99998295 1.770882e-08 0.99999976 3.1594922e-08 0.9999789 0.99999845 0.99994016 1.0 1.0
11 0.9999831 1.0 0.9999994 1.0 0.9999951 1.0 0.9998357 7.433977e-05 0.9999467 3.6590445e-05 0.9999634 0.99997616 5.4577598e-08 6.58398e-08 1.0 0.9999926 2.8871536e-06 0.9999739 0.9999877 0.9999783 0.9999999 0.9999536 0.9999839 0.9999999 0.99998236 1.0 1.0 2.2536695e-05 1.0 0.9999809 0.9999914 2.058216e-08 0.9999919 0.9999429 0.9999951 1.0 0.9999945 0.99999857 1.1980322e-07 1.0 3.2716683e-09 4.2493866e-09 2.2434155e-05 1.0 6.1927412e-06 0.9998766 0.999967 0.99999976 1.0 1.0 6.322335e-05 6.0465034e-08 1.0 0.9999957 0.99997616 3.540227e-05 0.9999896 0.99964917 0.99999475 3.9968443e-05 0.9999988 2.9675968e-09 0.9999982 1.0 0.9827445 3.0833591e-09 0.99999976 1.0 1.8864752e-08 0.999964 1.5874703e-05 0.9999943 1.0 7.701164e-09 0.9950458 0.99999964 0.9999863 0.9999907 0.9999931 4.8085504e-09 0.9999939 0.9999995 0.9999945 0.0009942572 0.9999889 1.0 1.0 4.3095345e-09 0.9999949 0.9999995 0.9999943 0.999946 0.9999701 0.9999939 0.999998 0.99999404 0.99974674 0.9999906 0.9999808 0.9999666 0.9999988 1.0 1.9183915e-08 3.9985636e-05 0.99997914 0.99999666 0.9999603 0.9999988 1.0 0.9999391 9.655726e-06 1.0 1.938375e-05 0.9999912 0.99999297 1.0 0.99994886 4.8283212e-08 0.99999976 0.9999851 1.4359047e-08 0.99999976 2.5720807e-08 0.99998116 0.9999987 0.9999465 1.0 1.0
12 0.99998105 1.0 0.9999993 1.0 0.9999945 1.0 0.9998221 8.1684135e-05 0.99994135 4.055047e-05 0.9999597 0.9999739 6.420995e-08 7.722658e-08 1.0 0.99999166 3.2389323e-06 0.99997115 0.9999864 0.9999759 0.9999999 0.9999496 0.9999821 0.99999976 0.99998057 1.0 1.0 2.4733023e-05 1.0 0.9999789 0.99999046 2.4498208e-08 0.99999106 0.99993753 0.99999464 1.0 0.9999938 0.99999845 1.3901023e-07 1.0 3.9467767e-09 5.1219176e-09 2.4642522e-05 0.9999999 7.019271e-06 0.9998672 0.9999633 0.99999976 1.0 1.0 6.910371e-05 7.0647644e-08 1.0 0.99999523 0.9999739 3.926462e-05 0.99998856 0.99962115 0.99999416 4.3635802e-05 0.9999987 3.564208e-09 0.999998 1.0 0.9819496 3.7080425e-09 0.99999964 1.0 2.235464e-08 0.9999609 1.7758863e-05 0.9999937 1.0 9.1625045e-09 0.9947608 0.99999964 0.99998486 0.9999896 0.9999924 5.791276e-09 0.9999932 0.9999995 0.9999939 0.001054792 0.9999876 1.0 1.0 5.1383466e-09 0.9999943 0.9999994 0.99999356 0.9999404 0.9999671 0.9999932 0.99999774 0.9999933 0.999726 0.9999895 0.99997866 0.9999634 0.9999987 1.0 2.2619833e-08 4.4225784e-05 0.99997723 0.9999962 0.99995625 0.9999987 1.0 0.9999337 1.0750896e-05 1.0 2.1300257e-05 0.9999901 0.99999225 1.0 0.9999443 5.6818003e-08 0.99999976 0.99998343 1.6960904e-08 0.99999976 2.999357e-08 0.9999795 0.99999857 0.9999417 1.0 1.0
13 0.99998164 1.0 0.9999993 1.0 0.99999475 1.0 0.9998252 7.974172e-05 0.99994314 3.9401235e-05 0.9999604 0.99997437 6.1281476e-08 7.426567e-08 1.0 0.999992 3.1582622e-06 0.99997175 0.99998665 0.99997663 0.9999999 0.9999502 0.9999827 0.99999976 0.9999807 1.0 1.0 2.4309187e-05 1.0 0.9999795 0.9999907 2.311997e-08 0.9999912 0.9999392 0.99999475 1.0 0.99999416 0.99999845 1.3388029e-07 1.0 3.7801247e-09 4.912518e-09 2.3929464e-05 0.9999999 6.760928e-06 0.9998698 0.9999645 0.99999976 1.0 1.0 6.7513916e-05 6.909289e-08 1.0 0.99999535 0.99997437 3.8090682e-05 0.9999889 0.9996307 0.9999943 4.2917512e-05 0.9999987 3.429235e-09 0.999998 1.0 0.98230964 3.527915e-09 0.99999964 1.0 2.1452209e-08 0.9999614 1.730837e-05 0.9999938 1.0 8.74244e-09 0.9948789 0.99999964 0.99998534 0.99998987 0.9999926 5.505832e-09 0.9999933 0.9999995 0.99999404 0.0010537675 0.99998796 1.0 1.0 4.9144298e-09 0.9999944 0.9999994 0.9999938 0.99994195 0.99996793 0.99999344 0.99999785 0.99999344 0.9997354 0.99998987 0.99997926 0.9999639 0.9999987 1.0 2.1883952e-08 4.304113e-05 0.99997735 0.9999963 0.99995756 0.9999987 1.0 0.9999356 1.0490223e-05 1.0 2.088105e-05 0.99999046 0.9999924 1.0 0.99994576 5.455772e-08 0.99999976 0.9999839 1.6277978e-08 0.99999976 2.9087348e-08 0.99998 0.99999857 0.9999428 1.0 1.0
14 0.9999821 1.0 0.9999993 1.0 0.9999949 1.0 0.9998276 7.855669e-05 0.99994373 3.873303e-05 0.99996126 0.99997497 5.986201e-08 7.178414e-08 1.0 0.99999213 3.081582e-06 0.99997234 0.999987 0.9999771 0.9999999 0.999951 0.99998295 0.99999976 0.9999813 1.0 1.0 2.3866656e-05 1.0 0.99998 0.99999094 2.2679494e-08 0.9999914 0.99994004 0.9999949 1.0 0.99999416 0.99999845 1.306569e-07 1.0 3.6490513e-09 4.720278e-09 2.3802442e-05 0.9999999 6.6114208e-06 0.999871 0.9999651 0.99999976 1.0 1.0 6.657017e-05 6.6209154e-08 1.0 0.99999547 0.99997485 3.7228507e-05 0.99998903 0.99963427 0.9999945 4.2099655e-05 0.9999988 3.2946312e-09 0.9999981 1.0 0.9824651 3.4243461e-09 0.99999964 1.0 2.0864098e-08 0.999962 1.6837243e-05 0.9999939 1.0 8.514906e-09 0.99490005 0.99999964 0.9999856 0.9999901 0.9999926 5.3289897e-09 0.99999356 0.9999995 0.99999416 0.0010320841 0.9999882 1.0 1.0 4.7683826e-09 0.9999945 0.9999994 0.9999938 0.99994314 0.9999684 0.99999356 0.99999785 0.9999937 0.9997358 0.99999 0.9999796 0.9999647 0.9999987 1.0 2.106057e-08 4.224113e-05 0.99997795 0.9999964 0.99995816 0.9999988 1.0 0.9999361 1.0259021e-05 1.0 2.0530917e-05 0.9999906 0.9999925 1.0 0.9999466 5.3209888e-08 0.99999976 0.99998415 1.5789471e-08 0.99999976 2.8178984e-08 0.9999802 0.99999857 0.9999436 1.0 1.0
15 0.9999807 0.9999999 0.9999993 1.0 0.9999943 1.0 0.99981433 8.501031e-05 0.9999393 4.206851e-05 0.9999578 0.99997294 6.812571e-08 8.239406e-08 1.0 0.9999914 3.4264433e-06 0.99996996 0.9999858 0.9999752 0.9999999 0.9999471 0.9999813 0.99999976 0.9999796 1.0 1.0 2.59032e-05 1.0 0.9999782 0.99999 2.6153721e-08 0.9999906 0.99993503 0.9999944 1.0 0.99999356 0.99999833 1.496638e-07 1.0 4.281147e-09 5.5123466e-09 2.6027454e-05 0.9999999 7.337234e-06 0.99986255 0.99996173 0.99999976 1.0 1.0 7.232652e-05 7.591496e-08 1.0 0.999995 0.9999727 4.037259e-05 0.99998796 0.9996111 0.9999939 4.579918e-05 0.99999857 3.8567767e-09 0.99999785 1.0 0.9818224 3.9826054e-09 0.99999964 1.0 2.407639e-08 0.9999589 1.8355266e-05 0.9999933 1.0 9.964679e-09 0.9946555 0.99999964 0.99998415 0.9999893 0.999992 6.1742536e-09 0.99999285 0.9999994 0.99999356 0.0011027955 0.9999871 1.0 1.0 5.569575e-09 0.9999939 0.9999994 0.9999932 0.99993837 0.9999658 0.99999297 0.9999976 0.99999297 0.99971884 0.99998903 0.99997795 0.9999616 0.99999857 1.0 2.4217737e-08 4.5826528e-05 0.9999759 0.99999607 0.9999547 0.99999857 1.0 0.999931 1.1290348e-05 1.0 2.2329352e-05 0.99998975 0.9999919 1.0 0.99994206 6.092846e-08 0.99999964 0.9999826 1.8316737e-08 0.99999976 3.2670243e-08 0.9999784 0.99999845 0.99993896 1.0 1.0
16 0.99998033 0.9999999 0.9999993 1.0 0.99999416 1.0 0.9998135 8.612022e-05 0.99993837 4.2341915e-05 0.9999577 0.9999726 6.979329e-08 8.3169475e-08 1.0 0.9999913 3.4615666e-06 0.9999695 0.9999857 0.99997485 0.9999999 0.9999465 0.99998105 0.99999976 0.9999796 1.0 1.0 2.628194e-05 1.0 0.99997807 0.99999 2.664866e-08 0.99999046 0.99993384 0.9999943 1.0 0.99999356 0.99999833 1.5175529e-07 1.0 4.3701087e-09 5.6186136e-09 2.622268e-05 0.9999999 7.4435793e-06 0.9998634 0.99996114 0.99999976 1.0 1.0 7.258832e-05 7.725678e-08 1.0 0.999995 0.9999727 4.117288e-05 0.99998796 0.99960715 0.9999938 4.6391684e-05 0.99999857 3.935644e-09 0.99999785 1.0 0.9818189 4.0598933e-09 0.99999964 1.0 2.4246487e-08 0.99995875 1.8588496e-05 0.9999933 1.0 1.010902e-08 0.99465585 0.99999964 0.999984 0.99998903 0.999992 6.2592473e-09 0.99999285 0.9999994 0.99999356 0.0010984401 0.999987 1.0 1.0 5.630715e-09 0.9999939 0.9999994 0.99999297 0.9999378 0.9999652 0.99999297 0.9999976 0.99999285 0.99971575 0.9999889 0.99997795 0.9999614 0.99999857 1.0 2.4459691e-08 4.636957e-05 0.9999757 0.99999595 0.9999541 0.99999857 1.0 0.9999299 1.1330279e-05 1.0 2.2464124e-05 0.99998975 0.99999166 1.0 0.99994123 6.108356e-08 0.99999964 0.99998236 1.8545661e-08 0.99999976 3.3336473e-08 0.99997807 0.99999845 0.99993896 1.0 1.0
17 0.9999813 1.0 0.9999993 1.0 0.9999945 1.0 0.99982053 8.205755e-05 0.99994147 4.036339e-05 0.9999597 0.9999738 6.439846e-08 7.749055e-08 1.0 0.9999918 3.248296e-06 0.99997115 0.9999864 0.9999759 0.9999999 0.99994886 0.9999821 0.99999976 0.99998045 1.0 1.0 2.4813773e-05 1.0 0.9999789 0.99999046 2.4467715e-08 0.99999094 0.9999373 0.99999464 1.0 0.9999939 0.99999845 1.3982286e-07 1.0 3.9778683e-09 5.1095745e-09 2.5026637e-05 0.9999999 7.0049337e-06 0.99986696 0.9999633 0.99999976 1.0 1.0 6.984133e-05 7.1585205e-08 1.0 0.99999523 0.99997365 3.8921567e-05 0.99998844 0.9996226 0.9999943 4.3908756e-05 0.9999987 3.6038568e-09 0.999998 1.0 0.98204064 3.714222e-09 0.99999964 1.0 2.2506905e-08 0.99996054 1.763243e-05 0.99999356 1.0 9.252967e-09 0.9947541 0.99999964 0.99998486 0.9999896 0.99999225 5.758628e-09 0.9999932 0.9999995 0.9999939 0.0010675021 0.9999876 1.0 1.0 5.197954e-09 0.9999943 0.9999994 0.99999356 0.9999405 0.9999672 0.9999932 0.99999774 0.9999933 0.9997265 0.9999895 0.9999788 0.9999633 0.9999987 1.0 2.2664704e-08 4.420032e-05 0.9999769 0.9999962 0.9999565 0.9999987 1.0 0.9999331 1.0785637e-05 1.0 2.146721e-05 0.9999902 0.99999213 1.0 0.99994445 5.7254894e-08 0.99999976 0.9999833 1.706907e-08 0.99999976 3.0483047e-08 0.99997926 0.99999857 0.9999409 1.0 1.0
18 0.9999807 0.9999999 0.9999993 1.0 0.9999943 1.0 0.9998154 8.4768675e-05 0.9999393 4.2020518e-05 0.9999579 0.99997294 6.788976e-08 8.18006e-08 1.0 0.9999914 3.411425e-06 0.9999701 0.9999858 0.9999753 0.9999999 0.9999471 0.9999814 0.99999976 0.99997973 1.0 1.0 2.5906114e-05 1.0 0.9999783 0.9999901 2.6084775e-08 0.9999906 0.99993515 0.9999944 1.0 0.99999356 0.99999833 1.4849869e-07 1.0 4.250773e-09 5.4988214e-09 2.5971021e-05 0.9999999 7.3100937e-06 0.99986243 0.99996185 0.99999976 1.0 1.0 7.199168e-05 7.554274e-08 1.0 0.999995 0.9999728 4.024773e-05 0.99998796 0.9996123 0.9999939 4.5630597e-05 0.99999857 3.8305603e-09 0.99999785 1.0 0.9818642 3.9615817e-09 0.99999964 1.0 2.4048164e-08 0.999959 1.8326475e-05 0.9999933 1.0 9.90191e-09 0.9946648 0.99999964 0.99998426 0.9999893 0.999992 6.13885e-09 0.99999297 0.9999995 0.9999937 0.0010997421 0.9999871 1.0 1.0 5.5524234e-09 0.9999939 0.9999994 0.9999932 0.9999385 0.9999659 0.99999297 0.9999976 0.99999297 0.9997192 0.99998915 0.99997807 0.9999616 0.99999857 1.0 2.4129166e-08 4.5592147e-05 0.99997616 0.99999607 0.9999547 0.99999857 1.0 0.99993134 1.1242343e-05 1.0 2.2200447e-05 0.99998975 0.9999918 1.0 0.9999423 6.058405e-08 0.99999964 0.9999827 1.825006e-08 0.99999976 3.2529407e-08 0.9999784 0.99999845 0.99993944 1.0 1.0
19 0.9999821 1.0 0.9999993 1.0 0.9999949 1.0 0.9998281 7.8233956e-05 0.9999436 3.8703267e-05 0.9999614 0.99997497 5.955384e-08 7.178155e-08 1.0 0.99999213 3.0804742e-06 0.99997246 0.999987 0.9999771 0.9999999 0.999951 0.99998283 0.99999976 0.9999814 1.0 1.0 2.3868475e-05 1.0 0.99998 0.99999094 2.2580908e-08 0.9999914 0.9999399 0.9999949 1.0 0.99999416 0.99999845 1.3052104e-07 1.0 3.635033e-09 4.7098907e-09 2.3781728e-05 0.9999999 6.6229504e-06 0.9998715 0.9999651 0.99999976 1.0 1.0 6.65795e-05 6.6227344e-08 1.0 0.99999547 0.99997485 3.7211186e-05 0.9999889 0.9996344 0.9999945 4.1990792e-05 0.9999988 3.2978127e-09 0.9999981 1.0 0.9824409 3.3962397e-09 0.99999964 1.0 2.0784857e-08 0.9999621 1.6850832e-05 0.9999939 1.0 8.510911e-09 0.99489695 0.99999964 0.9999856 0.9999901 0.9999926 5.301829e-09 0.99999356 0.9999995 0.99999416 0.0010302509 0.9999882 1.0 1.0 4.7586064e-09 0.9999945 0.9999994 0.9999938 0.99994326 0.9999685 0.99999356 0.99999785 0.9999937 0.99973506 0.9999901 0.99997973 0.9999647 0.9999987 1.0 2.0995595e-08 4.1976662e-05 0.9999778 0.9999964 0.99995816 0.9999988 1.0 0.999936 1.02816075e-05 1.0 2.0437988e-05 0.9999907 0.9999925 1.0 0.99994636 5.2901544e-08 0.99999976 0.99998415 1.5698273e-08 0.99999976 2.8226916e-08 0.9999802 0.99999857 0.99994385 1.0 1.0
20 0.9999815 1.0 0.9999993 1.0 0.99999464 1.0 0.99982256 8.105362e-05 0.99994206 4.0318188e-05 0.99996006 0.999974 6.342509e-08 7.597435e-08 1.0 0.9999919 3.2088544e-06 0.9999715 0.9999865 0.9999763 0.9999999 0.99994946 0.99998224 0.99999976 0.9999807 1.0 1.0 2.4621053e-05 1.0 0.99997926 0.9999907 2.3862704e-08 0.99999106 0.999938 0.99999464 1.0 0.99999404 0.99999845 1.3763724e-07 1.0 3.850162e-09 4.992468e-09 2.448125e-05 0.9999999 6.8305253e-06 0.9998677 0.9999639 0.99999976 1.0 1.0 6.8679255e-05 6.9379716e-08 1.0 0.99999535 0.99997413 3.8587033e-05 0.99998844 0.9996264 0.9999943 4.3593547e-05 0.9999987 3.49515e-09 0.999998 1.0 0.98214185 3.6218695e-09 0.99999964 1.0 2.2021164e-08 0.999961 1.7547885e-05 0.9999938 1.0 9.057054e-09 0.99480504 0.99999964 0.999985 0.99998975 0.9999924 5.671523e-09 0.9999933 0.9999995 0.9999939 0.0010500351 0.99998784 1.0 1.0 5.039923e-09 0.9999943 0.9999994 0.99999356 0.9999411 0.99996746 0.9999932 0.99999774 0.99999344 0.99972934 0.99998975 0.999979 0.9999635 0.9999987 1.0 2.2404285e-08 4.344514e-05 0.9999771 0.9999963 0.99995685 0.9999987 1.0 0.9999337 1.0672667e-05 1.0 2.1324953e-05 0.9999902 0.99999225 1.0 0.9999448 5.5609583e-08 0.99999976 0.99998343 1.6611448e-08 0.99999976 3.0043783e-08 0.9999795 0.99999857 0.9999422 1.0 1.0
21 0.99998164 1.0 0.9999993 1.0 0.99999464 1.0 0.9998235 8.017152e-05 0.9999423 3.992768e-05 0.9999604 0.99997425 6.234717e-08 7.507734e-08 1.0 0.9999919 3.1830177e-06 0.99997175 0.99998665 0.9999765 0.9999999 0.99994946 0.99998236 0.99999976 0.9999809 1.0 1.0 2.4462932e-05 1.0 0.9999794 0.9999907 2.3735241e-08 0.99999106 0.99993837 0.99999475 1.0 0.99999404 0.99999845 1.3683602e-07 1.0 3.8244496e-09 4.9359605e-09 2.4317373e-05 0.9999999 6.8222835e-06 0.999869 0.999964 0.99999976 1.0 1.0 6.812189e-05 6.8863834e-08 1.0 0.99999535 0.99997425 3.815998e-05 0.99998856 0.99962807 0.9999943 4.3050615e-05 0.9999987 3.4345242e-09 0.999998 1.0 0.98208034 3.5831165e-09 0.99999964 1.0 2.1714149e-08 0.9999614 1.7360178e-05 0.9999938 1.0 8.942048e-09 0.99483526 0.99999964 0.9999851 0.99998975 0.9999924 5.6059606e-09 0.9999933 0.9999995 0.99999404 0.0010459347 0.99998784 1.0 1.0 4.974911e-09 0.9999944 0.9999994 0.9999937 0.9999417 0.9999677 0.9999933 0.99999774 0.99999344 0.99973124 0.99998987 0.99997914 0.99996376 0.9999987 1.0 2.2042764e-08 4.3215885e-05 0.99997723 0.9999963 0.9999573 0.9999987 1.0 0.9999343 1.0560275e-05 1.0 2.1193131e-05 0.99999034 0.99999225 1.0 0.9999454 5.4806147e-08 0.99999976 0.99998367 1.6490668e-08 0.99999976 2.9426797e-08 0.9999795 0.99999857 0.99994254 1.0 1.0
22 0.9999813 1.0 0.9999993 1.0 0.9999945 1.0 0.99982136 8.173307e-05 0.9999416 4.026052e-05 0.99996006 0.9999739 6.3859176e-08 7.704018e-08 1.0 0.9999918 3.2421187e-06 0.99997115 0.9999864 0.99997616 0.9999999 0.99994886 0.9999821 0.99999976 0.99998045 1.0 1.0 2.4796624e-05 1.0 0.99997914 0.9999906 2.4286662e-08 0.99999094 0.99993753 0.99999464 1.0 0.9999939 0.99999845 1.4057508e-07 1.0 3.9565675e-09 5.086325e-09 2.4817016e-05 0.9999999 6.9545986e-06 0.9998661 0.9999635 0.99999976 1.0 1.0 6.9304195e-05 7.075553e-08 1.0 0.99999523 0.99997365 3.8860635e-05 0.99998844 0.9996214 0.9999943 4.3813056e-05 0.9999987 3.5622372e-09 0.999998 1.0 0.9819935 3.694481e-09 0.99999964 1.0 2.2273563e-08 0.9999608 1.7756523e-05 0.9999937 1.0 9.197172e-09 0.99479973 0.99999964 0.99998486 0.9999896 0.99999225 5.779281e-09 0.9999933 0.9999995 0.9999939 0.0010661295 0.9999876 1.0 1.0 5.13916e-09 0.9999943 0.9999994 0.99999356 0.99994063 0.99996734 0.9999932 0.99999774 0.9999933 0.9997278 0.9999896 0.9999788 0.99996316 0.9999987 1.0 2.2600467e-08 4.4082874e-05 0.99997675 0.9999962 0.99995625 0.9999987 1.0 0.99993384 1.07541155e-05 1.0 2.156667e-05 0.9999902 0.99999213 1.0 0.99994457 5.6383694e-08 0.99999976 0.99998343 1.6951008e-08 0.99999976 3.0080425e-08 0.99997926 0.99999857 0.9999416 1.0 1.0
23 0.9999821 1.0 0.9999994 1.0 0.9999949 1.0 0.9998294 7.7648285e-05 0.99994445 3.8442686e-05 0.99996173 0.9999752 5.920761e-08 7.1141066e-08 1.0 0.99999225 3.0455092e-06 0.9999727 0.9999871 0.99997723 0.9999999 0.9999515 0.99998295 0.99999976 0.9999814 1.0 1.0 2.3528888e-05 1.0 0.9999801 0.99999106 2.2164519e-08 0.99999154 0.9999405 0.9999949 1.0 0.9999943 0.99999857 1.2841946e-07 1.0 3.5663095e-09 4.634324e-09 2.3503548e-05 0.9999999 6.5220443e-06 0.9998723 0.9999654 0.99999976 1.0 1.0 6.597931e-05 6.499298e-08 1.0 0.99999547 0.9999751 3.6989913e-05 0.99998903 0.9996377 0.9999945 4.1616975e-05 0.9999988 3.2440663e-09 0.9999981 1.0 0.98241144 3.345487e-09 0.99999976 1.0 2.0425768e-08 0.99996257 1.6684515e-05 0.99999404 1.0 8.3814715e-09 0.9949362 0.99999964 0.9999856 0.9999902 0.9999927 5.249745e-09 0.99999356 0.9999995 0.9999943 0.0010213086 0.9999883 1.0 1.0 4.6627227e-09 0.9999945 0.9999994 0.9999939 0.9999436 0.99996877 0.99999356 0.99999785 0.9999937 0.99973804 0.9999901 0.99998 0.9999651 0.9999987 1.0 2.0734213e-08 4.187223e-05 0.99997807 0.9999964 0.9999585 0.9999988 1.0 0.9999366 1.01843225e-05 1.0 2.0353631e-05 0.9999907 0.9999926 1.0 0.99994683 5.1923777e-08 0.99999976 0.99998426 1.5524263e-08 0.99999976 2.7803083e-08 0.99998033 0.9999987 0.99994445 1.0 1.0
24 0.9999825 1.0 0.9999994 1.0 0.999995 1.0 0.99983156 7.635814e-05 0.99994516 3.7696434e-05 0.9999622 0.99997556 5.744501e-08 6.936067e-08 1.0 0.9999924 3.0000547e-06 0.99997306 0.99998736 0.99997747 0.9999999 0.9999521 0.9999832 0.99999976 0.99998176 1.0 1.0 2.332336e-05 1.0 0.99998033 0.9999912 2.1697423e-08 0.99999166 0.999941 0.999995 1.0 0.9999944 0.99999857 1.2584567e-07 1.0 3.4793333e-09 4.4884096e-09 2.314091e-05 0.9999999 6.4451756e-06 0.9998741 0.9999658 0.99999976 1.0 1.0 6.532202e-05 6.350644e-08 1.0 0.9999956 0.9999753 3.6541627e-05 0.99998915 0.9996412 0.99999464 4.118941e-05 0.9999988 3.1532055e-09 0.9999981 1.0 0.98246855 3.2784397e-09 0.99999976 1.0 1.9935374e-08 0.9999628 1.6468104e-05 0.99999416 1.0 8.179682e-09 0.9949721 0.99999964 0.9999858 0.99999034 0.99999285 5.1075477e-09 0.9999937 0.9999995 0.9999944 0.0010140409 0.99998844 1.0 1.0 4.5803765e-09 0.99999464 0.9999994 0.99999404 0.99994445 0.99996924 0.9999937 0.999998 0.9999938 0.9997396 0.9999902 0.9999801 0.99996555 0.9999988 1.0 2.0267587e-08 4.1196407e-05 0.9999784 0.99999654 0.999959 0.9999988 1.0 0.9999373 1.00260295e-05 1.0 2.0010128e-05 0.9999908 0.9999927 1.0 0.9999474 5.1037617e-08 0.99999976 0.9999845 1.5164153e-08 0.99999976 2.7194064e-08 0.99998057 0.9999987 0.9999447 1.0 1.0
25 0.9999738 0.9999999 0.9999989 1.0 0.999992 1.0 0.99976224 0.00011237043 0.99991906 5.700231e-05 0.9999449 0.99996364 1.0923438e-07 1.3256835e-07 1.0 0.9999881 4.928592e-06 0.99995923 0.99998045 0.99996674 0.9999999 0.99993026 0.99997425 0.99999964 0.99997234 1.0 1.0 3.4702556e-05 1.0 0.99997056 0.9999863 4.40054e-08 0.99998665 0.99991393 0.999992 1.0 0.99999094 0.9999976 2.3721242e-07 0.9999999 7.524977e-09 9.524863e-09 3.4921e-05 0.9999999 1.0401622e-05 0.9998272 0.99994874 0.9999995 1.0 0.9999999 9.454138e-05 1.2187846e-07 1.0 0.99999297 0.9999635 5.4121112e-05 0.99998355 0.9995233 0.99999154 6.12988e-05 0.999998 6.747958e-09 0.9999969 0.9999999 0.97949696 6.9336163e-09 0.9999995 1.0 4.0813934e-08 0.99994636 2.5612002e-05 0.9999907 1.0 1.703453e-08 0.9938413 0.9999994 0.9999783 0.9999852 0.9999889 1.0611635e-08 0.9999901 0.99999917 0.9999913 0.0013091256 0.9999821 1.0 1.0 9.544121e-09 0.9999914 0.99999905 0.99999046 0.99991727 0.9999547 0.9999902 0.99999654 0.9999902 0.9996513 0.99998486 0.9999696 0.99994814 0.999998 1.0 3.995458e-08 6.229874e-05 0.9999671 0.9999943 0.9999399 0.999998 1.0 0.99990964 1.56878e-05 1.0 3.0262905e-05 0.9999857 0.9999887 1.0 0.999925 9.8695764e-08 0.9999995 0.99997616 3.0702623e-08 0.9999995 5.3533604e-08 0.9999708 0.99999774 0.9999213 1.0 1.0
26 0.9999794 0.9999999 0.99999917 1.0 0.9999939 1.0 0.9998066 8.949891e-05 0.99993587 4.3878073e-05 0.9999559 0.9999713 7.388631e-08 8.931483e-08 1.0 0.99999094 3.6415445e-06 0.9999683 0.999985 0.9999739 0.9999999 0.9999443 0.99998033 0.99999976 0.99997854 1.0 1.0 2.7483145e-05 1.0 0.999977 0.9999894 2.884998e-08 0.99999 0.9999318 0.99999404 1.0 0.9999932 0.9999982 1.6358192e-07 1.0 4.6643773e-09 6.108587e-09 2.731985e-05 0.9999999 7.800593e-06 0.9998559 0.9999597 0.99999964 1.0 1.0 7.600044e-05 8.296177e-08 1.0 0.99999475 0.9999714 4.2672935e-05 0.99998724 0.9995987 0.99999356 4.7900543e-05 0.99999857 4.2562167e-09 0.99999774 1.0 0.9815974 4.410058e-09 0.99999964 1.0 2.6483777e-08 0.99995697 1.9526537e-05 0.99999297 1.0 1.080536e-08 0.9945515 0.9999995 0.9999832 0.99998856 0.9999914 6.851217e-09 0.9999925 0.9999994 0.9999932 0.0011280833 0.9999863 1.0 1.0 6.1164918e-09 0.9999937 0.9999993 0.9999927 0.9999356 0.9999645 0.9999925 0.9999975 0.9999925 0.9997092 0.99998844 0.9999765 0.99995935 0.99999845 1.0 2.6664521e-08 4.80904e-05 0.9999747 0.9999958 0.9999523 0.99999857 1.0 0.9999275 1.1955699e-05 1.0 2.3431463e-05 0.99998915 0.9999913 1.0 0.99993956 6.5995074e-08 0.99999964 0.99998176 1.9992186e-08 0.99999976 3.6031093e-08 0.99997735 0.99999833 0.99993646 1.0 1.0
27 0.9999682 0.9999999 0.99999857 1.0 0.99999 1.0 0.99971884 0.00013892872 0.9999026 6.8268666e-05 0.9999329 0.99995625 1.5170812e-07 1.8165795e-07 1.0 0.9999851 6.3128286e-06 0.9999503 0.99997616 0.9999603 0.99999976 0.99991477 0.9999684 0.9999995 0.99996614 1.0 1.0 4.265418e-05 1.0 0.99996424 0.99998295 6.1295744e-08 0.9999838 0.9998965 0.9999902 1.0 0.9999888 0.9999969 3.264032e-07 0.9999999 1.0910004e-08 1.4032469e-08 4.3045315e-05 0.9999999 1.3432895e-05 0.99979895 0.9999372 0.9999994 1.0 0.9999999 0.00011290811 1.6939524e-07 1.0 0.9999914 0.99995565 6.648908e-05 0.9999794 0.99943787 0.9999895 7.515727e-05 0.9999974 9.828826e-09 0.99999607 0.9999999 0.9780166 1.00872946e-08 0.9999993 0.9999999 5.941916e-08 0.99993455 3.1780753e-05 0.9999887 1.0 2.4197051e-08 0.9932861 0.9999993 0.99997354 0.9999813 0.9999864 1.5348347e-08 0.99998784 0.99999905 0.99998915 0.001515855 0.99997747 1.0 1.0 1.3727082e-08 0.99998975 0.9999988 0.99998784 0.99990296 0.9999454 0.99998784 0.9999956 0.99998784 0.99958724 0.9999815 0.9999622 0.9999374 0.9999974 1.0 5.67502e-08 7.5202726e-05 0.9999603 0.99999297 0.9999281 0.9999974 1.0 0.9998909 1.9576133e-05 1.0 3.815092e-05 0.9999825 0.9999863 1.0 0.9999124 1.3712577e-07 0.9999994 0.9999709 4.322989e-08 0.9999994 7.465851e-08 0.9999651 0.99999714 0.9999037 1.0 1.0
28 0.999982 1.0 0.9999993 1.0 0.9999949 1.0 0.9998275 7.8367084e-05 0.999944 3.8700648e-05 0.99996114 0.99997485 5.9517276e-08 7.164941e-08 1.0 0.99999213 3.078712e-06 0.99997234 0.9999871 0.99997723 0.9999999 0.9999511 0.99998295 0.99999976 0.9999813 1.0 1.0 2.3713219e-05 1.0 0.99997985 0.99999094 2.2585818e-08 0.9999914 0.99994004 0.9999949 1.0 0.99999416 0.99999845 1.3109275e-07 1.0 3.615823e-09 4.709675e-09 2.3774517e-05 0.9999999 6.609782e-06 0.99987125 0.9999652 0.99999976 1.0 1.0 6.636442e-05 6.6297744e-08 1.0 0.99999547 0.99997485 3.713518e-05 0.9999889 0.9996344 0.9999945 4.2123465e-05 0.9999988 3.2848932e-09 0.9999981 1.0 0.9824384 3.4145367e-09 0.99999964 1.0 2.0841705e-08 0.99996233 1.6887658e-05 0.9999939 1.0 8.497837e-09 0.9949314 0.99999964 0.99998546 0.9999901 0.9999926 5.3373315e-09 0.99999356 0.9999995 0.99999416 0.0010206447 0.9999882 1.0 1.0 4.7571547e-09 0.9999945 0.9999994 0.9999938 0.9999435 0.99996865 0.99999356 0.99999785 0.9999937 0.99973625 0.9999901 0.9999796 0.99996483 0.9999987 1.0 2.1053783e-08 4.2075008e-05 0.99997795 0.9999964 0.9999585 0.9999987 1.0 0.9999362 1.0266968e-05 1.0 2.0687994e-05 0.9999907 0.9999925 1.0 0.9999467 5.2646474e-08 0.99999976 0.99998415 1.5768315e-08 0.99999976 2.8163242e-08 0.99998033 0.99999857 0.99994373 1.0 1.0
29 0.9999821 1.0 0.9999993 1.0 0.99999475 1.0 0.9998253 7.974651e-05 0.99994314 3.9136885e-05 0.9999609 0.99997437 6.10123e-08 7.338533e-08 1.0 0.999992 3.1325433e-06 0.99997175 0.99998677 0.9999769 0.9999999 0.9999503 0.9999827 0.99999976 0.9999809 1.0 1.0 2.4169613e-05 1.0 0.99997985 0.9999908 2.3252952e-08 0.9999913 0.9999391 0.99999475 1.0 0.99999416 0.99999845 1.332635e-07 1.0 3.806954e-09 4.849491e-09 2.3829605e-05 0.9999999 6.7902515e-06 0.99987054 0.99996424 0.99999976 1.0 1.0 6.742885e-05 6.8579794e-08 1.0 0.99999535 0.9999745 3.790338e-05 0.9999888 0.9996332 0.9999944 4.300937e-05 0.9999987 3.4171235e-09 0.999998 1.0 0.98233193 3.5288237e-09 0.99999964 1.0 2.1266558e-08 0.9999614 1.722643e-05 0.9999938 1.0 8.591811e-09 0.99489343 0.99999964 0.99998546 0.99998987 0.9999925 5.5201115e-09 0.9999933 0.9999995 0.99999416 0.0010408622 0.99998796 1.0 1.0 4.8761852e-09 0.9999945 0.9999994 0.9999937 0.9999423 0.9999678 0.99999344 0.99999785 0.99999356 0.9997341 0.99998987 0.9999795 0.9999645 0.9999987 1.0 2.1669091e-08 4.335628e-05 0.9999776 0.9999963 0.99995756 0.9999987 1.0 0.99993527 1.043824e-05 1.0 2.0854186e-05 0.99999046 0.9999924 1.0 0.9999455 5.4243007e-08 0.99999976 0.9999839 1.6337202e-08 0.99999976 2.8810994e-08 0.99998 0.99999857 0.9999428 1.0 1.0
30 0.9999815 1.0 0.9999993 1.0 0.99999464 1.0 0.9998241 8.0955666e-05 0.9999423 4.0089642e-05 0.99996066 0.9999745 6.248085e-08 7.551148e-08 1.0 0.9999919 3.1827203e-06 0.9999716 0.99998665 0.9999765 0.9999999 0.9999496 0.9999826 0.99999976 0.99998057 1.0 1.0 2.444411e-05 1.0 0.9999795 0.9999906 2.3607964e-08 0.9999912 0.9999386 0.99999475 1.0 0.99999404 0.99999845 1.3705987e-07 1.0 3.824231e-09 5.0199773e-09 2.4672572e-05 0.9999999 6.8356153e-06 0.99986744 0.99996424 0.99999976 1.0 1.0 6.7973546e-05 6.919167e-08 1.0 0.99999535 0.99997413 3.8481605e-05 0.9999888 0.9996258 0.9999943 4.325419e-05 0.9999987 3.4696708e-09 0.999998 1.0 0.982263 3.5734795e-09 0.99999964 1.0 2.1807077e-08 0.99996126 1.7501974e-05 0.9999938 1.0 8.993893e-09 0.9948506 0.99999964 0.9999852 0.99999 0.9999924 5.602893e-09 0.99999344 0.9999995 0.99999404 0.0010398355 0.9999877 1.0 1.0 5.0505373e-09 0.9999944 0.9999994 0.9999937 0.99994195 0.99996746 0.9999932 0.99999774 0.99999344 0.99973136 0.99998975 0.99997926 0.9999639 0.9999987 1.0 2.2048232e-08 4.311043e-05 0.99997723 0.9999963 0.9999572 0.9999987 1.0 0.9999347 1.0558573e-05 1.0 2.1166288e-05 0.99999034 0.9999924 1.0 0.99994445 5.52437e-08 0.99999976 0.9999838 1.6636466e-08 0.99999976 2.975505e-08 0.99997973 0.99999857 0.99994254 1.0 1.0
31 0.9999826 1.0 0.9999994 1.0 0.999995 1.0 0.9998318 7.6574055e-05 0.9999449 3.7905986e-05 0.99996233 0.99997544 5.7442595e-08 6.919747e-08 1.0 0.9999924 2.9907537e-06 0.99997306 0.99998724 0.9999776 0.9999999 0.9999521 0.9999833 0.99999976 0.99998176 1.0 1.0 2.335688e-05 1.0 0.99998033 0.9999912 2.1634278e-08 0.99999166 0.99994147 0.999995 1.0 0.9999943 0.99999857 1.2590486e-07 1.0 3.4780592e-09 4.528438e-09 2.3184071e-05 0.9999999 6.4476158e-06 0.99987423 0.9999659 0.99999976 1.0 1.0 6.527009e-05 6.375269e-08 1.0 0.9999956 0.9999753 3.6497466e-05 0.9999893 0.9996406 0.99999464 4.1094856e-05 0.9999988 3.1595326e-09 0.9999981 1.0 0.9825561 3.2601009e-09 0.99999976 1.0 1.9944729e-08 0.9999629 1.6443231e-05 0.99999404 1.0 8.132639e-09 0.9949627 0.99999964 0.99998593 0.99999034 0.99999285 5.0951128e-09 0.9999937 0.9999995 0.9999943 0.0010101941 0.99998844 1.0 1.0 4.573811e-09 0.99999464 0.9999994 0.99999404 0.9999443 0.99996924 0.9999937 0.999998 0.9999938 0.99974054 0.99999034 0.9999801 0.9999654 0.9999988 1.0 2.0245063e-08 4.1214087e-05 0.9999784 0.99999654 0.999959 0.9999988 1.0 0.9999373 9.99731e-06 1.0 2.0046456e-05 0.99999094 0.9999927 1.0 0.9999473 5.1010467e-08 0.99999976 0.9999845 1.519913e-08 0.99999976 2.7196657e-08 0.9999807 0.9999987 0.9999449 1.0 1.0
32 0.999979 0.9999999 0.99999917 1.0 0.9999938 1.0 0.9998012 9.181344e-05 0.9999341 4.5478984e-05 0.9999548 0.9999707 7.842746e-08 9.312568e-08 1.0 0.99999046 3.7650736e-06 0.9999676 0.9999845 0.99997294 0.9999999 0.99994314 0.9999794 0.99999976 0.9999777 1.0 1.0 2.8097225e-05 1.0 0.99997616 0.99998915 3.0270584e-08 0.9999896 0.9999298 0.9999938 1.0 0.9999931 0.9999982 1.6884508e-07 1.0 4.990554e-09 6.410542e-09 2.8358825e-05 0.9999999 7.953793e-06 0.99985397 0.9999589 0.99999964 1.0 1.0 7.766917e-05 8.7054694e-08 1.0 0.9999945 0.9999703 4.4154312e-05 0.99998677 0.9995883 0.9999933 4.9685532e-05 0.99999845 4.4632427e-09 0.9999976 1.0 0.98127466 4.690598e-09 0.99999964 1.0 2.7810984e-08 0.99995565 2.0371515e-05 0.9999927 1.0 1.1420487e-08 0.99442965 0.9999995 0.99998295 0.9999883 0.9999912 7.1678214e-09 0.99999213 0.9999994 0.9999931 0.0011496237 0.9999858 1.0 1.0 6.4054446e-09 0.99999344 0.9999993 0.9999925 0.99993384 0.9999629 0.99999225 0.9999974 0.9999924 0.9997004 0.99998796 0.9999758 0.99995804 0.99999845 1.0 2.8050929e-08 4.971586e-05 0.99997413 0.9999956 0.9999511 0.99999845 1.0 0.9999256 1.2362025e-05 1.0 2.4614736e-05 0.9999888 0.9999912 1.0 0.99993706 6.912479e-08 0.99999964 0.99998105 2.0985066e-08 0.99999964 3.7308883e-08 0.9999765 0.99999833 0.9999349 1.0 1.0
33 0.9999814 1.0 0.9999993 1.0 0.99999464 1.0 0.99982184 8.147915e-05 0.9999417 4.0339724e-05 0.99996006 0.999974 6.3759984e-08 7.665307e-08 1.0 0.9999918 3.2310777e-06 0.9999714 0.9999864 0.99997616 0.9999999 0.9999491 0.9999821 0.99999976 0.99998057 1.0 1.0 2.4732244e-05 1.0 0.99997914 0.9999906 2.406776e-08 0.99999106 0.99993765 0.99999464 1.0 0.9999939 0.99999845 1.3840082e-07 1.0 3.915682e-09 5.1013846e-09 2.473288e-05 0.9999999 6.8994245e-06 0.99986756 0.99996364 0.99999976 1.0 1.0 6.9173664e-05 7.083574e-08 1.0 0.99999523 0.9999738 3.8958926e-05 0.99998844 0.99962366 0.9999943 4.4052114e-05 0.9999987 3.5436758e-09 0.999998 1.0 0.98202825 3.680253e-09 0.99999964 1.0 2.217746e-08 0.99996054 1.7757626e-05 0.9999937 1.0 9.138785e-09 0.99480927 0.99999964 0.999985 0.99998975 0.99999225 5.7315295e-09 0.9999932 0.9999995 0.9999939 0.0010558919 0.9999876 1.0 1.0 5.1183435e-09 0.9999943 0.9999994 0.99999356 0.999941 0.9999671 0.9999932 0.99999774 0.9999933 0.999726 0.9999896 0.9999789 0.9999635 0.9999987 1.0 2.2464016e-08 4.3880336e-05 0.999977 0.9999962 0.9999566 0.9999987 1.0 0.9999336 1.07072565e-05 1.0 2.1392842e-05 0.99999034 0.99999225 1.0 0.99994445 5.6133242e-08 0.99999976 0.99998343 1.6845354e-08 0.99999976 3.0207488e-08 0.9999794 0.99999857 0.9999422 1.0 1.0
34 0.99997795 0.9999999 0.99999917 1.0 0.99999356 1.0 0.9997954 9.348059e-05 0.99993193 4.7251895e-05 0.9999534 0.99996936 8.263345e-08 9.969644e-08 1.0 0.9999902 3.932584e-06 0.99996626 0.999984 0.999972 0.9999999 0.9999417 0.99997914 0.99999976 0.999977 1.0 1.0 2.9035527e-05 1.0 0.9999757 0.9999888 3.1777805e-08 0.9999893 0.99992704 0.9999937 1.0 0.99999285 0.9999981 1.7645219e-07 1.0 5.3857216e-09 6.752439e-09 2.9083192e-05 0.9999999 8.346748e-06 0.9998497 0.99995697 0.99999964 1.0 1.0 8.1532235e-05 9.08124e-08 1.0 0.9999944 0.9999696 4.581788e-05 0.9999862 0.999579 0.9999931 5.0353843e-05 0.99999845 4.7166417e-09 0.9999975 1.0 0.98089117 5.042404e-09 0.99999964 1.0 2.9306483e-08 0.9999547 2.1200894e-05 0.9999925 1.0 1.2080765e-08 0.99442023 0.9999995 0.9999825 0.9999877 0.9999908 7.674916e-09 0.9999919 0.9999994 0.9999927 0.0011728834 0.99998546 1.0 1.0 6.825431e-09 0.9999931 0.9999993 0.9999924 0.9999306 0.9999622 0.999992 0.99999726 0.999992 0.9996903 0.9999877 0.9999751 0.99995697 0.99999833 1.0 2.9465832e-08 5.1532752e-05 0.9999734 0.99999547 0.9999502 0.99999845 1.0 0.999923 1.2890495e-05 1.0 2.5559613e-05 0.99998856 0.9999907 1.0 0.9999362 7.3451986e-08 0.99999964 0.99998033 2.231068e-08 0.99999964 3.9123318e-08 0.9999759 0.9999982 0.9999325 1.0 1.0
35 0.99998224 1.0 0.9999993 1.0 0.9999949 1.0 0.99982965 7.7260665e-05 0.9999442 3.8060727e-05 0.9999616 0.9999752 5.8358435e-08 7.0512485e-08 1.0 0.99999225 3.0275546e-06 0.9999727 0.9999871 0.99997747 0.9999999 0.9999516 0.99998295 0.99999976 0.9999815 1.0 1.0 2.3543525e-05 1.0 0.9999802 0.99999106 2.2184018e-08 0.99999154 0.9999404 0.9999949 1.0 0.9999943 0.99999857 1.2824603e-07 1.0 3.5507732e-09 4.5691118e-09 2.340357e-05 0.9999999 6.51187e-06 0.9998727 0.9999654 0.99999976 1.0 1.0 6.578405e-05 6.471145e-08 1.0 0.99999547 0.9999751 3.6981626e-05 0.99998915 0.9996371 0.99999464 4.1812138e-05 0.9999988 3.2262397e-09 0.9999981 1.0 0.98243654 3.3272742e-09 0.99999964 1.0 2.020691e-08 0.99996233 1.6596172e-05 0.99999404 1.0 8.339564e-09 0.994949 0.99999964 0.9999858 0.9999902 0.9999927 5.1789333e-09 0.99999356 0.9999995 0.9999943 0.0010190473 0.9999883 1.0 1.0 4.653199e-09 0.99999464 0.9999994 0.9999939 0.99994326 0.9999685 0.99999356 0.99999785 0.9999937 0.9997378 0.9999902 0.99998 0.9999651 0.9999988 1.0 2.0575449e-08 4.1598367e-05 0.9999782 0.9999964 0.9999583 0.9999988 1.0 0.99993694 1.0160671e-05 1.0 2.024476e-05 0.9999907 0.9999926 1.0 0.99994695 5.178798e-08 0.99999976 0.9999845 1.5471853e-08 0.99999976 2.7571147e-08 0.99998045 0.9999987 0.9999443 1.0 1.0
36 0.99997926 0.9999999 0.99999917 1.0 0.9999939 1.0 0.9998062 8.914304e-05 0.9999356 4.419838e-05 0.99995553 0.9999713 7.445259e-08 8.8780844e-08 1.0 0.9999908 3.6341307e-06 0.9999682 0.999985 0.999974 0.9999999 0.9999447 0.99998 0.99999976 0.9999784 1.0 1.0 2.7260328e-05 1.0 0.9999769 0.9999895 2.8715755e-08 0.9999901 0.99993145 0.9999939 1.0 0.9999932 0.9999982 1.6163943e-07 1.0 4.6614868e-09 6.0184484e-09 2.7205115e-05 0.9999999 7.7433e-06 0.9998568 0.99996006 0.99999964 1.0 1.0 7.4772106e-05 8.291969e-08 1.0 0.99999464 0.9999714 4.2467964e-05 0.99998724 0.99959534 0.99999356 4.8273316e-05 0.99999845 4.271001e-09 0.99999774 1.0 0.9814005 4.412995e-09 0.99999964 1.0 2.6529987e-08 0.9999567 1.9515646e-05 0.99999297 1.0 1.083915e-08 0.9945405 0.99999964 0.9999833 0.9999887 0.9999914 6.7239454e-09 0.9999925 0.9999994 0.9999933 0.0011222541 0.9999864 1.0 1.0 6.115068e-09 0.9999937 0.9999993 0.9999927 0.9999348 0.99996376 0.9999926 0.9999975 0.9999925 0.99970955 0.99998844 0.99997663 0.9999598 0.99999845 1.0 2.6572982e-08 4.8090624e-05 0.9999752 0.9999957 0.9999528 0.99999845 1.0 0.9999274 1.2065394e-05 1.0 2.3686776e-05 0.99998903 0.9999912 1.0 0.9999398 6.5485246e-08 0.99999964 0.9999819 1.9960485e-08 0.99999976 3.5115963e-08 0.99997723 0.99999833 0.99993575 1.0 1.0
37 0.9999821 1.0 0.9999994 1.0 0.9999949 1.0 0.9998292 7.7690056e-05 0.9999441 3.8378035e-05 0.9999616 0.9999751 5.900244e-08 7.112248e-08 1.0 0.99999225 3.0641397e-06 0.9999727 0.9999871 0.99997735 0.9999999 0.9999515 0.99998295 0.99999976 0.9999814 1.0 1.0 2.3685694e-05 1.0 0.99998 0.99999106 2.231566e-08 0.9999914 0.99994016 0.9999949 1.0 0.9999943 0.99999857 1.2930009e-07 1.0 3.5911967e-09 4.644713e-09 2.3591665e-05 0.9999999 6.563769e-06 0.9998723 0.9999654 0.99999976 1.0 1.0 6.609455e-05 6.569629e-08 1.0 0.99999547 0.99997497 3.6985755e-05 0.99998903 0.9996363 0.9999945 4.173024e-05 0.9999988 3.2507e-09 0.9999981 1.0 0.9824394 3.3540548e-09 0.99999964 1.0 2.0597948e-08 0.99996245 1.6695722e-05 0.99999404 1.0 8.4454035e-09 0.9949181 0.99999964 0.9999856 0.9999902 0.9999927 5.2303153e-09 0.99999356 0.9999995 0.9999943 0.001028063 0.9999883 1.0 1.0 4.732132e-09 0.99999464 0.9999994 0.9999939 0.9999435 0.99996865 0.99999356 0.99999785 0.9999937 0.99973685 0.9999901 0.99997973 0.9999651 0.9999987 1.0 2.0852479e-08 4.1855663e-05 0.9999783 0.9999964 0.9999583 0.9999988 1.0 0.999936 1.0184206e-05 1.0 2.0432084e-05 0.9999907 0.9999925 1.0 0.9999466 5.235488e-08 0.99999976 0.99998426 1.555592e-08 0.99999976 2.7872744e-08 0.99998033 0.9999987 0.9999441 1.0 1.0
38 0.99998164 1.0 0.9999993 1.0 0.99999464 1.0 0.9998234 8.0656e-05 0.9999418 4.021907e-05 0.9999598 0.9999738 6.336826e-08 7.721582e-08 1.0 0.9999919 3.2938967e-06 0.9999714 0.9999865 0.99997616 0.9999999 0.99994934 0.9999821 0.99999976 0.99998045 1.0 1.0 2.468074e-05 1.0 0.99997914 0.9999906 2.4387205e-08 0.99999106 0.99993825 0.9999945 1.0 0.9999939 0.99999845 1.3877471e-07 1.0 3.9283914e-09 5.0082334e-09 2.4635026e-05 0.9999999 6.918836e-06 0.99986756 0.99996364 0.99999976 1.0 1.0 6.912843e-05 7.087439e-08 1.0 0.99999523 0.99997365 3.8940987e-05 0.99998844 0.99962735 0.9999943 4.3544183e-05 0.9999987 3.5673842e-09 0.999998 1.0 0.9820477 3.699043e-09 0.99999964 1.0 2.2353957e-08 0.9999604 1.7495182e-05 0.9999938 1.0 9.081583e-09 0.9948095 0.99999964 0.999985 0.99998975 0.99999225 5.7499463e-09 0.9999932 0.9999995 0.9999939 0.0010671477 0.9999876 1.0 1.0 5.138523e-09 0.9999943 0.9999994 0.99999356 0.9999411 0.99996734 0.9999932 0.99999774 0.9999933 0.99972695 0.9999896 0.9999789 0.99996316 0.9999987 1.0 2.2402446e-08 4.372265e-05 0.999977 0.9999962 0.9999566 0.9999987 1.0 0.9999341 1.0776352e-05 1.0 2.1734551e-05 0.9999902 0.99999213 1.0 0.999944 5.6582888e-08 0.99999976 0.9999833 1.6818642e-08 0.99999976 2.9949092e-08 0.99997926 0.99999857 0.99994135 1.0 1.0
39 0.9999802 0.9999999 0.9999993 1.0 0.9999943 1.0 0.9998115 8.6604305e-05 0.9999385 4.2322095e-05 0.9999579 0.99997246 6.995749e-08 8.2966515e-08 1.0 0.9999913 3.4718455e-06 0.9999696 0.9999858 0.99997497 0.9999999 0.99994636 0.99998105 0.99999976 0.99997926 1.0 1.0 2.6121199e-05 1.0 0.99997795 0.99999 2.6516734e-08 0.9999906 0.9999347 0.9999943 1.0 0.99999356 0.99999833 1.5251045e-07 1.0 4.3804484e-09 5.7025455e-09 2.5821293e-05 0.9999999 7.4358954e-06 0.9998604 0.9999616 0.99999976 1.0 1.0 7.339091e-05 7.8135564e-08 1.0 0.999995 0.9999722 4.114913e-05 0.99998784 0.9996118 0.9999939 4.649182e-05 0.99999857 3.9342027e-09 0.99999785 1.0 0.98153245 4.0797965e-09 0.99999964 1.0 2.4686393e-08 0.99995863 1.8858147e-05 0.9999933 1.0 1.0087217e-08 0.99468344 0.99999964 0.9999839 0.99998915 0.9999918 6.379304e-09 0.99999285 0.9999994 0.99999356 0.0010962449 0.99998677 1.0 1.0 5.700305e-09 0.9999938 0.9999994 0.99999297 0.9999372 0.9999654 0.9999927 0.9999976 0.99999297 0.99971837 0.99998903 0.9999776 0.9999614 0.99999857 1.0 2.475585e-08 4.636192e-05 0.99997544 0.99999595 0.9999541 0.99999857 1.0 0.9999304 1.1379192e-05 1.0 2.2745942e-05 0.9999896 0.99999166 1.0 0.9999416 6.17415e-08 0.99999964 0.99998236 1.8637113e-08 0.99999976 3.3299422e-08 0.9999784 0.99999845 0.9999387 1.0 1.0
40 0.9999826 1.0 0.9999994 1.0 0.999995 1.0 0.9998313 7.6181335e-05 0.9999454 3.7614238e-05 0.99996245 0.99997556 5.697406e-08 6.8566976e-08 1.0 0.9999925 2.968507e-06 0.9999733 0.9999875 0.9999777 0.9999999 0.99995244 0.9999833 0.99999976 0.9999819 1.0 1.0 2.3067692e-05 1.0 0.99998057 0.9999912 2.142759e-08 0.99999166 0.9999417 0.999995 1.0 0.9999944 0.99999857 1.245292e-07 1.0 3.4515986e-09 4.4840798e-09 2.3033137e-05 0.9999999 6.396946e-06 0.9998745 0.9999659 0.99999976 1.0 1.0 6.497821e-05 6.309557e-08 1.0 0.9999956 0.99997544 3.6407815e-05 0.9999893 0.99964285 0.99999464 4.1102383e-05 0.9999988 3.1247551e-09 0.9999981 1.0 0.9825602 3.2431509e-09 0.99999976 1.0 1.9767828e-08 0.99996316 1.6305146e-05 0.99999416 1.0 8.033553e-09 0.9949869 0.99999964 0.99998593 0.99999046 0.99999285 5.0585105e-09 0.9999937 0.9999995 0.9999944 0.0010068412 0.99998856 1.0 1.0 4.5157678e-09 0.99999475 0.9999994 0.99999404 0.9999443 0.99996936 0.9999938 0.999998 0.9999938 0.99974114 0.99999046 0.9999802 0.99996555 0.9999988 1.0 2.0033298e-08 4.0992585e-05 0.9999784 0.99999654 0.99995923 0.9999988 1.0 0.9999379 9.941994e-06 1.0 1.997419e-05 0.99999094 0.9999927 1.0 0.9999478 5.0660923e-08 0.99999976 0.99998474 1.5032432e-08 0.99999976 2.6805877e-08 0.9999808 0.9999987 0.99994504 1.0 1.0
41 0.99998283 1.0 0.9999994 1.0 0.9999951 1.0 0.99983466 7.483845e-05 0.99994624 3.6932637e-05 0.99996305 0.99997604 5.5431784e-08 6.665505e-08 1.0 0.9999926 2.9128405e-06 0.99997365 0.9999876 0.99997807 0.9999999 0.99995315 0.99998367 0.9999999 0.99998224 1.0 1.0 2.2741906e-05 1.0 0.9999808 0.9999914 2.0869152e-08 0.9999919 0.9999424 0.9999951 1.0 0.9999945 0.99999857 1.2134728e-07 1.0 3.3250602e-09 4.3168566e-09 2.2648754e-05 1.0 6.251635e-06 0.9998759 0.9999666 0.99999976 1.0 1.0 6.3876694e-05 6.13623e-08 1.0 0.9999957 0.99997604 3.564894e-05 0.9999895 0.9996474 0.99999475 4.025472e-05 0.9999988 3.0214848e-09 0.9999982 1.0 0.9827192 3.127098e-09 0.99999976 1.0 1.915514e-08 0.99996364 1.6046653e-05 0.9999943 1.0 7.828201e-09 0.9950199 0.99999964 0.9999862 0.9999906 0.99999297 4.893328e-09 0.9999938 0.9999995 0.9999945 0.0009975476 0.9999888 1.0 1.0 4.3787276e-09 0.99999475 0.9999995 0.99999416 0.9999454 0.99996984 0.9999939 0.999998 0.9999939 0.9997445 0.9999906 0.99998057 0.99996626 0.9999988 1.0 1.9465105e-08 4.0241554e-05 0.9999789 0.99999654 0.99996006 0.9999988 1.0 0.9999387 9.763126e-06 1.0 1.9534862e-05 0.99999106 0.99999285 1.0 0.9999484 4.9027108e-08 0.99999976 0.999985 1.4565515e-08 0.99999976 2.6042022e-08 0.99998105 0.9999987 0.9999461 1.0 1.0
42 0.99997795 0.9999999 0.99999917 1.0 0.99999344 1.0 0.9997961 9.491038e-05 0.9999316 4.7987414e-05 0.99995244 0.99996924 8.391184e-08 1.0090646e-07 1.0 0.9999901 3.992125e-06 0.9999654 0.9999838 0.99997234 0.9999999 0.9999405 0.9999784 0.99999976 0.999977 1.0 1.0 2.9598246e-05 1.0 0.9999753 0.9999887 3.2631817e-08 0.99998915 0.99992716 0.9999933 1.0 0.9999926 0.9999981 1.8281665e-07 1.0 5.326582e-09 7.0078316e-09 2.9344737e-05 0.9999999 8.486918e-06 0.9998462 0.9999572 0.99999964 1.0 1.0 8.10319e-05 9.187218e-08 1.0 0.99999416 0.99996924 4.5873887e-05 0.9999863 0.99957186 0.9999931 5.1193612e-05 0.99999845 4.892815e-09 0.9999975 1.0 0.9809327 5.0436637e-09 0.99999964 1.0 3.0247673e-08 0.999954 2.140474e-05 0.9999924 1.0 1.2488141e-08 0.9943151 0.9999995 0.99998176 0.9999875 0.9999907 7.791334e-09 0.9999918 0.9999994 0.9999926 0.0012145905 0.9999851 1.0 1.0 7.0066823e-09 0.9999931 0.9999993 0.99999213 0.9999305 0.99996173 0.9999919 0.99999726 0.9999919 0.99969697 0.9999876 0.9999746 0.9999566 0.99999833 1.0 3.0307614e-08 5.1652703e-05 0.9999727 0.99999535 0.99994886 0.99999833 1.0 0.9999225 1.2910942e-05 1.0 2.5330597e-05 0.9999883 0.9999906 1.0 0.9999347 7.472533e-08 0.99999964 0.9999801 2.2724828e-08 0.99999964 4.0478174e-08 0.9999759 0.9999982 0.99993205 1.0 1.0
43 0.99998 0.9999999 0.9999993 1.0 0.9999943 1.0 0.9998129 8.663082e-05 0.9999386 4.2859763e-05 0.9999572 0.9999721 7.048089e-08 8.531605e-08 1.0 0.9999912 3.4931672e-06 0.99996936 0.99998534 0.99997437 0.9999999 0.9999461 0.99998105 0.99999976 0.99997926 1.0 1.0 2.6602947e-05 1.0 0.9999776 0.99998987 2.7098949e-08 0.99999034 0.99993396 0.99999416 1.0 0.99999344 0.9999982 1.5389303e-07 1.0 4.4328026e-09 5.688293e-09 2.6316553e-05 0.9999999 7.5100775e-06 0.99986017 0.9999614 0.99999976 1.0 1.0 7.3509626e-05 7.8302506e-08 1.0 0.9999949 0.99997234 4.1596344e-05 0.99998784 0.99960464 0.9999938 4.711965e-05 0.99999857 4.0080197e-09 0.99999785 1.0 0.98164314 4.14621e-09 0.99999964 1.0 2.497091e-08 0.99995804 1.8956796e-05 0.9999932 1.0 1.0219933e-08 0.9946295 0.99999964 0.99998367 0.9999889 0.9999918 6.4642216e-09 0.99999285 0.9999994 0.99999344 0.0011071623 0.9999869 1.0 1.0 5.810206e-09 0.9999938 0.9999993 0.9999931 0.9999373 0.9999654 0.99999285 0.9999976 0.99999285 0.99971503 0.9999889 0.99997747 0.9999608 0.99999857 1.0 2.5234728e-08 4.658093e-05 0.99997556 0.99999595 0.9999535 0.99999857 1.0 0.9999299 1.15628845e-05 1.0 2.2895629e-05 0.9999896 0.99999154 1.0 0.9999411 6.325028e-08 0.99999964 0.99998236 1.8808093e-08 0.99999976 3.3735414e-08 0.9999782 0.99999845 0.9999378 1.0 1.0
44 0.99998057 0.9999999 0.9999993 1.0 0.9999943 1.0 0.9998154 8.4448926e-05 0.9999392 4.150679e-05 0.9999584 0.99997306 6.722025e-08 8.118322e-08 1.0 0.9999914 3.3761407e-06 0.99996996 0.99998593 0.9999753 0.9999999 0.9999473 0.9999813 0.99999976 0.99997973 1.0 1.0 2.5695326e-05 1.0 0.9999783 0.9999901 2.5703446e-08 0.9999906 0.9999355 0.9999944 1.0 0.9999937 0.99999833 1.4701811e-07 1.0 4.2261887e-09 5.4407114e-09 2.593991e-05 0.9999999 7.2529365e-06 0.9998636 0.9999622 0.99999976 1.0 1.0 7.214157e-05 7.5064165e-08 1.0 0.9999951 0.9999727 4.0265277e-05 0.99998784 0.99961275 0.99999404 4.5355202e-05 0.99999857 3.8025707e-09 0.99999785 1.0 0.9819155 3.9322074e-09 0.99999964 1.0 2.3973605e-08 0.99995935 1.8339606e-05 0.99999344 1.0 9.751835e-09 0.99472576 0.99999964 0.99998426 0.99998915 0.999992 6.149796e-09 0.99999297 0.9999995 0.9999937 0.0010881413 0.9999871 1.0 1.0 5.487328e-09 0.9999939 0.9999994 0.9999932 0.99993885 0.999966 0.99999285 0.9999976 0.99999297 0.9997203 0.9999893 0.9999778 0.9999615 0.99999857 1.0 2.4024324e-08 4.528368e-05 0.99997604 0.99999607 0.9999548 0.99999857 1.0 0.9999316 1.12342195e-05 1.0 2.2175183e-05 0.99998987 0.9999918 1.0 0.99994326 5.9329253e-08 0.99999964 0.99998283 1.8278868e-08 0.99999976 3.2266538e-08 0.99997866 0.99999845 0.99994004 1.0 1.0
45 0.99998236 1.0 0.9999994 1.0 0.999995 1.0 0.9998305 7.678223e-05 0.9999448 3.7922906e-05 0.9999622 0.99997544 5.7974457e-08 6.965259e-08 1.0 0.9999924 3.010918e-06 0.99997294 0.99998724 0.9999776 0.9999999 0.99995196 0.9999832 0.99999976 0.99998164 1.0 1.0 2.3313063e-05 1.0 0.99998033 0.9999912 2.188295e-08 0.99999154 0.9999411 0.999995 1.0 0.9999943 0.99999857 1.2633208e-07 1.0 3.5042818e-09 4.5231037e-09 2.3330454e-05 0.9999999 6.4696974e-06 0.9998728 0.9999658 0.99999976 1.0 1.0 6.578286e-05 6.4258096e-08 1.0 0.9999956 0.9999752 3.6628673e-05 0.99998915 0.99963987 0.99999464 4.136533e-05 0.9999988 3.1737748e-09 0.9999981 1.0 0.9825606 3.285488e-09 0.99999976 1.0 2.0042698e-08 0.9999627 1.6434939e-05 0.99999404 1.0 8.197659e-09 0.99494827 0.99999964 0.9999858 0.99999034 0.99999285 5.1461932e-09 0.9999937 0.9999995 0.9999943 0.0010174864 0.99998844 1.0 1.0 4.614813e-09 0.99999464 0.9999994 0.9999939 0.9999443 0.9999691 0.9999937 0.999998 0.9999937 0.9997397 0.9999902 0.99998 0.9999654 0.9999988 1.0 2.0424483e-08 4.1401083e-05 0.9999783 0.9999964 0.999959 0.9999988 1.0 0.9999373 1.0045803e-05 1.0 1.9978761e-05 0.9999908 0.9999926 1.0 0.9999472 5.111146e-08 0.99999976 0.9999845 1.5265169e-08 0.99999976 2.7265166e-08 0.9999807 0.9999987 0.9999448 1.0 1.0
46 0.99998236 1.0 0.9999994 1.0 0.999995 1.0 0.9998312 7.660509e-05 0.9999449 3.779488e-05 0.9999622 0.99997556 5.7777086e-08 6.934493e-08 1.0 0.9999924 2.98961e-06 0.99997294 0.99998724 0.9999776 0.9999999 0.9999521 0.9999832 0.99999976 0.99998176 1.0 1.0 2.3342272e-05 1.0 0.99998033 0.9999912 2.1692664e-08 0.99999166 0.99994123 0.999995 1.0 0.9999944 0.99999857 1.2571768e-07 1.0 3.4693932e-09 4.4986255e-09 2.3290775e-05 0.9999999 6.4337346e-06 0.99987376 0.9999659 0.99999976 1.0 1.0 6.536358e-05 6.390023e-08 1.0 0.9999956 0.9999753 3.6547237e-05 0.99998915 0.9996425 0.99999464 4.1142543e-05 0.9999988 3.167262e-09 0.9999981 1.0 0.9825842 3.2622096e-09 0.99999976 1.0 1.9969816e-08 0.9999629 1.6409458e-05 0.99999404 1.0 8.146938e-09 0.99496126 0.99999964 0.9999858 0.99999034 0.99999285 5.1121676e-09 0.9999937 0.9999995 0.9999944 0.0010145772 0.99998856 1.0 1.0 4.5596136e-09 0.99999464 0.9999994 0.99999404 0.9999441 0.99996936 0.9999937 0.999998 0.9999938 0.9997408 0.99999034 0.9999801 0.9999654 0.9999988 1.0 2.0242823e-08 4.1134263e-05 0.9999783 0.99999654 0.999959 0.9999988 1.0 0.99993753 1.0023429e-05 1.0 1.997537e-05 0.9999908 0.9999926 1.0 0.99994755 5.0723674e-08 0.99999976 0.9999845 1.520006e-08 0.99999976 2.7149028e-08 0.9999807 0.9999987 0.99994504 1.0 1.0
47 0.9999815 1.0 0.9999993 1.0 0.99999464 1.0 0.99982435 8.00706e-05 0.99994254 3.9415925e-05 0.99996054 0.9999745 6.199723e-08 7.4791345e-08 1.0 0.999992 3.153501e-06 0.9999715 0.99998665 0.99997663 0.9999999 0.9999502 0.99998236 0.99999976 0.9999809 1.0 1.0 2.4461484e-05 1.0 0.9999794 0.9999907 2.3399194e-08 0.9999912 0.9999386 0.99999475 1.0 0.99999404 0.99999845 1.3483616e-07 1.0 3.7900225e-09 4.917608e-09 2.4450708e-05 0.9999999 6.7892734e-06 0.99986947 0.99996424 0.99999976 1.0 1.0 6.845778e-05 6.8817876e-08 1.0 0.99999535 0.99997425 3.830118e-05 0.9999887 0.99962974 0.9999944 4.3104304e-05 0.9999987 3.4558274e-09 0.999998 1.0 0.9822583 3.5767593e-09 0.99999964 1.0 2.1840837e-08 0.99996126 1.7260008e-05 0.9999938 1.0 8.856196e-09 0.99483573 0.99999964 0.9999851 0.99998987 0.9999925 5.5663993e-09 0.9999933 0.9999995 0.99999404 0.0010448045 0.99998796 1.0 1.0 4.9526903e-09 0.9999944 0.9999994 0.9999937 0.9999417 0.9999678 0.9999933 0.99999774 0.99999344 0.9997317 0.99998987 0.99997914 0.99996364 0.9999987 1.0 2.1889088e-08 4.2972966e-05 0.99997723 0.9999963 0.99995685 0.9999987 1.0 0.99993503 1.0547341e-05 1.0 2.0931333e-05 0.99999034 0.99999225 1.0 0.99994576 5.468106e-08 0.99999976 0.9999838 1.6519914e-08 0.99999976 2.9532787e-08 0.99997973 0.99999857 0.9999429 1.0 1.0
48 0.99998164 1.0 0.9999993 1.0 0.99999464 1.0 0.99982375 8.003777e-05 0.9999423 3.9614366e-05 0.9999604 0.99997425 6.204454e-08 7.455008e-08 1.0 0.9999919 3.1853347e-06 0.9999716 0.99998665 0.9999765 0.9999999 0.9999498 0.9999825 0.99999976 0.9999808 1.0 1.0 2.4315748e-05 1.0 0.9999794 0.9999907 2.3573318e-08 0.9999912 0.9999386 0.99999475 1.0 0.99999404 0.99999845 1.3556568e-07 1.0 3.824005e-09 4.91532e-09 2.448912e-05 0.9999999 6.8267677e-06 0.9998685 0.9999641 0.99999976 1.0 1.0 6.852957e-05 6.871937e-08 1.0 0.99999535 0.999974 3.8192746e-05 0.9999887 0.9996265 0.9999944 4.3005355e-05 0.9999987 3.436326e-09 0.999998 1.0 0.9822748 3.5445074e-09 0.99999964 1.0 2.1651038e-08 0.99996114 1.7298766e-05 0.9999938 1.0 8.877014e-09 0.9948638 0.99999964 0.9999851 0.99998975 0.9999925 5.5918004e-09 0.9999933 0.9999995 0.99999404 0.0010518207 0.99998784 1.0 1.0 5.000502e-09 0.9999943 0.9999994 0.9999937 0.99994195 0.9999677 0.9999933 0.99999785 0.99999344 0.99973065 0.99998975 0.999979 0.99996376 0.9999987 1.0 2.2039066e-08 4.314827e-05 0.99997735 0.9999963 0.9999573 0.9999987 1.0 0.9999347 1.0579256e-05 1.0 2.0979036e-05 0.99999034 0.99999225 1.0 0.9999453 5.4554278e-08 0.99999976 0.9999838 1.6527384e-08 0.99999976 2.9399981e-08 0.99997985 0.99999857 0.99994254 1.0 1.0
49 0.9999832 1.0 0.9999994 1.0 0.99999523 1.0 0.9998375 7.3421565e-05 0.9999473 3.620047e-05 0.99996376 0.9999765 5.3578866e-08 6.4556986e-08 1.0 0.9999927 2.8371978e-06 0.99997425 0.99998796 0.99997854 0.9999999 0.9999541 0.999984 0.9999999 0.9999826 1.0 1.0 2.2267832e-05 1.0 0.9999813 0.99999154 2.0118803e-08 0.999992 0.9999436 0.99999523 1.0 0.99999464 0.99999857 1.1741848e-07 1.0 3.1967704e-09 4.150435e-09 2.2146103e-05 1.0 6.105478e-06 0.99987805 0.99996734 0.99999976 1.0 1.0 6.260217e-05 5.9329125e-08 1.0 0.9999958 0.9999764 3.4919867e-05 0.99998975 0.99965274 0.9999949 3.94383e-05 0.9999988 2.9035174e-09 0.9999982 1.0 0.9828404 3.0083507e-09 0.99999976 1.0 1.8438403e-08 0.99996436 1.5677913e-05 0.9999944 1.0 7.531439e-09 0.9950724 0.99999964 0.9999865 0.9999908 0.9999932 4.7047637e-09 0.99999404 0.9999995 0.99999464 0.0009820847 0.99998903 1.0 1.0 4.2158756e-09 0.999995 0.9999995 0.9999943 0.9999466 0.99997044 0.99999404 0.9999981 0.99999404 0.9997482 0.9999907 0.99998105 0.999967 0.9999988 1.0 1.8779238e-08 3.9422204e-05 0.99997926 0.99999666 0.9999608 0.9999988 1.0 0.9999399 9.53112e-06 1.0 1.911743e-05 0.9999913 0.9999931 1.0 0.99994946 4.7364686e-08 0.99999976 0.9999852 1.4048268e-08 0.99999976 2.5181455e-08 0.9999815 0.9999987 0.9999472 1.0 1.0
50 0.99993694 0.99999964 0.99999666 0.9999999 0.99997866 1.0 0.9994955 0.00025791491 0.9998167 0.00013081932 0.9998741 0.9999131 4.373326e-07 5.20794e-07 1.0 0.9999677 1.4166659e-05 0.99990165 0.999951 0.99992454 0.9999994 0.99984026 0.9999373 0.9999988 0.99993324 1.0 0.9999999 8.2604456e-05 1.0 0.99993026 0.99996364 1.9303818e-07 0.99996567 0.9998084 0.9999789 1.0 0.99997663 0.99999297 9.2466877e-07 0.99999976 3.90332e-08 4.7797585e-08 8.4149724e-05 0.9999995 3.0386764e-05 0.99964905 0.999881 0.99999845 0.9999999 0.99999976 0.00021278525 5.113945e-07 0.9999999 0.9999815 0.9999124 0.00012932181 0.9999585 0.99909353 0.9999778 0.00014409063 0.99999404 3.308613e-08 0.9999908 0.99999976 0.9716163 3.531573e-08 0.99999833 0.99999976 1.8221857e-07 0.9998802 6.525727e-05 0.99997663 1.0 7.837767e-08 0.9906035 0.9999981 0.9999455 0.9999633 0.99997175 5.1578105e-08 0.99997437 0.9999976 0.99997675 0.002382278 0.9999536 1.0 1.0 4.591549e-08 0.99997663 0.999997 0.99997354 0.9998147 0.999894 0.9999751 0.9999901 0.99997413 0.99934536 0.99996233 0.9999267 0.9998754 0.9999937 0.9999999 1.7269689e-07 0.00014488668 0.9999237 0.9999845 0.9998647 0.9999938 0.9999999 0.9998047 4.0074123e-05 1.0 7.625423e-05 0.9999641 0.9999713 1.0 0.9998387 4.0647808e-07 0.99999845 0.99993837 1.3836545e-07 0.99999857 2.2412901e-07 0.9999325 0.9999933 0.99982053 1.0 1.0
51 0.9996339 0.9999943 0.9999627 0.99999833 0.9998253 0.99999905 0.9975654 0.0014196713 0.9990283 0.0007676706 0.99927956 0.99948895 8.10956e-06 9.420834e-06 0.9999995 0.9997632 0.00012546306 0.9993864 0.99967694 0.9995888 0.9999919 0.9991742 0.99955136 0.99998355 0.99959165 0.9999995 0.999998 0.0005134976 0.9999993 0.9995747 0.99973863 4.608052e-06 0.99974555 0.9990061 0.99984527 0.9999988 0.9998134 0.9999249 1.51603745e-05 0.99999535 1.1409816e-06 1.4461797e-06 0.00056978327 0.99999285 0.00027521193 0.99857926 0.99926645 0.9999807 0.99999785 0.99999535 0.001146088 1.000763e-05 0.99999845 0.99986446 0.9994985 0.0007805122 0.99973327 0.99665076 0.9998312 0.00086731167 0.999943 9.689779e-07 0.9999113 0.99999475 0.94188464 1.0596283e-06 0.9999777 0.99999595 4.4651624e-06 0.99935883 0.00045498423 0.99981767 0.9999989 2.0230027e-06 0.9759453 0.9999757 0.99963593 0.9997459 0.999801 1.3797991e-06 0.99981815 0.99997497 0.99984086 0.008295736 0.9996711 0.99999917 0.99999857 1.156259e-06 0.9998122 0.9999647 0.9997961 0.9989568 0.9994618 0.99980766 0.9999039 0.99981517 0.9975924 0.999749 0.99952686 0.99928206 0.9999354 0.9999981 3.87654e-06 0.0008472653 0.99954766 0.9998709 0.99925834 0.99993765 0.9999975 0.9989778 0.00029811816 0.9999988 0.00050634384 0.99976224 0.99979836 0.9999993 0.999215 8.1292665e-06 0.99997926 0.99958307 3.0273354e-06 0.9999807 4.8220263e-06 0.99957603 0.9999349 0.9991278 0.9999993 0.9999987
52 0.9999821 1.0 0.9999993 1.0 0.9999949 1.0 0.9998276 7.8244855e-05 0.999944 3.866918e-05 0.9999615 0.99997497 5.9681085e-08 7.137947e-08 1.0 0.99999225 3.0684148e-06 0.99997246 0.999987 0.999977 0.9999999 0.9999511 0.99998295 0.99999976 0.9999814 1.0 1.0 2.3790279e-05 1.0 0.99998 0.99999094 2.251691e-08 0.9999914 0.9999403 0.9999949 1.0 0.9999943 0.99999845 1.2980405e-07 1.0 3.6191417e-09 4.6867705e-09 2.3693556e-05 0.9999999 6.603129e-06 0.9998721 0.9999651 0.99999976 1.0 1.0 6.6505505e-05 6.60714e-08 1.0 0.99999547 0.99997485 3.7211823e-05 0.99998903 0.99963534 0.9999945 4.210154e-05 0.9999988 3.2644938e-09 0.9999981 1.0 0.98243964 3.4013479e-09 0.99999964 1.0 2.066733e-08 0.9999621 1.6902932e-05 0.9999939 1.0 8.447466e-09 0.99490476 0.99999964 0.9999856 0.9999901 0.9999926 5.297998e-09 0.99999356 0.9999995 0.99999416 0.00102977 0.9999882 1.0 1.0 4.7531e-09 0.9999945 0.9999994 0.9999939 0.9999434 0.99996865 0.99999356 0.99999785 0.9999937 0.9997367 0.9999901 0.9999796 0.9999647 0.9999987 1.0 2.1003645e-08 4.2118365e-05 0.99997795 0.9999964 0.9999584 0.9999988 1.0 0.9999362 1.0278971e-05 1.0 2.0539397e-05 0.9999907 0.9999925 1.0 0.9999467 5.2873105e-08 0.99999976 0.99998415 1.5735475e-08 0.99999976 2.812679e-08 0.9999802 0.99999857 0.999944 1.0 1.0
53 0.9999473 0.99999976 0.9999974 1.0 0.9999821 1.0 0.9995627 0.00022110416 0.99984646 0.000112187874 0.999889 0.99992573 3.3658807e-07 4.0332444e-07 1.0 0.99997365 1.1666972e-05 0.99991655 0.99996066 0.99993503 0.9999995 0.9998672 0.99994755 0.99999905 0.99994457 1.0 0.9999999 7.0135524e-05 1.0 0.9999417 0.99997115 1.4417316e-07 0.9999721 0.99984014 0.9999827 1.0 0.9999807 0.9999943 6.978596e-07 0.99999976 2.811719e-08 3.536345e-08 7.0799164e-05 0.99999964 2.5167752e-05 0.99969316 0.99989927 0.9999988 0.9999999 0.99999976 0.00017666038 3.9222584e-07 1.0 0.9999851 0.9999281 0.00010665827 0.99996626 0.99919385 0.99998176 0.00012235309 0.99999523 2.4244823e-08 0.9999925 0.99999976 0.9731093 2.6018537e-08 0.9999987 0.9999999 1.3433943e-07 0.999897 5.5387896e-05 0.9999807 1.0 5.8294788e-08 0.99118364 0.99999845 0.99995553 0.9999696 0.9999764 3.7249226e-08 0.9999789 0.9999981 0.9999814 0.002179798 0.9999621 1.0 1.0 3.3257276e-08 0.9999813 0.9999976 0.99997866 0.9998399 0.9999144 0.99997914 0.999992 0.9999789 0.9994301 0.9999685 0.99993706 0.9998976 0.999995 0.9999999 1.2900276e-07 0.00012247938 0.99993813 0.99998736 0.99988544 0.9999951 0.9999999 0.99983084 3.368749e-05 1.0 6.2077605e-05 0.9999697 0.99997616 1.0 0.99985874 3.0578175e-07 0.9999987 0.9999485 1.0202682e-07 0.9999989 1.7547134e-07 0.9999418 0.99999475 0.9998474 1.0 1.0
54 0.9999802 0.9999999 0.9999993 1.0 0.9999943 1.0 0.9998129 8.550641e-05 0.99993837 4.2236134e-05 0.9999577 0.99997234 6.971905e-08 8.327059e-08 1.0 0.9999913 3.4662312e-06 0.9999696 0.9999856 0.9999747 0.9999999 0.99994683 0.9999809 0.99999976 0.9999795 1.0 1.0 2.6176083e-05 1.0 0.99997795 0.99999 2.6725012e-08 0.9999906 0.9999347 0.9999943 1.0 0.99999356 0.99999833 1.5225658e-07 1.0 4.3384163e-09 5.6436065e-09 2.6334452e-05 0.9999999 7.393314e-06 0.9998616 0.9999616 0.99999976 1.0 1.0 7.2729876e-05 7.783405e-08 1.0 0.999995 0.99997246 4.0951632e-05 0.99998784 0.99960905 0.9999938 4.6159916e-05 0.99999857 3.9107855e-09 0.99999785 1.0 0.98176193 4.091587e-09 0.99999964 1.0 2.4461091e-08 0.9999583 1.8737876e-05 0.9999932 1.0 1.0057325e-08 0.9946667 0.99999964 0.999984 0.99998903 0.9999918 6.3201897e-09 0.99999285 0.9999994 0.99999356 0.001095703 0.9999869 1.0 1.0 5.6781575e-09 0.9999939 0.9999994 0.9999931 0.999938 0.9999654 0.9999927 0.9999976 0.99999285 0.99971396 0.99998903 0.9999777 0.99996126 0.99999857 1.0 2.4905841e-08 4.635688e-05 0.99997556 0.99999595 0.9999542 0.99999857 1.0 0.99993026 1.1432818e-05 1.0 2.2729504e-05 0.9999896 0.99999166 1.0 0.99994195 6.150514e-08 0.99999964 0.9999825 1.8645787e-08 0.99999976 3.3226147e-08 0.9999782 0.99999845 0.99993896 1.0 1.0
55 0.9999827 1.0 0.9999994 1.0 0.9999951 1.0 0.9998336 7.544623e-05 0.9999459 3.7196674e-05 0.9999628 0.9999759 5.5962627e-08 6.749158e-08 1.0 0.9999925 2.937532e-06 0.99997354 0.9999875 0.99997795 0.9999999 0.99995303 0.99998355 0.99999976 0.999982 1.0 1.0 2.2837665e-05 1.0 0.9999807 0.9999913 2.1126834e-08 0.9999918 0.9999423 0.9999951 1.0 0.9999945 0.99999857 1.2285992e-07 1.0 3.3703436e-09 4.378719e-09 2.277392e-05 1.0 6.3250013e-06 0.99987566 0.9999665 0.99999976 1.0 1.0 6.416767e-05 6.2252106e-08 1.0 0.9999957 0.9999758 3.596082e-05 0.9999894 0.9996456 0.99999475 4.0546216e-05 0.9999988 3.0464373e-09 0.9999981 1.0 0.9826612 3.1689602e-09 0.99999976 1.0 1.933257e-08 0.9999634 1.6163547e-05 0.99999416 1.0 7.9015114e-09 0.9950028 0.99999964 0.9999862 0.9999906 0.99999297 4.936196e-09 0.9999938 0.9999995 0.9999944 0.0010021272 0.9999887 1.0 1.0 4.4229465e-09 0.99999475 0.9999995 0.99999416 0.9999453 0.9999696 0.9999938 0.999998 0.9999939 0.9997428 0.99999046 0.99998045 0.999966 0.9999988 1.0 1.9679495e-08 4.051912e-05 0.9999788 0.99999654 0.9999597 0.9999988 1.0 0.99993837 9.818748e-06 1.0 1.9718118e-05 0.99999106 0.99999285 1.0 0.99994814 4.9350216e-08 0.99999976 0.99998486 1.4728948e-08 0.99999976 2.635563e-08 0.9999809 0.9999987 0.99994576 1.0 1.0
56 0.9999814 1.0 0.9999993 1.0 0.99999464 1.0 0.99982196 8.104102e-05 0.9999417 4.031007e-05 0.99995995 0.999974 6.359578e-08 7.612652e-08 1.0 0.9999918 3.2334265e-06 0.9999714 0.9999865 0.99997604 0.9999999 0.99994946 0.999982 0.99999976 0.99998057 1.0 1.0 2.4726678e-05 1.0 0.99997926 0.9999906 2.4175877e-08 0.99999106 0.9999379 0.99999464 1.0 0.9999939 0.99999845 1.3881085e-07 1.0 3.9073482e-09 5.072239e-09 2.4686082e-05 0.9999999 6.926461e-06 0.9998683 0.99996376 0.99999976 1.0 1.0 6.861929e-05 7.079968e-08 1.0 0.99999523 0.9999739 3.879147e-05 0.99998856 0.9996269 0.9999943 4.383805e-05 0.9999987 3.5302175e-09 0.999998 1.0 0.9821655 3.6797057e-09 0.99999964 1.0 2.2098584e-08 0.9999609 1.7548487e-05 0.9999937 1.0 9.059109e-09 0.9948179 0.99999964 0.999985 0.99998975 0.99999225 5.6925584e-09 0.9999933 0.9999995 0.9999939 0.0010578416 0.9999877 1.0 1.0 5.104295e-09 0.9999943 0.9999994 0.99999356 0.99994135 0.99996746 0.9999932 0.99999774 0.9999933 0.9997273 0.9999896 0.9999789 0.9999634 0.9999987 1.0 2.2518284e-08 4.375189e-05 0.999977 0.9999962 0.9999566 0.9999987 1.0 0.99993384 1.0685376e-05 1.0 2.1426184e-05 0.9999902 0.99999225 1.0 0.99994445 5.568239e-08 0.99999976 0.99998355 1.6932233e-08 0.99999976 3.003593e-08 0.9999794 0.99999857 0.99994195 1.0 1.0
57 0.9999819 1.0 0.9999993 1.0 0.99999475 1.0 0.99982625 7.922027e-05 0.99994314 3.91423e-05 0.999961 0.9999747 6.0914395e-08 7.299724e-08 1.0 0.99999213 3.1156621e-06 0.9999721 0.9999869 0.9999769 0.9999999 0.99995065 0.9999826 0.99999976 0.99998116 1.0 1.0 2.4067374e-05 1.0 0.99997985 0.9999908 2.3023816e-08 0.9999913 0.99993956 0.99999475 1.0 0.99999416 0.99999845 1.3288278e-07 1.0 3.7145624e-09 4.803289e-09 2.404448e-05 0.9999999 6.722449e-06 0.99987066 0.9999647 0.99999976 1.0 1.0 6.702625e-05 6.7379425e-08 1.0 0.99999547 0.9999746 3.7723046e-05 0.9999888 0.9996332 0.9999944 4.263393e-05 0.9999987 3.354362e-09 0.9999981 1.0 0.98229873 3.4904135e-09 0.99999964 1.0 2.1117206e-08 0.99996173 1.7047332e-05 0.9999939 1.0 8.653584e-09 0.99489295 0.99999964 0.99998546 0.99999 0.9999926 5.411412e-09 0.99999344 0.9999995 0.99999416 0.0010398894 0.9999881 1.0 1.0 4.8426885e-09 0.9999945 0.9999994 0.9999938 0.99994254 0.9999682 0.99999344 0.99999785 0.99999356 0.99973315 0.99999 0.9999794 0.9999645 0.9999987 1.0 2.1452248e-08 4.2595766e-05 0.9999776 0.9999963 0.9999578 0.9999987 1.0 0.99993527 1.0381276e-05 1.0 2.0798117e-05 0.9999906 0.9999925 1.0 0.9999459 5.350268e-08 0.99999976 0.999984 1.6082936e-08 0.99999976 2.8677222e-08 0.99998 0.99999857 0.9999434 1.0 1.0
58 0.9999825 1.0 0.9999994 1.0 0.999995 1.0 0.99983156 7.6543314e-05 0.9999449 3.7828704e-05 0.9999622 0.99997556 5.7624106e-08 6.9423e-08 1.0 0.9999924 2.9876264e-06 0.99997306 0.99998724 0.9999776 0.9999999 0.99995196 0.9999833 0.99999976 0.99998176 1.0 1.0 2.3293174e-05 1.0 0.99998033 0.9999912 2.1777192e-08 0.99999166 0.9999411 0.999995 1.0 0.9999943 0.99999857 1.259338e-07 1.0 3.4646517e-09 4.523647e-09 2.316953e-05 0.9999999 6.4306796e-06 0.99987364 0.9999659 0.99999976 1.0 1.0 6.520408e-05 6.382362e-08 1.0 0.9999956 0.9999753 3.6595193e-05 0.9999893 0.99964046 0.99999464 4.1057214e-05 0.9999988 3.1693348e-09 0.9999981 1.0 0.98258466 3.271032e-09 0.99999976 1.0 1.9971948e-08 0.9999629 1.6465781e-05 0.99999404 1.0 8.158274e-09 0.99495053 0.99999964 0.9999858 0.99999034 0.99999285 5.1196616e-09 0.9999937 0.9999995 0.9999943 0.0010100127 0.99998844 1.0 1.0 4.5679616e-09 0.99999464 0.9999994 0.99999404 0.99994445 0.99996924 0.9999937 0.999998 0.9999938 0.99973947 0.99999034 0.9999801 0.99996555 0.9999988 1.0 2.0317867e-08 4.1215033e-05 0.9999783 0.9999964 0.9999591 0.9999988 1.0 0.9999373 1.0017093e-05 1.0 2.0032927e-05 0.9999908 0.9999927 1.0 0.9999474 5.091598e-08 0.99999976 0.9999845 1.5178244e-08 0.99999976 2.7104067e-08 0.99998057 0.9999987 0.9999448 1.0 1.0
59 0.99997616 0.9999999 0.99999905 1.0 0.9999927 1.0 0.99977845 0.00010461319 0.99992514 5.1663148e-05 0.999948 0.99996626 9.6564065e-08 1.15420384e-07 1.0 0.99998915 4.4665935e-06 0.9999629 0.999982 0.99996984 0.9999999 0.9999354 0.9999764 0.99999976 0.9999747 1.0 1.0 3.1787025e-05 1.0 0.9999728 0.9999876 3.791232e-08 0.9999882 0.9999211 0.99999285 1.0 0.9999918 0.99999774 2.0995542e-07 0.9999999 6.324519e-09 8.218842e-09 3.2368695e-05 0.9999999 9.456958e-06 0.9998357 0.9999529 0.99999964 1.0 1.0 8.820933e-05 1.0829938e-07 1.0 0.9999937 0.99996626 5.029031e-05 0.999985 0.99954504 0.9999925 5.6592675e-05 0.9999982 5.6789373e-09 0.99999726 0.9999999 0.98035496 5.9418572e-09 0.9999995 1.0 3.516067e-08 0.9999503 2.300923e-05 0.99999154 1.0 1.4551464e-08 0.9941328 0.9999995 0.9999801 0.9999865 0.99998987 9.18103e-09 0.99999106 0.9999993 0.9999919 0.0012731265 0.99998355 1.0 1.0 8.219704e-09 0.9999924 0.99999917 0.9999913 0.99992514 0.99995816 0.99999106 0.9999969 0.9999912 0.99967074 0.9999865 0.9999721 0.9999528 0.9999981 1.0 3.50421e-08 5.6155775e-05 0.99997044 0.9999949 0.99994457 0.9999982 1.0 0.9999157 1.4310867e-05 1.0 2.782479e-05 0.9999871 0.99998975 1.0 0.9999293 8.5862936e-08 0.9999995 0.9999783 2.6214854e-08 0.99999964 4.6740066e-08 0.99997354 0.999998 0.9999263 1.0 1.0
60 0.99998105 1.0 0.9999993 1.0 0.99999464 1.0 0.99982136 8.174904e-05 0.9999411 4.0538984e-05 0.99995947 0.9999738 6.432922e-08 7.749527e-08 1.0 0.9999918 3.2844298e-06 0.99997115 0.9999863 0.99997604 0.9999999 0.9999486 0.999982 0.99999976 0.99998045 1.0 1.0 2.4964564e-05 1.0 0.999979 0.99999046 2.4766381e-08 0.99999094 0.99993694 0.9999945 1.0 0.9999939 0.99999845 1.4005681e-07 1.0 3.974334e-09 5.1548774e-09 2.4845598e-05 0.9999999 7.0100186e-06 0.9998661 0.99996364 0.99999976 1.0 1.0 7.003433e-05 7.150715e-08 1.0 0.99999523 0.99997354 3.917628e-05 0.99998844 0.9996228 0.99999416 4.3949643e-05 0.9999987 3.6189074e-09 0.999998 1.0 0.9821609 3.740691e-09 0.99999964 1.0 2.261418e-08 0.99996066 1.7702623e-05 0.99999356 1.0 9.261637e-09 0.99477684 0.99999964 0.99998474 0.9999895 0.99999225 5.811936e-09 0.9999932 0.9999995 0.9999939 0.0010644159 0.9999876 1.0 1.0 5.229308e-09 0.9999943 0.9999994 0.99999344 0.99994075 0.9999671 0.9999932 0.99999774 0.9999932 0.99972624 0.9999895 0.99997854 0.9999633 0.9999987 1.0 2.2816165e-08 4.427883e-05 0.9999769 0.9999962 0.9999565 0.9999987 1.0 0.999933 1.0873007e-05 1.0 2.1427204e-05 0.9999901 0.99999213 1.0 0.99994385 5.681454e-08 0.99999976 0.9999833 1.7246903e-08 0.99999976 3.0462527e-08 0.99997914 0.99999857 0.9999411 1.0 1.0
61 0.9999814 1.0 0.9999993 1.0 0.99999464 1.0 0.9998227 8.093275e-05 0.99994195 3.9976523e-05 0.99995995 0.99997413 6.327538e-08 7.620031e-08 1.0 0.9999919 3.2226487e-06 0.9999715 0.9999864 0.9999764 0.9999999 0.9999492 0.99998224 0.99999976 0.9999807 1.0 1.0 2.4659848e-05 1.0 0.99997926 0.9999906 2.4104143e-08 0.99999106 0.99993765 0.99999464 1.0 0.9999939 0.99999845 1.3809758e-07 1.0 3.8785237e-09 5.0489675e-09 2.456289e-05 0.9999999 6.8889776e-06 0.99986756 0.9999639 0.99999976 1.0 1.0 6.9106216e-05 6.992494e-08 1.0 0.99999523 0.999974 3.877131e-05 0.99998856 0.9996251 0.9999943 4.346407e-05 0.9999987 3.5334846e-09 0.999998 1.0 0.9821383 3.6514112e-09 0.99999964 1.0 2.2025322e-08 0.9999609 1.7531223e-05 0.9999937 1.0 9.079816e-09 0.99479854 0.99999964 0.999985 0.99998975 0.9999924 5.6765983e-09 0.9999932 0.9999995 0.9999939 0.0010553201 0.9999877 1.0 1.0 5.0859663e-09 0.9999943 0.9999994 0.99999356 0.99994135 0.99996746 0.9999933 0.99999774 0.9999933 0.9997286 0.9999896 0.9999789 0.9999635 0.9999987 1.0 2.243413e-08 4.3775803e-05 0.99997723 0.9999962 0.99995697 0.9999987 1.0 0.99993384 1.0704315e-05 1.0 2.1312408e-05 0.9999902 0.99999225 1.0 0.99994457 5.6071073e-08 0.99999976 0.99998355 1.676925e-08 0.99999976 2.9909707e-08 0.9999795 0.99999857 0.9999416 1.0 1.0
62 0.9999814 1.0 0.9999993 1.0 0.99999464 1.0 0.9998241 8.022299e-05 0.9999424 3.9674214e-05 0.9999603 0.99997437 6.213147e-08 7.5095954e-08 1.0 0.999992 3.1983109e-06 0.9999716 0.99998665 0.9999765 0.9999999 0.9999496 0.99998236 0.99999976 0.9999809 1.0 1.0 2.4509376e-05 1.0 0.9999794 0.9999907 2.3894994e-08 0.9999912 0.99993837 0.99999464 1.0 0.99999404 0.99999845 1.3559776e-07 1.0 3.8168637e-09 4.952313e-09 2.4292827e-05 0.9999999 6.852729e-06 0.9998685 0.99996436 0.99999976 1.0 1.0 6.8490495e-05 6.924989e-08 1.0 0.99999535 0.99997413 3.8311046e-05 0.9999887 0.9996282 0.9999943 4.3101758e-05 0.9999987 3.4748369e-09 0.999998 1.0 0.98229355 3.591971e-09 0.99999964 1.0 2.170603e-08 0.9999614 1.7372104e-05 0.9999937 1.0 8.937069e-09 0.9948468 0.99999964 0.9999851 0.99998975 0.9999924 5.5894755e-09 0.9999933 0.9999995 0.99999404 0.001047935 0.99998784 1.0 1.0 5.0468296e-09 0.9999944 0.9999994 0.9999937 0.99994195 0.9999676 0.9999933 0.99999785 0.99999344 0.9997305 0.99998975 0.999979 0.999964 0.9999987 1.0 2.1980501e-08 4.3331518e-05 0.99997735 0.9999963 0.9999573 0.9999987 1.0 0.9999343 1.0609941e-05 1.0 2.099767e-05 0.99999034 0.99999225 1.0 0.99994504 5.4883873e-08 0.99999976 0.99998367 1.6627585e-08 0.99999976 2.934407e-08 0.9999796 0.99999857 0.99994254 1.0 1.0
63 0.99998176 1.0 0.9999993 1.0 0.99999475 1.0 0.99982566 7.9311576e-05 0.9999429 3.924082e-05 0.9999608 0.9999745 6.12546e-08 7.354633e-08 1.0 0.999992 3.1243208e-06 0.9999721 0.99998677 0.99997675 0.9999999 0.9999502 0.9999826 0.99999976 0.99998105 1.0 1.0 2.4089513e-05 1.0 0.9999796 0.9999908 2.3272964e-08 0.9999913 0.99993885 0.99999475 1.0 0.99999416 0.99999845 1.3383944e-07 1.0 3.730488e-09 4.843991e-09 2.4132189e-05 0.9999999 6.747389e-06 0.99986935 0.9999646 0.99999976 1.0 1.0 6.755648e-05 6.8102324e-08 1.0 0.99999535 0.9999745 3.7965136e-05 0.9999888 0.9996308 0.9999944 4.2868636e-05 0.9999987 3.3868726e-09 0.999998 1.0 0.9823224 3.5098737e-09 0.99999964 1.0 2.1283478e-08 0.9999616 1.7171058e-05 0.9999938 1.0 8.707127e-09 0.9948613 0.99999964 0.99998534 0.99999 0.9999926 5.454687e-09 0.99999344 0.9999995 0.99999416 0.0010377463 0.9999881 1.0 1.0 4.891238e-09 0.9999945 0.9999994 0.9999937 0.9999423 0.99996793 0.99999344 0.99999785 0.99999344 0.99973315 0.99998987 0.9999794 0.9999641 0.9999987 1.0 2.1576255e-08 4.270538e-05 0.9999776 0.9999963 0.99995756 0.9999987 1.0 0.99993527 1.0486412e-05 1.0 2.081443e-05 0.99999046 0.9999924 1.0 0.9999455 5.423184e-08 0.99999976 0.9999839 1.6223087e-08 0.99999976 2.895467e-08 0.99998 0.99999857 0.999943 1.0 1.0
64 0.99998176 1.0 0.9999993 1.0 0.99999464 1.0 0.99982435 8.0124744e-05 0.9999423 3.976967e-05 0.99996054 0.99997425 6.229498e-08 7.508407e-08 1.0 0.9999919 3.1725199e-06 0.99997175 0.99998665 0.9999765 0.9999999 0.99995005 0.99998236 0.99999976 0.9999808 1.0 1.0 2.4441151e-05 1.0 0.9999794 0.9999907 2.363058e-08 0.9999912 0.9999385 0.99999475 1.0 0.99999404 0.99999845 1.3593439e-07 1.0 3.7890464e-09 4.947516e-09 2.436733e-05 0.9999999 6.7968012e-06 0.99986804 0.9999641 0.99999976 1.0 1.0 6.8340705e-05 6.909619e-08 1.0 0.99999535 0.99997425 3.837339e-05 0.9999887 0.9996289 0.9999943 4.313794e-05 0.9999987 3.4627223e-09 0.999998 1.0 0.98222554 3.5882046e-09 0.99999964 1.0 2.1826885e-08 0.99996114 1.7300845e-05 0.9999938 1.0 8.910975e-09 0.99483705 0.99999964 0.9999851 0.99998987 0.9999924 5.5621436e-09 0.9999933 0.9999995 0.99999404 0.0010451947 0.99998784 1.0 1.0 5.010794e-09 0.9999944 0.9999994 0.9999937 0.9999418 0.9999677 0.9999933 0.99999785 0.99999344 0.9997305 0.99998975 0.99997914 0.99996376 0.9999987 1.0 2.191712e-08 4.3412543e-05 0.99997723 0.9999963 0.9999571 0.9999987 1.0 0.9999343 1.0597048e-05 1.0 2.1104934e-05 0.99999046 0.9999924 1.0 0.99994504 5.52595e-08 0.99999976 0.9999838 1.6465965e-08 0.99999976 2.947331e-08 0.9999796 0.99999857 0.99994266 1.0 1.0
65 0.9999825 1.0 0.9999994 1.0 0.999995 1.0 0.99983156 7.664579e-05 0.99994504 3.776595e-05 0.9999622 0.99997544 5.761059e-08 6.9298515e-08 1.0 0.9999924 2.9938326e-06 0.99997294 0.99998736 0.9999776 0.9999999 0.9999522 0.9999833 0.99999976 0.99998176 1.0 1.0 2.3239434e-05 1.0 0.99998033 0.9999912 2.1664835e-08 0.99999166 0.99994123 0.999995 1.0 0.9999944 0.99999857 1.2610386e-07 1.0 3.4762353e-09 4.5186543e-09 2.321405e-05 0.9999999 6.444887e-06 0.9998735 0.9999658 0.99999976 1.0 1.0 6.514026e-05 6.386307e-08 1.0 0.9999956 0.99997544 3.6513793e-05 0.9999893 0.9996407 0.99999464 4.1167576e-05 0.9999988 3.166368e-09 0.9999981 1.0 0.98256636 3.2753023e-09 0.99999976 1.0 1.996833e-08 0.9999627 1.6431695e-05 0.99999404 1.0 8.178543e-09 0.9949667 0.99999964 0.9999858 0.99999034 0.99999285 5.116147e-09 0.9999937 0.9999995 0.9999943 0.0010137043 0.99998844 1.0 1.0 4.5839688e-09 0.99999464 0.9999994 0.99999404 0.99994445 0.999969 0.9999937 0.999998 0.9999938 0.99973994 0.99999034 0.9999802 0.9999654 0.9999988 1.0 2.0219284e-08 4.1201554e-05 0.9999784 0.99999654 0.999959 0.9999988 1.0 0.9999373 1.003816e-05 1.0 2.0057068e-05 0.99999094 0.9999927 1.0 0.9999473 5.1084953e-08 0.99999976 0.9999846 1.5196871e-08 0.99999976 2.7107738e-08 0.9999807 0.9999987 0.9999449 1.0 1.0
66 0.99998224 1.0 0.9999993 1.0 0.9999949 1.0 0.99982905 7.7989935e-05 0.9999441 3.8498707e-05 0.9999616 0.9999751 5.9087576e-08 7.1238425e-08 1.0 0.99999225 3.062492e-06 0.9999726 0.9999871 0.99997723 0.9999999 0.99995136 0.99998295 0.99999976 0.9999814 1.0 1.0 2.3681807e-05 1.0 0.9999801 0.99999106 2.2344025e-08 0.9999914 0.9999404 0.9999949 1.0 0.9999943 0.99999845 1.2981766e-07 1.0 3.5937797e-09 4.6797584e-09 2.3621113e-05 0.9999999 6.566793e-06 0.9998715 0.9999653 0.99999976 1.0 1.0 6.62786e-05 6.5624285e-08 1.0 0.99999547 0.99997497 3.7111495e-05 0.99998903 0.99963677 0.9999945 4.1913576e-05 0.9999988 3.2576704e-09 0.9999981 1.0 0.9823507 3.3807865e-09 0.99999964 1.0 2.0594374e-08 0.9999622 1.6736642e-05 0.9999939 1.0 8.440444e-09 0.9949315 0.99999964 0.9999856 0.9999902 0.9999926 5.2537112e-09 0.99999356 0.9999995 0.9999943 0.0010252187 0.9999882 1.0 1.0 4.7367372e-09 0.99999464 0.9999994 0.9999939 0.9999435 0.99996865 0.99999356 0.99999785 0.9999937 0.9997365 0.9999901 0.99997973 0.99996495 0.9999987 1.0 2.08458e-08 4.1895517e-05 0.99997795 0.9999964 0.9999584 0.9999988 1.0 0.99993634 1.0233157e-05 1.0 2.0400717e-05 0.9999907 0.9999926 1.0 0.9999467 5.234919e-08 0.99999976 0.99998426 1.5628245e-08 0.99999976 2.7851913e-08 0.99998033 0.99999857 0.9999441 1.0 1.0
67 0.99998045 0.9999999 0.9999993 1.0 0.9999943 1.0 0.99981576 8.453352e-05 0.9999386 4.2053467e-05 0.9999579 0.9999727 6.89711e-08 8.327774e-08 1.0 0.9999913 3.4405691e-06 0.9999697 0.9999857 0.9999751 0.9999999 0.9999467 0.9999813 0.99999976 0.9999796 1.0 1.0 2.5982963e-05 1.0 0.9999777 0.99999 2.6594888e-08 0.9999906 0.9999347 0.9999943 1.0 0.99999356 0.99999833 1.4997342e-07 1.0 4.301749e-09 5.550285e-09 2.5919113e-05 0.9999999 7.4315644e-06 0.99986124 0.99996173 0.99999976 1.0 1.0 7.155597e-05 7.638322e-08 1.0 0.9999949 0.9999726 4.0437324e-05 0.9999881 0.9996086 0.9999939 4.6024357e-05 0.99999857 3.920943e-09 0.99999785 1.0 0.9817441 4.0315116e-09 0.99999964 1.0 2.4027898e-08 0.9999584 1.850427e-05 0.9999933 1.0 1.0021956e-08 0.9947068 0.99999964 0.999984 0.99998915 0.9999919 6.2124803e-09 0.99999285 0.9999994 0.9999937 0.0010915259 0.9999869 1.0 1.0 5.578569e-09 0.99999404 0.9999994 0.9999932 0.9999386 0.99996567 0.99999285 0.9999976 0.99999297 0.9997224 0.99998915 0.9999776 0.99996114 0.99999857 1.0 2.4500686e-08 4.5953442e-05 0.9999759 0.99999595 0.99995434 0.99999857 1.0 0.99993074 1.1364378e-05 1.0 2.2489829e-05 0.99998975 0.9999918 1.0 0.9999423 6.125939e-08 0.99999964 0.99998236 1.8439634e-08 0.99999976 3.2611847e-08 0.99997854 0.99999845 0.9999391 1.0 1.0
68 0.99998105 0.9999999 0.9999993 1.0 0.9999945 1.0 0.9998203 8.265417e-05 0.99994063 4.0824445e-05 0.99995923 0.9999733 6.503204e-08 7.8548574e-08 1.0 0.99999166 3.2964892e-06 0.99997103 0.9999863 0.9999758 0.9999999 0.99994826 0.9999819 0.99999976 0.99998033 1.0 1.0 2.5192483e-05 1.0 0.99997854 0.99999034 2.4875696e-08 0.9999908 0.9999366 0.9999945 1.0 0.9999938 0.99999833 1.4211403e-07 1.0 4.0461017e-09 5.212658e-09 2.5181413e-05 0.9999999 7.0880387e-06 0.9998658 0.99996316 0.99999976 1.0 1.0 6.984898e-05 7.223382e-08 1.0 0.99999523 0.9999734 3.937911e-05 0.9999883 0.99962103 0.99999416 4.4614568e-05 0.9999987 3.6406738e-09 0.99999785 1.0 0.98209363 3.8200683e-09 0.99999964 1.0 2.2713605e-08 0.99996006 1.785697e-05 0.99999356 1.0 9.378052e-09 0.9947602 0.99999964 0.9999845 0.9999895 0.99999225 5.8853367e-09 0.9999932 0.9999995 0.9999939 0.0010634861 0.9999875 1.0 1.0 5.2410205e-09 0.99999416 0.9999994 0.99999344 0.9999403 0.99996686 0.9999931 0.99999774 0.9999932 0.9997241 0.9999895 0.99997854 0.99996257 0.9999987 1.0 2.3135629e-08 4.428533e-05 0.99997663 0.9999962 0.9999559 0.9999987 1.0 0.999933 1.09944185e-05 1.0 2.194656e-05 0.9999901 0.99999213 1.0 0.9999434 5.7652027e-08 0.99999964 0.9999832 1.7249931e-08 0.99999976 3.0893947e-08 0.99997914 0.99999857 0.99994063 1.0 1.0
69 0.99998164 1.0 0.9999993 1.0 0.99999475 1.0 0.99982435 8.024388e-05 0.99994266 3.962895e-05 0.9999603 0.99997437 6.2020405e-08 7.506302e-08 1.0 0.999992 3.165427e-06 0.99997187 0.99998677 0.99997663 0.9999999 0.9999502 0.9999825 0.99999976 0.9999808 1.0 1.0 2.4357152e-05 1.0 0.9999794 0.9999907 2.3480965e-08 0.9999912 0.9999387 0.99999475 1.0 0.99999404 0.99999845 1.3541413e-07 1.0 3.8270915e-09 4.9377213e-09 2.4372257e-05 0.9999999 6.8282916e-06 0.99986947 0.99996436 0.99999976 1.0 1.0 6.815353e-05 6.8687925e-08 1.0 0.99999535 0.99997437 3.828011e-05 0.9999887 0.9996289 0.9999944 4.297309e-05 0.9999987 3.4421181e-09 0.999998 1.0 0.9821733 3.5694265e-09 0.99999964 1.0 2.1571566e-08 0.99996114 1.7300334e-05 0.9999938 1.0 8.889874e-09 0.99483466 0.99999964 0.9999852 0.99998987 0.9999925 5.5415263e-09 0.9999933 0.9999995 0.99999404 0.0010453594 0.99998784 1.0 1.0 5.003068e-09 0.9999944 0.9999994 0.9999937 0.99994195 0.9999677 0.99999344 0.99999785 0.99999344 0.99973017 0.99998975 0.999979 0.999964 0.9999987 1.0 2.183059e-08 4.3234973e-05 0.99997747 0.9999963 0.9999572 0.9999987 1.0 0.9999347 1.0590631e-05 1.0 2.1007483e-05 0.99999034 0.9999924 1.0 0.99994516 5.512244e-08 0.99999976 0.9999839 1.6415258e-08 0.99999976 2.9232067e-08 0.99997973 0.99999857 0.9999428 1.0 1.0
70 0.99998116 1.0 0.9999993 1.0 0.9999945 1.0 0.99982196 8.173829e-05 0.99994135 4.0491424e-05 0.9999598 0.9999738 6.407525e-08 7.7549096e-08 1.0 0.9999918 3.2487203e-06 0.99997115 0.9999863 0.9999759 0.9999999 0.999949 0.9999821 0.99999976 0.99998033 1.0 1.0 2.505761e-05 1.0 0.9999789 0.99999046 2.4568072e-08 0.99999106 0.9999373 0.99999464 1.0 0.9999939 0.99999845 1.3985513e-07 1.0 3.974941e-09 5.1253086e-09 2.504022e-05 0.9999999 6.9574503e-06 0.9998666 0.9999635 0.99999976 1.0 1.0 6.939169e-05 7.1512744e-08 1.0 0.99999523 0.99997365 3.885919e-05 0.99998844 0.9996244 0.99999416 4.4142904e-05 0.9999987 3.5860563e-09 0.999998 1.0 0.98206836 3.7323526e-09 0.99999964 1.0 2.2365729e-08 0.9999602 1.768514e-05 0.99999356 1.0 9.275921e-09 0.994768 0.99999964 0.99998486 0.9999896 0.99999225 5.7826997e-09 0.9999932 0.9999995 0.9999939 0.0010622648 0.9999876 1.0 1.0 5.2128066e-09 0.9999943 0.9999994 0.99999344 0.99994063 0.9999672 0.9999932 0.99999774 0.9999933 0.99972683 0.9999895 0.99997866 0.99996305 0.9999987 1.0 2.2875515e-08 4.4121312e-05 0.99997675 0.9999962 0.99995625 0.9999987 1.0 0.9999336 1.0870198e-05 1.0 2.1552401e-05 0.9999901 0.99999213 1.0 0.99994385 5.71118e-08 0.99999976 0.99998343 1.7016442e-08 0.99999976 3.044464e-08 0.99997926 0.99999857 0.9999411 1.0 1.0
71 0.9999815 1.0 0.9999993 1.0 0.99999464 1.0 0.9998252 7.99984e-05 0.99994254 3.9640403e-05 0.99996066 0.99997437 6.1910605e-08 7.479976e-08 1.0 0.999992 3.1728678e-06 0.99997175 0.99998665 0.9999764 0.9999999 0.99994993 0.9999825 0.99999976 0.9999808 1.0 1.0 2.4500076e-05 1.0 0.9999794 0.9999907 2.3669598e-08 0.9999912 0.9999385 0.99999475 1.0 0.99999404 0.99999845 1.3532336e-07 1.0 3.798243e-09 4.912096e-09 2.4431807e-05 0.9999999 6.7634364e-06 0.9998685 0.99996436 0.99999976 1.0 1.0 6.800746e-05 6.89486e-08 1.0 0.99999535 0.99997413 3.801553e-05 0.9999887 0.99962974 0.9999944 4.3210734e-05 0.9999987 3.4373946e-09 0.999998 1.0 0.9822311 3.584675e-09 0.99999964 1.0 2.1584201e-08 0.999961 1.7256207e-05 0.9999938 1.0 8.908494e-09 0.99483114 0.99999964 0.9999852 0.99998987 0.9999925 5.5654974e-09 0.9999933 0.9999995 0.99999404 0.0010469721 0.99998784 1.0 1.0 4.987443e-09 0.9999944 0.9999994 0.9999937 0.9999417 0.99996793 0.9999933 0.99999785 0.99999344 0.9997315 0.99998975 0.99997914 0.9999639 0.9999987 1.0 2.205963e-08 4.3144897e-05 0.99997735 0.9999963 0.9999572 0.9999987 1.0 0.9999349 1.059243e-05 1.0 2.1094329e-05 0.99999034 0.9999924 1.0 0.9999449 5.5047103e-08 0.99999976 0.9999838 1.6385448e-08 0.99999976 2.9370666e-08 0.99997973 0.99999857 0.9999422 1.0 1.0
72 0.9999827 1.0 0.9999994 1.0 0.999995 1.0 0.99983346 7.541264e-05 0.9999459 3.7262107e-05 0.9999628 0.9999759 5.6056212e-08 6.775328e-08 1.0 0.9999925 2.936249e-06 0.99997354 0.9999876 0.9999778 0.9999999 0.9999529 0.99998355 0.99999976 0.999982 1.0 1.0 2.2926173e-05 1.0 0.9999807 0.9999913 2.1125947e-08 0.9999918 0.99994206 0.9999951 1.0 0.9999944 0.99999857 1.22797e-07 1.0 3.3685248e-09 4.3742783e-09 2.2845681e-05 1.0 6.3145385e-06 0.99987507 0.9999665 0.99999976 1.0 1.0 6.431402e-05 6.2224686e-08 1.0 0.9999957 0.9999758 3.5919657e-05 0.9999894 0.9996456 0.99999475 4.0458188e-05 0.9999988 3.0563199e-09 0.9999981 1.0 0.9826194 3.1762275e-09 0.99999976 1.0 1.9371658e-08 0.9999634 1.616748e-05 0.99999416 1.0 7.941111e-09 0.9949934 0.99999964 0.9999862 0.9999906 0.99999297 4.94981e-09 0.9999938 0.9999995 0.9999944 0.0010032672 0.9999887 1.0 1.0 4.445062e-09 0.99999475 0.9999995 0.99999416 0.99994516 0.9999696 0.9999938 0.999998 0.9999939 0.9997428 0.99999046 0.99998045 0.999966 0.9999988 1.0 1.970421e-08 4.0491308e-05 0.9999788 0.99999654 0.9999597 0.9999988 1.0 0.9999385 9.829373e-06 1.0 1.9713249e-05 0.99999106 0.99999285 1.0 0.99994814 4.9692613e-08 0.99999976 0.99998486 1.4740048e-08 0.99999976 2.6470952e-08 0.9999809 0.9999987 0.99994576 1.0 1.0
73 0.99998236 1.0 0.9999994 1.0 0.999995 1.0 0.99983025 7.7246885e-05 0.9999447 3.8169514e-05 0.999962 0.9999752 5.8227783e-08 7.02021e-08 1.0 0.99999225 3.0312124e-06 0.9999728 0.99998724 0.99997735 0.9999999 0.99995184 0.9999831 0.99999976 0.99998164 1.0 1.0 2.346366e-05 1.0 0.9999801 0.99999106 2.1999458e-08 0.99999154 0.9999409 0.9999949 1.0 0.9999943 0.99999857 1.274822e-07 1.0 3.5425947e-09 4.5685886e-09 2.339933e-05 0.9999999 6.525908e-06 0.99987304 0.99996567 0.99999976 1.0 1.0 6.578348e-05 6.432076e-08 1.0 0.9999956 0.9999752 3.6956346e-05 0.99998915 0.9996383 0.99999464 4.149444e-05 0.9999988 3.1989296e-09 0.9999981 1.0 0.98251235 3.3357828e-09 0.99999976 1.0 2.0177138e-08 0.99996257 1.6545966e-05 0.99999404 1.0 8.256221e-09 0.9949522 0.99999964 0.9999857 0.9999902 0.9999927 5.160347e-09 0.9999937 0.9999995 0.9999943 0.0010175563 0.99998844 1.0 1.0 4.6228297e-09 0.99999464 0.9999994 0.9999939 0.999944 0.999969 0.99999356 0.99999785 0.9999937 0.9997379 0.9999902 0.99998 0.9999652 0.9999988 1.0 2.0513928e-08 4.146102e-05 0.9999783 0.9999964 0.99995875 0.9999988 1.0 0.99993706 1.0137423e-05 1.0 2.0269721e-05 0.9999908 0.9999926 1.0 0.9999471 5.1585587e-08 0.99999976 0.9999845 1.5348729e-08 0.99999976 2.7401759e-08 0.99998045 0.9999987 0.99994457 1.0 1.0
74 0.9999808 0.9999999 0.9999993 1.0 0.9999944 1.0 0.9998166 8.3342275e-05 0.9999399 4.146972e-05 0.99995875 0.99997306 6.676574e-08 8.040225e-08 1.0 0.99999154 3.3470956e-06 0.9999703 0.99998605 0.99997544 0.9999999 0.99994767 0.9999815 0.99999976 0.99997973 1.0 1.0 2.5566342e-05 1.0 0.9999784 0.9999902 2.5534622e-08 0.9999907 0.9999355 0.9999944 1.0 0.9999937 0.99999833 1.4534508e-07 1.0 4.1554253e-09 5.383729e-09 2.5483045e-05 0.9999999 7.137386e-06 0.99986434 0.99996233 0.99999976 1.0 1.0 7.094596e-05 7.430223e-08 1.0 0.999995 0.99997294 4.0032108e-05 0.9999881 0.9996147 0.99999404 4.522356e-05 0.9999987 3.7507504e-09 0.99999785 1.0 0.9818255 3.9072217e-09 0.99999964 1.0 2.3564056e-08 0.9999597 1.8080162e-05 0.99999344 1.0 9.630652e-09 0.9946878 0.99999964 0.9999844 0.9999894 0.99999213 6.0939005e-09 0.99999297 0.9999995 0.9999937 0.0010787402 0.9999871 1.0 1.0 5.4455804e-09 0.99999404 0.9999994 0.9999933 0.9999392 0.99996626 0.99999297 0.9999976 0.9999931 0.99972266 0.9999893 0.9999782 0.999962 0.99999857 1.0 2.3837911e-08 4.514462e-05 0.9999764 0.99999607 0.9999552 0.99999857 1.0 0.99993145 1.1092712e-05 1.0 2.2078877e-05 0.99999 0.9999919 1.0 0.99994254 5.9324268e-08 0.99999964 0.99998295 1.7900758e-08 0.99999976 3.1805456e-08 0.9999789 0.99999845 0.9999399 1.0 1.0
75 0.99998283 1.0 0.9999994 1.0 0.9999951 1.0 0.99983406 7.513019e-05 0.9999461 3.703958e-05 0.9999629 0.99997604 5.569153e-08 6.712852e-08 1.0 0.9999926 2.9182736e-06 0.99997354 0.9999876 0.99997795 0.9999999 0.9999529 0.99998367 0.9999999 0.9999821 1.0 1.0 2.2808064e-05 1.0 0.9999808 0.9999914 2.0948194e-08 0.9999919 0.9999423 0.9999951 1.0 0.9999945 0.99999857 1.2182734e-07 1.0 3.3383607e-09 4.3377795e-09 2.2668137e-05 1.0 6.2715144e-06 0.9998758 0.9999666 0.99999976 1.0 1.0 6.404577e-05 6.175293e-08 1.0 0.9999957 0.9999759 3.5696226e-05 0.9999894 0.99964666 0.99999475 4.0326224e-05 0.9999988 3.0388234e-09 0.9999982 1.0 0.98268914 3.146585e-09 0.99999976 1.0 1.923954e-08 0.99996364 1.6065733e-05 0.99999416 1.0 7.877494e-09 0.9949999 0.99999964 0.9999862 0.9999906 0.99999297 4.915695e-09 0.9999938 0.9999995 0.9999944 0.0009991865 0.9999888 1.0 1.0 4.404552e-09 0.99999475 0.9999995 0.99999416 0.9999453 0.9999697 0.9999938 0.999998 0.9999939 0.99974304 0.99999046 0.99998057 0.99996614 0.9999988 1.0 1.9570905e-08 4.0328687e-05 0.9999788 0.99999654 0.9999598 0.9999988 1.0 0.9999385 9.796842e-06 1.0 1.957925e-05 0.99999106 0.99999285 1.0 0.9999484 4.9300827e-08 0.99999976 0.99998486 1.46633825e-08 0.99999976 2.6198258e-08 0.99998105 0.9999987 0.999946 1.0 1.0
76 0.9999809 0.9999999 0.9999993 1.0 0.9999945 1.0 0.9998198 8.169925e-05 0.9999411 4.065358e-05 0.99995947 0.99997354 6.479025e-08 7.781016e-08 1.0 0.9999918 3.2889466e-06 0.9999709 0.9999862 0.9999758 0.9999999 0.9999485 0.9999819 0.99999976 0.99998033 1.0 1.0 2.5091638e-05 1.0 0.99997866 0.99999034 2.4609342e-08 0.99999094 0.9999374 0.9999945 1.0 0.9999938 0.99999845 1.4075042e-07 1.0 3.99228e-09 5.151958e-09 2.5009173e-05 0.9999999 7.0031706e-06 0.9998653 0.9999633 0.99999976 1.0 1.0 6.9891896e-05 7.192983e-08 1.0 0.9999951 0.99997354 3.9133527e-05 0.9999883 0.99962175 0.99999416 4.410209e-05 0.9999987 3.620785e-09 0.999998 1.0 0.9820925 3.7663566e-09 0.99999964 1.0 2.270871e-08 0.99996006 1.7728082e-05 0.99999356 1.0 9.292142e-09 0.9947436 0.99999964 0.99998474 0.9999895 0.99999225 5.8435705e-09 0.9999932 0.9999995 0.9999938 0.0010717742 0.9999876 1.0 1.0 5.2439204e-09 0.99999416 0.9999994 0.99999344 0.9999405 0.999967 0.9999932 0.99999774 0.9999933 0.9997253 0.9999895 0.99997854 0.9999628 0.9999987 1.0 2.2971793e-08 4.4134486e-05 0.99997675 0.9999962 0.99995613 0.9999987 1.0 0.99993336 1.0783056e-05 1.0 2.1498372e-05 0.9999902 0.99999213 1.0 0.9999436 5.7649274e-08 0.99999976 0.9999833 1.7103485e-08 0.99999976 3.0730508e-08 0.99997914 0.99999857 0.99994123 1.0 1.0
