2708 128
0 -0.07305601 -0.046247654 -0.43186954 0.64216655 -0.42469534 0.12417201 0.1321507 0.056922816 -0.12085754 0.18941696 -0.33871517 -0.50668067 0.22497058 -0.83947575 -0.066947564 0.3790274 0.10504002 0.50526726 0.8177583 -0.60113364 -0.10355548 -0.21900564 0.15258676 0.15287335 0.010386179 0.41911003 -0.04173865 0.35223347 0.7510936 0.16478737 0.022001343 0.0070394124 0.18677205 -0.040191412 -0.009978191 0.34302416 -0.3279459 0.19196123 -0.14723362 -0.95748335 -0.55605054 -0.60814 -0.24783066 -0.35294867 0.082673766 0.18158317 -0.3613233 -0.051550105 -0.21202843 -0.3591323 -0.80088854 0.65782857 -0.2757319 0.2266325 -0.15987599 -0.24838725 0.3928295 0.787156 0.027199982 0.46672785 0.06651476 -0.72573537 -0.15118745 0.24206421 -0.09844751 -0.29927015 -0.08491322 0.8725203 0.63691825 -0.47645447 0.37017545 0.22867571 0.07006484 0.45974243 0.27289137 0.04368397 0.79347485 -0.15961912 -0.35579342 0.14352773 0.7712531 0.011475302 0.14666961 0.47593653 -0.74078363 0.087913536 -0.49396402 -0.5523706 -0.158633 -0.33320215 -0.26877126 0.19571829 -0.44617826 0.098351814 -0.3510856 -0.2485337 -0.46635097 0.23622155 0.22675018 -0.23621652 0.020967057 0.6466082 0.74058527 0.11732443 -0.5579719 0.16484372 0.035178266 -0.050495476 -0.20637804 -0.16162468 0.017572096 -0.004646723 0.16892639 0.04403348 -0.15825331 -0.3161274 0.16780695 0.062323835 -0.4076672 -0.4532566 -0.21824825 -0.4682954 -0.53008586 -0.19717842 0.19743119 0.218469 -0.042345483 -0.38963008
633 -0.06051568 -0.0041098087 -0.37971744 0.51340085 -0.2971067 -0.05599695 0.2703797 0.011861062 0.016296554 -0.04891163 -0.31141886 -0.6229415 0.18071695 -0.5795843 -0.07485108 0.48910546 0.1534225 0.6491129 0.6076302 -0.3533223 -0.236849 -0.26809624 0.12032225 0.27188015 0.0021089695 0.35085443 0.08731452 0.47225565 0.45459187 0.014675998 -0.038908537 0.0016071004 0.09656233 -0.043002915 -0.053525914 0.1943895 -0.2270934 0.08825964 -0.23888698 -0.8089072 -0.6120472 -0.32122293 -0.04556192 -0.28624907 0.106318295 0.07699121 -0.37957117 -0.005270489 -0.30749726 -0.36362422 -0.5031134 0.42078325 -0.20720999 0.27192742 -0.20784652 -0.20312712 0.24906987 0.5671774 0.027382547 0.28775743 0.088915035 -0.5647458 -0.0050476664 0.20887882 0.17679882 -0.35680434 -0.11675823 0.68670434 0.6622778 -0.42950708 0.1375762 0.21443936 0.031009795 0.3311265 0.050386373 -0.016035324 0.71145576 0.03898892 -0.22002028 0.2861842 0.7327343 -0.121118315 0.15606454 0.4248352 -0.45389256 0.019643368 -0.24684429 -0.47625762 -0.45374367 -0.25717053 -0.2830256 -0.07355941 -0.27310687 0.025830947 -0.2117634 -0.28228584 -0.36571875 0.24743126 0.062812075 -0.2092615 -0.080126554 0.3884445 0.5634401 0.20980386 -0.46913058 0.061765257 0.032195814 0.044751044 -0.16780877 0.0006410863 -0.008910597 -0.21931273 0.06968464 -0.032081563 -0.14269425 -0.23684026 0.15412858 -0.00900047 -0.42710045 -0.4144657 -0.19165139 -0.20461462 -0.42858315 -0.08227284 -0.01365981 -0.03186558 -0.012103291 -0.23358181
1862 -0.101463005 -0.14452234 -0.4397644 0.5664571 -0.38137314 0.205582 0.11261013 0.0077323876 -0.009972132 0.14025268 -0.3252119 -0.6489282 0.14890163 -0.7679832 0.016503962 0.21475281 -0.014162036 0.42337 0.72300744 -0.6132108 -0.17983808 -0.14628349 0.3048507 0.04963678 0.10102913 0.40988037 0.080653325 0.26146352 0.62356645 0.20731431 0.19341168 0.050561756 0.12205888 0.016378293 -0.028404303 0.404043 -0.28896734 0.16511355 -0.15764381 -0.8300404 -0.44588667 -0.6126342 -0.20871674 -0.43831626 0.0783511 0.15003452 -0.35204962 0.0024384384 -0.1432592 -0.40155378 -0.74748755 0.67469394 -0.13886075 0.19571644 -0.19383882 -0.24045663 0.37409547 0.9020621 -0.025112044 0.5815034 0.109266736 -0.59029883 -0.19912408 0.1446412 0.03744783 -0.14163171 -0.105777405 0.639232 0.5932317 -0.43723336 0.34857607 0.08500553 -0.04998054 0.2946421 0.23369822 -0.09329916 0.63415545 -0.072249375 -0.26597804 0.1905258 0.725924 -0.029949492 -0.0030315346 0.49944183 -0.6646354 -0.11436899 -0.48818105 -0.42093697 -0.19808856 -0.4287245 -0.25602725 0.3496114 -0.34201542 0.2745057 -0.3329256 -0.23741938 -0.45662594 0.26495606 0.3421542 -0.16717118 -0.034093544 0.49901712 0.68433696 0.18227054 -0.49920753 0.3281669 -0.008109242 -0.03507738 -0.30008212 -0.053280413 0.039484903 -0.02630521 0.1610475 0.048816074 -0.13124476 -0.25343585 0.054669973 -0.05292424 -0.33174998 -0.37543637 -0.18084933 -0.5284439 -0.43955597 -0.293725 0.33387464 0.29106566 0.00820845 -0.19688348
2582 -0.10528462 0.06933826 -0.418607 0.6002397 -0.36120626 0.24149446 0.012408248 0.1296697 0.016119683 0.2227931 -0.289685 -0.27708846 0.115353405 -0.8654177 0.19807729 0.156297 -0.040628463 0.43569648 0.75553536 -0.6009278 -0.19948886 -0.27285194 0.16635641 0.15966843 0.05260514 0.2333116 -0.04995098 0.29864082 0.7345014 0.007665023 0.1560044 -0.09370523 0.28105116 -0.027283719 -0.05829948 0.34958223 -0.21977398 0.19540124 -0.052803114 -0.788773 -0.49439383 -0.5237145 -0.23539947 -0.24605282 0.17104617 0.1380304 -0.32607728 -0.23374632 -0.020244487 -0.12649632 -0.8474161 0.6720999 -0.15434262 0.22481315 -0.19301002 -0.11094845 0.32387233 0.90417194 0.054970246 0.67086154 -0.0037514686 -0.83197236 -0.24923487 0.24670342 -0.01748291 -0.21205193 -0.08662333 0.6953354 0.65147674 -0.40059206 0.43494937 0.22978708 0.02415635 0.4100308 0.2857792 0.06131898 0.7030926 -0.07360663 -0.4242059 0.008899827 0.8071767 0.021006092 0.028859248 0.42270154 -0.7476814 0.011616187 -0.56551045 -0.65799147 -0.07579996 -0.5308257 -0.34012064 0.31678942 -0.46624756 0.070845135 -0.4159257 -0.28934032 -0.2918064 0.22060986 0.41557553 -0.13722761 0.09484978 0.64208007 0.6996599 -0.17426336 -0.5616491 0.32613426 -0.07666048 -0.121006995 -0.2696765 -0.05536662 -0.023554144 0.12470129 0.25108847 -0.024537105 -0.17562728 -0.22014363 0.134896 0.025491191 -0.3829313 -0.572324 -0.20174798 -0.40132934 -0.39923224 -0.20609689 0.22845675 0.36601394 0.11178908 -0.34563884
1 0.0016900926 0.5075002 0.037444804 0.5466021 -0.75572234 0.15650447 0.21650603 -0.19918723 0.14018588 -0.12835081 0.3788769 -0.112434216 -0.14497176 -0.90728533 0.1736894 -0.63156325 0.28584045 0.11114767 -0.06248517 -0.53212225 -0.75016874 0.4590991 -0.46362367 -0.39215797 0.07819609 0.13360783 0.45331272 0.050082363 -0.5584775 -0.20963569 0.9677525 -0.040284634 0.84400815 -0.15028942 -0.5543764 -0.8605048 0.23380563 0.5475528 0.34106284 0.019099746 0.12269121 0.29107302 -0.42490435 -0.41017622 0.014076506 0.7750259 -0.5659114 -0.014982372 0.8803614 0.8508975 -0.39524412 -0.5323181 0.8526361 -0.110070646 -0.24010107 -0.014211638 -0.3317017 -0.061676938 0.26730454 0.34081393 0.61878717 -0.007479353 -0.062435336 0.05877164 -0.36173338 -0.4227756 0.42210773 -0.28442183 -0.5835329 -0.42739362 0.34844762 0.6035794 -0.5237531 -0.20041922 0.57643026 0.632897 0.4807261 -0.13697639 -0.40320322 0.36543247 -0.22465323 -0.30279246 0.91282916 -0.8879838 -0.465548 1.1079212 -0.72716784 -0.42299974 0.096368305 -0.013456649 0.15426669 0.26147476 -0.5048027 0.018241918 0.08922998 -0.7574897 -0.10095664 0.77400804 0.69013864 0.3162716 -0.11368934 0.22321913 0.07194274 -0.11795144 -0.50909007 -0.41341624 -0.16466726 -0.5802874 -0.42989886 -0.06584385 -0.02833504 -0.08438022 0.051111843 -0.45489624 -0.25735754 -0.5624302 -0.11963247 -0.48038357 -0.6697349 -0.5757564 -0.22836168 -0.3892787 -0.224459 0.4574751 0.914226 -0.969298 -0.11945018 0.6199452
2 -0.19418004 0.34154484 0.025910754 0.3490667 -0.4603752 0.16984467 0.11142002 -0.029630033 0.004270527 -0.17216927 0.13416901 0.031440776 0.287459 -0.64259875 0.13006824 -0.5026436 0.009588897 -0.24886943 0.12591541 -0.65718645 -0.1708007 0.124929585 -0.18932703 -0.38695064 -0.16044277 0.035872642 0.19088542 -0.27219513 -0.32627982 0.17507711 0.33054036 -0.013933384 0.44606155 -0.24643555 -0.46075672 -1.0253114 -0.15671147 0.4573801 0.4818069 -0.07866446 0.009159964 0.23393911 -0.622091 -0.2881131 -0.20452836 0.41473952 -0.12659833 0.04980492 0.5433796 0.68859833 -0.7904572 -0.26271176 0.689228 0.28336498 0.046425838 -0.0039986414 -0.32758287 0.19418545 0.18060325 0.63234854 0.27031022 -0.4166348 -0.024637306 0.19850391 -0.45853746 -0.30219445 -0.113214985 -0.41468704 -0.30850127 -0.3730311 0.26033923 0.35929468 -0.37189415 0.011490738 0.46104637 0.033990018 0.32712063 0.14809597 -0.5079219 0.33889893 -0.22737323 -0.26472008 0.51225924 -0.44532388 -0.37462866 0.7827356 -0.45521376 -0.44442388 0.28251833 -0.14251605 0.11207763 0.2647339 -0.22864975 0.13882151 -0.1479048 -0.63556194 0.06586315 0.78844523 0.67878354 0.08229157 -0.21763979 0.20457894 -0.19268006 -0.43209413 -0.5339274 -0.22503191 -0.12599482 -0.34083796 -0.29615864 0.020273885 -0.29750085 -0.04934861 0.04764243 -0.12952606 -0.0071762865 -0.5581631 -0.03442352 -0.20573002 -0.5765147 -0.54494 -0.02025597 -0.3425355 -0.067344986 -0.060560685 0.5191451 -0.56517154 0.11334198 0.25557983
652 0.26761994 0.46016297 -0.16686083 0.34006837 -0.8561951 0.31869215 0.100211196 -0.1559997 -0.016454916 -0.04172307 0.1608578 -0.18031608 -0.415903 -0.6728829 0.115426235 -0.47618347 0.107071616 0.28382504 -0.2246789 -0.25722775 -0.88832957 0.45869473 -0.35305643 -0.26263884 0.18875164 0.17242855 0.79502857 0.3336552 -0.7024803 -0.30215427 1.079639 -0.27010205 0.830633 0.048398968 -0.44603917 -0.6298417 0.46985415 0.6653336 0.16717854 -0.28559786 0.109626815 0.0025480918 -0.18506947 -0.2806299 0.1639454 0.5125143 -0.67816794 -0.11320372 0.7759638 0.71407235 -0.38006344 -0.6270638 0.7168073 -0.38315192 -0.41035733 -0.009598524 -0.29896823 -0.26908144 0.36404672 0.039226156 0.75506335 0.31654805 -0.058603216 0.008575058 -0.10912702 -0.41485444 0.4480789 -0.18404351 -0.49150884 -0.4483466 0.22896582 0.58966935 -0.5805847 0.05561717 0.52415806 0.8119145 0.35412836 -0.25926775 -0.44306755 0.31017148 -0.16301768 -0.22371098 0.9364677 -0.822105 -0.31637967 1.3383651 -0.5883297 -0.07598199 -0.23459715 0.16178489 0.34045628 0.2609447 -0.34405935 -0.080263145 0.056435183 -0.7008767 -0.13601223 0.5198374 0.5119165 0.27407247 -0.14790325 0.15114398 -0.20326167 -0.02142298 -0.4440989 -0.5496608 0.07909591 -0.2679359 -0.67604154 0.21143132 -0.07251116 -0.033156373 -0.04981404 -0.32196662 -0.3831983 -0.30474785 -0.17602779 -0.33060786 -0.88248545 -0.5842865 -0.3033173 -0.24993916 -0.5465992 0.36242282 0.9752384 -0.9830753 -0.14280607 0.5818509
654 -0.035589695 0.47126448 0.035221502 0.5380518 -1.1047298 0.100677095 0.041732147 -0.12282545 0.03190834 -0.33399335 0.5111527 -0.068846084 -0.14121059 -0.93614167 0.31203914 -0.8292569 0.4328546 0.19242676 0.036575552 -0.42050612 -0.9444663 0.63543934 -0.5742881 -0.39086056 0.017931873 0.014564105 0.6245997 0.11073371 -0.5947281 -0.19327664 1.0349969 0.04528976 0.86961806 -0.21636836 -0.46543166 -1.173944 0.32333106 0.50040686 0.4064642 -0.062168725 0.15773088 0.24495608 -0.43758032 -0.50567627 -0.08253943 0.84969467 -0.7594583 0.005161827 0.9272307 0.9600343 -0.43808985 -0.7510692 0.9850732 -0.029747795 -0.22686712 0.058557212 -0.4907921 -0.06928727 0.6313645 0.45379016 0.73813117 0.037764758 -0.008213753 0.08335372 -0.4933268 -0.55157644 0.5201048 -0.3611437 -0.63618016 -0.4827717 0.33472773 0.7003255 -0.60131985 -0.21345235 0.5422328 0.6861214 0.35486895 -0.17984931 -0.33059052 0.47217077 -0.43473768 -0.25089994 0.89981675 -0.9857837 -0.35689282 1.0702685 -0.7279388 -0.40835482 0.25912207 -0.07223551 0.0823695 0.28725988 -0.46207818 -0.04011631 0.009644716 -0.5840238 -0.129339 0.6561521 0.7819041 0.6025845 -0.12028169 0.41499156 -0.045660753 -0.21639496 -0.4974833 -0.47066048 0.13525312 -0.5545734 -0.2943425 -0.14403306 -0.14139482 0.093579926 -0.11738207 -0.6823559 -0.13803266 -0.70356697 -0.10904891 -0.28929147 -0.54259413 -0.615598 -0.30935785 -0.42295605 -0.24068049 0.5353995 0.890718 -1.2193794 -0.101694904 0.6378338
1986 -0.062004294 0.04627074 0.14318407 0.28496474 -0.09966921 -0.085885294 0.03964057 -0.148134 0.11893862 -0.038889147 -0.07591236 0.12618361 0.113785625 -0.182872 0.26400265 -0.22932142 0.0071437485 0.21724072 0.19858792 -0.20247312 -0.215155 -0.07836035 0.18555169 0.1839149 -0.0820489 0.04113023 -0.18060121 -0.0007119978 0.12508029 0.018250529 -0.13454054 -0.20869628 0.17571841 -0.027331136 0.078014575 -0.39847806 -0.17506725 0.11918518 0.15416956 0.06245488 -0.15970607 0.15986937 -0.24561575 -0.18247472 0.050776076 0.15565738 0.027972732 0.102586985 0.16895726 0.0008318993 -0.5497479 0.046747793 0.20187025 0.14295435 -0.065589264 0.3216855 -0.012645128 0.0027271647 -0.0049651465 0.21312597 -0.06654907 -0.5802837 -0.3764596 0.26574346 -0.049115192 0.14159311 -0.09127296 0.4386368 0.47935942 -0.2069505 -0.07301394 0.0030379929 -0.07908891 0.08624676 -0.022436922 0.19710287 0.09386934 0.22743095 -0.5972722 -0.12946641 0.32909527 -0.20098859 0.26695365 0.011226229 -0.14028853 0.045937426 -0.06650635 -0.35676825 -0.047973305 -0.14410825 0.03438025 0.20052047 -0.090629354 -0.043246243 0.15057558 -0.41948593 0.03263896 0.084662326 0.33934978 -0.036900654 -0.2553188 0.50602984 -0.038558964 -0.20713632 -0.27959174 0.21030948 0.030896682 0.11298717 -0.08594383 -0.11642489 -0.2528151 0.19614239 0.24701753 0.16009766 0.12523437 0.071416415 0.22246528 0.12781867 -0.10365746 -0.43666306 0.12737156 -0.081399485 -0.14338242 0.04668864 0.07491216 -0.031578325 0.055839837 0.16479075
332 0.07026985 0.35236216 0.4875066 0.20242131 -0.5769081 0.24906415 0.36157438 0.15699002 -0.4401641 -0.52607876 -0.036870778 -0.1771366 0.40646866 -0.2027028 -0.13324112 -0.37728983 0.27327818 0.008414704 -0.17671959 -0.5183719 -0.010207407 0.15205659 -0.12339183 -0.43295532 -0.34117433 -0.08960808 -0.11563737 -0.406967 -0.2535087 0.28522176 0.19968826 -0.19248295 0.34613183 -0.26411784 -0.59738874 -1.112189 -0.43531492 0.5677933 0.7171908 -0.30633745 -0.17542548 0.47051433 -0.33523342 0.251101 -0.26233077 0.20307527 -0.3435552 0.20473336 0.0516372 0.14421742 -0.92058206 -0.5148247 0.7103848 0.026801307 0.19362846 -0.20618874 -0.32232186 0.2965256 -0.03689268 0.415634 0.1968008 -0.4805073 0.05796898 0.23066424 -0.3569433 -0.30379096 -0.32742405 -0.22812894 0.055646207 -0.30325243 0.25137094 0.14867927 -0.2921685 0.24919435 0.04662911 -0.16754648 0.05697755 -0.086179405 -0.23786524 0.6666631 0.087464534 -0.23240417 0.39999226 -0.45867357 -0.3634772 0.825422 0.07140964 -0.29295427 0.09667778 -0.19641043 0.20977692 -0.11725122 0.19130343 -0.034392186 -0.13959292 -0.35974497 -0.074713394 0.57120293 0.6560505 0.14118685 -0.07991651 -0.28154877 -0.18844688 -0.15538356 -0.6101883 0.063500434 -0.18360254 -0.08387432 -0.28082126 -0.20757495 0.06969101 -0.052324813 -0.1880533 0.10633304 0.2728993 -0.4122111 0.21446045 0.23186764 -0.9357928 -0.61817634 0.41910824 -0.34266576 -0.1970753 -0.08434751 -0.03640955 -0.1772942 0.47905993 0.31455335
1666 -0.18811695 0.10080919 -0.1810463 0.44335023 -0.35333756 -0.04846153 0.5965535 -0.16501273 0.10466799 0.20672828 0.24173787 -0.19807993 0.44506884 -0.19826275 -0.37757286 -0.38974747 -0.19057825 -0.29747275 0.26923716 -0.54331964 0.25494793 -0.20697488 0.08407945 -0.23342077 -0.19358543 0.0002948206 0.25282934 -0.37499884 -0.1426886 0.09027609 -0.03308558 0.121783234 0.13050166 -0.13272488 -0.6136921 -0.66397816 -0.24887837 0.5924581 0.10494225 0.40536368 0.08255678 0.21987513 -0.6375603 -0.39239404 -0.43141174 0.61042976 -0.06296891 -0.0112755 0.2465592 0.31006047 -0.6340851 -0.5758792 0.6218843 0.21677406 -0.25881153 0.28118524 -0.27654013 -0.17961685 0.6450352 0.6490827 0.3015856 -0.06878954 0.2762036 -0.11517654 -0.3764136 -0.35180527 0.098544404 -0.70965844 0.013734391 -0.33489203 0.23357405 0.50425744 -0.0050763814 0.030344876 0.14418456 -0.5917279 0.22291662 -0.10187925 -0.047979284 0.43716002 -0.011690554 -0.4020306 0.18809287 -0.25104094 -0.3487235 0.6752046 -0.35192654 -0.4956794 0.15364309 -0.2554355 -0.20958537 0.5666398 0.3740156 -0.026755134 -0.06702094 -0.33418286 0.0459467 0.4909382 0.31730607 0.06896657 -0.4976358 0.5373475 0.03431658 -0.30212128 -0.4797303 0.14010446 -0.33368137 -0.119176894 -0.6157172 0.12928732 -0.5471041 -0.21234809 -0.03814877 -0.23857725 0.23355803 -0.5700012 -0.53601575 -0.59279627 0.0031549393 -0.5164214 -0.12226138 -0.7985784 0.2001796 -0.02977677 0.22728615 -0.17109735 -0.29747397 -0.12776715
1454 -0.1802062 0.28485537 0.023804834 0.61966085 -0.40297985 0.15298712 0.3096645 -0.28655943 -0.20892985 -0.12555653 0.12163247 -0.13180448 0.4028308 -0.6081526 0.1586917 -0.6164427 0.066922694 -0.27362493 0.07339721 -0.7742028 -0.14944999 0.19531408 -0.16562104 -0.6220988 -0.300783 0.26978442 0.1540695 -0.41589153 -0.4184758 0.16791713 0.24399744 0.101157725 0.4836401 -0.2138553 -0.27462214 -1.4984586 -0.11977478 0.46363395 0.66893095 -0.1578964 -0.0076432964 0.4127316 -0.8448911 -0.52661866 -0.18315758 0.23390174 -0.05390928 -0.049579922 0.5992217 0.84271836 -0.79763234 -0.41163638 0.9016797 0.29306468 0.19117546 -0.051859923 -0.4655771 0.23138048 0.22398636 0.6301332 0.30588144 -0.47753116 0.04347747 0.1948393 -0.44339472 -0.21236163 -0.17097324 -0.41056085 -0.10577984 -0.44297197 0.40301186 0.39068332 -0.32512334 0.09283346 0.36646056 0.041847084 0.37803188 0.24049237 -0.523406 0.24444294 -0.21918909 -0.30158928 0.60314137 -0.6353343 -0.26086706 0.8128143 -0.4325825 -0.5794932 0.34607893 -0.27644765 0.17534056 0.43987435 -0.19153792 0.1937549 -0.2229878 -0.7979825 -0.03201109 0.99116206 1.0511409 0.15123102 -0.14296173 0.3044247 -0.23960428 -0.41632894 -0.43935108 -0.13876227 0.006003772 -0.25568414 -0.58993244 -0.026138714 -0.40183935 -0.1254846 -0.046384837 -0.36709258 0.06662922 -0.58988094 -0.22171941 -0.46431187 -0.6456246 -0.46078444 -0.030494781 -0.49982542 -0.23434934 -0.016679907 0.5114711 -0.6394642 -0.03804478 0.1986044
3 0.5054942 0.08758705 -0.70346934 1.2261941 0.3574063 0.023052704 0.4081252 0.10722749 -0.26199436 -0.38860178 0.030227402 -0.3030916 0.10244797 0.015343939 -0.46363032 -1.3398846 1.0569825 -0.37604934 0.79947543 -1.7209771 -0.69904214 -1.0436642 -0.7007659 0.31608224 -1.0814993 1.0382696 0.028589116 0.905775 0.6012989 -0.12820712 0.069512814 -0.4329802 0.14240792 -0.6643573 -0.5530717 0.25577626 -1.1306753 -0.28927475 0.36845312 0.3719185 -0.18962994 0.45911068 -0.5988296 1.0906025 0.15919986 -0.6608932 -0.60658574 0.017467381 -0.44585335 -1.1504619 -1.4712895 -1.055341 0.08753746 -0.86463565 0.7656849 1.1392307 0.1094103 0.45408106 -0.6084064 0.5299819 0.19791897 0.6940538 -0.36286438 1.1181248 -0.26398367 0.43419197 0.023292204 -0.20774934 -0.7418763 0.18126586 0.42263228 -1.085248 -0.03460707 0.31590834 0.312127 0.9921795 0.8186928 0.11638951 -0.52057797 0.69130826 0.10573523 -1.0292002 -0.5462521 0.91346115 0.0688303 0.83358806 -0.81071854 -0.59085405 -0.118471995 -0.8278794 0.1375031 1.0711162 1.2436973 -0.8142905 -0.29151088 -0.8744678 0.5801869 -0.034807615 0.22707489 0.041295264 0.017308967 0.24069071 1.1008779 0.38262185 1.0267497 -0.06646262 -0.90329653 0.26604706 -0.6367679 0.74150157 -0.29532886 0.17344856 0.07451144 -0.9169861 0.7300434 0.24458359 -0.68040407 0.21485393 0.0036893208 -1.4238374 -0.6173879 -0.31670874 -1.0599904 -0.9794834 -0.13670331 -0.0784696 -1.1465924 1.0683869
2544 0.48111454 0.10696649 -0.7106936 1.2340295 0.34252155 0.044689145 0.40678096 0.12059403 -0.28829852 -0.40731898 0.015320079 -0.30423018 0.114523984 -0.0033767016 -0.47496524 -1.3387808 1.0544436 -0.35377815 0.7945902 -1.7274117 -0.71261126 -1.0171605 -0.70613325 0.3071115 -1.0728221 1.0187092 0.008323589 0.9193556 0.5805468 -0.13828412 0.07217883 -0.42252693 0.11410789 -0.6748374 -0.5616127 0.25915635 -1.1486135 -0.23918898 0.36653292 0.333363 -0.17721228 0.46447304 -0.5755418 1.0907066 0.16187236 -0.6581242 -0.6263139 0.023598347 -0.45640233 -1.1460938 -1.480285 -1.0768802 0.10979614 -0.8591441 0.7387271 1.1239693 0.1127788 0.46615377 -0.6082905 0.5200816 0.18604934 0.7212388 -0.32814705 1.1330189 -0.29403463 0.42080575 0.027630132 -0.20797437 -0.7869569 0.1452579 0.4260222 -1.1112772 -0.048446584 0.34175986 0.31172258 0.97522014 0.80789053 0.118130706 -0.53225803 0.71123886 0.09547578 -1.0571132 -0.5235146 0.8991341 0.06485155 0.82095176 -0.8247548 -0.6025355 -0.111803286 -0.81984246 0.16075441 1.0339609 1.2643182 -0.8577129 -0.3319887 -0.87598324 0.591244 -0.03159676 0.21159178 0.079346366 0.00037170085 0.25654942 1.1104666 0.39221832 1.0229433 -0.052990768 -0.93975484 0.23781978 -0.6227273 0.75308394 -0.29473013 0.17295595 0.06641034 -0.89904046 0.73801947 0.20176062 -0.6827185 0.21396193 -0.016533496 -1.4366677 -0.63166845 -0.29015145 -1.0238924 -0.97195065 -0.15644504 -0.043103456 -1.1478074 1.0924351
4 -0.048051335 -0.67698014 0.41944212 0.44521198 -0.21781845 0.3065174 0.40274602 -0.6358341 -0.035874512 -0.017829731 -1.0034927 -0.8223652 -0.21247144 -0.1468347 -0.44762343 0.4564303 0.6130929 -0.23760621 0.34252536 -0.060457226 -0.38535455 -0.34209827 -0.054010138 -0.5612167 0.5925 0.08284571 -0.20616713 0.25204918 0.6141576 0.10529088 -0.09977888 -0.5902638 0.20920387 -0.12631314 -0.17221828 -0.4321324 -0.16521727 1.0151693 0.44698218 -0.23911414 -0.38784254 0.71474445 0.29554355 -0.15740041 -0.7844847 0.14073306 0.27074906 -0.41674906 -0.66429347 0.33417743 0.6182668 -0.18333644 0.25268212 0.6152804 -0.21127969 0.26631224 0.023363655 0.29371825 0.5095275 1.0291923 0.056835387 0.0006907232 -0.37809825 0.12057027 0.44862285 0.276777 -0.16522703 0.14781582 -0.28002578 0.3922213 -0.6784155 -0.07057435 -0.476334 0.18792468 -0.26089904 0.35812 0.86802506 0.052723132 0.6451206 0.3448152 0.2250897 -0.5084037 0.6137184 -0.58645433 0.8706154 0.0025824206 -0.94884694 0.7688276 -0.41476277 0.3436824 0.13555418 -0.34558493 -0.481397 0.2236048 0.32611257 0.23535794 -0.28351572 0.10989019 0.7365191 0.6414154 -0.08421311 -0.09529289 0.30518055 0.34207934 0.5138143 -0.25743037 0.7926122 0.17011255 -0.11358752 0.004559269 0.72660476 0.1659166 -0.020466758 0.44526798 0.20647182 0.73635656 0.1945666 0.4218168 0.43109083 -0.57892936 -0.37367705 0.0025115502 0.70106673 0.33676204 0.4577226 -0.53331906 0.17652167 -0.41444215
2176 -0.016797336 -0.72743934 0.3116135 0.333445 -0.16445331 0.35905394 0.5009794 -0.6558184 0.24978904 -0.16365346 -0.58803076 -0.42947015 -0.18777278 -0.24171491 -0.5220918 0.65659875 0.58875436 -0.10876363 0.10125871 0.016117191 -0.59166265 -0.5719026 0.0055671833 -0.7146007 0.4520526 0.1183785 -0.26489943 0.26804003 0.5253086 0.23522022 0.102902345 -0.670132 0.3601393 -0.2747827 -0.13685672 -0.37793037 -0.20843211 0.7404814 0.57419795 -0.3063008 -0.030379465 0.7817358 0.64807963 -0.2718356 -0.86050624 -0.12809643 0.303087 -0.62200147 -0.60581815 0.47233233 0.47343066 -0.20654774 0.34346896 0.5285811 -0.07558153 -0.023843363 -0.053755842 0.26363483 0.43872005 1.0929086 0.02794601 0.06323204 -0.5265905 0.16994168 0.1907976 0.36847106 -0.286256 0.42076027 -0.14991094 0.6032969 -0.66342825 0.2290317 -0.33771726 0.39358172 -0.44293746 0.12036265 0.9725839 0.15621136 0.64413726 0.5528758 0.37201086 -0.6060817 0.74635094 -0.42509612 0.73189133 0.15638688 -0.8079546 0.64310235 -0.53743684 0.31002843 0.06687999 -0.4448622 -0.34658012 0.3534559 0.4483853 0.20387593 -0.15820095 -0.12451325 0.8114602 0.7914922 0.18402371 -0.09427952 0.06794723 0.4375009 0.5800141 -0.26408413 0.88729423 0.32851 -0.031982545 -0.123644225 0.6903611 0.19064876 -0.14672294 0.275911 0.40201035 0.739601 0.017730717 0.2802294 0.5125232 -0.62567437 -0.25516203 0.034896165 0.61838883 0.4538881 0.11688599 -0.40765873 0.051349223 -0.52980757
1016 -0.070727505 -0.8857137 0.5738752 0.36869636 0.03379616 0.23967902 0.31062666 -0.8761284 -0.009718647 -0.18404292 -0.9540632 -0.6964698 -0.24425268 -0.21650155 -0.66944367 0.7458169 0.85220236 -0.14451297 0.035030115 -0.009677381 -0.6280595 -0.494183 0.20683192 -0.57663983 0.5627081 0.19292521 -0.28439713 0.34515038 0.53644913 0.2930596 0.0009872775 -0.7081402 0.23398362 -0.14954709 -0.06637145 -0.47709215 -0.17709234 1.0342568 0.63625425 -0.18670365 -0.26971543 0.9226945 0.45531845 -0.15174238 -0.9049192 0.05993256 0.23980857 -0.6922478 -0.74056697 0.22749427 0.58168864 -0.22010928 0.22580798 0.7933735 -0.12708458 0.020474559 -0.08245788 0.46517527 0.62718797 1.0719794 0.1267802 -0.16654143 -0.3883184 0.13137501 0.56190896 0.29710025 -0.2120682 0.1123613 -0.26001582 0.5077403 -0.7623126 -0.051489625 -0.55308455 0.08846433 -0.64615184 0.034602918 1.1419145 0.12273995 0.8033832 0.46277386 0.34247535 -0.6455287 0.74952775 -0.5731254 1.1601895 -0.00025741584 -1.1165932 0.86990327 -0.24593122 0.16936734 0.0603258 -0.4369952 -0.4765597 0.17367207 0.64779484 0.24519916 -0.14942762 -0.029339148 0.6689086 0.8902388 -0.00997715 -0.07939769 0.1711792 0.6833329 0.7074525 -0.22744386 1.0791454 0.3082519 -0.28486603 -0.040001135 0.79761106 0.10235463 0.057440713 0.33478284 0.29296726 0.93392164 0.31623432 0.49936637 0.57178473 -0.74744016 -0.3498431 0.1855345 0.6558468 0.4668591 0.25664002 -0.6046154 0.13261859 -0.46056888
1761 -0.17240031 -0.27607682 0.46563384 0.34470537 -0.22168371 0.36709607 0.17589624 -0.17700076 -0.24362817 0.061412938 -0.8127862 -0.79503995 -0.0856299 0.13130939 -0.4111425 0.10290596 0.36982375 -0.15761992 0.639049 -0.19366269 -0.14472756 -0.18674104 -0.06033354 -0.26666382 0.3897103 0.022023784 -0.24618228 0.32580936 0.19192813 0.074136704 -0.33797753 -0.19965136 0.060487963 -0.087990366 -0.1271564 -0.16364755 -0.11436725 0.55567884 0.31995472 0.05823034 -0.41585997 0.49267665 0.15312457 0.07986445 -0.6175779 0.16057272 -0.021483727 -0.23073256 -0.29589763 0.33412275 0.6061132 -0.1880724 0.16968575 0.34030324 -0.1883828 0.114134565 0.29726738 0.186157 0.5273924 0.7858321 -0.044348978 0.013397895 -0.16531551 0.103597514 0.4833096 0.19251479 -0.047130883 0.10182579 -0.17925446 0.010664985 -0.46220362 -0.014062841 -0.49923664 0.15164648 -0.14611068 0.31232202 0.10371357 0.32801417 0.43544525 0.32652617 -0.096501864 -0.3187726 0.18435752 -0.60971814 0.42902616 -0.08092631 -0.69351375 0.5890358 -0.23800266 0.39955658 0.14504914 -0.07935634 -0.4540603 0.035344936 0.12087555 0.32832843 -0.19188419 0.31899866 0.52717024 0.2858606 0.044646367 0.0037880614 0.38972497 0.08088727 0.2526619 -0.21818484 0.28740144 0.013372678 0.08726131 0.07165525 0.31802136 0.28101158 -0.084177196 0.37588218 0.0789398 0.5210322 0.04205122 0.29853684 0.29708815 -0.446141 -0.16312476 -0.08376851 0.45432353 -0.008496933 0.08548652 -0.5193287 0.09654278 -0.18302359
1256 -0.07537313 -0.63874996 0.49677178 0.2876294 -0.120630644 0.38957232 0.436584 -0.62149805 0.00022413925 -0.109041676 -0.892298 -0.767966 -0.30063114 -0.15664142 -0.6827625 0.5378295 0.62788737 -0.11420189 0.21975334 -0.14736974 -0.5012842 -0.3743127 0.15670091 -0.7959807 0.47063944 0.08189381 -0.21204379 0.3448337 0.543646 0.16994499 -0.056624237 -0.713521 0.30031633 -0.26665354 -0.13820718 -0.3291574 -0.33677647 0.8947757 0.56669146 -0.28405392 -0.18363522 0.88362694 0.42642635 -0.15853463 -0.74609315 0.1863563 0.28626287 -0.5450561 -0.83460176 0.30715877 0.6551679 -0.266957 0.33049738 0.5880457 -0.10760773 0.13747889 0.15886953 0.4307559 0.6004204 1.0436975 -0.06983024 0.06290928 -0.41161358 0.099015914 0.551158 0.2742959 -0.16722748 0.21382034 -0.40731713 0.43044648 -0.7004763 -0.048331592 -0.46246332 0.15281485 -0.32814574 0.22471447 0.69082904 0.28606513 0.68194187 0.38232088 0.30567834 -0.6020318 0.692202 -0.5653594 0.95750594 -0.03592163 -1.0708375 0.8176709 -0.4299835 0.23808156 0.1323121 -0.3080836 -0.56319934 0.19878195 0.41641483 0.20617086 -0.18492097 0.11720178 0.869509 0.7897534 0.122978486 -0.06813268 0.36842597 0.4204334 0.58074 -0.27008596 0.8766673 0.18067525 -0.05030045 -0.06446829 0.6791929 0.054937426 -0.14237341 0.5154008 0.24202903 0.7928476 0.15967451 0.35908446 0.47487533 -0.60008854 -0.3315839 -0.048381507 0.66832346 0.28338423 0.24464631 -0.58401203 0.1645207 -0.48738256
2175 -0.06869638 -0.6295633 0.37255397 0.49916047 -0.28043896 0.36987498 0.36185375 -0.54116875 -0.083305426 -0.099592745 -0.7271995 -0.72894824 -0.19414188 -0.13758625 -0.5138301 0.4304662 0.65099645 -0.27788055 0.32152787 -0.08150521 -0.3687198 -0.27904555 0.072182626 -0.52575 0.6383646 0.016300047 -0.3289054 0.31201303 0.5052796 0.10010169 -0.06832773 -0.75192714 0.17740692 -0.24295646 -0.18741012 -0.33129248 -0.21274544 0.87307453 0.4490766 -0.2576547 -0.28639087 0.70318353 0.3560728 -0.13155277 -0.7878324 0.26629156 0.28549397 -0.51849586 -0.66946125 0.33419958 0.64828074 -0.2107576 0.19286408 0.6404831 -0.16792704 0.23520985 0.12725832 0.25013748 0.60590106 0.98859805 -0.06663407 0.009542568 -0.33903012 0.12172426 0.5837207 0.20676005 -0.1750787 0.14880395 -0.33910897 0.39802378 -0.6975379 -0.040280163 -0.4305588 0.29936445 -0.28361422 0.21162756 0.6676218 0.26165277 0.6798029 0.40666556 0.24355046 -0.58338314 0.6906487 -0.6587537 0.84410936 0.04273404 -0.99552596 0.58765006 -0.5078071 0.3937791 0.13104954 -0.3741768 -0.6558244 0.258011 0.2238241 0.2575289 -0.37442648 0.07329595 0.8714732 0.6470038 0.09781765 -0.020665748 0.34503576 0.31536245 0.36090797 -0.23828325 0.780414 0.056780968 -0.02915902 -0.050501917 0.7589898 0.114465766 -0.1166422 0.373595 0.2695513 0.7285693 0.07262053 0.33784944 0.49063984 -0.48106003 -0.26362374 -0.09682214 0.63601893 0.2383491 0.1898712 -0.70272523 0.04935637 -0.27119815
5 -0.23954023 0.28706858 0.19881709 0.035885546 -0.39853808 0.35964385 0.4583852 0.047989395 -0.6347639 -0.12866196 -0.35800233 -0.056288615 0.5670662 0.12825662 -0.38147303 0.075042486 0.64883006 -0.42704672 0.07007167 -0.29905477 -0.7300364 -0.05364842 1.033222 -0.113440804 -0.15219474 0.0337965 -0.5091572 0.5107211 -0.14974344 0.61897236 0.36199197 -0.32181138 -0.25541776 0.0834955 0.27462515 -0.2450339 -0.39739573 0.52739275 -0.5930097 0.9382444 -0.61088634 -0.22838397 0.1726542 1.1547581 -0.4884498 -0.7411792 -0.27354068 1.395594 0.49227193 -0.14897849 0.22993726 0.8559855 -0.359923 -0.29480952 -0.26825815 -0.490806 0.43082196 0.05333257 0.17058483 -0.7176797 0.7497315 0.06756896 -0.71526885 0.023997506 0.17460455 0.1525279 0.052131593 -0.015779808 -0.79481494 0.4976971 -0.86126715 0.32602677 -0.022459399 0.2841624 -0.61113703 0.32590395 0.7065726 0.43397355 -0.15002029 -0.19350687 0.28591797 -0.3047854 -0.6127875 -0.66157675 -0.55243486 0.42041537 -0.32785082 0.24340338 0.4376196 0.7268411 -0.10998125 0.55550206 0.117743574 0.3946099 -0.25413513 0.35818332 0.8411235 0.104096405 0.5081907 0.04486849 -0.5226893 0.40840986 0.8664117 -0.83000916 -0.14862543 0.49809647 0.94317555 -0.36252838 0.12891315 0.9452733 -0.26892102 0.38640958 -0.14963523 0.87601197 0.27851018 0.36340874 -0.71502143 -0.4524757 -0.28019553 -0.4373088 -0.57503456 -0.949066 0.3813455 0.26353326 0.16606618 -0.067012444 -0.056658164 0.73235756
1629 -0.34217945 0.31622648 0.07849559 0.062525526 -0.1688673 0.35349587 0.4243718 -0.0301868 -0.68111265 -0.015461968 -0.015161284 -0.10930462 0.5094413 0.32118875 -0.19885793 -0.1308244 0.5990883 -0.22169296 -0.110991694 -0.35126024 -0.66152 -0.18481414 1.1155858 -0.083291836 0.04439953 -0.118586384 -0.38517854 0.6473721 -0.12491085 0.5904407 0.19749281 -0.018215775 -0.058287177 0.009015873 0.0015548661 -0.3063878 -0.17637882 0.47932434 -0.32519388 0.90039194 -0.53690606 -0.15357912 0.12798378 1.1256789 -0.5227337 -0.5734201 -0.34986946 0.9872696 0.31800377 -0.32461292 0.40742138 0.6196485 -0.32016245 -0.49184984 -0.26781616 -0.50435615 0.47982457 0.0019934182 0.032775395 -0.5522585 0.48347124 -0.07815952 -0.55753624 -0.20314968 0.38573012 0.26256305 0.1700443 0.05599742 -0.68244267 0.36631036 -0.8827944 0.11457047 0.0028264793 0.20422138 -0.5015292 0.16768722 0.67202276 0.43249527 -0.056807093 0.1385528 0.06909995 -0.24239004 -0.43892956 -0.5620136 -0.4910857 0.35061473 -0.20046853 0.28410986 0.07683626 0.7796134 -0.26330876 0.49499518 -0.02582097 0.25499126 0.055241358 0.3963376 0.7383916 0.05818623 0.31529382 -0.10425516 -0.50759864 0.15390672 0.7929303 -0.55290365 -0.14170928 0.46420085 0.7970674 -0.3336476 0.18396533 0.73963934 -0.32325923 0.33052465 -0.07368427 0.79028404 0.30832326 0.34354836 -0.35663426 -0.4160596 -0.23513629 -0.6325146 -0.8242008 -1.1747438 0.36010483 0.19055554 0.072080135 -0.001569215 -0.23111062 0.7655632
2546 0.15693402 0.08843004 0.11368221 -0.29618132 -0.51958764 0.33347955 0.28089643 -0.1145074 -0.20443521 0.11346442 -0.5704757 -0.19264604 0.48142868 0.0030166924 -0.1544758 0.2492636 0.46491563 -0.56725705 0.03420716 -0.40000618 -0.45379212 0.095152214 0.34723413 0.11688318 -0.35629055 -0.018186036 -0.44592273 0.45845795 -0.13642016 0.33312875 0.3994346 -0.53033507 -0.51991546 0.17059918 0.1965441 -0.0659765 -0.6756257 0.22541086 -0.4402985 0.34139124 -0.5010168 -0.36725745 0.28715667 0.5246253 -0.45073244 -0.76706725 -0.3209618 0.8782042 0.5713442 0.12774813 0.3464222 0.682078 -0.23267765 0.119952634 -0.2997038 -0.14447471 0.26652527 -0.07911537 0.33544627 -0.67092174 0.6915858 -0.09036424 -0.7223333 0.115288846 -0.078525916 -0.013468433 -0.17954728 0.03503782 -0.87232304 0.6063058 -0.55351377 0.28621542 -0.13812181 0.34794015 -0.5466561 0.45228416 0.30055022 0.12768464 -0.15010387 -0.07370595 0.22250782 -0.5614415 -0.43760118 -0.513563 -0.40551776 0.3171033 -0.28754225 0.25196365 0.63205475 0.4934803 0.025285194 0.30485106 0.24481037 0.30681086 -0.8484282 0.13324323 0.55610263 0.30646646 0.42772532 0.13644168 -0.4963508 0.23063207 0.69933766 -0.815061 -0.3075991 0.48158237 0.6342484 -0.29650292 0.05738474 0.6584208 -0.0071037505 0.43156895 0.15792646 0.53688186 0.32559547 0.11775053 -0.5979871 -0.39501405 -0.30636197 -0.35057062 -0.27003834 -0.53782314 0.38581103 0.20890325 0.06924272 -0.26063198 0.28615552 0.18539116
1659 -0.40140447 0.29472747 0.2932853 -0.009973106 -0.33602998 0.26943448 0.50083125 -0.037539575 -0.74580014 0.089519165 -0.1045469 0.07216902 0.5109068 0.25456035 -0.26657975 -0.03607882 0.53005683 -0.3892922 -0.15176092 -0.37873217 -0.70005244 -0.32069364 1.3286891 -0.14271256 0.04883546 0.050071776 -0.3999008 0.62981594 -0.15254357 0.63122416 0.15948434 -0.030821282 -0.12361195 0.02069096 0.0035330323 -0.31045324 -0.30168286 0.6887076 -0.40268713 1.0707319 -0.59051156 -0.42957655 0.1905614 1.3230909 -0.4787234 -0.7341191 -0.26156798 1.359871 0.44018614 -0.32306656 0.34592995 0.7626874 -0.37506747 -0.4939957 -0.282531 -0.5773132 0.59040326 0.0513518 0.11432377 -0.67567754 0.70178825 0.05749631 -0.5729657 -0.19704688 0.19721825 0.21086356 -0.008120388 -0.034924764 -0.86669 0.5607986 -1.0188378 0.19621575 -0.09103745 0.20996608 -0.5999547 0.15158118 0.9733431 0.45202175 -0.053418834 -0.18672845 0.22359368 -0.38124233 -0.5288155 -0.6323208 -0.5407514 0.4874427 -0.30777636 0.2885722 0.20671603 0.6815907 -0.246994 0.7203458 -0.02241602 0.3144911 0.062558174 0.46293598 0.83303833 0.11912558 0.4051919 -0.07457711 -0.4613442 0.43036997 0.7273845 -0.69581926 -0.008632507 0.51585555 1.0563302 -0.3466904 0.20408407 0.6972405 -0.24238269 0.34437993 -0.21769045 0.8202206 0.17104782 0.35004488 -0.65232426 -0.47940493 -0.265324 -0.5462039 -0.82333267 -1.251955 0.2820083 0.10031712 0.12115112 0.02059028 -0.16172387 0.8377464
6 0.1796335 0.06483593 0.20913352 0.07768501 -0.11974512 -0.22288883 0.29868275 0.037971433 0.50032675 -0.42391998 -0.33278084 0.25331306 0.1633813 0.21435182 -0.1983652 -0.4509443 -0.3815564 -0.26900908 0.14447922 -0.37004676 -0.5299615 -0.40883568 -0.15960978 0.12570976 -0.19274154 0.10775648 0.24299492 0.5013909 -0.54075533 0.2069495 0.227254 -0.12485689 -0.04414675 -0.010274764 0.12826934 0.1167345 -0.25525358 -0.0668216 0.04855734 0.4342009 -0.2629165 0.2084415 -0.036677778 -0.24479406 -0.4505786 -0.29469764 -0.1934671 -0.34404835 0.0770897 0.10135848 -0.5389205 -0.545154 0.47858736 0.104954176 0.19924259 -0.042487532 0.17635763 0.22788918 0.5485548 0.13269229 0.46219236 -0.1114348 0.13615401 0.6080109 0.076321445 -0.24635884 0.30244857 0.30186352 -0.25766006 -0.2672914 0.353068 -0.060351875 0.29938155 0.3598876 -0.54954493 0.11593548 0.48649338 0.35328686 -0.11664222 -0.64672184 -0.1374907 0.26759484 0.18976589 -0.46202794 -0.11998561 -0.15570466 0.16103911 -0.10253291 -0.08766081 0.06952893 -0.22615163 -0.024762671 0.47376877 0.1597832 -0.109783836 -0.36385155 0.10616636 -0.08496506 -0.1660015 -0.103572465 -0.39755502 -0.92481923 0.28825685 0.16533332 -0.23262721 -0.3427156 0.24366719 0.052414913 0.17497958 -0.16796404 0.36394522 -0.31404328 0.20219474 -0.24258354 0.4199518 -0.16041951 -0.19870092 0.6200077 -0.56076634 0.53366804 -0.5540679 -0.67438686 0.13367915 -0.34515825 -0.12247149 0.338521 -0.5492825 -0.6786302
1416 0.46622065 0.24714279 0.31722075 0.50838375 -0.04138433 -0.003661279 0.19798532 -0.108636506 0.14730972 -0.15929788 -0.22906055 0.010088947 0.2260047 0.15419152 -0.289821 -0.25543767 -0.038276315 -0.20521373 -0.08963557 -0.25185788 -0.08451528 -0.3567474 0.04130825 0.077388346 0.03994654 -0.123017415 0.5826827 0.55608547 -0.14563411 0.009800621 0.3075842 -0.32458016 0.42902115 -0.1695776 0.20906973 -0.24710822 0.021599496 0.23997556 -0.044393424 0.23344024 -0.28753096 -0.2636363 -0.06533897 -0.32019976 -0.33021975 -0.28188837 -0.15873557 0.008758432 -0.036896627 -0.23217916 -0.56646615 -0.38006604 0.31086326 -0.1794275 0.14308448 -0.049170814 0.03596646 0.12263577 0.42694265 -0.14707768 0.5981524 -0.04531513 -0.40849337 0.5899194 0.104124874 -0.2534576 0.008135227 -0.05090297 -0.104304016 -0.4578149 -0.011672538 0.15881254 0.5782937 0.13568608 -0.39985952 0.19579521 0.2994163 0.4382164 -0.10588676 -0.40161246 0.02478978 0.14017656 0.031081984 -0.2602107 -0.21483718 0.07235882 0.15339829 0.0368126 -0.097220086 -0.16442765 -0.16202483 -0.18746905 0.29403755 0.16858454 0.0430704 -0.019764096 0.16502927 -0.22949286 0.05593702 0.11497399 -0.25483766 -0.5649997 0.38034776 -0.05688696 0.1291762 -0.54745036 0.11099501 -0.075059004 0.39798188 -0.30500203 -0.05331327 -0.44267148 0.08791774 -0.28195673 0.2287683 -0.002423596 -0.055271443 0.62060773 -0.56283855 0.51960224 -0.12845191 -0.36889058 0.30091965 -0.33629504 0.03593507 0.3874168 -0.36052442 -0.55442834
1602 0.31178376 0.18599226 0.22322515 0.23902887 -0.42957065 0.100576565 0.09322126 0.11320256 0.4718779 -0.5366741 -0.52655697 0.13155916 0.05788374 0.35763395 -0.073094375 -0.23946698 -0.36051032 -0.25125208 -0.13644224 -0.35087225 -0.7276975 -0.17991678 -0.06562491 0.4798681 -0.35685548 0.06087022 0.26732105 0.49463138 -0.22451544 0.2610819 -0.017818596 -0.07904431 0.10922831 -0.24877493 0.06723132 -0.20709233 -0.17384036 -0.18734875 0.0010716853 0.68756634 -0.025148818 0.26501465 -0.04377846 -0.22416028 -0.47996947 -0.32464454 -0.28325236 -0.3021979 -0.07027477 0.3110889 -0.103779085 -0.42893443 0.5515523 0.23402894 0.09366342 -0.17803237 0.16488674 0.043512423 0.36647347 0.17735867 0.15758283 0.24680556 0.37263533 0.58999825 0.22235386 0.03342958 0.20018336 0.31910333 -0.29052517 -0.012298763 0.20064211 -0.28748667 0.24738805 0.14886642 -0.5083876 0.008633219 0.8240506 0.3235923 -0.04219538 -0.34349176 -0.118401244 -0.14493449 0.047626544 -0.31879142 -0.028544948 0.07640523 0.07786473 -0.030472474 0.10553149 -0.26953605 -0.17572598 0.096053414 0.46480927 0.029424235 -0.15265363 -0.1107446 -0.22506854 -0.21382464 -0.0047233277 -0.13422132 -0.09274024 -0.72441727 0.2559739 0.07250172 -0.34069616 -0.03901662 0.28790048 0.2147222 0.16533688 0.039566312 0.3582911 -0.37832397 0.32000327 0.08939022 0.27265698 -0.044622373 0.04008263 0.5349952 -0.49648264 0.4535562 -0.06014407 -0.25174257 0.07199642 -0.49166706 0.05693528 0.29200584 -0.44665796 -0.6513197
1042 -0.18320662 -0.06406497 0.016771547 0.09939132 0.18297082 -0.605762 0.055031408 -0.10677758 0.32933366 -0.4325232 -0.07110452 0.19540796 0.20250796 0.2544873 -0.053986132 -0.522424 -0.31242964 -0.22549018 0.3556055 -0.14800641 -0.49939248 -0.31628618 -0.2222392 -0.09538961 -0.15735032 -0.023850126 -0.15352401 0.5670853 -0.445951 -0.07359304 0.6445948 -0.13500425 -0.031630054 0.38372278 0.077582635 0.12900427 -0.1914179 0.11574592 -0.06548298 0.5674247 -0.19870523 0.25872308 -0.08569751 -0.09638322 -0.3718921 -0.21396953 -0.17400566 -0.35652742 0.3503912 0.06793053 -0.38237157 -0.48745638 0.52004886 0.016166074 0.18066737 -0.11060566 0.30373973 0.15021743 0.4817253 0.08549363 0.5000792 -0.06827826 0.26465926 0.44802508 -0.09527237 0.11424174 0.36399147 0.23516287 -0.04328618 -0.3209267 0.3437344 -0.1913243 0.17366402 -0.107993186 -0.38525787 -0.045421217 0.49698278 -0.029322488 0.029547278 -0.4573004 0.10912905 0.4047824 0.33421147 -0.44848925 0.14656389 -0.19782759 -0.17477685 -0.2916199 -0.38528293 0.39077196 -0.059607875 -0.10828803 0.30682018 0.031127714 -0.4995989 -0.21621057 0.19589166 -0.0664704 -0.22540672 -0.00661166 -0.31894252 -0.56781554 0.38702297 -0.09820498 -0.25483516 -0.22076562 0.19145328 -0.09676738 0.00945942 -0.2810402 0.4127686 -0.26327914 0.10787094 -0.23296866 0.5042952 -0.10263684 -0.3114887 0.35648176 -0.15868048 0.5595151 -0.43442252 -0.8975367 -0.1293294 -0.18536417 -0.30206615 0.25364134 -0.13959682 -0.26343063
373 -0.23754573 -0.16658056 0.07312086 0.0049713836 0.06729718 -0.6156624 0.31728446 0.13806325 0.5631218 -0.51931167 -0.2590092 0.3258533 0.3667236 0.22977205 -0.115900174 -0.5245895 -0.19292384 -0.16203173 0.34621674 -0.35001147 -0.4416453 -0.47437054 -0.46721452 -0.10410997 -0.27197033 -0.025779027 -0.179451 0.6332275 -0.6394902 0.2001103 0.39709225 -0.19337043 -0.13708957 0.3092762 -0.00918698 0.23413086 -0.19150321 -0.07311776 -0.059012115 0.54593015 -0.39517474 0.2973322 0.17460546 -0.24652593 -0.49718153 -0.34758663 -0.19915624 -0.36829618 0.24599008 0.32594326 -0.47408184 -0.6984521 0.4285136 0.18384238 0.23154075 -0.17514053 0.38275462 0.19219896 0.7540993 0.05429067 0.56775457 -0.032732636 0.22271341 0.84374195 -0.08850938 -0.16331708 0.35024357 0.26754475 -0.10391637 -0.1961483 0.53820074 -0.017094912 0.14291427 0.25132313 -0.33742008 0.04921339 0.5671891 0.2346542 0.04253157 -0.68704957 0.107972346 0.5613387 0.020400766 -0.5015227 -0.0034614704 0.010306731 0.0016682998 -0.28418133 -0.24031094 0.43383685 -0.27182603 0.007399841 0.38145527 0.11888042 -0.29199818 -0.4646739 0.14395931 0.038483106 -0.44137037 -0.29090768 -0.5903052 -0.95297855 0.33457997 0.014596603 -0.45704517 -0.1676475 0.20722795 -0.18228741 0.11766402 -0.34798482 0.5590468 -0.31202015 0.17038538 -0.37339258 0.69642484 -0.16781671 -0.3698112 0.5657194 -0.46733946 0.5408338 -0.7974298 -0.8141003 -0.023187514 -0.13426472 -0.43185645 0.33123744 -0.38987148 -0.6012083
7 -0.31532452 -0.019801572 -0.33915314 0.5215882 -0.30891263 0.9115356 -0.07023802 -0.021841204 -0.3468306 0.58687186 -0.054608636 -0.09171994 -0.2832426 -0.15942535 0.0027525765 0.039290518 0.9034666 -0.02496106 0.44596243 -0.7010306 -0.5782645 -0.6235262 -0.44250745 -0.11751202 -0.4890642 0.54723674 -0.5027258 0.55507183 0.3463314 -0.32324693 -0.9747714 -0.26913896 0.15292072 0.06079411 -1.421105 0.34999838 -0.38692242 -0.17662068 -0.8614796 -0.13333671 0.20636939 0.15507858 -0.75079477 0.070515834 -0.8715601 0.20413302 -0.4210884 0.16628665 0.4789846 -0.27197316 -0.7767545 -0.48895535 0.800417 0.18401478 0.11990567 0.71058226 -0.5132472 1.1975266 -1.5513524 1.7144263 0.67928797 -0.18245283 -0.61218387 0.5577958 0.05951635 1.0709527 -0.052152883 0.36809996 -0.15293978 0.3417799 -0.77665097 -0.35559043 -0.15621762 0.59018475 -0.31353968 0.95109725 0.47904074 0.039666075 0.29106063 0.28663427 1.1790653 0.21918617 -0.54957545 0.71089005 0.8271378 1.1716876 -1.6143318 -0.48772132 0.35500425 -0.6004189 -0.9439534 0.74210376 0.9377933 -1.1923519 -0.00093375216 -0.9978806 -0.36408263 -0.48186672 0.87086016 0.081508264 0.108863756 0.34871936 1.3390974 -0.15013562 0.25035408 0.47153687 -0.22758028 -0.051456135 0.07414104 1.226487 -0.42545214 0.5762191 0.11299013 -1.8009832 0.23462142 0.7869676 -0.112198964 0.4152497 0.2611017 0.2050353 0.07240449 0.45695123 -0.97290576 -0.3506608 0.24294157 -0.46664333 -0.69079983 1.0212607
208 -0.28827047 -0.039804008 -0.32430744 0.5291303 -0.29549652 0.9081082 -0.0604018 -0.04363464 -0.34579185 0.57231414 -0.041573722 -0.100295775 -0.28280705 -0.13966131 0.00072650117 0.066461846 0.8851425 -0.015907854 0.4347184 -0.6806798 -0.6166258 -0.62605613 -0.43147752 -0.13175084 -0.497526 0.54283 -0.49634346 0.5737309 0.362813 -0.2972087 -0.96621835 -0.2513593 0.17400387 0.0658776 -1.4291387 0.34235337 -0.3930209 -0.20057909 -0.8547319 -0.11945533 0.23517667 0.16839938 -0.72853917 0.0603447 -0.88551676 0.19036421 -0.40057796 0.17874962 0.49200445 -0.25589487 -0.79235554 -0.49274585 0.7826676 0.17047037 0.1334195 0.73054695 -0.50257725 1.1565961 -1.5274307 1.6864494 0.69909316 -0.17824787 -0.61920804 0.5574737 0.08694938 1.0440899 -0.046721462 0.3568556 -0.112336375 0.3416414 -0.79657936 -0.33776683 -0.15264378 0.60274774 -0.3193075 0.9521558 0.5343234 0.01811541 0.28255704 0.27979678 1.1774318 0.22631797 -0.5344344 0.7244 0.8381146 1.1770321 -1.6251612 -0.48677906 0.3518102 -0.6149449 -0.9569969 0.7629197 0.9722209 -1.1921809 -0.0006799803 -1.0134622 -0.3625631 -0.454318 0.8760434 0.07883296 0.098175995 0.30335346 1.3164895 -0.15300958 0.24381483 0.47519296 -0.21230486 -0.06422509 0.071633525 1.2362962 -0.42557165 0.55381316 0.12179752 -1.7870965 0.23319402 0.8616761 -0.11130157 0.39581212 0.26947236 0.19935608 0.073094815 0.43474543 -0.9599089 -0.32506528 0.2582524 -0.50110114 -0.7004199 1.0430716
8 -0.49363953 -0.09167252 0.17287514 0.05292941 -0.38687947 0.6516597 0.25223464 -0.63507164 0.107535794 -0.16070352 -0.09876123 -0.08783842 -0.03129574 0.35595286 0.1248445 -0.05339216 -0.22710776 -0.17929636 0.84877235 0.015636267 -0.39442855 -0.25743395 0.020134175 -0.0016180206 0.24170348 0.1978186 0.05618423 0.04562479 0.20028076 0.03096589 0.55152994 -0.3168723 -0.055859506 -0.2965342 0.5605387 -0.33655864 -0.39209798 -0.07103956 0.30750716 -0.2578259 0.19999169 0.52924144 0.1254216 0.29772508 -0.57266563 -0.12832235 0.150695 0.0024640288 -0.004309814 0.4596785 -0.18984762 -0.8235169 0.27686778 0.4637339 0.03186429 -0.3729869 0.32129 -0.14187469 0.0328457 0.7025555 -0.2610676 -0.78699154 -0.5663852 0.25052378 -0.36247897 -0.1782431 -0.7000643 0.6080993 0.48867533 -0.80320036 -0.15744479 0.29698172 -0.02778758 0.41658944 -0.0129817445 0.62223047 0.7313683 -0.00602002 -0.0022594556 -0.607021 0.5896174 0.24124531 0.41316754 0.32490486 -0.28160262 0.836362 0.47920343 0.39425972 -0.6053557 0.41321316 0.20601673 0.7459688 0.11574885 -0.142387 -0.20530337 0.42063612 -0.075303026 -0.25141338 0.36927378 0.18445158 -0.032128703 0.03520075 0.030203385 0.005337645 -0.45192575 0.085531816 0.7747408 0.27300775 0.4290926 -0.22473012 -0.5017615 0.4952799 0.03776923 -0.6625159 0.27985588 0.5117515 -0.048341252 -0.41774985 0.1562914 -0.4273297 -0.15208024 0.4336741 0.0018719552 -0.065274246 0.16583782 0.18521914 -0.3109357 0.5797835
281 -0.3133873 -0.19377965 0.13186173 -0.10627107 -0.32377833 0.49180755 0.32326445 -0.68969834 -0.10806243 -0.25464484 -0.04066238 -0.0033956268 0.18639629 0.07821414 0.15819386 0.29082403 -0.08126234 -0.16116026 0.22835246 -0.043695368 -0.33318004 -0.32440987 0.08283711 0.12266577 0.23538832 0.14126797 0.029377716 0.2309452 0.37931895 0.34996805 0.36078095 -0.5177782 -0.04464482 -0.3362999 0.17234004 -0.16127573 -0.23503926 -0.14918977 0.45244682 -0.29790524 -0.104960784 0.45197627 0.30128664 0.23916529 -0.54105055 -0.15459472 0.3555346 -0.11897063 0.33885124 0.72145844 -0.1761361 -0.39449376 0.2575338 0.39176577 0.12528837 -0.3634553 0.083260976 -0.19960718 0.0590489 0.70802546 -0.21694611 -0.22057852 -0.4071249 0.05249182 -0.24522856 -0.08060588 -0.65767664 0.16887316 0.6014876 -0.2717922 -0.20394324 0.5520149 0.100718774 0.5271774 -0.14187156 0.42959148 0.6837225 0.24933031 0.1930114 -0.20290859 0.32213935 -0.293095 0.02036552 0.28866825 -0.30847096 0.904133 0.20085865 0.31053266 -0.7017894 0.41402492 -0.25278112 0.3186783 0.08141523 0.084861584 -0.014165846 0.39855632 -0.010225926 -0.19749156 0.5272851 0.19610386 0.3772392 -0.09056118 0.14749154 0.10216032 -0.22225325 0.099481665 0.41599756 0.15805028 0.36862507 -0.2500689 -0.29086456 0.48801896 -0.16156545 -0.66575193 0.5773646 0.39499044 -0.12208906 -0.26808104 0.20007502 -0.45075452 0.12162823 0.06951146 0.14312832 0.243883 0.22525367 0.17340557 -0.37302396 0.21340738
1996 -0.10183988 0.16525385 0.28446272 -0.0315264 -0.7287539 0.5720198 -0.0058205603 -0.5035024 0.15684083 0.2653929 -0.025774663 0.017070228 -0.31960458 0.6590337 -0.0866385 -0.4149995 -0.306516 0.36699563 0.8926093 -0.2868829 -0.24677752 -0.1866804 0.115384616 0.07891313 0.18988831 0.068921395 0.11271754 -0.06061427 -0.06575216 -0.2564046 -0.20482616 -0.2108355 -0.10018568 -0.41749576 0.55426866 -0.5852088 -0.5004969 0.23101464 0.5214154 0.0051158997 -0.02260311 0.5503035 0.13551284 0.33664447 -0.2527017 -0.01372117 0.12303997 0.035298757 -0.029801495 -0.027266758 -0.15457703 -0.7444632 0.54335356 0.6144412 0.012661181 0.107572004 0.2720109 -0.12112381 -0.30459756 0.5935238 -0.44278508 -1.1744207 -0.55662394 0.22609727 -0.23420572 -0.2917865 -0.21252555 0.8082261 0.50496405 -0.70080185 -0.05068057 0.01723556 -0.40529972 -0.0140428115 0.08817296 0.3229856 0.5382494 0.05809007 -0.37497684 -0.38329357 0.6859298 0.29635206 0.50670534 0.37245995 -0.08863321 0.534958 0.2552227 -0.06795603 -0.4902642 0.23995674 0.31279704 0.29462555 -0.17840758 -0.12781513 -0.1569467 0.48894304 -0.27484527 -0.23511338 0.2596551 0.10506658 -0.15699293 0.2067505 0.051859453 -0.2403194 -0.6506778 0.13829173 0.7129022 0.061552625 0.19461626 -0.36539575 -0.5165092 0.35966557 0.1622871 -0.43546963 0.17702807 0.35656303 0.0010449517 -0.16460341 -0.043887276 -0.41226745 -0.3049535 0.3012702 -0.37467006 -0.19418813 0.3421078 0.07939689 -0.17153405 0.5626985
269 -0.7045409 -0.02224725 0.18413438 0.29008693 -0.40745762 0.35018203 0.39580962 -0.6436114 0.4397948 -0.48775426 0.25049883 0.10063378 0.51736337 0.6832494 0.1492101 -0.33025634 0.14313982 0.12819718 0.91722405 -0.04038807 -0.4265384 0.07616408 0.0025312626 -0.119645126 0.07974225 0.3474463 0.24767959 0.26190454 0.19491033 0.23372005 0.9025576 -0.37410146 0.16583674 -0.05007767 0.84312993 -0.3719455 -0.5455662 -0.31424424 0.119887516 -0.86268234 0.37252054 0.6700353 0.20598401 0.52652156 -0.7640716 0.24653056 0.22446471 -0.39382985 -0.32650408 1.0271794 -0.011340851 -0.8441764 -0.07181934 0.32734647 0.2717228 -0.68260247 0.5406284 -0.27158725 0.41248477 0.38792393 0.09710363 -0.7726857 -0.46734697 0.3939718 -0.53189564 -0.3517631 -0.46489564 0.758281 0.17537893 -1.1635994 -0.40067083 0.41946426 0.11762272 0.20467426 0.19011682 0.8828187 0.5150789 -0.13547908 0.029755123 -0.92176074 0.33560777 0.024719559 0.54815125 0.35618958 -0.155254 1.0379791 0.5958592 0.8250199 -0.69830257 0.35083413 0.21280524 1.2211002 0.4186184 -0.26273853 -0.49035978 0.40986052 0.03276491 -0.28448457 0.3418115 0.1668509 -0.22279532 -0.008912079 0.50261515 -0.079273455 -0.6435054 -0.022978842 1.0877832 0.3537768 0.31065086 0.029662637 -0.5205776 0.6778542 0.42853776 -1.0505043 0.29965052 0.3362992 -0.123635456 -0.5843449 0.42638758 -0.3103671 -0.35009345 0.38841566 -0.22879933 -0.19082575 0.17891228 0.14404899 -0.22196463 0.48565203
9 -0.18453513 0.21500087 0.4378522 1.1091828 0.6034306 0.7291723 0.6883548 0.77255493 0.24599276 -0.4156325 0.5466987 0.021482008 -0.055540726 0.2982571 0.59613436 -0.09245305 -0.5873187 -1.0876606 -0.28487602 -0.8921284 -0.24815555 0.12732749 0.8363173 -0.3790998 0.33111718 0.043843165 -0.5923582 0.08923889 -0.557989 0.6528991 -0.15379557 -0.06323618 -0.4792058 -0.052016914 0.2509301 -0.29171404 -0.20825621 -0.9909713 -0.5105805 -0.56209224 -0.6921222 1.034245 -0.0618033 0.12245569 0.122163266 -0.026521176 -0.17899975 0.21634503 -0.21200801 1.0097748 -0.14394915 -0.31455174 0.48329794 0.29800567 -0.7638878 0.56653136 1.1130183 -0.6342487 -0.623916 0.5159373 0.2897219 -0.213153 -0.9245586 0.030717757 -0.068513855 -0.48139572 1.0298835 0.25129738 0.18058935 0.17133078 0.04818457 0.46095347 -0.10793652 1.0222127 -0.8133859 0.10185543 -0.45177925 0.70187825 0.08125229 0.347303 0.0056129266 -0.340528 0.77724856 0.19407102 0.36052033 -0.009589797 -0.4505854 0.29099247 0.58817273 0.54246396 0.2500425 0.12049809 0.021586787 -0.63600373 -1.089863 0.22806576 0.056036104 -0.1938592 -0.62641424 0.50029236 -0.31789514 -0.28138465 0.08301097 0.32545117 0.50755346 0.6839254 0.22897194 0.27141362 0.3327622 0.18324609 -0.43137595 -0.5308555 -0.8876583 -0.5918493 0.041212693 0.55335706 0.0657315 -0.9064089 -0.32480952 -0.32978362 0.6811041 -0.5178974 0.099454835 -0.35714743 -0.15029265 -0.21092488 0.09083439 -0.8948217
2614 -0.049799647 0.2543366 0.46390468 0.98079723 0.4293213 0.61458933 0.56726176 0.45879066 0.0946104 -0.28032666 0.34928653 -0.12162364 0.15410739 0.21097101 0.5431103 -0.12893185 -0.33056664 -0.8218316 -0.24233466 -0.8810132 -0.24199915 0.16961412 0.6720478 -0.43658805 0.47112566 0.09481998 -0.47692218 0.10815159 -0.4654815 0.6590807 -0.22718951 -0.20514084 -0.30126613 0.010098392 0.11601036 -0.27094647 -0.14399835 -0.7644744 -0.34712347 -0.6435854 -0.5586121 0.93089074 0.078216195 0.026363999 0.07394626 -0.17096548 -0.20959008 0.21747771 -0.11759391 0.9359903 -0.075227335 -0.21860859 0.5377335 0.20912497 -0.7467485 0.60332745 1.0162429 -0.559578 -0.5471538 0.2058118 0.0680039 -0.09940244 -0.7980452 0.052074544 0.03377529 -0.4123341 0.97241133 0.33418185 0.1976448 0.15630633 0.061839387 0.26923606 -0.07124236 0.8420041 -0.6693628 0.054619096 -0.35374635 0.5047629 -0.066307895 0.29649022 -0.050681647 -0.36362252 0.5019232 0.1684867 0.2990591 -0.07388308 -0.33729446 0.21724552 0.5161911 0.5195445 0.14898925 0.07449905 -0.0324937 -0.55126023 -0.9195175 0.104258336 0.0615014 -0.1723892 -0.67545235 0.47610226 -0.44618347 -0.14197344 0.0777975 0.28022024 0.52217925 0.65528786 0.22028384 0.113381065 0.33343405 0.25740635 -0.43610492 -0.3482787 -0.7292841 -0.6390197 -0.031670284 0.58626145 0.024121383 -0.8444281 -0.2976763 -0.2527312 0.6339262 -0.44135252 0.07512374 -0.424677 -0.044026688 -0.23639 -0.0133747 -0.8123725
723 -0.087065816 0.27341348 0.3550555 1.1061685 0.5663341 0.8273189 0.61490846 0.6946285 0.26282397 -0.38168883 0.4921563 0.05186777 0.09084117 0.27013713 0.6352972 -0.019370895 -0.5310018 -1.1199665 -0.30982533 -0.93817055 -0.3292475 0.17695221 0.8329426 -0.489939 0.33786452 0.079566926 -0.5823174 0.12357626 -0.5103803 0.68386453 -0.25263193 -0.04633099 -0.37649065 -0.028415088 0.24559747 -0.34691942 -0.15447797 -0.860619 -0.54301673 -0.62569195 -0.7435074 1.1799048 0.075631894 0.0060338457 0.07504415 -0.068334624 -0.15498962 0.31750405 -0.10712033 0.9668673 -0.11727619 -0.24524626 0.67906857 0.35774052 -0.68145335 0.5741477 1.1855917 -0.6101875 -0.6729775 0.47344637 0.27231774 -0.24899326 -0.9153716 0.07123402 -0.1313039 -0.40661404 1.0103723 0.30074313 0.18449178 0.23782669 0.011592479 0.4248673 -0.10581162 1.0509852 -0.8014277 -0.057451155 -0.491341 0.7125611 0.027971206 0.45630363 -0.045458026 -0.40319422 0.7118809 0.3264411 0.21332921 -0.017922793 -0.42656365 0.25836694 0.6496376 0.6920287 0.12406539 0.05269215 -0.01955627 -0.52785885 -0.99743265 0.09903737 0.1329443 -0.20841542 -0.7239882 0.504655 -0.38763472 -0.3770346 0.12914853 0.30909696 0.5485544 0.48675174 0.33112574 0.23297924 0.287932 0.2411837 -0.30712283 -0.48605004 -0.78900295 -0.67880946 -0.017279102 0.59054404 0.0974731 -0.9217044 -0.44848597 -0.31788862 0.62962085 -0.4785987 0.09403543 -0.297396 -0.27413064 -0.23884991 0.017594505 -0.84842867
10 0.61061645 0.014776224 0.38095516 -0.26471972 -0.3153969 0.20805503 0.6093134 -0.06459928 0.41490152 -0.5149406 0.3445766 -0.6952732 0.3293855 -0.011534677 0.44392112 -0.6127981 1.0052916 0.58769447 -0.0040543997 0.19781038 -0.65041816 -0.5383124 0.009708688 0.03196208 0.20669098 0.11884003 -0.64652497 -0.24526273 -0.88353276 0.33227694 -0.1363507 -0.52057946 0.45081726 0.04419802 0.40953803 -0.5550133 -0.63105196 -0.16520618 -0.51638323 0.2329036 -0.33017892 0.32634932 -0.8291107 -0.5709117 0.0011551316 0.6378308 -0.27445415 0.29636037 -0.03719031 0.051906064 -0.16471373 0.47718406 0.440029 0.025967106 0.068640694 0.37831166 -0.19467181 0.5058413 -0.28019556 -0.06920565 -0.43944955 -0.7367381 -0.7384674 -0.022588376 0.6813475 0.31088874 -0.4734329 0.18920821 -0.09337359 -0.1498515 0.45163366 0.063461654 -0.0007494171 0.3298085 -0.108225316 0.252592 0.2266448 0.6014788 -0.71735126 -0.42671588 0.41741356 0.08932809 0.5954594 -0.024829948 0.1514486 0.018700607 -0.52316684 -0.24803185 0.10729381 -0.49203917 0.3033689 0.40489447 -0.5918304 -0.059992578 -0.12976187 0.51128596 -0.25283435 -0.63208807 0.033137012 0.9506904 -0.30735055 0.10198663 0.2186162 0.092435695 -0.52383053 0.86088395 0.23276016 0.42716628 -0.4776311 -0.3328406 -0.13891926 0.31733885 0.09464889 0.10104766 0.39178294 0.18632482 0.11301708 0.28633943 0.28663683 -0.04134389 -0.021332588 -0.41170612 -0.09533947 -0.048808202 0.09840874 0.5835678 0.19320486 0.6323583
476 0.23821256 -0.027146624 0.16927563 -0.18105716 -0.30886173 0.09355845 0.28744182 -0.3126971 0.21401942 -0.52116716 0.17943406 -0.43398654 0.32437664 -0.16926186 0.5173786 -0.525315 0.7456503 0.49205667 -0.070291854 0.032557976 -0.4822816 -0.25203094 0.13036792 0.010746605 -0.05345942 0.20808342 -0.40360978 -0.07788176 -0.55360603 0.27713314 -0.16690278 -0.37938088 0.20749882 0.0882451 0.22886996 -0.5044165 -0.2546529 0.008032198 -0.3567164 0.38180503 -0.3357679 0.212031 -0.57159436 -0.5088288 -0.031707983 0.5324572 -0.095023006 0.28700528 0.043613736 0.23346442 -0.18927628 0.3136838 0.39135507 0.0028174792 -0.1658104 0.31480172 -0.17581157 0.3516172 -0.1954827 -0.004161067 -0.24003223 -0.5102398 -0.49316233 0.18634176 0.67471313 0.21893592 -0.4683672 0.22644415 0.08027497 -0.26580817 0.36883754 0.05147808 -0.0075827 0.2355512 0.1306488 0.23650451 0.18652095 0.28414416 -0.50711757 -0.17238835 0.18778794 -0.1161921 0.20457324 -0.05631979 0.22056906 -0.014700655 -0.2776573 -0.20814085 0.17538838 -0.39808995 0.17744939 0.2933355 -0.6840633 -0.0921139 -0.043841217 0.3384816 -0.08861091 -0.38350424 0.039203055 0.63776875 -0.2803749 0.12002411 0.032122865 -0.07558548 -0.18976857 0.38909253 0.0835419 0.22978495 -0.5065428 -0.28182685 -0.029489916 0.38604474 -0.014689481 0.10179552 0.2348376 0.13380243 0.06433993 0.16752721 0.2578183 -0.08718812 -0.0064985333 -0.29192916 -0.03178642 -0.035773557 0.09681406 0.334602 0.18535991 0.28850237
2545 0.768959 0.16446841 0.4326281 -0.523036 -0.21823856 0.08573208 0.8180169 0.021057818 0.49687433 -0.71217686 0.587134 -0.7611489 0.32951826 0.046440452 0.412045 -0.7100898 1.1129255 0.65337443 0.14735772 0.3238472 -0.75517607 -0.46222493 0.10790539 -0.10750165 0.29638883 0.3283536 -0.60805774 -0.30585426 -0.81382364 0.31705925 -0.05895539 -0.7797708 0.33179036 0.112125725 0.634193 -0.5691831 -0.7987525 -0.30231336 -0.48361337 0.15271842 -0.35361263 0.4810643 -0.9806741 -0.5523729 0.15537846 0.6361396 -0.46468464 0.47140858 -0.25582713 0.049062036 -0.15626124 0.5104736 0.46073228 0.09885325 0.21015675 0.31708696 -0.10485237 0.6900358 -0.26270685 -0.12934516 -0.5094342 -0.75177795 -0.73743236 -0.22456513 0.68022746 0.29562744 -0.4163003 0.08351664 -0.2931564 -0.059391093 0.47300962 -0.10061102 0.016418459 0.57894033 -0.124637805 0.08722421 0.074651085 0.78245354 -0.8899863 -0.32887906 0.4373152 -0.1554978 0.557746 -0.23299158 0.24451348 -0.0039569587 -0.71458405 -0.2710724 0.16008428 -0.7734114 0.26548794 0.3871654 -0.46409416 0.13541615 -0.1371193 0.5097442 -0.20242006 -0.6008353 -0.020620812 1.1562258 -0.43330768 0.07819787 0.42653736 0.2812015 -0.5765914 0.84505796 0.18755661 0.34579778 -0.45691925 -0.5336594 -0.2449737 0.40346938 0.23884384 -0.101341814 0.277954 0.020792203 0.049210336 0.38367295 0.17077728 -0.09173391 0.104971774 -0.53504986 -0.2899106 -0.18601912 0.17090282 0.4302958 0.2958702 0.59185857
11 0.58071184 0.26000804 0.27908 0.30293423 -0.7549611 -0.11535526 -0.074741326 -0.18389869 0.12421975 -0.04421747 -0.5285924 0.11953127 0.14941193 0.015698165 0.13270415 0.45115685 -0.20036983 0.18022011 0.61949867 -0.12670635 -0.019648606 0.032543637 0.12354213 0.42292598 0.31695133 0.32022834 0.41832265 0.20346302 0.075075395 0.47268277 -0.2864238 -0.01389467 0.21360137 -0.10394299 -0.017938973 -0.5148387 -0.17783986 -0.01367621 0.42645055 -0.26043975 0.2378293 0.020885691 -0.6617372 -0.014405892 -0.016578373 0.2737944 -0.018165786 0.10649385 -0.24732068 0.3178679 -0.14116257 -0.16643694 -0.19262002 -0.15362543 -0.3059139 -0.08939377 -0.23405713 -0.42923647 -0.10188465 0.87237984 0.31362706 0.59193516 0.036049448 0.36810422 -0.23136042 -0.36664262 0.14856096 0.830027 -0.42483822 0.22844687 0.085485026 0.069754496 0.24309424 0.34447846 0.10042185 -0.15371388 -0.12365199 -0.13383044 -0.38331133 0.05681976 0.48643425 -0.3781833 0.14827637 -0.013851966 -0.13352783 0.35888675 0.41383383 -0.33205777 -0.41715354 -0.03263366 -0.16574375 -0.5223945 0.025503384 -0.042737916 -0.26868498 0.38035667 0.49305627 -0.5180461 -0.16167876 -0.48731735 -0.36561376 -0.40335497 0.23601231 0.092978455 0.14553483 0.12148058 0.6697753 0.13819484 0.16160415 0.6170542 0.19698755 -0.035544526 0.107246965 -0.43398735 0.3659453 0.10924275 -0.38318875 0.27621448 0.26897162 0.35703945 0.082805976 -0.4699713 -0.4689723 -0.1718603 -0.33922037 -0.034759447 -0.7531169 -0.3201988
1655 0.5917354 0.23179151 0.45926633 0.41897595 -0.40061417 -0.22182217 0.07442727 -0.1931294 0.26284096 0.054781098 -0.384037 -0.06431804 0.24107382 0.11927508 0.19684854 0.32533294 -0.027136283 0.25358635 0.46937972 -0.05181751 0.13036285 0.027757423 0.04432537 0.42795768 0.446745 0.26854047 0.46606898 0.15003094 0.11826003 0.13878493 -0.22979362 -0.010609253 0.23026766 -0.020407116 -0.062358737 -0.3442493 -0.16442679 0.10724205 -0.010443342 -0.27950063 0.24565993 0.011598469 -0.58017105 0.31123698 -0.09276275 0.08982969 0.09801674 0.0023054194 -0.0031395536 0.2637361 -0.36430132 -0.10985808 0.009861764 -0.099610336 -0.2259111 -0.02322389 -0.08407067 -0.22914696 -0.04822731 0.60432243 0.064003415 0.30467352 -0.063446835 0.49408522 -0.13739245 -0.12671615 0.23282346 0.37962922 -0.3274312 0.32858908 0.15779455 0.21573319 0.22185132 0.32681468 0.16011874 -0.10488841 -0.24201329 -0.092949495 -0.27054957 0.06790836 0.23478012 -0.31180823 0.27432993 0.074525684 -0.28707716 0.12572055 0.06929862 -0.109066635 -0.32116222 0.059817493 0.059150077 -0.62088406 0.085304536 0.21549192 -0.362026 0.22454831 0.5976818 -0.41504318 0.15287006 -0.32958144 -0.5809367 -0.37540075 0.06666634 -0.021485128 0.181177 0.21479417 0.27448308 0.27522266 0.20076843 0.53469145 -0.029515794 -0.17427132 0.33912945 -0.3353554 0.3131951 0.05368855 -0.32160452 0.18468674 0.1798333 0.272306 0.08119745 -0.31687096 -0.41377994 -0.07620105 -0.27117258 -0.040385798 -0.36705983 -0.18565279
1839 0.464782 0.10310622 0.27589262 0.3388797 -0.81993735 0.11803693 0.019520959 -0.09514137 0.101487756 -0.21762341 -0.72252136 0.17157134 0.13124089 -0.031713936 0.22558239 0.67870337 -0.423597 0.20816873 0.60353667 -0.08742751 -0.09344237 0.010605478 0.24590373 0.2140175 -0.16925363 0.036392376 0.23038612 0.37013918 -0.02130324 0.87003523 -0.24902318 0.046412162 0.17959306 -0.014817124 -0.005742118 -0.5668877 -0.19345486 -0.24191853 0.38536265 -0.15414195 0.21000971 0.063607275 -0.54041535 -0.25580055 -0.10166455 0.16494378 -0.1417949 0.045507524 -0.14518847 0.26363876 -0.015320143 -0.12186207 -0.29965124 -0.2601373 -0.36636427 -0.07815889 -0.31754172 -0.32950628 -0.14537326 0.8927354 0.4099315 0.5724572 0.2257171 0.29066643 -0.3040908 -0.40839005 0.051157985 0.8183652 -0.43715066 0.11748378 0.26997447 -0.027305488 0.2846392 0.41734403 -0.13651475 -0.16096932 0.022305768 -0.17362794 -0.24212459 -0.122222625 0.42644602 -0.37380493 -0.08922431 -0.21244465 -0.001602985 0.42415625 0.46766722 -0.5329904 -0.5307584 -0.06231489 -0.18203989 -0.38631192 0.0065176 -0.050260555 0.117348954 0.065290526 0.4127053 -0.5438773 -0.21916193 -0.29015392 -0.1413957 -0.47530985 0.22594573 0.01605629 0.042088386 0.22558872 0.6737599 0.16017018 -0.055473622 0.58888257 0.2135736 0.08385821 -0.065614924 -0.3188582 0.4570666 0.30246693 -0.31989905 0.20819913 0.34454793 0.3216124 0.20413747 -0.5048981 -0.32009935 -0.1497202 -0.40811023 0.08665169 -0.6705703 -0.14585495
12 -0.098049976 -0.2882233 0.27276692 -0.4564407 0.3760803 0.739027 1.4545346 -0.46052974 1.4867277 0.68241405 1.1300166 0.8462367 0.15252303 -0.39022118 -0.7854205 -0.029889666 0.4574395 0.384046 0.23453498 -0.43452862 -0.23356812 -0.698076 0.5228325 -0.74410594 0.27895164 -0.19686438 -0.65072656 -0.8852332 -0.68904096 0.59176314 -0.11296335 0.7081945 0.81414694 -0.6992355 1.0694044 0.5736843 -0.7948288 -0.07148358 -0.4562126 0.23248266 -0.5004522 0.3304493 -0.2830218 0.6271959 -0.95019156 0.37453273 0.12587848 0.3730012 -0.89779377 1.2253015 -0.68070346 -0.3452231 1.4406213 0.49432158 -0.12039572 -0.7099532 0.4650212 -0.08960155 0.72476065 0.059048183 0.22936457 -0.2064338 0.07830877 1.2611921 0.5866879 -0.27263564 0.67378914 -0.5006317 -1.1719589 0.042187892 0.8132386 -0.092437536 -0.8019482 1.367386 -0.12016551 -0.6382098 0.9921336 0.9660816 0.008059694 0.3659917 -0.7343487 1.0772882 1.2053266 -0.8894784 0.38972837 0.38910827 -0.5839323 -0.10286312 0.46678674 1.0564237 -0.6139061 0.6697511 0.8721743 0.18292002 0.80811 -0.58505917 -0.2832012 0.14564861 -0.74530786 -1.0663786 -0.8845615 0.023871753 1.5219547 0.4760855 0.11910885 1.079614 1.6112334 -0.04596898 0.53082675 -1.0701342 0.059042078 0.84085983 0.6152765 -0.9053156 0.8534709 -1.0504616 0.022473264 0.2886971 -1.0073932 -0.67857873 -0.26996392 -1.1879508 -0.83415025 -0.7781735 0.47612795 1.5232062 -1.0500093 -0.14425084
2661 -0.1511091 -0.34126326 0.20015815 -0.53522503 0.46658295 0.6630935 1.4289547 -0.5084576 1.5639355 0.69971734 1.018983 0.7845334 0.1790919 -0.43143454 -0.75063056 0.013264579 0.6071301 0.35036832 0.27957514 -0.3926182 -0.15427385 -0.7483657 0.58554727 -0.66465133 0.21884228 -0.19742364 -0.68876034 -0.7739345 -0.6085183 0.4977699 -0.018654084 0.72730416 0.92397374 -0.6880469 1.1230932 0.5169819 -0.8519226 -0.078523375 -0.43323472 0.206227 -0.43385962 0.38289878 -0.33105794 0.6685441 -1.0307294 0.23245148 -0.006824278 0.4315113 -0.80680186 1.205276 -0.6250239 -0.42217758 1.4480078 0.59688646 -0.20332426 -0.65984696 0.50526994 -0.064465635 0.6907258 0.08615888 0.16866367 -0.16182666 0.12675981 1.2452384 0.5267182 -0.25292897 0.6774938 -0.5846883 -1.1163553 0.0025853892 0.9063166 -0.001241235 -0.6946722 1.3338274 -0.07757761 -0.63019204 0.9419739 0.881686 0.031088999 0.3767883 -0.7644798 1.1467947 1.1047647 -0.95766324 0.4840977 0.46388638 -0.5900074 -0.14968082 0.5020568 1.0467031 -0.5548199 0.662395 0.95215976 0.10403811 0.8533385 -0.70589757 -0.26786247 0.05552535 -0.8395564 -0.9878125 -0.798835 0.019136796 1.3689789 0.42116854 0.14125378 1.0299611 1.6297024 0.14065574 0.6319557 -1.0584371 -0.069526955 0.88522685 0.5498722 -0.7950755 0.88378024 -1.1396394 0.036146265 0.30843228 -1.0130154 -0.7539589 -0.2084707 -1.0770695 -0.8326785 -0.74234045 0.5388213 1.5388484 -1.0336032 -0.21323168
1001 -0.10305927 -0.30258113 0.3338498 -0.5040935 0.40238133 0.79464316 1.3633672 -0.43290967 1.4175452 0.70431286 1.1316651 0.8278225 0.23665996 -0.4150439 -0.7507744 -0.0036408098 0.5589045 0.31331897 0.17951767 -0.35539925 -0.19756024 -0.7344487 0.56428283 -0.68336487 0.2737874 -0.19582896 -0.6095256 -0.8295847 -0.70570195 0.62005764 -0.006171738 0.6148832 0.82255954 -0.59907025 1.1354197 0.49688566 -0.8113022 -0.1532182 -0.45070902 0.22338046 -0.50156975 0.38640568 -0.38768822 0.6461474 -0.9641988 0.3853026 0.022093458 0.44609064 -0.85252917 1.2073153 -0.70075756 -0.3415426 1.4358056 0.58462906 -0.12518087 -0.71649355 0.496471 -0.02316235 0.7065179 0.09338012 0.21429156 -0.17595121 0.08105654 1.3692937 0.67535466 -0.22953945 0.6843554 -0.5065098 -1.1722816 -0.07107344 0.8287848 -0.0517137 -0.6756395 1.2794975 -0.026860708 -0.5895442 0.81484485 0.94297457 0.025504807 0.40868312 -0.7558629 1.1199067 1.1407475 -0.96117294 0.5055038 0.4644964 -0.64788467 -0.07103832 0.47061875 0.98082536 -0.48004216 0.5022739 0.96445507 0.18818589 0.8614288 -0.63998944 -0.2969477 0.106713146 -0.74367815 -1.0245482 -0.8169611 0.038384613 1.491134 0.35989016 0.067736655 1.009793 1.6253915 0.1397652 0.59468645 -1.0759686 0.022884496 0.91635823 0.6208357 -0.8054092 0.90143514 -1.0466037 -0.002607811 0.37089032 -1.0323849 -0.68161 -0.25384215 -1.0701281 -0.8095629 -0.81546116 0.5037215 1.5032922 -1.0608215 -0.15846549
1318 -0.16841467 -0.36588234 0.27062148 -0.52195925 0.38780722 0.66195774 1.424904 -0.4592133 1.4817972 0.67677534 1.142608 0.8599319 0.11164913 -0.38429713 -0.84790987 -0.05228222 0.4840511 0.32279262 0.29212537 -0.36660177 -0.19216242 -0.71808237 0.56708664 -0.6649562 0.35266533 -0.15693493 -0.67141455 -0.8554968 -0.7351105 0.5836172 -0.17221677 0.6803522 0.80899113 -0.6255251 1.1206479 0.62141687 -0.8264478 -0.020608451 -0.38755232 0.16272868 -0.4212362 0.2932111 -0.3126039 0.618206 -0.99441755 0.39796883 -0.00896177 0.42401293 -0.8361656 1.1993072 -0.64563423 -0.38904518 1.4158922 0.6091257 -0.19847862 -0.7475027 0.550858 -0.0036100934 0.7146613 0.1346227 0.27315995 -0.16786629 0.07863772 1.2448112 0.5854567 -0.29751834 0.7040866 -0.49532354 -1.1825342 0.044910245 0.875935 -0.028306356 -0.7351291 1.3249207 -0.089650184 -0.6570762 0.94122493 0.99848115 0.0010520495 0.3395017 -0.70928025 1.1259414 1.1649927 -0.9094144 0.44838598 0.42124033 -0.6263301 -0.12944618 0.5167039 1.0091897 -0.57871485 0.5319837 0.9318631 0.23269255 0.7983649 -0.5694063 -0.2537008 0.100783445 -0.8241992 -1.0006388 -0.88276136 0.033913273 1.4123129 0.4562312 0.03393785 1.052798 1.6287539 0.05414929 0.544782 -1.1495969 -0.039636366 0.8767647 0.5853413 -0.8331183 0.8433227 -1.0390872 0.033354722 0.26882917 -0.968028 -0.6198586 -0.3189094 -1.1977274 -0.8509837 -0.84531647 0.46958733 1.5526937 -1.0887686 -0.21487309
2662 -0.17512485 -0.3833549 0.24296057 -0.51677513 0.3797525 0.6525314 1.3935497 -0.41954407 1.5068257 0.71210086 1.131676 0.90878534 0.11342757 -0.40150386 -0.7617524 -0.05874885 0.49079028 0.24016155 0.28824952 -0.37967455 -0.2249382 -0.7007533 0.63783604 -0.65466964 0.30485198 -0.19513369 -0.58261883 -0.8448839 -0.736478 0.57950294 -0.14241393 0.65523833 0.7592265 -0.5893996 1.1489037 0.606223 -0.85462266 -0.10668285 -0.48229286 0.26511833 -0.3934878 0.3016251 -0.37093556 0.6915448 -0.93297386 0.3389032 0.034189966 0.481094 -0.8835679 1.235677 -0.72624844 -0.37106177 1.3775486 0.56889886 -0.10680131 -0.7337778 0.46530548 -0.041817818 0.75618416 0.05706557 0.17478472 -0.11949275 0.009940237 1.331689 0.5830507 -0.30748066 0.73303944 -0.53078854 -1.130541 0.008563192 0.8417408 -0.039522048 -0.76122284 1.2789629 -0.18478508 -0.74771655 0.847333 0.95613617 -0.028122293 0.36477217 -0.7505504 1.2342286 1.132019 -0.8759338 0.41598698 0.46800023 -0.7170755 -0.1223251 0.49290198 1.0087802 -0.5226449 0.54930234 0.92399555 0.1423051 0.826508 -0.56545436 -0.24263178 0.10241884 -0.8062476 -1.0484917 -0.93192995 0.023701658 1.4554895 0.3792265 0.09999888 1.1613263 1.6667079 0.043267228 0.5667835 -1.0982584 -0.05022105 0.9156483 0.5632734 -0.8927911 0.9950856 -1.0276935 0.07769971 0.35740575 -0.9690798 -0.6780021 -0.21148819 -1.1009488 -0.76656806 -0.8441805 0.4510895 1.4727604 -1.0238657 -0.22000878
13 -0.13183624 -0.19621243 0.39969638 0.41321683 -0.14219141 0.05027064 0.5442369 -0.24508238 0.21253777 -0.009406144 -0.06735155 -0.22792155 0.062229563 0.011961881 -0.08990793 0.045702428 0.16798183 0.37033537 0.4028709 0.19675049 -0.35510227 -0.031500038 0.36722434 -0.1626398 -0.16936342 0.12661673 0.35589123 0.27431297 -0.07923061 -0.1962551 0.087108895 0.088031195 -0.13933134 -0.08344359 0.019118728 0.20426449 -0.045210704 0.054653205 -0.0042507034 -0.093454145 -0.076580875 -0.023959018 -0.0798776 0.04698142 0.015518804 0.21228844 -0.58209157 -0.02164944 -0.22187053 -0.13081814 -0.258599 -0.015630513 -0.07327166 0.25190315 -0.35534713 -0.24936841 0.29846048 0.41888618 -0.069775105 -0.16369584 0.0986895 -0.35336918 0.0849218 0.21431133 0.0068224147 -0.17445236 -0.054672778 0.42057893 0.04338884 -0.018906748 -0.12534887 0.046685964 -0.033205394 0.04930411 0.0004814132 -0.37243617 0.27946657 0.27537495 -0.16164257 0.44714385 0.41612497 -0.30931842 -0.019065525 0.50135183 -0.4373939 0.15659101 -0.015554845 0.0060522784 -0.15103966 0.017875688 0.024059728 0.0027354548 0.12564428 0.11562532 -0.09216087 -0.3212826 -0.29860803 0.062150415 0.19665836 0.24642776 -0.08681186 0.19128038 0.13561092 0.3209846 -0.15262689 0.25448814 -0.113012694 0.15878639 -0.32206947 0.038561102 -0.49721798 -0.14819136 0.145742 0.20651275 0.008308169 -0.15125573 0.2223371 0.26844424 0.13918205 -0.27831453 0.10553296 -0.2375142 -0.07646807 -0.11278107 0.13338171 0.06390048 -0.25378683 0.1647771
1810 -0.14475602 -0.14043748 0.4193637 0.21487209 -0.37906998 0.020478908 0.37930742 -0.11304396 0.15076765 -0.29397312 -0.08715496 -0.1106611 0.4412641 0.28614855 -0.09518811 -0.11954917 0.09021018 0.16416375 0.44584632 0.49744022 -0.27401954 0.12674032 0.32313657 -0.030471222 -0.2778693 0.07612903 0.21370211 0.0987395 0.15368813 -0.29136294 0.21305615 0.067114644 -0.029052978 -0.031870384 0.18430546 0.15892757 -0.026453344 0.047198743 -0.01889902 0.31407627 -0.18403359 0.19545121 -0.32615685 0.12607628 -0.08942405 0.3806694 -0.16703637 0.034178182 0.016245995 0.10979682 -0.4051377 -0.3982566 0.012388896 0.040897537 -0.38836068 -0.36255312 0.34949896 -0.11772058 -0.08941474 -0.06128259 0.17407198 -0.2658431 -0.055118285 0.2828744 -0.24947622 -0.37628046 -0.0052717505 0.027655596 -0.1935058 0.2101165 -0.1567257 0.07508725 -0.18363178 0.13764165 0.038491618 -0.33670613 0.07854624 0.23872116 -0.017215956 0.31180847 0.35896552 -0.34139684 0.1924377 0.65032154 -0.5335459 0.44189832 -0.123805664 -0.12111502 0.35492647 0.08667623 0.072842 -0.19525717 0.056558806 -0.16319823 0.056512713 -0.22034454 -0.09918194 -0.14516835 0.18700418 0.36984357 0.0051459917 0.12635209 -0.002221485 0.14301337 0.028287504 -0.028987281 -0.13847448 0.20342906 -0.4252517 0.023474092 -0.49423674 0.018418014 0.06357317 0.1475148 -0.17417476 -0.10805396 0.21332769 0.3778746 0.37560523 -0.38566613 0.08420645 -0.14961495 0.1152792 -0.06123458 -0.055394143 0.13452202 -0.3335068 0.13228163
1701 -0.13363262 -0.13309592 0.06312665 0.4070371 0.015042638 -0.06678316 0.45911992 -0.15246563 0.08568783 -0.25941354 -0.12810458 -0.498028 0.02488595 -0.21540026 -0.05997151 0.23978472 0.33892065 0.3358036 0.37000346 -0.14419667 -0.29430187 -0.25294718 0.33883488 -0.01682397 0.022766393 0.1713097 0.10320866 0.17276736 -0.059136197 0.118287735 0.02209187 0.08078174 0.017969247 -0.25566915 -0.010022358 0.004154055 0.02390845 -0.026477575 -0.22282095 -0.23003288 -0.13563752 -0.20546173 0.0007415604 -0.034264665 0.055659547 0.108660676 -0.35016802 0.2125665 -0.026239244 -0.40492943 -0.28442216 0.19095154 -0.009702321 0.26899067 -0.2863999 -0.13960294 0.3536867 0.29351616 -0.014057195 0.09781613 0.23436886 -0.21581693 0.10069445 0.03904237 0.16922252 -0.052344933 0.00031820673 0.39793357 0.5262739 -0.34877464 -0.10299647 -0.09491737 -0.042401187 0.07651617 -0.13401285 -0.0723549 0.27125067 0.34725478 -0.16318944 0.24059284 0.3234257 -0.18953109 -0.01219318 0.35678986 -0.19375381 0.042231753 -0.09879409 -0.14912982 -0.2427612 -0.12550226 -0.16641428 0.148571 -0.097408645 0.36881647 0.03963777 -0.3827118 -0.3216692 0.14955945 0.16656566 0.07807945 -0.16698478 0.28911975 0.1282904 0.2706181 -0.27696767 0.17626908 -0.01209147 0.093359545 -0.20802675 0.12995525 -0.14238186 -0.20454466 0.14284694 -0.080411285 0.08937516 -0.14222534 0.28114524 -0.038268495 -0.07641405 -0.24325493 0.06710841 -0.102850795 -0.51222 -0.07266937 0.10796173 -0.054673925 -0.099620745 0.002240441
14 0.110535614 0.28708798 0.21350566 0.08778102 0.07551396 -0.0029950673 0.49864742 0.09904232 0.3828356 0.046389826 -0.8974944 -0.31558466 -0.45420137 -0.029330524 0.30587316 -0.4558235 -0.07931912 -0.1196556 -0.0024888145 -0.088901415 -0.057369456 -0.05237525 0.44045654 0.28033745 -0.35428602 0.39888537 -0.38879192 -0.2527359 0.14264794 0.25040272 -0.1676281 -0.011298661 -0.08103782 0.20483464 -0.19976312 -0.25110742 -0.109852344 0.06197167 0.010844742 -0.011223659 -0.43563485 0.40154225 0.08109789 -0.25424922 -0.2999086 0.15794805 -0.34648624 -0.27693164 0.47941798 -0.13254401 -0.9379117 0.098691404 0.33572564 0.18477695 -0.43127355 0.052033495 0.2208479 -0.1638453 0.04019313 0.22026229 0.28111082 0.43697947 -0.24707867 -0.0020480063 0.011545786 -0.079667576 0.066898316 0.49345708 0.28638053 -0.43756363 -0.041173454 0.44710216 -0.12258911 0.15405461 -0.48926753 -0.30202374 0.341857 0.4432093 -0.09039096 0.93142366 -0.28776166 -0.08094853 -0.1933516 0.23255558 -0.2801412 0.58073205 0.27480146 -0.050384507 -0.31052372 -0.25173694 0.10481394 -0.010214872 0.22328325 0.16935505 0.41761395 -0.06429684 -0.30488983 -0.034767035 -0.022560943 0.43579093 -0.043900736 0.3099026 -0.16041529 -0.1112182 0.11429727 0.32889268 -0.06045541 0.21174662 -0.024737187 -0.1343232 -0.43177578 -0.25009614 0.28499854 -0.07060556 -0.092961654 -0.29643065 0.19014755 0.18910731 0.5374108 0.045234572 -0.5167546 -0.42735368 -0.49099073 0.37584427 0.14332244 0.35520706 0.49714255 0.24475929
2034 0.28762805 0.36626118 0.076571964 0.17235377 0.102737255 -0.19156499 0.40790418 -0.02951862 0.41343498 0.26049757 -0.3291656 -0.25101772 -0.21012634 0.123226374 -0.13285743 -0.08361473 0.056546953 -0.1281939 0.03723049 0.24091338 -0.106166326 -0.10686176 0.58648735 0.14920142 -0.25038013 0.24421184 0.04369641 0.19228795 -0.23652242 -0.06886743 -0.5074278 0.0045883544 0.11593042 -0.02345308 -0.036266357 -0.46528164 -0.43692777 0.047468677 0.11497354 0.16157858 -0.3730579 0.081983276 -0.15639193 -0.06236813 -0.26765206 0.05240906 -0.43741044 -0.30830204 0.31218156 -0.028784854 -0.5253798 -0.043506775 0.08564945 -0.19036834 -0.38958287 0.22648814 0.1584685 -0.122816615 0.08248431 0.33221823 -0.055792756 0.3534671 -0.03629213 0.15946364 -0.4632269 -0.22022657 -0.083709575 -0.04590827 0.04601347 -0.23769501 0.15041721 0.3309855 -0.093393736 0.19175576 -0.09661269 -0.53796846 0.35223305 -0.00774369 -0.03031979 0.45217276 -0.059405968 0.0041067624 0.032194294 0.13331221 -0.10881295 0.20430018 0.072722964 0.08802948 -0.17590271 -0.25418636 -0.018045014 -0.08083642 0.1753553 -0.04192611 -0.25171435 0.035239197 0.17198643 -0.0038796451 0.16853365 0.2996604 0.058951262 0.3212795 -0.18278657 -0.28201607 -0.19157347 0.10228522 -0.32603425 0.103701375 -0.084207274 0.04589401 -0.21147895 0.11150579 0.48807865 -0.17217329 -0.21705917 -0.27030367 -0.2559312 0.13918847 0.32733226 -0.051741153 -0.23366968 -0.36581028 -0.18346687 0.032394517 0.15561996 -0.122586206 0.28836346 0.19294187
2075 0.051326845 0.18153423 0.29082268 -0.20019032 -0.13343005 -0.138013 0.45478556 0.1303976 0.23353 -0.15362321 -1.1162922 -0.1554337 -0.28583473 0.029036013 0.31152672 -0.68060714 0.021594452 -0.15599033 -0.12739623 -0.111646265 0.12193176 0.1965986 0.36663777 0.13270698 -0.18832558 0.34845257 -0.45894647 -0.5985587 0.3103175 0.5968637 0.09053946 0.19855902 -0.32525888 0.28909585 -0.102194905 0.06996281 -0.022534233 0.009053024 0.17046951 0.21947786 -0.33682132 0.5436049 -0.08102544 -0.41786844 -0.13302705 0.21400444 -0.33848938 -0.08680443 0.5298676 -0.011939249 -1.2596262 -0.01435173 0.51847035 0.2565593 -0.30133083 -0.0068620876 0.31162855 -0.19016302 0.20471013 0.08683876 0.48571977 0.33014092 -0.31412315 -0.068883516 0.2531866 0.112877496 0.1670533 0.6123349 0.26877764 -0.2827044 -0.1219275 0.15185668 -0.0824119 0.06537879 -0.43773267 -0.22700956 0.34765327 0.5666009 0.005674695 0.8838171 -0.28278798 -0.003267954 -0.17325051 0.2650418 -0.18063605 0.87905085 0.22800966 0.060686685 -0.47930145 -0.15359806 0.003727233 -0.010825798 0.34591416 0.0878545 0.7189588 0.036476232 -0.328998 -0.3090208 0.09605444 0.5877071 -0.12295099 0.32462135 -0.1425628 -0.04770679 0.06998618 0.3545661 0.35097596 0.21354091 0.0039799907 -0.4131246 -0.507498 -0.15684345 0.17165698 0.12281996 -0.15208617 -0.040323008 0.293206 0.45459288 0.5615783 0.119965896 -0.5061562 -0.2800475 -0.39528316 0.37372196 0.044673968 0.5495838 0.52126724 0.1655933
158 0.12499232 0.17125091 0.2053203 0.071443476 -0.020942518 -0.15260184 0.5828436 0.082836315 0.23675044 0.205001 -0.43179524 -0.41796568 -0.4084573 -0.13442194 -0.0188141 -0.18298224 -0.05258066 0.04005011 0.07592273 0.08889834 -0.036966663 -0.053061392 0.49002385 0.28466016 -0.1160699 0.35827038 -0.048251826 -0.012577042 -0.15764272 0.22132999 -0.21749257 0.052804142 -0.049287926 -0.018238364 -0.28164604 -0.16712427 -0.31911325 -0.088686325 -0.04036709 -0.13982403 -0.29225135 0.26185292 0.065134645 -0.20958927 -0.13086256 -0.03324487 -0.42515454 -0.13846208 0.017063653 -0.2023664 -0.70267206 0.18294033 0.0991372 0.24441658 -0.46168947 -0.060591858 0.4304504 -0.10189102 0.16889793 0.25552082 0.24088594 0.15156627 -0.2569 0.059032045 -0.0759695 -0.18239416 -0.04323815 0.36801013 0.29659376 -0.41003844 -0.029851897 0.21964961 -0.068243675 0.16798736 -0.38094965 -0.30632314 0.45344207 0.24258949 -0.15301242 0.5576469 -0.106853746 -0.014403238 -0.103513144 0.38152602 -0.21507251 0.42367476 0.12843958 -0.1161884 -0.55822855 -0.23177262 -0.09120295 -0.100358315 0.35936758 0.09870305 0.07856641 -0.20960881 -0.346477 0.117461994 0.12215121 0.46456188 -0.037233584 0.4360441 -0.15686436 0.13708708 -0.05661824 0.39558014 -0.06903928 0.2692322 0.085378796 -0.2068151 -0.5110032 -0.31452808 0.32822788 0.070537925 -0.10464296 -0.2781657 0.25930637 0.030976648 0.24616732 -0.039616887 -0.52980506 -0.3314492 -0.3748674 0.19398098 0.25097245 0.01927019 0.26663527 0.13897456
2077 0.18987186 0.5523527 0.32026806 -0.062944405 -0.09854745 -0.03717851 0.2408741 0.1941865 0.36529875 -0.2371471 -0.9839831 -0.22969022 -0.40256995 -0.005501086 0.46003678 -0.6267836 -0.020266594 -0.31304702 -0.14276774 -0.16475385 0.037005186 0.10239995 0.40794268 0.1730888 -0.28913528 0.2950324 -0.43206695 -0.6435632 0.21820977 0.40038604 0.0131899025 0.13015456 -0.12902988 0.29997656 -0.14616632 -0.05041613 -0.0031707305 0.24403907 0.10227168 0.46444356 -0.57729584 0.4473983 0.1872811 -0.31746727 -0.19917552 0.03197603 -0.35065687 -0.31253326 0.5085063 -0.2283652 -1.1469053 -0.009258195 0.50329876 0.31091547 -0.37277198 -0.13021521 0.1285726 -0.049109433 0.21985644 0.20989008 0.2566216 0.24122041 -0.3290033 0.018589906 0.11682063 0.094458535 0.21987644 0.52488196 0.46485892 -0.2456984 -0.15861349 0.26114076 -0.1090409 0.026051426 -0.14316538 0.052975863 0.30565855 0.5408182 0.007496373 0.9216128 -0.22898334 -0.13800915 -0.23918894 0.13958561 -0.3526324 0.7948321 0.2891366 -0.06664319 -0.6197461 -0.16438475 0.1886709 -0.06838531 0.21873124 -0.20376459 0.6029241 -0.0249191 -0.32989419 -0.06766091 0.22608833 0.37989852 -0.22093827 0.40094948 -0.090342626 -0.1533398 0.10387815 0.2808569 0.17031474 0.25558499 0.07275703 -0.22973734 -0.47628152 -0.24994709 0.019309696 0.0014405027 0.19733126 -0.074601136 0.412329 0.33207688 0.70874506 0.07892476 -0.3375772 -0.30022103 -0.38472673 0.23051083 0.03248173 0.53404015 0.40625328 0.34074712
2668 0.08832603 0.3480976 -0.009678848 -0.2422224 -0.16053718 -0.028114147 0.57533646 0.13805556 0.32385135 0.06924992 -0.993341 -0.15055631 -0.2621229 0.004846614 0.70303845 -0.6889125 -0.22729757 -0.27880913 -0.13855296 -0.19651398 0.17061698 0.08351662 0.4524412 0.31486124 -0.4524679 0.27299267 -0.558691 -0.5249889 0.3814507 0.5462496 0.0973295 -0.056684397 -0.0031060628 0.28170493 -0.1749732 -0.07685486 -0.027370162 0.20548853 -0.24802344 0.21647528 -0.43143043 0.56655765 -0.063243374 -0.20076098 0.11753058 0.2277595 -0.26058415 -0.1594817 0.4939855 -0.06249145 -1.1422435 0.0023275372 0.48798227 0.06675741 -0.21802828 -0.0057367166 0.27020013 -0.25061837 0.19008976 0.31304896 0.36910135 0.34118894 -0.26948392 -0.036698643 0.16851103 0.15407126 0.2772576 0.5910669 0.26608577 -0.39309508 -0.2859597 0.13472575 -0.09722535 -0.010972691 -0.3902464 0.12266221 0.17393474 0.76555955 -0.09182135 1.0495034 -0.13367037 -0.026696509 -0.15419802 0.08186364 -0.26395443 0.8116357 0.4157483 -0.06385218 -0.37512383 -0.3234739 -0.17001088 0.10637139 0.18171848 0.028618937 0.58815706 -0.14364855 -0.21145979 -0.13950804 0.114077955 0.43357754 -0.11854421 0.42127427 -0.21730745 -0.17401347 0.06865311 0.29388928 0.17175747 0.23913223 0.0745608 -0.28993243 -0.64195883 -0.34233892 0.0521814 0.028286954 0.105699934 -0.13156088 0.37707847 0.45588177 0.54814374 0.14455676 -0.50043833 -0.27955833 -0.52619076 0.3172111 -0.17267801 0.61258304 0.48126325 0.32188126
15 -0.45521024 0.75046206 -0.11448067 1.0262781 -0.45879206 0.4056918 0.8027514 0.21857275 0.02803142 -0.12506108 -0.44717225 0.082623295 0.13983402 -0.72942424 -0.088487774 0.28932795 0.028162211 -0.7619077 0.059859212 -0.009639008 0.2806508 0.40439403 -0.40962088 -0.09273854 -0.13829838 0.19620138 0.43082374 0.87495404 0.09032108 -0.07606884 0.5650721 -0.2655347 -0.53916544 -0.04691299 0.4026189 -0.06928209 0.11837851 0.2627503 -0.16755795 -0.17027248 0.63394034 0.20356014 1.3000863 0.67548317 0.22597024 0.13261005 -0.5369528 0.32111654 0.35632315 0.06344571 -0.67014086 -0.55684966 0.49306574 0.35991392 -0.62179315 0.13987057 -0.28616148 0.70476896 -0.14411888 -0.3583866 0.3359496 0.21880326 0.4676209 0.857942 0.09409788 -0.7883788 -0.38348773 0.7728856 -0.1850761 -0.027221471 0.24935398 -1.3023078 0.06697917 -0.23099016 -0.60232174 -0.7084808 0.5934488 -0.42452928 0.8802883 0.1253347 1.0169606 0.5215214 0.16136052 -0.9240101 -0.10991422 -0.1853964 -0.39578938 -0.7107679 0.19821115 -0.17105149 -0.31938562 -0.021213498 -1.5439634 0.046704497 -0.49308863 0.33493605 0.06886649 -0.016579214 0.4766343 -0.687008 -1.2793703 -0.019293517 0.064654276 0.6909504 -0.10643108 1.3206196 1.0305971 0.04028009 -0.23522824 0.6223348 -0.7028302 0.0553957 1.0912049 -0.84377164 0.07270673 -0.25328764 0.45525312 0.9194698 -0.001012406 -0.79161537 0.12706073 0.26121634 0.081455596 0.6865909 -0.04901567 0.3518294 0.62867534 0.29876986
2367 -0.41427085 0.7280423 -0.12736043 1.0725735 -0.34987596 0.42158028 0.73142713 0.049446955 0.063371465 -0.1253324 -0.26634824 0.01567323 0.05054283 -0.7767155 0.04166154 0.25638694 0.099115856 -0.76707506 0.11346291 -0.004741166 0.21624905 0.38782617 -0.30238083 -0.10855803 -0.14625067 0.013130881 0.6278932 0.9186838 -0.08592139 -0.032912306 0.28128397 -0.08258116 -0.563639 -0.13770095 0.33005017 -0.06562471 0.08967794 0.10867114 -0.15813242 -0.29975063 0.5630601 0.26827174 1.3126593 0.54942244 0.41836417 0.1801926 -0.46899134 0.20307547 0.28163508 0.11070268 -0.5912499 -0.49690038 0.47227302 0.59182525 -0.7171222 0.11809047 -0.13725284 0.740837 -0.18572241 -0.19645849 0.3278 0.19556862 0.43352774 0.9215937 0.06914505 -0.6715612 -0.35786876 0.68359685 -0.13892515 -0.1812152 0.25908238 -1.0989339 0.037931073 -0.02998419 -0.54993194 -0.41723195 0.25815386 -0.3931776 0.6703483 0.1461383 0.86206895 0.5476181 0.117731065 -0.9512417 -0.029514078 -0.40023515 -0.3828232 -0.55793095 0.020302888 -0.15272765 -0.33930463 -0.17917013 -1.2264427 0.18517639 -0.639371 0.2048412 0.3002225 -0.0034095964 0.6064922 -0.553737 -1.0638021 -0.024170557 -0.004731326 0.54824275 -0.07313841 1.159789 0.8270673 0.17632665 -0.17113227 0.4504697 -0.6129327 0.080380395 1.1908749 -0.78785634 0.14240664 -0.41530377 0.31284094 0.9150369 -0.08037178 -0.79610217 -0.19693504 0.2831338 0.08896211 0.46451515 0.13427149 0.122982174 0.5220966 0.24165544
1093 -0.5631854 0.8090575 -0.019561581 1.1120317 -0.40788326 0.6274025 0.9614831 0.11640282 -0.018985594 -0.086031996 -0.33088392 0.08594324 0.12887247 -0.77090776 -0.14027272 0.36606982 0.14364655 -0.6293393 0.08955152 -0.05297385 0.30049378 0.5156682 -0.3408238 -0.19122478 -0.18037048 0.18388012 0.35496208 0.9102417 0.18357845 0.015502708 0.51135176 -0.16295865 -0.58257097 -0.046872254 0.32489616 0.03392457 0.1860974 0.23048109 -0.18117385 -0.13947238 0.6150764 0.13535304 1.3181599 0.6291105 0.25707212 0.11380487 -0.5235336 0.20169987 0.4111491 0.035161536 -0.72552127 -0.48275247 0.38764358 0.32490686 -0.5193314 0.19280012 -0.13906826 0.49917787 -0.1613571 -0.29704136 0.41872764 0.15802611 0.60643643 0.848002 -0.11969977 -0.57617795 -0.5145757 0.7553056 -0.12524202 -0.1248725 0.36262614 -1.3184896 0.06262908 -0.1955289 -0.6100157 -0.6954077 0.84606624 -0.40171564 0.77664906 0.19422893 1.0375304 0.5082236 0.14617237 -0.92243004 -0.16707373 -0.27754906 -0.41803625 -0.6780986 0.121773 -0.20216006 -0.4713736 -0.07332685 -1.600331 0.0870846 -0.49218914 0.24118437 0.15855967 0.07204083 0.5173633 -0.7127278 -1.1890546 0.010665627 0.026684584 0.7070226 -0.029985012 1.4447306 0.9065688 0.043438166 -0.21322712 0.56498 -0.80757874 0.07240986 1.0919526 -0.8557507 0.06545574 -0.27263933 0.4834438 0.9492028 0.02977373 -0.81646067 0.1392587 0.30328506 0.07598728 0.66531575 -0.012020786 0.176904 0.5115408 0.30777887
1090 -0.49570492 0.8380708 -0.20817262 1.166689 -0.414009 0.41038263 0.81301135 0.118442126 -0.080284536 -0.13606335 -0.15852904 0.11967547 0.24555272 -0.73246765 -0.061054476 0.32091942 0.11207738 -0.81708777 0.08949101 -0.065707855 0.36505964 0.6246523 -0.29728773 -0.10544033 -0.20270939 0.2582545 0.40832648 0.9211807 0.11585881 0.057171132 0.35009345 -0.11420024 -0.55513287 0.062260207 0.3732273 0.13161351 0.1597347 0.29223058 -0.24520437 -0.18839973 0.5356976 0.24515219 1.2403668 0.612386 0.35351962 0.33807167 -0.5004731 0.19257936 0.33879083 0.12383624 -0.7012819 -0.48251805 0.39291692 0.41603193 -0.47221422 0.15555243 -0.07392572 0.5826445 -0.079366 -0.28122523 0.34646016 0.2602288 0.5024107 0.8350735 0.026786463 -0.6436255 -0.4668515 0.8599666 -0.03919582 -0.086814195 0.23731396 -1.276796 0.0014846199 -0.17091364 -0.5016131 -0.67897576 0.63187474 -0.41458988 0.77966845 0.24966514 1.0362175 0.5218763 0.2292106 -0.7310214 -0.19066535 -0.29052106 -0.33480486 -0.6037596 0.0846686 -0.19162017 -0.3661368 -0.16523986 -1.4987091 0.19298483 -0.66343874 0.2012942 0.08543111 -0.052710894 0.51803803 -0.67502075 -1.1301982 0.047011722 -0.010639377 0.7313186 -0.10965408 1.3375536 0.75732535 0.06286836 -0.1533595 0.5515558 -0.6620037 0.08709731 1.0910906 -0.81037235 0.074165806 -0.34512356 0.33725718 1.0010533 0.21749887 -0.83675367 0.044930417 0.17342915 0.083778016 0.74308556 0.19251251 0.2628248 0.5245229 0.39872578
1271 -0.49066457 0.7352673 -0.17726943 1.0929321 -0.4329327 0.47447908 0.8926824 0.1119718 0.01047963 -0.041069854 -0.2669197 0.059505947 0.2735453 -0.84370184 -0.16783573 0.381744 0.07928482 -0.659677 0.061868742 -0.05329774 0.2814438 0.43239778 -0.28899157 -0.10136437 -0.226047 0.09660424 0.3512234 0.95462286 0.24279745 -0.16651548 0.47846535 -0.24220714 -0.58802974 -0.0635555 0.3110014 -0.032267362 0.17832255 0.14173722 -0.20177902 -0.16992255 0.5936806 0.19756459 1.3540205 0.628279 0.18524659 0.19821316 -0.5950297 0.2778189 0.31928712 0.075736165 -0.7111786 -0.5025223 0.4219452 0.33863828 -0.49895385 0.18077357 -0.25673446 0.65889823 -0.19176492 -0.27418548 0.33273697 0.26100522 0.5112997 0.86286664 -0.038530536 -0.73426044 -0.5397967 0.7342061 -0.17335694 -0.06437555 0.33494595 -1.324653 0.036574546 -0.34580854 -0.62484133 -0.65595025 0.7751049 -0.4653529 0.6723435 0.1219596 0.99659747 0.5319695 0.14639801 -0.87319314 -0.06805164 -0.12304201 -0.3646061 -0.67097104 0.22825475 -0.17951001 -0.41912878 -0.118796386 -1.6139708 0.08193538 -0.62255764 0.14926843 0.097806476 0.0009558324 0.456797 -0.7131673 -1.2607098 -0.045798685 0.10830095 0.70957303 -0.041636318 1.359911 0.8776161 0.056663528 -0.19644651 0.62491816 -0.7161003 0.114753075 1.0759174 -0.8990847 -0.009444638 -0.24576853 0.43213418 0.99651563 -0.022196623 -0.8799072 0.19684456 0.28355402 0.108965695 0.68221897 -0.005862106 0.17428857 0.53866863 0.30158126
16 0.25318268 0.021035122 0.39890298 0.34480613 0.536716 0.68004125 0.1977 0.2776486 -0.48980406 0.12210844 -0.21694064 0.35659128 0.20904027 0.3768617 -0.246189 0.21652485 0.1983501 -0.13102415 0.15511185 -0.6696979 -0.30001718 0.682632 -0.18232596 0.029498627 0.15196313 0.11636371 -0.4320716 0.06846895 0.0064826054 0.29029694 0.45360202 -0.23596555 -0.21377061 -0.11651433 0.021873116 0.25888908 -0.33167547 0.48751906 0.061872177 0.27768165 -0.17180136 0.64804876 0.030900061 0.4195622 -0.47726336 0.42781442 -0.20476873 -0.1834276 0.3092094 -0.34442508 0.59585524 0.42557338 0.43878686 0.18003093 0.26413423 0.6156358 0.031114386 0.35777885 0.5124723 0.0783995 0.17567952 0.118526205 -1.1583586 0.013669417 0.23687983 -0.25716844 0.45025373 0.21080284 0.45149463 0.027616099 -0.11748519 0.66049314 -0.41676146 0.68025094 -0.6672636 0.29473412 -0.4163322 0.39395586 -0.2047135 0.1058088 0.3938544 -0.4173554 -0.3582244 -0.4114251 0.45028824 0.4929386 -0.39068478 -0.11817864 -0.06169468 1.0388534 -0.42021167 0.22844996 0.14838216 0.2977297 -0.61415493 -0.20946349 -0.19243036 0.045953587 -0.07344183 -0.111382574 -0.4018197 0.21055745 -0.31940883 -0.38252154 -0.37403548 0.26793003 -0.079919204 0.059839696 -0.33058527 0.1601273 -0.21303327 0.2030843 -0.006609777 0.23503421 -0.13725986 -0.26378384 0.23066598 -0.0402518 0.33865014 -0.4117545 -0.019166278 -0.6629136 0.27497813 0.3806933 0.022775322 -0.3393176 -0.16255409 -0.90040547
2444 -0.15480469 -0.04880836 0.5884394 0.16954468 0.60061234 0.4137596 -0.20690018 0.02435488 -0.4254429 -0.06213576 -0.5509886 0.36541647 0.13527162 0.33664808 -0.45622718 -0.05809197 0.31534034 0.033279315 0.39127788 -0.4521506 -0.6181208 0.44594896 0.29878742 -0.28436807 0.27525842 -0.32584193 -0.066939235 0.2905229 0.37432492 0.26450175 0.18349752 0.13426816 -0.1101769 -0.2725954 0.23872119 0.35452843 -0.26879942 0.26494026 0.44021675 0.104846925 -0.34621716 0.364815 0.25022122 0.06772989 -0.22356986 0.3119493 -0.3847732 -0.37997273 0.04924817 -0.35609257 0.38422397 0.35057786 0.35976642 0.08676447 -0.060640965 0.37043154 0.109977 0.2616633 0.45532882 0.15787572 0.14631784 0.26629218 -1.0182489 0.08736354 0.29341954 -0.28396043 0.23151486 -0.109857954 0.3233707 -0.18915766 0.0082048485 0.3463186 -0.100391686 0.44619846 -0.37731886 0.47317487 -0.17158619 0.49444395 0.11388035 0.2069216 -0.22398323 -0.18953855 -0.47525206 -0.15993334 0.3203825 0.39972094 -0.5849982 -0.16061015 -0.212243 0.6815593 0.07085842 0.23668939 0.053085335 0.015652312 -0.4834227 0.09783691 0.008988492 0.004423263 0.038625535 -0.22090179 -0.47762537 0.07292489 -0.40797794 -0.050555836 -0.32063755 0.17021511 -0.0807212 -0.09311077 -0.31288993 0.40326765 -0.42408642 0.24855144 -0.14565133 0.36624482 -0.052727602 -0.0960985 0.36394334 0.15130644 -0.009710937 -0.34305298 0.11256479 -0.5717483 0.32975656 0.13057208 -0.20781538 -0.17406078 -0.0054194904 -0.58210313
1632 0.3329967 0.005115055 0.28686285 0.20716462 0.46715555 0.6570863 0.3851933 0.39595234 -0.39308465 -0.0046947524 -0.16665417 -0.13556764 0.32766056 0.3810242 -0.060410433 0.29706767 0.076794595 -0.3865972 0.20870025 -0.850292 0.0012712725 0.56515086 -0.29149845 0.12883948 0.19603893 0.30753472 -0.33216995 -0.04502562 -0.041781627 0.21492048 0.5120278 -0.25255826 -0.3442068 -0.25986093 0.02871679 0.20335717 -0.013484291 0.33563194 0.1729256 0.18570143 -0.17629069 0.7791165 -0.15175144 0.5325144 -0.4769362 0.42202246 -0.13094373 -0.11193017 0.36072624 -0.4821106 0.5016167 0.3124121 0.34174475 -0.0396942 0.066919364 0.31735668 0.094521314 0.32323173 0.3335165 0.14617637 -0.014193357 0.29980892 -1.1544229 -0.0020238678 0.20375781 -0.3551383 0.3584111 0.23220092 0.44593558 -0.0872536 -0.09087638 0.57626563 -0.44777375 0.6966468 -0.56594 0.32421675 -0.46177864 0.4800929 -0.17199688 -0.00072922197 0.5529367 -0.31382376 -0.20262069 -0.5548755 0.62277704 0.38544002 -0.41244945 0.00037334173 -0.090148695 0.8061664 -0.54909694 -0.024460949 -0.019029595 0.24165107 -0.32852665 -0.10028256 -0.23312704 0.11184587 -0.23507366 -0.1876483 -0.4060313 0.03503859 -0.11112217 -0.29741773 -0.46605948 0.3933754 -0.20513664 0.22549047 -0.012116566 0.13451271 -0.05494624 0.16735855 -0.01860051 0.12529315 -0.048423957 -0.16368183 0.18205053 0.07738469 0.5487935 -0.3961164 -0.047598273 -0.7437826 0.33472022 0.31044307 0.19185282 -0.2627651 -0.3165131 -0.8088488
970 0.30522266 0.15478346 0.1298846 -0.056279194 0.16933745 0.595617 0.26857895 0.06342803 -0.41434383 0.16004762 -0.21268715 0.059903916 0.37227052 0.19759193 0.07294723 0.0060254643 0.23668793 -0.33620653 -0.05279295 -0.33957452 -0.2313419 0.23109731 -0.026392542 0.31856552 0.31957692 0.03414414 -0.417649 0.22964141 -0.09193167 0.41679922 0.5064124 -0.45039365 -0.20341705 -0.03363085 0.18675677 -0.030636568 -0.23334178 0.36214536 -0.09824999 -0.08048598 -0.17640424 0.2841908 -0.106536224 0.4713742 -0.5009511 -0.02181966 -0.17177826 0.12464417 0.41239244 -0.111510135 0.2454943 0.13758327 0.27467823 0.15975519 0.13131994 0.32678917 0.02322952 0.2501171 0.13678746 -0.13347507 0.21344241 0.07768354 -0.9267391 0.037457574 0.009720984 -0.23312598 0.19290298 0.22454499 0.25208947 0.11386816 -0.35143557 0.2551098 -0.39319506 0.4157169 -0.58685595 0.10897724 -0.06379652 0.2562658 -0.2778664 -0.13563539 0.1567888 -0.64643013 -0.04750119 -0.2829694 0.30938476 0.16128632 -0.36157382 -0.11447451 0.04000901 0.71850836 -0.28795937 0.06681503 0.1622385 0.35087633 -0.44581437 -0.29317278 -0.070621185 0.20956692 -0.019114977 0.030852517 -0.32372475 0.21992901 0.11435662 -0.623952 -0.2942471 0.2752342 0.00259475 0.17528608 0.04888649 0.21108226 -0.16846985 0.31729117 0.10363502 0.42051178 -0.20992185 -0.0077046384 0.26454815 -0.30349758 0.28034928 -0.41249582 -0.083402686 -0.41832474 0.17382275 0.37919426 0.12974657 -0.42830336 0.03441908 -0.5437236
2642 0.28184614 -0.03590979 0.19156729 0.37143242 0.541784 0.58409286 0.43027288 0.43803397 -0.32463402 -0.1257824 -0.19094275 -0.02102929 0.43161944 0.46446034 -0.10229157 0.17230944 0.23214808 -0.20631991 0.1811712 -0.7956768 -0.0134051 0.47748822 -0.38715518 0.2786109 0.053628102 0.48044243 -0.41959608 -0.030513 -0.19063838 0.21998543 0.512257 -0.31289822 -0.3900302 -0.16343775 -0.11823526 0.3132101 -0.0005285264 0.3443807 -0.15583858 0.35366833 -0.19288856 0.93822247 -0.19648194 0.56580895 -0.56401706 0.412116 -0.03190186 -0.2640763 0.34312463 -0.41018936 0.78463507 0.59722 0.36384308 -0.11022593 0.15636076 0.44604078 0.08830129 0.2737953 0.5908122 0.18215276 -0.10601539 0.2631531 -1.0616531 -0.08798232 0.17798685 -0.28426018 0.3503476 0.38146627 0.5046527 0.024269646 -0.2308899 0.7651181 -0.5427043 0.6512984 -0.61933154 0.2991995 -0.36517087 0.5503461 -0.20261332 0.18411812 0.5104257 -0.30479208 -0.1843407 -0.5961012 0.5639885 0.41811743 -0.3800455 -0.2540068 -0.054414093 0.82760954 -0.56684875 -0.04463111 -0.041752484 0.21635725 -0.38473693 -0.19089362 -0.2991229 0.030635195 -0.3325 -0.2244883 -0.5288975 0.09679856 -0.029306307 -0.33664766 -0.4488325 0.3313432 -0.11653982 -0.14288585 -0.04568122 0.3176239 -0.11209063 0.182158 0.079885386 -0.05722227 0.032201987 -0.35037118 0.40372133 0.099757664 0.61407506 -0.49702123 -0.16015685 -0.8126986 0.3489595 0.44900575 0.12850036 -0.3778602 -0.46703407 -0.9093572
